FANN_FLO_2.1
num_layers=3
learning_rate=0.000100
connection_rate=1.000000
network_type=0
learning_momentum=0.000000
training_algorithm=2
train_error_function=1
train_stop_function=0
cascade_output_change_fraction=0.010000
quickprop_decay=-0.000100
quickprop_mu=1.750000
rprop_increase_factor=1.200000
rprop_decrease_factor=0.500000
rprop_delta_min=0.000000
rprop_delta_max=50.000000
rprop_delta_zero=0.100000
cascade_output_stagnation_epochs=12
cascade_candidate_change_fraction=0.010000
cascade_candidate_stagnation_epochs=12
cascade_max_out_epochs=150
cascade_max_cand_epochs=150
cascade_num_candidate_groups=2
bit_fail_limit=3.49999999999999977796e-01
cascade_candidate_limit=1.00000000000000000000e+03
cascade_weight_multiplier=4.00000000000000022204e-01
cascade_activation_functions_count=10
cascade_activation_functions=3 5 7 8 10 11 14 15 16 17 
cascade_activation_steepnesses_count=4
cascade_activation_steepnesses=2.50000000000000000000e-01 5.00000000000000000000e-01 7.50000000000000000000e-01 1.00000000000000000000e+00 
layer_sizes=10 501 7 
scale_included=0
neurons (num_inputs, activation_function, activation_steepness)=(0, 0, 0.00000000000000000000e+00) (0, 0, 0.00000000000000000000e+00) (0, 0, 0.00000000000000000000e+00) (0, 0, 0.00000000000000000000e+00) (0, 0, 0.00000000000000000000e+00) (0, 0, 0.00000000000000000000e+00) (0, 0, 0.00000000000000000000e+00) (0, 0, 0.00000000000000000000e+00) (0, 0, 0.00000000000000000000e+00) (0, 0, 0.00000000000000000000e+00) (10, 5, 5.00000000000000000000e-01) (10, 5, 5.00000000000000000000e-01) (10, 5, 5.00000000000000000000e-01) (10, 5, 5.00000000000000000000e-01) (10, 5, 5.00000000000000000000e-01) (10, 5, 5.00000000000000000000e-01) (10, 5, 5.00000000000000000000e-01) (10, 5, 5.00000000000000000000e-01) (10, 5, 5.00000000000000000000e-01) (10, 5, 5.00000000000000000000e-01) (10, 5, 5.00000000000000000000e-01) (10, 5, 5.00000000000000000000e-01) (10, 5, 5.00000000000000000000e-01) (10, 5, 5.00000000000000000000e-01) (10, 5, 5.00000000000000000000e-01) (10, 5, 5.00000000000000000000e-01) (10, 5, 5.00000000000000000000e-01) (10, 5, 5.00000000000000000000e-01) (10, 5, 5.00000000000000000000e-01) (10, 5, 5.00000000000000000000e-01) (10, 5, 5.00000000000000000000e-01) (10, 5, 5.00000000000000000000e-01) (10, 5, 5.00000000000000000000e-01) (10, 5, 5.00000000000000000000e-01) (10, 5, 5.00000000000000000000e-01) (10, 5, 5.00000000000000000000e-01) (10, 5, 5.00000000000000000000e-01) (10, 5, 5.00000000000000000000e-01) (10, 5, 5.00000000000000000000e-01) (10, 5, 5.00000000000000000000e-01) (10, 5, 5.00000000000000000000e-01) (10, 5, 5.00000000000000000000e-01) (10, 5, 5.00000000000000000000e-01) (10, 5, 5.00000000000000000000e-01) (10, 5, 5.00000000000000000000e-01) (10, 5, 5.00000000000000000000e-01) (10, 5, 5.00000000000000000000e-01) (10, 5, 5.00000000000000000000e-01) (10, 5, 5.00000000000000000000e-01) (10, 5, 5.00000000000000000000e-01) (10, 5, 5.00000000000000000000e-01) (10, 5, 5.00000000000000000000e-01) (10, 5, 5.00000000000000000000e-01) (10, 5, 5.00000000000000000000e-01) (10, 5, 5.00000000000000000000e-01) (10, 5, 5.00000000000000000000e-01) (10, 5, 5.00000000000000000000e-01) (10, 5, 5.00000000000000000000e-01) (10, 5, 5.00000000000000000000e-01) (10, 5, 5.00000000000000000000e-01) (10, 5, 5.00000000000000000000e-01) (10, 5, 5.00000000000000000000e-01) (10, 5, 5.00000000000000000000e-01) (10, 5, 5.00000000000000000000e-01) (10, 5, 5.00000000000000000000e-01) (10, 5, 5.00000000000000000000e-01) (10, 5, 5.00000000000000000000e-01) (10, 5, 5.00000000000000000000e-01) (10, 5, 5.00000000000000000000e-01) (10, 5, 5.00000000000000000000e-01) (10, 5, 5.00000000000000000000e-01) (10, 5, 5.00000000000000000000e-01) (10, 5, 5.00000000000000000000e-01) (10, 5, 5.00000000000000000000e-01) (10, 5, 5.00000000000000000000e-01) (10, 5, 5.00000000000000000000e-01) (10, 5, 5.00000000000000000000e-01) (10, 5, 5.00000000000000000000e-01) (10, 5, 5.00000000000000000000e-01) (10, 5, 5.00000000000000000000e-01) (10, 5, 5.00000000000000000000e-01) (10, 5, 5.00000000000000000000e-01) (10, 5, 5.00000000000000000000e-01) (10, 5, 5.00000000000000000000e-01) (10, 5, 5.00000000000000000000e-01) (10, 5, 5.00000000000000000000e-01) (10, 5, 5.00000000000000000000e-01) (10, 5, 5.00000000000000000000e-01) (10, 5, 5.00000000000000000000e-01) (10, 5, 5.00000000000000000000e-01) (10, 5, 5.00000000000000000000e-01) (10, 5, 5.00000000000000000000e-01) (10, 5, 5.00000000000000000000e-01) (10, 5, 5.00000000000000000000e-01) (10, 5, 5.00000000000000000000e-01) (10, 5, 5.00000000000000000000e-01) (10, 5, 5.00000000000000000000e-01) (10, 5, 5.00000000000000000000e-01) (10, 5, 5.00000000000000000000e-01) (10, 5, 5.00000000000000000000e-01) (10, 5, 5.00000000000000000000e-01) (10, 5, 5.00000000000000000000e-01) (10, 5, 5.00000000000000000000e-01) (10, 5, 5.00000000000000000000e-01) (10, 5, 5.00000000000000000000e-01) (10, 5, 5.00000000000000000000e-01) (10, 5, 5.00000000000000000000e-01) (10, 5, 5.00000000000000000000e-01) (10, 5, 5.00000000000000000000e-01) (10, 5, 5.00000000000000000000e-01) (10, 5, 5.00000000000000000000e-01) (10, 5, 5.00000000000000000000e-01) (10, 5, 5.00000000000000000000e-01) (10, 5, 5.00000000000000000000e-01) (10, 5, 5.00000000000000000000e-01) (10, 5, 5.00000000000000000000e-01) (10, 5, 5.00000000000000000000e-01) (10, 5, 5.00000000000000000000e-01) (10, 5, 5.00000000000000000000e-01) (10, 5, 5.00000000000000000000e-01) (10, 5, 5.00000000000000000000e-01) (10, 5, 5.00000000000000000000e-01) (10, 5, 5.00000000000000000000e-01) (10, 5, 5.00000000000000000000e-01) (10, 5, 5.00000000000000000000e-01) (10, 5, 5.00000000000000000000e-01) (10, 5, 5.00000000000000000000e-01) (10, 5, 5.00000000000000000000e-01) (10, 5, 5.00000000000000000000e-01) (10, 5, 5.00000000000000000000e-01) (10, 5, 5.00000000000000000000e-01) (10, 5, 5.00000000000000000000e-01) (10, 5, 5.00000000000000000000e-01) (10, 5, 5.00000000000000000000e-01) (10, 5, 5.00000000000000000000e-01) (10, 5, 5.00000000000000000000e-01) (10, 5, 5.00000000000000000000e-01) (10, 5, 5.00000000000000000000e-01) (10, 5, 5.00000000000000000000e-01) (10, 5, 5.00000000000000000000e-01) (10, 5, 5.00000000000000000000e-01) (10, 5, 5.00000000000000000000e-01) (10, 5, 5.00000000000000000000e-01) (10, 5, 5.00000000000000000000e-01) (10, 5, 5.00000000000000000000e-01) (10, 5, 5.00000000000000000000e-01) (10, 5, 5.00000000000000000000e-01) (10, 5, 5.00000000000000000000e-01) (10, 5, 5.00000000000000000000e-01) (10, 5, 5.00000000000000000000e-01) (10, 5, 5.00000000000000000000e-01) (10, 5, 5.00000000000000000000e-01) (10, 5, 5.00000000000000000000e-01) (10, 5, 5.00000000000000000000e-01) (10, 5, 5.00000000000000000000e-01) (10, 5, 5.00000000000000000000e-01) (10, 5, 5.00000000000000000000e-01) (10, 5, 5.00000000000000000000e-01) (10, 5, 5.00000000000000000000e-01) (10, 5, 5.00000000000000000000e-01) (10, 5, 5.00000000000000000000e-01) (10, 5, 5.00000000000000000000e-01) (10, 5, 5.00000000000000000000e-01) (10, 5, 5.00000000000000000000e-01) (10, 5, 5.00000000000000000000e-01) (10, 5, 5.00000000000000000000e-01) (10, 5, 5.00000000000000000000e-01) (10, 5, 5.00000000000000000000e-01) (10, 5, 5.00000000000000000000e-01) (10, 5, 5.00000000000000000000e-01) (10, 5, 5.00000000000000000000e-01) (10, 5, 5.00000000000000000000e-01) (10, 5, 5.00000000000000000000e-01) (10, 5, 5.00000000000000000000e-01) (10, 5, 5.00000000000000000000e-01) (10, 5, 5.00000000000000000000e-01) (10, 5, 5.00000000000000000000e-01) (10, 5, 5.00000000000000000000e-01) (10, 5, 5.00000000000000000000e-01) (10, 5, 5.00000000000000000000e-01) (10, 5, 5.00000000000000000000e-01) (10, 5, 5.00000000000000000000e-01) (10, 5, 5.00000000000000000000e-01) (10, 5, 5.00000000000000000000e-01) (10, 5, 5.00000000000000000000e-01) (10, 5, 5.00000000000000000000e-01) (10, 5, 5.00000000000000000000e-01) (10, 5, 5.00000000000000000000e-01) (10, 5, 5.00000000000000000000e-01) (10, 5, 5.00000000000000000000e-01) (10, 5, 5.00000000000000000000e-01) (10, 5, 5.00000000000000000000e-01) (10, 5, 5.00000000000000000000e-01) (10, 5, 5.00000000000000000000e-01) (10, 5, 5.00000000000000000000e-01) (10, 5, 5.00000000000000000000e-01) (10, 5, 5.00000000000000000000e-01) (10, 5, 5.00000000000000000000e-01) (10, 5, 5.00000000000000000000e-01) (10, 5, 5.00000000000000000000e-01) (10, 5, 5.00000000000000000000e-01) (10, 5, 5.00000000000000000000e-01) (10, 5, 5.00000000000000000000e-01) (10, 5, 5.00000000000000000000e-01) (10, 5, 5.00000000000000000000e-01) (10, 5, 5.00000000000000000000e-01) (10, 5, 5.00000000000000000000e-01) (10, 5, 5.00000000000000000000e-01) (10, 5, 5.00000000000000000000e-01) (10, 5, 5.00000000000000000000e-01) (10, 5, 5.00000000000000000000e-01) (10, 5, 5.00000000000000000000e-01) (10, 5, 5.00000000000000000000e-01) (10, 5, 5.00000000000000000000e-01) (10, 5, 5.00000000000000000000e-01) (10, 5, 5.00000000000000000000e-01) (10, 5, 5.00000000000000000000e-01) (10, 5, 5.00000000000000000000e-01) (10, 5, 5.00000000000000000000e-01) (10, 5, 5.00000000000000000000e-01) (10, 5, 5.00000000000000000000e-01) (10, 5, 5.00000000000000000000e-01) (10, 5, 5.00000000000000000000e-01) (10, 5, 5.00000000000000000000e-01) (10, 5, 5.00000000000000000000e-01) (10, 5, 5.00000000000000000000e-01) (10, 5, 5.00000000000000000000e-01) (10, 5, 5.00000000000000000000e-01) (10, 5, 5.00000000000000000000e-01) (10, 5, 5.00000000000000000000e-01) (10, 5, 5.00000000000000000000e-01) (10, 5, 5.00000000000000000000e-01) (10, 5, 5.00000000000000000000e-01) (10, 5, 5.00000000000000000000e-01) (10, 5, 5.00000000000000000000e-01) (10, 5, 5.00000000000000000000e-01) (10, 5, 5.00000000000000000000e-01) (10, 5, 5.00000000000000000000e-01) (10, 5, 5.00000000000000000000e-01) (10, 5, 5.00000000000000000000e-01) (10, 5, 5.00000000000000000000e-01) (10, 5, 5.00000000000000000000e-01) (10, 5, 5.00000000000000000000e-01) (10, 5, 5.00000000000000000000e-01) (10, 5, 5.00000000000000000000e-01) (10, 5, 5.00000000000000000000e-01) (10, 5, 5.00000000000000000000e-01) (10, 5, 5.00000000000000000000e-01) (10, 5, 5.00000000000000000000e-01) (10, 5, 5.00000000000000000000e-01) (10, 5, 5.00000000000000000000e-01) (10, 5, 5.00000000000000000000e-01) (10, 5, 5.00000000000000000000e-01) (10, 5, 5.00000000000000000000e-01) (10, 5, 5.00000000000000000000e-01) (10, 5, 5.00000000000000000000e-01) (10, 5, 5.00000000000000000000e-01) (10, 5, 5.00000000000000000000e-01) (10, 5, 5.00000000000000000000e-01) (10, 5, 5.00000000000000000000e-01) (10, 5, 5.00000000000000000000e-01) (10, 5, 5.00000000000000000000e-01) (10, 5, 5.00000000000000000000e-01) (10, 5, 5.00000000000000000000e-01) (10, 5, 5.00000000000000000000e-01) (10, 5, 5.00000000000000000000e-01) (10, 5, 5.00000000000000000000e-01) (10, 5, 5.00000000000000000000e-01) (10, 5, 5.00000000000000000000e-01) (10, 5, 5.00000000000000000000e-01) (10, 5, 5.00000000000000000000e-01) (10, 5, 5.00000000000000000000e-01) (10, 5, 5.00000000000000000000e-01) (10, 5, 5.00000000000000000000e-01) (10, 5, 5.00000000000000000000e-01) (10, 5, 5.00000000000000000000e-01) (10, 5, 5.00000000000000000000e-01) (10, 5, 5.00000000000000000000e-01) (10, 5, 5.00000000000000000000e-01) (10, 5, 5.00000000000000000000e-01) (10, 5, 5.00000000000000000000e-01) (10, 5, 5.00000000000000000000e-01) (10, 5, 5.00000000000000000000e-01) (10, 5, 5.00000000000000000000e-01) (10, 5, 5.00000000000000000000e-01) (10, 5, 5.00000000000000000000e-01) (10, 5, 5.00000000000000000000e-01) (10, 5, 5.00000000000000000000e-01) (10, 5, 5.00000000000000000000e-01) (10, 5, 5.00000000000000000000e-01) (10, 5, 5.00000000000000000000e-01) (10, 5, 5.00000000000000000000e-01) (10, 5, 5.00000000000000000000e-01) (10, 5, 5.00000000000000000000e-01) (10, 5, 5.00000000000000000000e-01) (10, 5, 5.00000000000000000000e-01) (10, 5, 5.00000000000000000000e-01) (10, 5, 5.00000000000000000000e-01) (10, 5, 5.00000000000000000000e-01) (10, 5, 5.00000000000000000000e-01) (10, 5, 5.00000000000000000000e-01) (10, 5, 5.00000000000000000000e-01) (10, 5, 5.00000000000000000000e-01) (10, 5, 5.00000000000000000000e-01) (10, 5, 5.00000000000000000000e-01) (10, 5, 5.00000000000000000000e-01) (10, 5, 5.00000000000000000000e-01) (10, 5, 5.00000000000000000000e-01) (10, 5, 5.00000000000000000000e-01) (10, 5, 5.00000000000000000000e-01) (10, 5, 5.00000000000000000000e-01) (10, 5, 5.00000000000000000000e-01) (10, 5, 5.00000000000000000000e-01) (10, 5, 5.00000000000000000000e-01) (10, 5, 5.00000000000000000000e-01) (10, 5, 5.00000000000000000000e-01) (10, 5, 5.00000000000000000000e-01) (10, 5, 5.00000000000000000000e-01) (10, 5, 5.00000000000000000000e-01) (10, 5, 5.00000000000000000000e-01) (10, 5, 5.00000000000000000000e-01) (10, 5, 5.00000000000000000000e-01) (10, 5, 5.00000000000000000000e-01) (10, 5, 5.00000000000000000000e-01) (10, 5, 5.00000000000000000000e-01) (10, 5, 5.00000000000000000000e-01) (10, 5, 5.00000000000000000000e-01) (10, 5, 5.00000000000000000000e-01) (10, 5, 5.00000000000000000000e-01) (10, 5, 5.00000000000000000000e-01) (10, 5, 5.00000000000000000000e-01) (10, 5, 5.00000000000000000000e-01) (10, 5, 5.00000000000000000000e-01) (10, 5, 5.00000000000000000000e-01) (10, 5, 5.00000000000000000000e-01) (10, 5, 5.00000000000000000000e-01) (10, 5, 5.00000000000000000000e-01) (10, 5, 5.00000000000000000000e-01) (10, 5, 5.00000000000000000000e-01) (10, 5, 5.00000000000000000000e-01) (10, 5, 5.00000000000000000000e-01) (10, 5, 5.00000000000000000000e-01) (10, 5, 5.00000000000000000000e-01) (10, 5, 5.00000000000000000000e-01) (10, 5, 5.00000000000000000000e-01) (10, 5, 5.00000000000000000000e-01) (10, 5, 5.00000000000000000000e-01) (10, 5, 5.00000000000000000000e-01) (10, 5, 5.00000000000000000000e-01) (10, 5, 5.00000000000000000000e-01) (10, 5, 5.00000000000000000000e-01) (10, 5, 5.00000000000000000000e-01) (10, 5, 5.00000000000000000000e-01) (10, 5, 5.00000000000000000000e-01) (10, 5, 5.00000000000000000000e-01) (10, 5, 5.00000000000000000000e-01) (10, 5, 5.00000000000000000000e-01) (10, 5, 5.00000000000000000000e-01) (10, 5, 5.00000000000000000000e-01) (10, 5, 5.00000000000000000000e-01) (10, 5, 5.00000000000000000000e-01) (10, 5, 5.00000000000000000000e-01) (10, 5, 5.00000000000000000000e-01) (10, 5, 5.00000000000000000000e-01) (10, 5, 5.00000000000000000000e-01) (10, 5, 5.00000000000000000000e-01) (10, 5, 5.00000000000000000000e-01) (10, 5, 5.00000000000000000000e-01) (10, 5, 5.00000000000000000000e-01) (10, 5, 5.00000000000000000000e-01) (10, 5, 5.00000000000000000000e-01) (10, 5, 5.00000000000000000000e-01) (10, 5, 5.00000000000000000000e-01) (10, 5, 5.00000000000000000000e-01) (10, 5, 5.00000000000000000000e-01) (10, 5, 5.00000000000000000000e-01) (10, 5, 5.00000000000000000000e-01) (10, 5, 5.00000000000000000000e-01) (10, 5, 5.00000000000000000000e-01) (10, 5, 5.00000000000000000000e-01) (10, 5, 5.00000000000000000000e-01) (10, 5, 5.00000000000000000000e-01) (10, 5, 5.00000000000000000000e-01) (10, 5, 5.00000000000000000000e-01) (10, 5, 5.00000000000000000000e-01) (10, 5, 5.00000000000000000000e-01) (10, 5, 5.00000000000000000000e-01) (10, 5, 5.00000000000000000000e-01) (10, 5, 5.00000000000000000000e-01) (10, 5, 5.00000000000000000000e-01) (10, 5, 5.00000000000000000000e-01) (10, 5, 5.00000000000000000000e-01) (10, 5, 5.00000000000000000000e-01) (10, 5, 5.00000000000000000000e-01) (10, 5, 5.00000000000000000000e-01) (10, 5, 5.00000000000000000000e-01) (10, 5, 5.00000000000000000000e-01) (10, 5, 5.00000000000000000000e-01) (10, 5, 5.00000000000000000000e-01) (10, 5, 5.00000000000000000000e-01) (10, 5, 5.00000000000000000000e-01) (10, 5, 5.00000000000000000000e-01) (10, 5, 5.00000000000000000000e-01) (10, 5, 5.00000000000000000000e-01) (10, 5, 5.00000000000000000000e-01) (10, 5, 5.00000000000000000000e-01) (10, 5, 5.00000000000000000000e-01) (10, 5, 5.00000000000000000000e-01) (10, 5, 5.00000000000000000000e-01) (10, 5, 5.00000000000000000000e-01) (10, 5, 5.00000000000000000000e-01) (10, 5, 5.00000000000000000000e-01) (10, 5, 5.00000000000000000000e-01) (10, 5, 5.00000000000000000000e-01) (10, 5, 5.00000000000000000000e-01) (10, 5, 5.00000000000000000000e-01) (10, 5, 5.00000000000000000000e-01) (10, 5, 5.00000000000000000000e-01) (10, 5, 5.00000000000000000000e-01) (10, 5, 5.00000000000000000000e-01) (10, 5, 5.00000000000000000000e-01) (10, 5, 5.00000000000000000000e-01) (10, 5, 5.00000000000000000000e-01) (10, 5, 5.00000000000000000000e-01) (10, 5, 5.00000000000000000000e-01) (10, 5, 5.00000000000000000000e-01) (10, 5, 5.00000000000000000000e-01) (10, 5, 5.00000000000000000000e-01) (10, 5, 5.00000000000000000000e-01) (10, 5, 5.00000000000000000000e-01) (10, 5, 5.00000000000000000000e-01) (10, 5, 5.00000000000000000000e-01) (10, 5, 5.00000000000000000000e-01) (10, 5, 5.00000000000000000000e-01) (10, 5, 5.00000000000000000000e-01) (10, 5, 5.00000000000000000000e-01) (10, 5, 5.00000000000000000000e-01) (10, 5, 5.00000000000000000000e-01) (10, 5, 5.00000000000000000000e-01) (10, 5, 5.00000000000000000000e-01) (10, 5, 5.00000000000000000000e-01) (10, 5, 5.00000000000000000000e-01) (10, 5, 5.00000000000000000000e-01) (10, 5, 5.00000000000000000000e-01) (10, 5, 5.00000000000000000000e-01) (10, 5, 5.00000000000000000000e-01) (10, 5, 5.00000000000000000000e-01) (10, 5, 5.00000000000000000000e-01) (10, 5, 5.00000000000000000000e-01) (10, 5, 5.00000000000000000000e-01) (10, 5, 5.00000000000000000000e-01) (10, 5, 5.00000000000000000000e-01) (10, 5, 5.00000000000000000000e-01) (10, 5, 5.00000000000000000000e-01) (10, 5, 5.00000000000000000000e-01) (10, 5, 5.00000000000000000000e-01) (10, 5, 5.00000000000000000000e-01) (10, 5, 5.00000000000000000000e-01) (10, 5, 5.00000000000000000000e-01) (10, 5, 5.00000000000000000000e-01) (10, 5, 5.00000000000000000000e-01) (10, 5, 5.00000000000000000000e-01) (10, 5, 5.00000000000000000000e-01) (10, 5, 5.00000000000000000000e-01) (10, 5, 5.00000000000000000000e-01) (10, 5, 5.00000000000000000000e-01) (10, 5, 5.00000000000000000000e-01) (10, 5, 5.00000000000000000000e-01) (10, 5, 5.00000000000000000000e-01) (10, 5, 5.00000000000000000000e-01) (10, 5, 5.00000000000000000000e-01) (10, 5, 5.00000000000000000000e-01) (10, 5, 5.00000000000000000000e-01) (10, 5, 5.00000000000000000000e-01) (10, 5, 5.00000000000000000000e-01) (10, 5, 5.00000000000000000000e-01) (10, 5, 5.00000000000000000000e-01) (10, 5, 5.00000000000000000000e-01) (10, 5, 5.00000000000000000000e-01) (10, 5, 5.00000000000000000000e-01) (10, 5, 5.00000000000000000000e-01) (10, 5, 5.00000000000000000000e-01) (10, 5, 5.00000000000000000000e-01) (10, 5, 5.00000000000000000000e-01) (10, 5, 5.00000000000000000000e-01) (10, 5, 5.00000000000000000000e-01) (10, 5, 5.00000000000000000000e-01) (10, 5, 5.00000000000000000000e-01) (10, 5, 5.00000000000000000000e-01) (10, 5, 5.00000000000000000000e-01) (10, 5, 5.00000000000000000000e-01) (10, 5, 5.00000000000000000000e-01) (10, 5, 5.00000000000000000000e-01) (10, 5, 5.00000000000000000000e-01) (10, 5, 5.00000000000000000000e-01) (10, 5, 5.00000000000000000000e-01) (10, 5, 5.00000000000000000000e-01) (10, 5, 5.00000000000000000000e-01) (10, 5, 5.00000000000000000000e-01) (10, 5, 5.00000000000000000000e-01) (10, 5, 5.00000000000000000000e-01) (10, 5, 5.00000000000000000000e-01) (10, 5, 5.00000000000000000000e-01) (10, 5, 5.00000000000000000000e-01) (10, 5, 5.00000000000000000000e-01) (10, 5, 5.00000000000000000000e-01) (10, 5, 5.00000000000000000000e-01) (10, 5, 5.00000000000000000000e-01) (10, 5, 5.00000000000000000000e-01) (10, 5, 5.00000000000000000000e-01) (0, 5, 0.00000000000000000000e+00) (501, 0, 5.00000000000000000000e-01) (501, 0, 5.00000000000000000000e-01) (501, 0, 5.00000000000000000000e-01) (501, 0, 5.00000000000000000000e-01) (501, 0, 5.00000000000000000000e-01) (501, 0, 5.00000000000000000000e-01) (0, 0, 0.00000000000000000000e+00) 
connections (connected_to_neuron, weight)=(0, -1.62469521164894104004e-02) (1, 3.07037343344031155024e-01) (2, -1.35376138434485510098e-01) (3, 8.58121174368364103557e-01) (4, -1.40249451773207312044e+00) (5, 1.25444955923420670141e-01) (6, -1.27221847654999498101e-01) (7, 1.12692586379031056687e+00) (8, -4.20595700155729640413e-02) (9, -5.03727734736830523588e-01) (0, 6.10243007540702819824e-02) (1, 1.43250909615762513083e-02) (2, 3.84285180144709331840e-02) (3, -1.32656225907035985045e+00) (4, 9.51433758805373397394e-01) (5, -8.61569339153939517395e-01) (6, 5.35868459261762186685e-01) (7, 1.87867759388326942271e-02) (8, 6.10307697160384840518e-02) (9, 1.56056825774671809048e-01) (0, -9.66414436697959899902e-02) (1, 1.06664439857242415721e-01) (2, -1.46555226907321256569e-01) (3, 7.83566341876466232463e-01) (4, -7.59793318590022859205e-01) (5, 1.20517159025995343469e-01) (6, -1.74963000486177300274e-01) (7, 6.88773138303263809945e-01) (8, 2.94220025600415296951e-02) (9, -3.68999428600765400077e-01) (0, -9.27174910902976989746e-02) (1, -1.71043626902522921673e-01) (2, 9.13362986877519072992e-02) (3, -8.98472467713713141002e-01) (4, 5.88557443430806848106e-01) (5, -7.39330635384771839291e-01) (6, 4.11967795699234862195e-01) (7, 7.76495809646524648429e-02) (8, -1.07414059933537572866e-01) (9, 1.73764690602880855774e-01) (0, -1.03245154023170471191e-02) (1, 2.26694594837496710138e-01) (2, -2.04311529932369950746e-01) (3, 1.61395140442102591471e+00) (4, -1.30043519469876045491e+00) (5, 6.46701492141056211160e-01) (6, -2.08219694742744071414e-01) (7, 2.48813094853823746355e-01) (8, 9.36915590966871936196e-03) (9, -4.24214535746069598687e-01) (0, 8.17615613341331481934e-02) (1, -7.95379613432756343849e-02) (2, 1.13674119829629230449e-01) (3, -1.79400317586290447558e+00) (4, 1.48680564667379266908e+00) (5, -1.05293434109085937145e+00) (6, 1.51915606662287039352e-01) (7, 2.78936786974702588537e-01) (8, -1.37586402053726020167e-01) (9, 4.38493599393283195464e-01) (0, -8.67206454277038574219e-02) (1, -6.54936972944395040530e-02) (2, -9.78261777245966607230e-02) (3, -9.42425281870900688475e-01) (4, 1.61723555152434694815e-01) (5, -2.51341110175425430651e-01) (6, 6.62012473247974186918e-01) (7, 1.83568941360674170449e-01) (8, 9.11980800879640118861e-02) (9, -1.46881940789973935990e-01) (0, -3.33391577005386352539e-02) (1, -9.33456581005407542984e-02) (2, 1.46245841769053336323e-01) (3, 4.09947163722480384385e-02) (4, -8.24418716255720940289e-01) (5, -2.46894540175722737585e-01) (6, 3.44884294759820297926e-01) (7, -1.20086625463898422073e-01) (8, 2.43462906070269102798e-01) (9, 2.79260355027754592072e-01) (0, -4.41192053258419036865e-02) (1, 5.91967126890710140796e-02) (2, -7.91787353280601208239e-02) (3, 5.08247509417473319893e-01) (4, -6.08239832783705414165e-01) (5, -3.24012090944905628564e-01) (6, -7.32247667880414621067e-03) (7, 9.15416088048126797005e-01) (8, -5.86125714190655674324e-03) (9, -2.73332265805374285961e-01) (0, 6.38652816414833068848e-02) (1, 1.52306325212063942143e-01) (2, -1.04353025164390406099e-01) (3, 3.96141908716135304758e-01) (4, 4.13163685682622905393e-01) (5, 4.22643668207936085146e-01) (6, -3.68035121004363086072e-01) (7, 2.66256330165171306579e-02) (8, -1.32517131839108126545e-01) (9, -2.56648509390461354585e-01) (0, -2.40862444043159484863e-02) (1, -3.84382555207398802014e-03) (2, -6.94286532750504753464e-02) (3, 6.74140744944238590186e-01) (4, -4.08223164074745126229e-01) (5, -5.00254974276018948842e-01) (6, -3.37444771815629984690e-01) (7, 5.57375233593985774938e-01) (8, -1.10261115691919431292e-01) (9, 1.17237942897342226067e-01) (0, 1.70786008238792419434e-02) (1, 4.60089154270688777126e-02) (2, 7.84559933671663267685e-02) (3, -4.85825993986769566479e-01) (4, 4.58620315288191859882e-01) (5, -7.22525821161929981962e-01) (6, 2.24818720391789211854e-01) (7, 4.03924862673811668756e-01) (8, 1.23900246239053477004e-01) (9, -1.27564458108795658609e-01) (0, 9.98039916157722473145e-02) (1, -1.58794759124062601074e-01) (2, 1.46332858807993987371e-01) (3, -3.86325680633623436133e-01) (4, 5.23056678993065807259e-02) (5, -2.42827412694299471507e-01) (6, 5.67603099713636788382e-02) (7, -2.77799303975115430276e-01) (8, -9.78810106617516301197e-02) (9, 3.49747050328955644272e-01) (0, -9.15041789412498474121e-02) (1, 2.71435614504693702165e-02) (2, 5.53678265900600583005e-02) (3, -4.91068975651155925632e-01) (4, 5.77212671894317241872e-01) (5, -1.08959912377340414902e-01) (6, 2.31268457179820113856e-01) (7, -5.82984931982966081421e-01) (8, 3.68032449801454844551e-03) (9, 2.43060787250966303663e-01) (0, -9.71550941467285156250e-02) (1, -1.31194943355812193575e-01) (2, 4.11396337056955663236e-02) (3, 6.66655872318451470093e-01) (4, -1.31132877989037610611e+00) (5, 5.60789378980454888968e-01) (6, 3.96814025584809160208e-01) (7, -4.52211691930460901734e-01) (8, 1.62064533585623754552e-01) (9, 2.30077829627421487357e-01) (0, 1.22692734003067016602e-02) (1, 9.97571394196057788240e-03) (2, -2.56900041949144203324e-02) (3, 1.66750218341706557545e-01) (4, 4.50676416883976360683e-02) (5, -1.18973682974786401645e-01) (6, 2.32148435744674835890e-01) (7, -1.81245975282990773314e-01) (8, 5.97723599027952801066e-02) (9, 1.68845083477425876584e-02) (0, -1.60077884793281555176e-02) (1, 2.14576697213821297738e-02) (2, -1.50558270578366432124e-01) (3, 3.03620625989526615740e+00) (4, -1.00429234308685155774e+00) (5, 2.11732532542707385659e+00) (6, 3.90147918830713813509e-01) (7, -1.92274899443436719793e+00) (8, -5.48025583352260842185e-02) (9, -3.78730607743928304743e-01) (0, -1.60669386386871337891e-02) (1, 1.01164745923028348562e-01) (2, -9.77852159262672659956e-02) (3, 2.47282301962226364056e-01) (4, 2.24807654666873857341e-01) (5, 1.94846645313558441970e-01) (6, -1.22454883924296736852e-01) (7, -1.14997647940281708112e-01) (8, -3.09017081377257266106e-02) (9, -7.32893450462327594730e-02) (0, -3.80515567958354949951e-02) (1, 7.19126466793368196440e-02) (2, -1.09699337101132235461e-01) (3, 4.11989516124821986143e-01) (4, -7.53213769960933476888e-01) (5, 9.16099617032062440991e-01) (6, -3.25023396830991587181e-02) (7, -2.79418017326995560268e-01) (8, 2.30631222054807488719e-01) (9, -1.51136931996163792480e-01) (0, 7.61775672435760498047e-03) (1, 3.57979204125695560368e-01) (2, -3.85789545899344221702e-01) (3, 2.24693737784651004219e+00) (4, -1.26401236842542408212e+00) (5, 3.43414571762811038358e-01) (6, -2.98002015926868812912e-01) (7, 6.53995712688958397152e-01) (8, -7.85953844817747354634e-02) (9, -8.76148686725866765457e-01) (0, 7.70151987671852111816e-02) (1, -1.18790862589548601447e-01) (2, 7.05667437087676152618e-02) (3, 4.59757685510103694670e-02) (4, 2.05365115737470987911e-01) (5, 1.79665287435942355038e-03) (6, -9.80248642800483904747e-02) (7, -2.75132435427381472071e-01) (8, 4.06192238243670150633e-02) (9, 1.45680733757163841796e-02) (0, 7.21357017755508422852e-03) (1, 1.97724204264258962560e-01) (2, -2.01756403596807604162e-01) (3, 2.17928678058010838470e+00) (4, -9.35943215232370784307e-01) (5, 8.42233164492553254554e-01) (6, -4.07851175821727862658e-01) (7, 1.33910182909268649087e-01) (8, -1.31873251103238109394e-01) (9, -7.40909082199546320524e-01) (0, 3.29457446932792663574e-02) (1, -6.84048768095788378707e-02) (2, 8.03949208651835375838e-03) (3, -2.25165624983995685260e-02) (4, -2.19254215186457185327e-01) (5, -4.48718152835281214319e-01) (6, 2.86118003464814085746e-01) (7, 3.33899843144413788210e-01) (8, 4.64899545132708286177e-02) (9, -3.14219230878948624364e-02) (0, 7.39756301045417785645e-02) (1, 2.41091485419880104113e-02) (2, -3.04561001055697090634e-03) (3, 2.10451373553709769615e-01) (4, -3.37450218832150150572e-01) (5, -2.98139153513962251729e-01) (6, -3.58852196271608803180e-01) (7, 5.65922473707987649938e-01) (8, -8.99743509897726057023e-02) (9, 7.16576736174373285504e-02) (0, -7.53579810261726379395e-02) (1, 1.29039293702678026232e-01) (2, -1.18658664581360623336e-01) (3, 1.96472236957122542433e-01) (4, -4.56144792032748158661e-01) (5, 3.95894386815005050462e-01) (6, 1.90022867230691117069e-01) (7, 6.48438147652713875457e-02) (8, 4.70267343380895777583e-02) (9, -9.83115774299609668230e-02) (0, -5.00902049243450164795e-02) (1, -7.98993228684707484932e-02) (2, 1.77619191863108878693e-02) (3, -7.04973364359734039342e-02) (4, -3.26749793931134652203e-02) (5, 6.04502236957870225931e-02) (6, 2.11424213194589746823e-02) (7, -8.51000795888732543271e-03) (8, -1.96873287302006851063e-02) (9, -2.36347432408216748256e-02) (0, 9.13088545203208923340e-02) (1, -1.63049205565512750349e-01) (2, -1.26753835573567494310e-02) (3, 4.65761580711006525912e-02) (4, -1.04923974876036107950e+00) (5, -2.85692971787520677562e-01) (6, 2.29981055146310869874e-01) (7, 3.29326129949687795850e-01) (8, 3.97488614667249190449e-02) (9, 2.68503219321463593161e-01) (0, 7.39768967032432556152e-02) (1, 1.28428036349717195064e-01) (2, -8.99435780031220682984e-02) (3, 7.46626809717825801194e-01) (4, -6.35258169979163844765e-01) (5, 6.00031926690945072167e-01) (6, -1.15226466975632310663e-01) (7, 1.70291413243515293852e-01) (8, -4.05387667455560651852e-02) (9, -2.83276696696124263841e-01) (0, 4.55451533198356628418e-02) (1, -5.55452054953143245508e-02) (2, -2.68701727527658786043e-02) (3, -5.19313837642839115638e-01) (4, 1.29178217962603175684e-01) (5, -5.71697630062876549495e-01) (6, 4.07526848160282673117e-01) (7, 1.46553678272489995571e-01) (8, 9.44452591088153631249e-02) (9, 5.82701132236925004038e-02) (0, -2.33887583017349243164e-02) (1, -2.29014379961764262539e-02) (2, -8.67198234918330375376e-03) (3, -7.70446628823068246916e-01) (4, 4.55853377943594206823e-01) (5, -2.26392117431325534671e-01) (6, -1.06461230012278876278e-01) (7, 4.57700628107957252499e-01) (8, -3.98267428165437198384e-01) (9, 5.08104893524303213859e-02) (0, -5.14527782797813415527e-02) (1, -1.05920164390481907901e-01) (2, -2.32629768244396999827e-03) (3, 3.31762938928582495901e-01) (4, -1.53677405564098545909e+00) (5, 1.16383523620690682021e-01) (6, 8.68201741925640757547e-02) (7, 4.26943595154284649684e-01) (8, -1.25583501539132868716e-03) (9, 1.66435458024625421158e-01) (0, 5.24862781167030334473e-02) (1, 1.04624271670795479516e-01) (2, -4.87318953721321695971e-02) (3, 8.54447457637257601348e-01) (4, -8.08140872708561275317e-01) (5, 4.07914004242817873624e-01) (6, -1.73920041551548915093e-01) (7, 1.20123727461063048438e-01) (8, 1.08373099373237302689e-01) (9, -1.67841014215852069036e-01) (0, 9.75768938660621643066e-02) (1, -1.58700604672880107859e-01) (2, 1.18086769756455392533e-01) (3, -4.15124415265476776060e-01) (4, 2.95927801170573989697e-01) (5, 2.91708005961225369518e-01) (6, 1.44889691253608784505e-04) (7, -8.06206255986342879005e-01) (8, -7.21079110447259696848e-02) (9, 2.91863810111335275632e-01) (0, -6.64782375097274780273e-02) (1, 4.07737348869645466198e-01) (2, -3.57631733190394485167e-01) (3, 3.28797733277559622866e-01) (4, 6.24898653820183613838e-01) (5, 1.38369377804248072650e+00) (6, 2.55954177763290458003e+00) (7, 1.65920341910063162683e-01) (8, 1.12108649531260318177e-01) (9, -9.19553450979716968661e-01) (0, -7.81468227505683898926e-02) (1, 6.25785099217629148249e-01) (2, -5.52815602533038519262e-01) (3, 1.88651533174353569500e+00) (4, 2.24777018769438174939e-01) (5, 8.30925062258013547023e-01) (6, -6.43429387543210218325e-01) (7, 1.46700023108057364674e+00) (8, -5.30210957436193924819e-02) (9, -1.64955796735822812771e+00) (0, 3.49602624773979187012e-02) (1, -2.58106406888076234107e-01) (2, 1.99173080817400899312e-01) (3, -1.50886203011704300714e+00) (4, 1.28412248321121569283e+00) (5, -7.91877993388257067631e-02) (6, 1.89545599918979817966e-01) (7, -1.48606945232661802336e+00) (8, 1.60366607946843819921e-01) (9, 9.08829586855186999372e-01) (0, -9.90494787693023681641e-02) (1, 1.06888439461789389734e-03) (2, -3.63301834181393099032e-02) (3, 2.51626814798774078863e-01) (4, -5.80650695377071368597e-01) (5, 3.32116865826642460036e-01) (6, -2.02271093280537543613e-02) (7, 6.74137807122375184998e-03) (8, 3.89523551518529825843e-02) (9, 3.54992905742569772251e-03) (0, 1.39551013708114624023e-02) (1, -1.96085041597646642098e-01) (2, 4.49593315535596269039e-02) (3, -1.00373788813137054809e+00) (4, 4.33720995218707383589e-01) (5, -3.51701249099438617574e-01) (6, 4.03650670273943634747e-01) (7, -3.19649060704784493403e-01) (8, -4.66495029753729029132e-02) (9, 2.99632738866462522420e-01) (0, 9.40387323498725891113e-02) (1, 5.99556686424677978686e-02) (2, 4.79506889772771185965e-02) (3, -2.89366081145267450836e+00) (4, 1.29862333197067103541e+00) (5, -1.75138567449548188115e+00) (6, -1.39012463161516275356e-01) (7, 1.70638675141309392735e+00) (8, 1.18041880322889786159e-01) (9, -9.45447203873571312416e-02) (0, -9.29167270660400390625e-02) (1, -1.08933155574840637159e-01) (2, 1.65764418158457389751e-02) (3, -7.65247170679037136409e-01) (4, 1.26468729398668067176e+00) (5, -5.77765855050385690461e-01) (6, 2.37735965330835880005e-01) (7, -2.01779432659869889521e-01) (8, -6.28141755215741864893e-02) (9, 4.64174886258239757786e-02) (0, -5.94695471227169036865e-02) (1, -7.44623569350301439673e-03) (2, -1.20987902375318076564e-01) (3, 4.84752650974947185691e-01) (4, -2.46839020518108187563e-01) (5, 1.58048408351219860091e-02) (6, -3.19286753076136242679e-01) (7, 4.38327464373306385781e-01) (8, -9.23806793318294149076e-03) (9, -1.67167580929908854426e-01) (0, -2.92323604226112365723e-02) (1, 1.84814166836455240350e-01) (2, -1.66654934594414910753e-01) (3, 6.60478533223999741963e-01) (4, 9.22654292047491025874e-02) (5, 6.18851991761746655918e-01) (6, -4.49575795971540626006e-01) (7, 1.45424541900362580549e-01) (8, 9.23430722506231316249e-02) (9, -4.29965257178954174400e-01) (0, 2.20041051506996154785e-02) (1, 5.08037118700659512394e-02) (2, 5.02718214998134488303e-02) (3, -1.96706774611062895630e-01) (4, 3.17841593002174752081e-02) (5, -3.92221049809389765706e-01) (6, 3.69435823919209357924e-02) (7, 7.93037606642254533362e-02) (8, 1.36953363342756234688e-02) (9, 1.82471651934720646704e-01) (0, 5.51971718668937683105e-02) (1, 7.46857257154567022450e-02) (2, -1.64201073830361171657e-01) (3, 2.00979386097432655145e-01) (4, -5.92376236057039692873e-02) (5, 4.55661146489549695460e-01) (6, -7.08846156430217033684e-02) (7, 1.07848489695004490230e-01) (8, 4.22365116608546739552e-02) (9, -2.85694081700628432774e-01) (0, 5.98782822489738464355e-02) (1, -2.89421269205147546622e-01) (2, 3.30469974433584556817e-01) (3, -1.61339305626003204353e+00) (4, 1.63238554051929951605e+00) (5, -1.99109602235318428054e-01) (6, 1.89456945833668677359e-01) (7, -1.19051705979689415038e+00) (8, 1.31452280039588864646e-01) (9, 8.59615828610574062019e-01) (0, -6.53218477964401245117e-03) (1, -9.81290124542109898353e-02) (2, 1.20675642616042105848e-01) (3, -1.04241474899379027441e+00) (4, 1.56442063702802736103e+00) (5, -3.70214460612886542279e-01) (6, 1.38688272934413325821e-01) (7, -7.92306491515325062025e-01) (8, 1.72117450650405484636e-01) (9, 3.22220766963195515142e-01) (0, -8.53866487741470336914e-02) (1, -2.47212967362158336782e-01) (2, 1.57792883803073213933e-01) (3, -6.30983632011340778156e-01) (4, 1.69429540093588765215e-01) (5, -9.16915823481635472447e-01) (6, 4.36141398641172906014e-01) (7, -2.23421782723469408705e-01) (8, -2.50041299197058426718e-02) (9, 5.00246379738396806935e-01) (0, -6.78851082921028137207e-02) (1, -5.45305198765757004331e-02) (2, -3.22575467573660012999e-02) (3, -2.96556997900006980018e+00) (4, 9.16578065155161270106e-01) (5, -2.20448194559552135274e+00) (6, 1.86675440423603539175e-01) (7, 2.18662379389739758295e+00) (8, 4.46607706826960756952e-02) (9, 2.38295228863179830991e-01) (0, 6.02945908904075622559e-02) (1, 3.99323207407163011107e-03) (2, 2.94828459451470133168e-02) (3, 5.90796105352874995065e-02) (4, 2.06705705327887345746e-01) (5, -2.68642441929949626900e-01) (6, -8.23425715674543090561e-02) (7, 5.65330234121411562276e-02) (8, -3.11068561409032148801e-02) (9, 2.92423640124722071520e-02) (0, 8.41122865676879882812e-03) (1, 4.86646197894351137392e-02) (2, -7.97426236912178593164e-02) (3, -5.17933688223283672514e-01) (4, 3.37512365620800558474e-01) (5, -7.76402626588278188535e-01) (6, 1.70505625985274994472e-01) (7, 7.50089091728562196160e-01) (8, -1.59133319565321035283e-01) (9, -4.91606463142644084519e-02) (0, -7.28226527571678161621e-02) (1, -1.06827233197997722991e-01) (2, 1.21312930407161484458e-01) (3, -9.05061223669500258815e-01) (4, 1.40723398214484785029e+00) (5, -4.87806459518704660372e-01) (6, 1.75861012991544218842e-01) (7, -3.35283860022840607407e-01) (8, -1.10761749697628184008e-01) (9, 1.46916719681848689794e-01) (0, 9.12881419062614440918e-02) (1, -3.74198243659339957468e-02) (2, 5.57656147063888205095e-02) (3, -4.49782022172518711201e-02) (4, 2.54740563517661611215e-01) (5, -6.48392949138150709310e-01) (6, -4.16613023428386686220e-01) (7, 4.26031355647167042644e-01) (8, -2.05851173374689194739e-01) (9, 1.53742298643163688432e-01) (0, 5.28710559010505676270e-02) (1, -8.73993527294627398083e-02) (2, 3.29964936823581717062e-02) (3, -1.91225711772302409130e-01) (4, 3.69920682900147457239e-01) (5, -3.43634635344860606132e-01) (6, -1.45273236970828389936e-01) (7, 3.76199974299442699288e-02) (8, -7.06884177981953291947e-03) (9, 4.13083536926182257054e-02) (0, 8.22433307766914367676e-02) (1, -7.03419069226800773575e-03) (2, 5.15706209076811986081e-02) (3, 1.96240428151019163927e-01) (4, 2.52519209402877926884e-02) (5, -4.36794908587702201963e-01) (6, -2.89098785268216418309e-01) (7, 3.86516517271598969430e-01) (8, -5.58684953370148992824e-02) (9, 2.15967314883415313631e-02) (0, 9.07071456313133239746e-02) (1, 6.26153831194309479224e-02) (2, -1.17750548534894874941e-01) (3, -3.96156423714620564702e-01) (4, 4.12586570919292738857e-01) (5, 6.06497076683733093994e-01) (6, 2.70225760490682073711e-02) (7, -8.05164338794603917648e-02) (8, -5.66181016089981059558e-02) (9, -2.77421240883686859302e-01) (0, 8.20687189698219299316e-02) (1, 2.00670930022765231504e-01) (2, -7.86835959365790454934e-02) (3, 8.70026632113875653118e-01) (4, -9.05633105222817813562e-01) (5, 2.85620452131541857632e-01) (6, 6.26810423386220810782e-02) (7, 4.12268270132362946168e-01) (8, 1.71408738801410276409e-01) (9, -3.86576490538234784911e-01) (0, -3.09277325868606567383e-02) (1, -9.31078248253839335646e-02) (2, 6.65826725238111011285e-02) (3, 1.36229992591664517132e-01) (4, 1.83065295829543561723e-01) (5, 1.38365583862188279429e-01) (6, 8.28508591787067705248e-02) (7, -6.01633211482122232105e-01) (8, -1.53136157091402491659e-01) (9, 2.25838882980581051596e-01) (0, -9.40986573696136474609e-02) (1, -3.32172077138749244352e-01) (2, 2.17877673908696389837e-01) (3, -1.84029209275318206274e+00) (4, 1.11266166304755387273e+00) (5, -6.35809103850586837536e-02) (6, 2.66082312856601610473e-01) (7, -1.29752552099545037656e+00) (8, 5.91173698232120431451e-02) (9, 1.03866181706252214134e+00) (0, 4.31926622986793518066e-02) (1, -1.59503572676083421600e-01) (2, 1.62645307178430342798e-01) (3, -1.22002254659679132409e+00) (4, 1.30771456921479933833e+00) (5, -3.27374975517779831513e-01) (6, -7.55664228702332824161e-02) (7, -7.64228562002418509991e-01) (8, 1.63821994417497826535e-02) (9, 6.43913450324406388958e-01) (0, 1.48755311965942382812e-02) (1, -1.14539963492707827508e-01) (2, 1.57096246249284171581e-01) (3, -2.70229483835659678448e+00) (4, 7.96419834925305991646e-01) (5, -2.58038069791897184402e+00) (6, -6.03239408126050147274e-01) (7, 2.63043506596283105381e+00) (8, -1.06609156413611794179e-01) (9, 1.65456363283065371883e-01) (0, 3.38233187794685363770e-02) (1, 7.51411347472793339497e-03) (2, -9.80063634282773016304e-02) (3, 6.85623249625593511603e-01) (4, -5.55467893478458818457e-01) (5, 8.38682126515536086053e-01) (6, -3.01005874130896466934e-01) (7, -2.88594520368188611759e-01) (8, 1.74664894302502260448e-02) (9, -7.37440667769334867732e-02) (0, 1.50575861334800720215e-02) (1, 2.63874687389721029884e-01) (2, -1.31075535071079024574e-01) (3, 5.22753184114284397133e-01) (4, 7.10961360536002340282e-01) (5, 5.42518871856913720286e-01) (6, -4.50054500168928450776e-01) (7, 1.94369658926414917710e-01) (8, 2.82497914449099558898e-02) (9, -6.47142537276583107442e-01) (0, 4.12020161747932434082e-02) (1, 3.39820704058423420091e-02) (2, -1.10219638511213316456e-01) (3, 1.55437617484904344600e+00) (4, -9.35708745057838298109e-01) (5, 8.35744933842488713083e-01) (6, -3.98775372057047217123e-01) (7, -8.03402506703607410810e-02) (8, 4.54683570020891422714e-02) (9, -3.88854795742875958275e-01) (0, 6.54615983366966247559e-02) (1, -1.52884529701745541796e-01) (2, 7.51083356677389318845e-02) (3, -7.63542887802808545317e-01) (4, -3.71294439173570411938e-01) (5, -3.96873579057809788839e-01) (6, 4.93222616711371519838e-01) (7, -1.15712234797137519804e-01) (8, -1.85457446508233460281e-02) (9, 4.18262083510218707350e-01) (0, 1.72027572989463806152e-02) (1, -6.98069473959724851042e-02) (2, 4.73258749289461599918e-02) (3, -9.33092553734425234069e-01) (4, 1.33904252311464655456e+00) (5, -1.18187578662453884881e+00) (6, 1.20180343742483819458e-01) (7, 2.03612102093971347738e-01) (8, -8.78853696748281842943e-02) (9, 2.94789118284337847697e-01) (0, 1.94481238722801208496e-02) (1, 3.23755123751535645038e-01) (2, -1.79688443271209363772e-01) (3, 2.08045811608702901907e+00) (4, -1.29000053808478054584e+00) (5, 7.69650673352876402156e-01) (6, -2.40750765668232502570e-01) (7, 3.43401228368379163314e-01) (8, -1.33268418673492816673e-01) (9, -8.87512462926777101480e-01) (0, 3.62403020262718200684e-02) (1, 6.25051808439035933018e-02) (2, -9.35098660798671793559e-02) (3, 1.75341683658833596970e-01) (4, -1.83165864977091752408e-01) (5, 6.63368060580892482392e-01) (6, 8.19961370254218141485e-02) (7, -4.88841651138488431094e-01) (8, 1.20415643760920981764e-01) (9, -1.70534469392000023746e-02) (0, -9.36521440744400024414e-02) (1, 1.16201368124922169156e-01) (2, -3.26799561468076593673e-02) (3, 1.53110845750939361665e-01) (4, 2.46038121877744236921e-02) (5, 6.47639527951604287992e-01) (6, 3.24398775216472520788e-02) (7, -2.96106453071450781422e-01) (8, -4.29875953559507723023e-02) (9, -1.33488964666015064164e-01) (0, -2.14914083480834960938e-02) (1, -1.28306318897504406662e-01) (2, 9.22445661041686459924e-02) (3, -3.01086705486227512729e-01) (4, -2.14177069890225835191e-01) (5, 2.56339776900000093640e-01) (6, 3.53200367868727327370e-01) (7, -4.53184386413376938396e-01) (8, -8.56747915067813947676e-03) (9, 1.49206439228042470058e-01) (0, 5.25944009423255920410e-02) (1, 5.35286708163573043961e-01) (2, -2.29221888622325370433e-01) (3, 2.08706597407186800197e+00) (4, -1.27739497293069881323e+00) (5, 7.37331762497150100533e-02) (6, -2.15108181228143735542e-01) (7, 2.18877338189606263086e+00) (8, 8.49275731910950487658e-02) (9, -1.07102958109860568747e+00) (0, 7.27702006697654724121e-02) (1, 1.03755104942376968902e-01) (2, -2.26993865543803179097e-02) (3, -1.16924445129452533876e-01) (4, 8.76094206139294562341e-02) (5, 2.30369871061068237639e-01) (6, -4.47757040844951742509e-02) (7, 4.24197672753236221244e-02) (8, 3.22155049462034132057e-02) (9, -1.21632662671852687097e-01) (0, 4.59365770220756530762e-02) (1, -3.14143994247267147046e-02) (2, -4.25392818603435515779e-02) (3, -8.37061027521957101705e-01) (4, 7.58001086338482954474e-01) (5, -5.16661679777255300472e-01) (6, 3.79164426574361279609e-01) (7, 4.60361329862363083398e-02) (8, -4.49212273042450885296e-02) (9, 1.26834868876347286321e-02) (0, 5.82056418061256408691e-02) (1, -1.40204051447898658811e-01) (2, 4.52861920468346848545e-02) (3, -7.47419871867911256302e-01) (4, 5.66192793380765113653e-01) (5, -2.08477362091709611525e-01) (6, 2.65210772819003126610e-01) (7, -3.89734746799180020727e-01) (8, 5.99057223503801465625e-03) (9, 1.86447570877724344562e-01) (0, -7.43946284055709838867e-02) (1, -3.97856262368996710377e-02) (2, -6.49144443092397882555e-02) (3, 2.35268644959689861296e-02) (4, 1.67023896354469986170e-01) (5, -2.67481923263613419195e-01) (6, -1.17949587299416153163e-01) (7, 2.91111367634762308043e-01) (8, 8.34047454682564498585e-02) (9, -1.45461723942772236384e-01) (0, -9.78158712387084960938e-02) (1, -4.28125702201969271510e-01) (2, 3.55170637637155284239e-01) (3, -2.07658942678526514669e+00) (4, 1.55637184566792741158e+00) (5, -7.57623205302538460515e-01) (6, 2.03314709829425482868e-01) (7, -5.94595937600258861444e-01) (8, 1.52537251272016588510e-01) (9, 1.10305836141030999542e+00) (0, 2.11004614830017089844e-02) (1, 4.57631669522783612880e-01) (2, -3.62095523313767098106e-01) (3, 2.67382370924564405357e+00) (4, -1.59929839823721020586e+00) (5, 1.20966557088037740542e+00) (6, 1.53089025473678395223e-02) (7, -9.09122431205892644890e-02) (8, -5.50333466149187169880e-02) (9, -1.10288935795757958580e+00) (0, 9.68633219599723815918e-02) (1, -2.46534067970917064594e-01) (2, 2.18950935514630518064e-01) (3, -1.42220160435711562297e-01) (4, -8.63008530988359945368e-01) (5, -4.48537093386699670106e-01) (6, -1.49513990669978696912e-01) (7, 1.47874776078100844678e-01) (8, -1.65492491720673429167e-01) (9, 5.81726109193031470923e-01) (0, -9.76620838046073913574e-02) (1, 7.13548086368143291702e-02) (2, -4.55192791136307395305e-02) (3, 9.46225098775287265518e-01) (4, -1.26633633131614531386e+00) (5, 7.72300620727230158202e-01) (6, 2.30597874831716093125e-01) (7, -8.24365236132528350632e-02) (8, 1.21955120104618147669e-01) (9, -2.22610494067986525168e-01) (0, -9.45529341697692871094e-03) (1, 1.09006556526136166863e-01) (2, -1.55396266024813350937e-01) (3, 7.15951940437957401464e-01) (4, -8.63608936914767588711e-01) (5, 4.31319958660867475153e-01) (6, -2.99850824180991126777e-01) (7, 4.53114422555066842513e-01) (8, 4.52891354381775440574e-02) (9, -2.15577541925822097069e-01) (0, 2.65389755368232727051e-02) (1, -3.96688529979002890702e-01) (2, 2.94073553108299190484e-01) (3, -1.34862426352640851768e+00) (4, 1.36213694997023093691e+00) (5, -1.86036900850736042212e-01) (6, 2.70791582439346811828e-01) (7, -1.25991689700393338924e+00) (8, 4.16972393713451600084e-02) (9, 7.00777639028422827394e-01) (0, -7.21559599041938781738e-02) (1, 2.07445086657728983148e-01) (2, -1.14481649637016319465e-01) (3, 1.37574312408990917511e+00) (4, -7.13685420345110177465e-01) (5, 8.37408356750644622402e-02) (6, -3.35347005799275510451e-01) (7, 8.56294443012433514895e-01) (8, -1.35288128968675147590e-01) (9, -4.76479709445669419310e-01) (0, 2.89630889892578125000e-03) (1, -1.03464834800082811084e-01) (2, -7.63525382349664882842e-02) (3, 2.92364838536840532246e-01) (4, -8.64303332442098670718e-01) (5, 5.58559639183614287106e-01) (6, -1.20358066211521827493e-01) (7, -1.74691467887925805380e-01) (8, 6.72839886462599234829e-02) (9, 1.19725582278587303064e-01) (0, 8.25017020106315612793e-02) (1, -4.77170885735715699649e-02) (2, 9.61133970792256292492e-02) (3, 3.57063647633832692563e-01) (4, -4.03459393119234732694e-01) (5, 4.65947892869396640414e-01) (6, -1.66633584998632927610e-01) (7, -1.93259435521326322638e-01) (8, -1.87761038709762656529e-01) (9, 9.06111321434185795765e-02) (0, 7.19095394015312194824e-02) (1, 3.53062559670496572961e-02) (2, 8.68413712782712017557e-03) (3, 4.20017354386043040293e-01) (4, -7.87768361389525550997e-01) (5, -2.02351108074992097619e-01) (6, 8.10867834676844666253e-03) (7, 4.43242410352145121966e-01) (8, 1.64961641798298558337e-01) (9, -5.28678160176814931903e-02) (0, -1.62395685911178588867e-02) (1, -9.23783940865767760897e-02) (2, -3.99728769107610040073e-03) (3, -3.07578661281389331705e-01) (4, 4.61436310698182861056e-01) (5, -4.18871086520766766625e-01) (6, 1.17124845469909338869e-02) (7, 5.10605653710063667194e-02) (8, -1.51415833280622497137e-01) (9, 1.15206788677468668913e-01) (0, 3.38772907853126525879e-02) (1, 3.60449400159619404160e-01) (2, -3.65456628883626732929e-01) (3, 1.83107057721359933744e+00) (4, -1.60285089283132631266e+00) (5, 5.63435542336759742632e-01) (6, -5.91680007850225869737e-02) (7, 5.82394372755788647389e-01) (8, 5.96760494889643916538e-02) (9, -9.10875844739199469480e-01) (0, 3.81752327084541320801e-02) (1, -1.34931391638314857051e-01) (2, -3.35903131128866064281e-02) (3, -5.09863242490726897849e-01) (4, 5.21698857795150350292e-01) (5, 8.28889851640699504287e-02) (6, 8.75861811814378915519e-02) (7, -5.45299701266260816723e-01) (8, -6.26521918767351665425e-02) (9, 2.10876347898862531727e-01) (0, 6.84683993458747863770e-02) (1, -3.24624871421727648202e-02) (2, 1.19520479456248343575e-01) (3, -1.16622562592807432758e+00) (4, 7.72984774278587472018e-01) (5, -4.45565050292448305846e-01) (6, 4.64211423425471281234e-01) (7, -2.26257821118079072154e-01) (8, 3.52880665615376287736e-02) (9, 1.39486407292081671105e-01) (0, -5.84899447858333587646e-02) (1, 7.52122699942297801012e-02) (2, 2.25722473318786670538e-02) (3, -6.70062254030100779012e-01) (4, 6.22050445834652410149e-01) (5, -9.98198508762548675222e-01) (6, 4.59372188959847771450e-01) (7, 3.27280891975555210394e-01) (8, 1.15666932775783382059e-01) (9, -3.88037971472141446361e-02) (0, 7.81689658761024475098e-02) (1, 1.48804859085146179432e-01) (2, -1.44066442372867919985e-01) (3, 2.52522762257194877122e+00) (4, -1.36609564367071034674e+00) (5, 1.96901766233975483722e+00) (6, -1.23966249364378597320e-01) (7, -1.26487069417891473400e+00) (8, -6.58324568532655807207e-02) (9, -4.39992861855331596210e-01) (0, -7.76845663785934448242e-02) (1, 3.66263880465018287769e-01) (2, -2.65543884883503833461e-01) (3, 1.99368653235064607898e+00) (4, -1.56629114196018948135e+00) (5, 1.09937045351294693241e+00) (6, -1.03401812189324482372e-01) (7, 9.31536702484417888925e-02) (8, 1.29190604893609332915e-02) (9, -8.73552372390019149506e-01) (0, -2.46958136558532714844e-02) (1, 2.32810167840864778999e-02) (2, -3.20209069827061681979e-02) (3, 6.04212941208676745930e-01) (4, -1.14104603614139943346e+00) (5, 3.78997364253459145811e-01) (6, -8.12491988420103172786e-02) (7, 4.34137137298828246212e-01) (8, -8.99309467049321381582e-02) (9, -1.00769154323094675685e-01) (0, 8.52981284260749816895e-02) (1, -2.77857174505378390350e-01) (2, 2.34146226219475117603e-01) (3, -2.09839787167729219242e-01) (4, 1.33015081808083940329e-01) (5, -1.29104293073262499369e+00) (6, 3.69133818210540323723e-02) (7, -1.67886501094661910738e-01) (8, -9.41357732578960298975e-03) (9, 6.03901875589244463427e-01) (0, -1.37588903307914733887e-02) (1, 5.04877193483570310684e-02) (2, 9.83750895624495441671e-02) (3, 6.81081651986367719864e-01) (4, -9.76339739992237332089e-01) (5, 8.48432879133118822423e-01) (6, -2.01208629361365465282e-01) (7, -4.27195200094613702912e-01) (8, -1.95030587532287538743e-02) (9, 1.54048942349094525328e-01) (0, 5.04314377903938293457e-02) (1, -7.24790963479883115772e-02) (2, 7.16330654538401782189e-03) (3, 1.63460188710449150218e-01) (4, 2.24820793208732078172e-01) (5, 2.97973472145337148209e-01) (6, -1.77679765446353721270e-01) (7, -4.64560802048574861267e-01) (8, -1.82331233571294520912e-01) (9, 1.40052364008875523949e-01) (0, 2.82023772597312927246e-02) (1, -2.20384290473027905088e-01) (2, 1.01126982388146949288e-01) (3, -1.32611459971928824508e+00) (4, 8.56922421907571618682e-01) (5, -1.63571354347794328810e+00) (6, 5.32235490734856542261e-01) (7, 2.45752113500154523162e-01) (8, -4.75703516271709647700e-02) (9, 5.77452647577648359167e-01) (0, -9.13227871060371398926e-02) (1, -4.80732871383648743824e-02) (2, -3.79088310224961599210e-03) (3, -6.95435702941368028007e-01) (4, 6.73523332894820359051e-01) (5, -2.57812827699987312524e-01) (6, 2.77505716223410803245e-01) (7, -2.45756885425440330106e-01) (8, -1.08326906565304664776e-01) (9, 1.57012685708777299798e-01) (0, -6.27481937408447265625e-02) (1, 7.13250389422157016206e-02) (2, 8.84894150700251264086e-02) (3, 3.45224621075475857079e-01) (4, -5.15699953044932435375e-01) (5, 6.75396869409629951875e-01) (6, -3.61674151945106797656e-02) (7, -2.24198267812006385435e-01) (8, -8.72366430614788940234e-02) (9, -5.17172136037361701577e-03) (0, -7.45087936520576477051e-02) (1, -6.62936147075598031231e-02) (2, 6.03714995847386415306e-02) (3, 7.85794084646789681159e-01) (4, -1.03284156157056350445e+00) (5, 5.58733603841450321426e-01) (6, -1.76550880292605516519e-01) (7, -2.00391103102783102452e-01) (8, 1.52078984122532040457e-01) (9, -1.15954923079632822580e-02) (0, -1.75898224115371704102e-02) (1, 8.41317795179453709054e-02) (2, -7.42420105235656602183e-02) (3, 2.38435743508434244697e-01) (4, -4.74533525919537457760e-01) (5, 6.50947546810177413157e-01) (6, -1.86039449283575214489e-01) (7, -1.09699425345405263132e-01) (8, 9.33285545329244903279e-02) (9, -5.25423008854603718065e-02) (0, 5.81223443150520324707e-02) (1, -2.63701275494692410906e-02) (2, 3.75000290950298145742e-02) (3, -3.99607973100612579032e-01) (4, -3.32759022419588879060e-01) (5, -5.86474894140528446584e-01) (6, 2.38609657011560116757e-01) (7, 6.63455863391823386088e-01) (8, 1.75808919677526820369e-01) (9, -1.15897163622810481232e-01) (0, 4.78248670697212219238e-02) (1, 2.52688273057222134721e-01) (2, -2.28983463171808510062e-01) (3, 5.34145364962229529660e-01) (4, 4.51175496701054057347e-01) (5, 1.20009566671206058253e+00) (6, 7.15821501866948262105e-01) (7, -7.20919874427163431818e-01) (8, 4.66648058039638879979e-01) (9, -7.04153453968398124196e-01) (0, -7.27937892079353332520e-02) (1, 9.52411679690037121793e-02) (2, -5.00083221692487478460e-02) (3, 7.55890223137530070652e-01) (4, 1.06427805331852601278e-01) (5, 8.11144121275154783568e-01) (6, -6.90811442638085249079e-01) (7, 1.73995071323448435852e-01) (8, 9.83348024268099196732e-02) (9, -4.49975169764145255247e-01) (0, -1.94065198302268981934e-02) (1, -1.21185970690403363448e-01) (2, 9.44932083685600249234e-02) (3, -4.98254755019498007940e-01) (4, 8.58572441036930533720e-01) (5, -2.09930179634028851732e-01) (6, -1.79468448141129416351e-01) (7, -6.22788827788534171681e-01) (8, 7.30922570878227888594e-04) (9, 2.97986590332294687400e-01) (0, -3.09460461139678955078e-02) (1, -1.00169822666278399148e-01) (2, 1.70417945901481598936e-01) (3, -1.18693659725952316286e+00) (4, 6.85931689761108409620e-01) (5, -9.65984269816623219995e-01) (6, 5.45161557278643793545e-01) (7, 1.44727794635600398587e-01) (8, -1.15585534965961453380e-02) (9, 1.78078308933102863465e-01) (0, 8.34304168820381164551e-02) (1, -3.29824725538525598267e-02) (2, -6.57500557787607936566e-02) (3, 3.06905219672931772745e-01) (4, 1.74788367500126363974e-02) (5, 3.63531217498391401310e-01) (6, -2.62559595922918553867e-01) (7, -1.93702848776650643492e-01) (8, -1.29454668326770633291e-01) (9, 1.57922977581799392488e-02) (0, -5.86420372128486633301e-02) (1, -1.58557634781460954354e-01) (2, 4.13918951382165889452e-02) (3, -4.44454285090186140827e-01) (4, 4.05815428741958028613e-01) (5, -3.00004881880282014972e-01) (6, -5.59438982953505692386e-03) (7, -2.61224694691721492923e-01) (8, -3.08661628458953597731e-02) (9, 2.37178614315045999117e-01) (0, 7.98892453312873840332e-02) (1, -1.64511571296403480424e-01) (2, 1.81213542583316816748e-02) (3, -8.19015080600591693916e-01) (4, 3.89555251353450260332e-01) (5, 1.25764732206815332827e-01) (6, 3.81169928759816090125e-01) (7, -6.04114446247023151315e-01) (8, -6.01609390242658914616e-02) (9, 1.95789995214226075770e-01) (0, -5.81072382628917694092e-02) (1, -4.07152583408020851685e-01) (2, 3.03903896516330485067e-01) (3, -1.92629511869947744884e+00) (4, 1.79968849581801837445e+00) (5, -6.00875190503192269098e-01) (6, 9.37768574745419802863e-02) (7, -6.79222468820965818992e-01) (8, 2.42420427458377524266e-01) (9, 7.73512093245238396833e-01) (0, -7.89556950330734252930e-02) (1, 5.09461097370725035649e-02) (2, -7.01406678148536327777e-02) (3, 2.39270622640211216847e+00) (4, -1.15550300166911390498e+00) (5, 1.35233664503809114521e+00) (6, -1.35130479959878702090e-01) (7, -1.03715157433139437693e+00) (8, -1.13733130793063186292e-01) (9, -3.72325498489465209206e-02) (0, -6.92074447870254516602e-02) (1, 1.51556001087416996470e-02) (2, 1.20202512221021726169e-01) (3, -6.00816996557898774789e-01) (4, 1.59314941802097431722e-01) (5, -8.14913543107510962571e-01) (6, 6.27083816842380015188e-01) (7, 1.31868521576708808141e-01) (8, -2.18244491022691021465e-02) (9, 7.29349998184965209180e-02) (0, 7.95597508549690246582e-02) (1, 1.09955279947894377091e-01) (2, -7.72417459052701788069e-02) (3, 4.09283465374595367692e-01) (4, -7.10392916144838237891e-01) (5, -2.61321462664790282737e-01) (6, -8.62449216897814563421e-02) (7, 8.44399916291832530746e-01) (8, -7.77674794010721759374e-02) (9, -1.02674999390077306693e-01) (0, -5.31274490058422088623e-02) (1, 5.74383712883437813623e-01) (2, -3.50995748919088301765e-01) (3, 1.67183440955166531805e-02) (4, 1.12950957871317619885e-01) (5, 1.37853938082112503771e+00) (6, 4.57039273124061384834e+00) (7, 8.63261487246753222990e-01) (8, -4.24770866015859893672e-01) (9, -1.57452695711390422417e+00) (0, 9.57360342144966125488e-02) (1, 5.22498516534179099913e-02) (2, 8.34678520787917460622e-02) (3, 3.03776417674264609392e-01) (4, -3.07423748834710852673e-01) (5, 2.46476591860406685219e-01) (6, 1.07871308693234191356e-01) (7, -9.91638895839649509023e-02) (8, 9.77194707535584405900e-02) (9, -9.47657558556377066505e-02) (0, -3.78681980073451995850e-02) (1, -8.45890132552397921994e-02) (2, 2.12235719931542693439e-01) (3, -6.99341656607063266726e-01) (4, 7.01877242862522371381e-02) (5, -5.36596128839939678912e-01) (6, 2.67192363536687793601e-01) (7, -1.25861177728961465272e-01) (8, -1.77968084479840027434e-01) (9, 4.93607844652218963333e-01) (0, -7.85592794418334960938e-02) (1, -3.00414584011181484691e-01) (2, 2.07279273815691111871e-01) (3, -1.34516686200056390099e+00) (4, 6.90556049857973586192e-01) (5, 1.85352836620627875464e-01) (6, 1.67741746624474608041e-01) (7, -1.85041747030082492920e+00) (8, -1.32778529772377945628e-01) (9, 8.52412717864816316116e-01) (0, -4.60807681083679199219e-02) (1, -5.42684680460406743130e-01) (2, 4.25224225028214830591e-01) (3, -1.05923009851230287559e+00) (4, 4.17835821949567087774e-01) (5, -1.05807820654253714743e+00) (6, 1.86074396026967930906e-01) (7, -8.26993145440315102768e-01) (8, -5.81200386309027039466e-02) (9, 1.39234418853768637803e+00) (0, 6.66201636195182800293e-02) (1, 4.76500723881130988646e-02) (2, -1.51169232370191742448e-02) (3, 2.58492785393678969896e+00) (4, -1.15851822773475099382e+00) (5, 1.86100964755353226465e+00) (6, -2.93568534989284923853e-01) (7, -1.47115966878088144654e+00) (8, -7.26939898881925200547e-02) (9, -2.14225967507185421912e-01) (0, 1.75210833549499511719e-02) (1, -7.97344877242367744419e-02) (2, 8.67785054385456222636e-02) (3, 7.44453353359746605733e-01) (4, -6.78318402259879604799e-01) (5, 8.20944044067279277144e-01) (6, -2.45652128186421542244e-01) (7, -4.71247304335585426305e-01) (8, -3.89009299226722032872e-02) (9, 2.48677318095160970746e-02) (0, -2.26802378892898559570e-02) (1, -2.37284624276871136672e-01) (2, 1.15986973940079812762e-01) (3, -2.37481965947505679893e+00) (4, 1.18847662684639798769e+00) (5, -1.56341690808436006854e+00) (6, 1.15510754416848493431e-01) (7, 7.05892937017296606683e-01) (8, 9.20543335573660581606e-02) (9, 6.85912992055981329820e-01) (0, -5.77674806118011474609e-03) (1, -6.37071208568934788108e-02) (2, -7.16727784713580146070e-02) (3, 2.63386076031005000875e-01) (4, 3.88778279770264426074e-02) (5, -1.85253372109831532244e-01) (6, -3.38891424897326265508e-01) (7, 3.96295885906508327245e-01) (8, -8.69138029751012897162e-02) (9, -8.94487496682547372773e-02) (0, -2.04738229513168334961e-02) (1, -2.35413865160079727179e-01) (2, 1.46705359899345993968e-01) (3, -9.49255648810924279601e-01) (4, 5.65862070962039109823e-01) (5, -1.23539723295420822424e+00) (6, 3.93647526307155271041e-01) (7, -6.68353317956515543467e-06) (8, 3.04870831346740409074e-02) (9, 5.41227350411617846859e-01) (0, -2.99502462148666381836e-02) (1, -1.02708372486521357092e-01) (2, 1.13349914646752886888e-02) (3, -1.34715592223594238241e+00) (4, 8.73136747518894251741e-01) (5, -4.64129609494934147751e-01) (6, 5.01252256011868957408e-01) (7, -3.43913022560846326492e-01) (8, 1.35107845775230189789e-01) (9, 1.81956496121700977975e-01) (0, -3.81132960319519042969e-02) (1, -1.43583667786469137972e-01) (2, -2.07970812830803493398e-02) (3, 1.11615494481860269560e-01) (4, -4.29076193152877038983e-01) (5, 1.45095465348888646995e-01) (6, -5.30816816516568312778e-02) (7, 6.61347020044637939895e-02) (8, -1.34422472099046425020e-01) (9, 1.03713368404755618135e-01) (0, -7.99542516469955444336e-02) (1, 1.34925226409590537369e-01) (2, -5.31808547968891792701e-02) (3, 7.34451155100262265130e-01) (4, -5.71581906485160162745e-02) (5, 8.95463185258006610923e-01) (6, -4.74866827277137248942e-01) (7, 6.17255614814698691517e-02) (8, -1.09405000478290090338e-01) (9, -4.20375077772445426838e-01) (0, 7.79748335480690002441e-02) (1, -1.11280737249674036016e-01) (2, 6.56249321465444679369e-02) (3, -1.93051741440634951064e-02) (4, -3.87205195001098123608e-01) (5, -1.06646438555256600766e-01) (6, 3.96380588426902130683e-02) (7, 1.97897935045306866408e-01) (8, -4.84885295714094360919e-02) (9, 6.29666172679235053300e-02) (0, 5.37995621562004089355e-02) (1, 1.49804395991963934520e-01) (2, -3.62019986349378861124e-02) (3, -4.71868925527333948899e-02) (4, 2.51697989994917048495e-01) (5, -2.83639503936494119518e-01) (6, 1.07706861300189582487e-01) (7, 4.12684433061743349835e-01) (8, 7.71397420497251101734e-02) (9, -2.31106688724001141377e-01) (0, 3.69780138134956359863e-02) (1, -6.20116363236509135493e-02) (2, 5.25930613479920691655e-02) (3, -3.52686302287359032537e-01) (4, 5.49217593461385100717e-01) (5, -3.42558429269020026098e-01) (6, 6.30342873606873216330e-02) (7, -2.44563934266829152708e-01) (8, 5.85992337769824442328e-02) (9, 1.24208598154081306664e-01) (0, 1.10523924231529235840e-02) (1, -4.63137181605325284894e-02) (2, -9.79519620495946340133e-03) (3, -2.20561924697489780689e-01) (4, -1.54989417700393192212e-02) (5, 2.45252422580741341607e-01) (6, 1.87447213202542872779e-01) (7, -2.33944538404788210384e-01) (8, 5.21932842850076923052e-03) (9, 1.04959872875513213208e-02) (0, -9.32352244853973388672e-02) (1, 1.23500314249472886718e-01) (2, -1.99124818216202092991e-01) (3, 1.24771907446180851942e+00) (4, -8.18238776933313816109e-01) (5, 1.46915628952946475394e+00) (6, -5.48879643518001447688e-01) (7, -3.59346790628488621522e-01) (8, 1.08478757672251263644e-01) (9, -3.76630559300050571370e-01) (0, -1.74589976668357849121e-02) (1, 1.09542808207809899690e-01) (2, -1.19037685001575355148e-01) (3, 1.03771729364449827315e+00) (4, -4.72502361906888879162e-01) (5, 2.72167482206430222380e-01) (6, -3.91232277402590311599e-01) (7, 2.59892426615253746558e-01) (8, -1.72730903135370449097e-02) (9, -1.90126263283068669407e-01) (0, 8.33882316946983337402e-02) (1, -3.73843411758289058747e-03) (2, -1.08170547707725273057e-01) (3, -1.83457158219147681288e-01) (4, 1.78239284328124608647e-01) (5, 7.40080083952687983739e-01) (6, -9.35053714122245083207e-02) (7, -3.17513607043139522990e-01) (8, -7.62573006921557772220e-02) (9, -1.03397236512286161414e-01) (0, -5.17717562615871429443e-02) (1, 7.17136604362954635516e-03) (2, 3.83704316409529885834e-02) (3, 3.50847688833183568580e-01) (4, -1.08547668596660554230e-01) (5, 7.64964787853030014908e-01) (6, -4.28286865008528749854e-01) (7, -2.45045379145542557842e-01) (8, -3.87191376996233183050e-02) (9, -8.66654004348526713075e-02) (0, 6.67898878455162048340e-02) (1, 1.35958401279014901020e-01) (2, -3.75476370873874046308e-02) (3, -1.91029951476845938352e+00) (4, 1.62731355508728392500e+00) (5, -1.20649313274081371183e+00) (6, -6.72328600593821573694e-02) (7, 7.62429913646591295162e-01) (8, 3.35732759975225669713e-01) (9, -1.92823393683601546078e-01) (0, 7.25187137722969055176e-02) (1, -2.23330959488196811868e-01) (2, 6.68377148428882100761e-02) (3, -8.26788718033001579499e-01) (4, 5.87732365492937058882e-01) (5, -1.00458081465119186682e+00) (6, 2.84187952988513459207e-01) (7, -9.31346345944182585352e-02) (8, 1.23349868218755792659e-01) (9, 4.18287265572138189373e-01) (0, -5.98593167960643768311e-02) (1, 1.60673584545996200879e-01) (2, -2.69373654205633583647e-01) (3, 1.43858515983696566565e+00) (4, -1.10673781025940431988e+00) (5, 4.15452689341633984998e-01) (6, -1.60595342644679450750e-01) (7, 5.28066093776197953424e-01) (8, -1.17338715669549772946e-01) (9, -5.18601783874908517369e-01) (0, -1.01579204201698303223e-02) (1, 8.89699067539648086322e-02) (2, 3.95192853460580584279e-02) (3, 3.58143511259250257872e-01) (4, -4.62699380345578614726e-01) (5, 5.53963470415257064339e-01) (6, -1.39192616784977518662e-01) (7, -8.97570693389914131544e-02) (8, 2.77770119299239129362e-02) (9, -7.44505477117585745539e-02) (0, -1.56985521316528320312e-02) (1, 8.92723923363549637378e-02) (2, 2.66794857097008659627e-03) (3, 5.14479520647574406489e-01) (4, -5.87301862764606275036e-01) (5, 1.83725553167835647939e-01) (6, -1.25202211982539113322e-01) (7, 3.94107704728125729510e-01) (8, -5.76058218203355301701e-02) (9, -1.43735093483910336687e-01) (0, -4.52825017273426055908e-02) (1, 1.79854755186892534269e-01) (2, -9.09118258087968922343e-02) (3, 6.25822112050091639013e-01) (4, 1.04790120695675906259e-01) (5, 2.03071654296500037074e-01) (6, -4.93023393563682355012e-01) (7, 5.42288702855529547442e-01) (8, 4.02269408074190232272e-02) (9, -4.07576456874350123716e-01) (0, -6.63917660713195800781e-02) (1, -7.95315324242820143041e-02) (2, 1.93962156323823686765e-01) (3, -1.06533215955564752875e+00) (4, 1.13761287362187912819e+00) (5, -3.66281722976565360383e-01) (6, 2.28623465731817493429e-01) (7, -6.49563956617606241828e-01) (8, -3.68099283625355974681e-02) (9, 4.58876121534855074824e-01) (0, -9.62222591042518615723e-02) (1, -4.18180188122814905372e-02) (2, -3.47975689483048383766e-02) (3, 3.48063190371236952370e-02) (4, -2.27259117521946968354e-01) (5, 1.00383791046064110852e-01) (6, 1.41324640905134413238e-01) (7, -3.07672087142249611746e-02) (8, 1.00814410744921971463e-02) (9, 9.23151661541874411776e-03) (0, -8.37249010801315307617e-02) (1, -5.99060757492588177864e-02) (2, -1.16178670127157473296e-02) (3, -1.33129191716863726214e+00) (4, 9.15686035330897429851e-01) (5, -4.80001374716132633846e-01) (6, 3.10628876982515511607e-01) (7, -1.52954631465792939560e-01) (8, 1.92682870232962932810e-01) (9, 1.69702268773002956648e-01) (0, -6.01360276341438293457e-02) (1, -3.03258313215845287658e-01) (2, 1.48990024609138876910e-01) (3, -1.26357493803661147247e+00) (4, 8.92186159721517713095e-01) (5, -3.03320289088748862305e-01) (6, 1.43604231631120904389e-01) (7, -7.65213130986724832105e-01) (8, -4.60265238075651395011e-02) (9, 7.46982574405622878899e-01) (0, 5.10082617402076721191e-02) (1, -1.00178495776840917331e-01) (2, 1.71664529094233991868e-01) (3, -1.23755662399181698419e+00) (4, 1.57643789781064036504e+00) (5, -1.55836321928709398144e+00) (6, 2.14997517539603499870e-01) (7, 4.77780431738162258970e-01) (8, 1.27232418966104158381e-02) (9, 2.27809676856261605904e-01) (0, -3.86833548545837402344e-02) (1, 1.19334950331814390601e-02) (2, -4.23072665396093255952e-02) (3, -4.41376633093991610490e-01) (4, 8.83901476784333839376e-01) (5, 2.83885248363010926631e-02) (6, -6.12246035421302060159e-03) (7, -6.12171509694949045333e-01) (8, 1.47481913515614213722e-02) (9, 1.74845643519424498447e-01) (0, -5.30969910323619842529e-02) (1, -3.93535443885947411324e-01) (2, 2.00498391869522729625e-01) (3, -1.54748460445034652366e+00) (4, 1.44438285449099645952e+00) (5, -1.98786744180436292240e-01) (6, 2.49211652574989839248e-01) (7, -1.35759905156657523229e+00) (8, 1.00684982304562777033e-02) (9, 1.03103384684479726374e+00) (0, 3.40604558587074279785e-02) (1, -1.34750300702499797856e-01) (2, 8.79964188166242333722e-02) (3, -2.22900609780360164924e-01) (4, -8.12887081229033137131e-02) (5, -6.97428529855581347263e-01) (6, 3.39118264809157243800e-01) (7, -4.72951394162624202955e-02) (8, -6.49336625988461424441e-02) (9, 3.33511427186442721560e-01) (0, 7.89930596947669982910e-02) (1, 4.68712796722366986657e-01) (2, -3.09707021306859675569e-01) (3, 2.31108591071550595331e+00) (4, -1.55527663401396232246e+00) (5, 3.72564982689333967780e-01) (6, -1.96975068863251140394e-01) (7, 5.98497013469535099617e-01) (8, -2.69780442411401318037e-02) (9, -9.94439081486656051290e-01) (0, -2.16873660683631896973e-02) (1, -2.01134570367082543552e-01) (2, 1.28515877147700102734e-01) (3, -8.08490655950018566323e-01) (4, 5.50183926380486187924e-01) (5, -6.78373529132111019457e-01) (6, 2.65759452709016796845e-01) (7, -9.85797344653622786836e-02) (8, -1.96158175523212269242e-01) (9, 3.67038437294375075037e-01) (0, 8.87738093733787536621e-02) (1, -3.86018155802175869096e-02) (2, 2.40512321732132272611e-02) (3, -1.07831379326212362102e+00) (4, 7.78244119394438271797e-01) (5, -2.71509949750163626092e-01) (6, 2.58512172853452903976e-01) (7, -4.67869428160686551266e-01) (8, 1.28131094306910359171e-01) (9, 2.95244190541108397774e-01) (0, 5.05975559353828430176e-02) (1, -7.22146032109460156434e-01) (2, 5.16696581881198602204e-01) (3, -2.97647069417035314842e+00) (4, 2.74223516493452779130e+00) (5, -1.01231261382660431281e+00) (6, 1.50169227394971016576e-01) (7, -8.21294142954055339523e-01) (8, 1.32459174883837238479e-01) (9, 1.68662358287615510299e+00) (0, -2.20348685979843139648e-02) (1, -7.81151105337968554299e-02) (2, 9.52783207873813403621e-02) (3, -4.19440523732075687402e-01) (4, 5.96232920337745553319e-01) (5, -4.09321817375247087867e-01) (6, -2.96327427437786727893e-01) (7, 1.03755825139901391996e-01) (8, 4.13482801969275240439e-02) (9, -3.36158860788423677346e-02) (0, -2.24262326955795288086e-02) (1, 8.85727604426012199434e-02) (2, -1.57883238062028002924e-01) (3, 6.76784289465968691424e-01) (4, -4.63535198737332343466e-01) (5, -9.59132282852377116011e-02) (6, -3.21073568330109915259e-01) (7, 7.59632648463717363718e-01) (8, 9.77346338951833558395e-03) (9, -2.43516308614862425630e-01) (0, 1.28502026200294494629e-02) (1, 5.48503914194271302573e-02) (2, 1.27721433552328358929e-02) (3, 3.41494614275676233728e-01) (4, 8.61599146487223299662e-02) (5, 2.97396322601149558362e-03) (6, -4.00901653963941673187e-01) (7, 5.88849641749225605203e-03) (8, 5.54232593958246741450e-02) (9, -1.55371486437741092995e-02) (0, -7.31642544269561767578e-03) (1, -6.54172047383880517213e-02) (2, -5.78166604483497797995e-02) (3, -1.63231239544561895771e-01) (4, -1.65865588077443670834e-01) (5, 2.45320063890359929548e-02) (6, 2.91609032032498438625e-01) (7, -3.14496447040331431055e-02) (8, -5.89290464831766849785e-02) (9, 6.23920260388214770186e-02) (0, 6.63082823157310485840e-02) (1, 1.02254626678319443522e-01) (2, 1.52021050252671933306e-02) (3, 1.16699209186320462805e+00) (4, -1.36417408463185507728e+00) (5, 1.08769235906088046484e+00) (6, -2.72587292569890171645e-01) (7, -2.68867993243904590539e-01) (8, 1.37529895488356951327e-01) (9, -1.84196812477940174979e-01) (0, -4.05166409909725189209e-02) (1, -2.72819473665963652120e-01) (2, 2.11466507481069099228e-01) (3, -1.55032883489443551461e+00) (4, 1.68836083762304389744e+00) (5, -1.01680664189651936979e+00) (6, 1.03744007409719590784e-01) (7, -1.72827643753759307987e-01) (8, 1.16449309943826000840e-02) (9, 5.08307384505954140685e-01) (0, -1.47435069084167480469e-02) (1, 4.30760440311819606252e-02) (2, -8.03693556846697687579e-02) (3, 3.94958893384448672670e-01) (4, -8.51525118611189402174e-02) (5, -1.18123315533777112352e-01) (6, -4.58432864858358601889e-01) (7, 4.18456233447259184910e-01) (8, -6.27668693801721605530e-02) (9, -2.34633714163764509064e-02) (0, -2.52951458096504211426e-02) (1, 5.49081761687453401288e-02) (2, -3.02626545764126432536e-02) (3, -9.11062817195429253125e-01) (4, 9.70756905993426566504e-01) (5, -7.19806122597452135992e-01) (6, 3.16237011514771959586e-01) (7, 1.58638570289559299731e-01) (8, 4.14741824928427857411e-02) (9, 2.24585858361213350221e-02) (0, 3.83953526616096496582e-02) (1, 1.25166625815265858401e-01) (2, -1.25345275579104797892e-01) (3, 9.76426871010990460320e-01) (4, -1.12025773518812155061e+00) (5, 9.09168044674319997256e-01) (6, -2.44080337047637957459e-01) (7, 1.29723441678562534385e-01) (8, -4.46717828201446398584e-02) (9, -3.05969233407617779985e-01) (0, -5.27337677776813507080e-02) (1, -4.49507477941243488440e-02) (2, 1.23018223275424484764e-01) (3, -5.90822478919246552032e-01) (4, 4.09022854313997763498e-01) (5, -1.08231287820270499767e-01) (6, 3.13316532828427474211e-01) (7, -6.87147414400229028519e-02) (8, -1.13167283260539958123e-01) (9, -1.85187302375592575954e-02) (0, 3.35891619324684143066e-02) (1, 3.69078982206845276903e-02) (2, 5.01292539139953502447e-02) (3, 3.65433763424728219604e-01) (4, -1.22826892196122905432e+00) (5, 4.13480111397556138186e-01) (6, -9.42681631304756739720e-02) (7, 3.63786988550984291546e-01) (8, 6.70150890896246687056e-02) (9, -6.54933833412463806134e-02) (0, 2.95070931315422058105e-02) (1, 7.07436624414166881358e-01) (2, -5.09064496119592591050e-01) (3, 2.74556813741768079851e+00) (4, -2.43280109377978748242e+00) (5, 1.87218058524137576093e+00) (6, 2.58729408315869213730e-01) (7, 1.07420738751717745330e-01) (8, 1.22906444957378790939e-01) (9, -1.60008664862958305264e+00) (0, 8.06349441409111022949e-02) (1, -1.06498867148724418730e-01) (2, 1.80398568417576926626e-01) (3, 4.15672995683080137574e-02) (4, -5.62628491558221810465e-01) (5, -4.11993157113600017016e-01) (6, 4.06399498048988283561e-01) (7, -1.27606055662481343571e-01) (8, 1.74393870954478530377e-01) (9, 2.38596215532676236837e-01) (0, 8.65450575947761535645e-02) (1, 3.43117717015057999141e-01) (2, -2.33416278367672591632e-01) (3, 1.95095941236921466277e+00) (4, -8.03253830215856279295e-01) (5, 1.88928915082956061511e+00) (6, -4.00507226811130989663e-01) (7, -7.56938893968557513503e-01) (8, -3.51938615343302813043e-02) (9, -7.16319930074866273451e-01) (0, 6.51221349835395812988e-02) (1, -3.76172870073173737371e-01) (2, 2.61313650513803119591e-01) (3, -1.02737107121664328346e+00) (4, 2.03145681077985607033e+00) (5, -3.60941549025809826912e-01) (6, 1.19195467722043785264e-01) (7, -1.35614236887977535062e+00) (8, 1.20148162034854847496e-02) (9, 7.73187576913508589627e-01) (0, -9.27570909261703491211e-02) (1, -9.63995937820514604832e-03) (2, -6.03850738382440341279e-02) (3, -1.90805824127502771104e-01) (4, 3.60758119781830144390e-01) (5, 2.28620313307996453345e-01) (6, -1.28914961557826723837e-01) (7, -3.25706491901080974483e-01) (8, -1.06645360691020804622e-01) (9, 1.02638450372140102584e-01) (0, -5.87917864322662353516e-03) (1, 1.87454054594302532699e-01) (2, -7.64699260445412809517e-02) (3, -3.27307628753746193695e-01) (4, 3.34200941529635253691e-01) (5, -3.77181790923097282064e-01) (6, -4.00703942394081191747e-01) (7, 9.46478837219109414569e-01) (8, -2.97796440116095184614e-01) (9, -2.04211419672382044066e-01) (0, -3.98775041103363037109e-02) (1, 1.71563926954580114881e-01) (2, -1.51764237281016463321e-02) (3, 1.14801892577838215992e+00) (4, -6.91605496660654517349e-01) (5, 9.37759077317817157926e-01) (6, -6.70682653820358520846e-01) (7, -5.26631426131635299592e-02) (8, 2.52997638109500821990e-01) (9, -1.93987747330246207422e-01) (0, 4.15064767003059387207e-02) (1, -1.42411097325819829829e-02) (2, -5.66018984140556069562e-02) (3, -2.57710925256060874311e-01) (4, 3.42186404946799804794e-01) (5, 6.88378163589345865025e-02) (6, 2.41336187506118765578e-01) (7, -1.39869930684692111988e-01) (8, -4.27403730586264907210e-02) (9, -8.21618215645637667288e-02) (0, 9.77908000349998474121e-02) (1, -6.99966013251156898844e-02) (2, -4.00020472840717511431e-02) (3, -6.54960312639261243994e-01) (4, 1.18846588266394298516e-01) (5, -8.23652508812331207722e-01) (6, 4.06892928918580809583e-01) (7, 1.91427653422698212937e-01) (8, 1.24600402584714484155e-01) (9, 1.98141045823248401758e-01) (0, -6.36890679597854614258e-02) (1, 8.75389527986482479660e-02) (2, -4.97774315409401021948e-02) (3, 8.24988694919520981763e-01) (4, -3.96082954185120128532e-01) (5, 3.77743317441140702417e-01) (6, -2.81710135012409490507e-01) (7, 1.72284732147854391382e-01) (8, -6.84431737282672203460e-02) (9, -1.91917649584572747035e-01) (0, -4.06929925084114074707e-02) (1, -1.89759469795522467406e-01) (2, 1.67523730001087556296e-01) (3, -9.61371490505945169858e-01) (4, 1.00084741024778023366e+00) (5, -2.11893359996282393265e-01) (6, 1.09968661943850562479e-01) (7, -7.17859009162412187166e-01) (8, 5.15076442331534600783e-02) (9, 3.82824929476497766156e-01) (0, -4.38385680317878723145e-02) (1, -2.86248013413191448873e-01) (2, 2.21398237188339369608e-01) (3, -1.24856028967592447287e+00) (4, 1.35728410534425081302e+00) (5, -3.18524227516928992721e-01) (6, 1.38751590655220274906e-01) (7, -8.78189835726282286288e-01) (8, 3.62582798313897600173e-02) (9, 5.99720330998879336271e-01) (0, 4.25631478428840637207e-02) (1, 1.12789475518758022798e-01) (2, -7.33607643084937255384e-02) (3, -1.37880100834087915285e-01) (4, -1.46192304113076606588e-03) (5, -4.55586746181496970998e-01) (6, 1.44325106584911211360e-01) (7, 5.75289176363634191524e-01) (8, -3.48727864389325598049e-02) (9, -5.72452125407745676666e-02) (0, 8.75097140669822692871e-02) (1, 7.60932715780252288962e-02) (2, 5.54960685188559746384e-02) (3, 8.70354496397694799015e-01) (4, -5.98833862305644948343e-01) (5, 6.33641694326176674323e-01) (6, -4.97234444374024142643e-01) (7, -1.47556164491858488041e-01) (8, -7.57984894663922439788e-04) (9, 2.37829121334772915219e-02) (0, 1.37971416115760803223e-02) (1, -2.40012659286699014949e-01) (2, 1.48036350425520935037e-01) (3, -1.57239950193516064836e+00) (4, 1.31698731828811355093e+00) (5, -4.41868163874489516818e-01) (6, 7.97920184250996977759e-02) (7, -5.73290462434553615978e-01) (8, 1.08050894205428058004e-01) (9, 6.52869474528170234962e-01) (0, 3.68826016783714294434e-02) (1, 1.95191544213911716277e-01) (2, -1.51274553998626493101e-01) (3, 8.42911610493266461042e-01) (4, -7.92320352112272918710e-01) (5, 9.12943850520308575192e-02) (6, -1.73831496997705642338e-01) (7, 9.04385948905697456546e-01) (8, -1.30996466687660316486e-02) (9, -4.19678192384508375046e-01) (0, -8.46628174185752868652e-02) (1, 6.39053514868273997429e-01) (2, -3.46351462431455037194e-01) (3, 8.88833446770382340496e-01) (4, 9.93938967957227609284e-02) (5, 1.26746764977635373306e+00) (6, -1.14544208222989843393e-01) (7, 7.35759791265885643163e-01) (8, -7.62794552735977793301e-02) (9, -1.42120813272973856023e+00) (0, -8.48050937056541442871e-02) (1, -2.88402725740697529755e-01) (2, 9.65288370731760131394e-02) (3, -8.83676899103490121057e-01) (4, 1.26565037981549521895e+00) (5, -1.29479264555682127558e+00) (6, -2.28935072196016276003e-01) (7, 2.34742291279558451533e-01) (8, -1.18404801448732860392e-01) (9, 4.67002607843277739441e-01) (0, -6.46382272243499755859e-02) (1, -6.95130545275941258421e-02) (2, -1.17190590621717910524e-01) (3, 1.82412309569033481704e-01) (4, -9.20067648064850862610e-01) (5, 9.74889456380675090141e-02) (6, -1.35399728857693218975e-01) (7, 5.46414867256942327067e-01) (8, 5.87606615148765498713e-02) (9, -5.46117677347118524178e-02) (0, 5.24454787373542785645e-02) (1, 7.25279563282868050544e-02) (2, -5.03085545163373878963e-02) (3, 8.53248518245310560992e-01) (4, -9.79350608400667010933e-01) (5, 3.91327439623106898559e-01) (6, 1.07190930297543132732e-01) (7, -1.51170944287593922439e-01) (8, 3.84283659592706217101e-01) (9, -1.26659224086708460666e-01) (0, -5.13470210134983062744e-02) (1, -2.35911330404502267433e-01) (2, 9.91199935396219339312e-02) (3, -1.13966106734070415918e+00) (4, 8.33861761047508309730e-01) (5, -7.52674909834369021411e-01) (6, 3.21252798607028766664e-01) (7, -3.15687716114431748959e-01) (8, 1.93687206576571915861e-02) (9, 4.62639580971659525321e-01) (0, 4.73864600062370300293e-02) (1, 1.33314129989660634656e-01) (2, -1.41602735803472379317e-01) (3, 3.17734753877970343972e-01) (4, -1.66230011919437870027e-01) (5, -3.32852544709542119694e-01) (6, 6.65305551635540642907e-02) (7, 5.86061010915596036774e-01) (8, 7.10243632997455964784e-02) (9, -1.80468254489918905614e-01) (0, 3.04217636585235595703e-03) (1, -4.44514380979760400595e-05) (2, 5.96647169684672434853e-02) (3, 3.94862229117299623482e-01) (4, -3.73159177015301324332e-01) (5, 2.73524084698836156271e-01) (6, -3.46276496728915861301e-01) (7, 1.64454360559034812317e-01) (8, -1.08631063915754187688e-02) (9, -6.30103634478867552504e-02) (0, -7.81780183315277099609e-02) (1, 1.40032567702732223258e-02) (2, 5.62323817519291904721e-02) (3, 2.79667545033911058017e-01) (4, -1.47401345278368733904e-01) (5, -3.63649690294463381890e-02) (6, -8.87675930058375028953e-04) (7, 1.12498279139527770920e-01) (8, 2.61708383622575625760e-02) (9, -8.72103964594529573739e-02) (0, 2.26660743355751037598e-02) (1, -2.80026572752323954507e-01) (2, 2.85540668523448837313e-01) (3, -3.06635667655992094627e-01) (4, -5.68508880833780276022e-04) (5, -1.05911110018389442722e+00) (6, 2.73182535844053886454e-01) (7, -1.48808752831903423619e-01) (8, -7.76058780827759281395e-02) (9, 5.38272320748267252277e-01) (0, -8.06520730257034301758e-02) (1, -6.09046372777150638034e-02) (2, 5.52129878108088348321e-02) (3, -1.02655957364795225040e+00) (4, 1.05220164241623592716e+00) (5, -4.26713841306868846281e-01) (6, 9.01860787356377480162e-02) (7, -2.98848233554373621246e-01) (8, -1.32594297779001391024e-01) (9, 3.95697903634571412912e-01) (0, -6.01326636970043182373e-02) (1, 2.92711690124294078574e-02) (2, -7.23327685189674579602e-02) (3, 6.41811313170006392248e-01) (4, -4.86851709000586274634e-01) (5, 3.98958618918919205587e-01) (6, -3.97967787736927758324e-01) (7, 2.44537745380137089279e-01) (8, 9.70004319574091639078e-02) (9, -2.06805113717071081814e-01) (0, -6.63406550884246826172e-02) (1, -1.16036064008376987866e-01) (2, 4.67888892289290286852e-02) (3, -1.10909105629572746210e+00) (4, 8.91115296098320741613e-01) (5, -6.09578646868930928981e-01) (6, 1.09144604908475884031e-01) (7, -1.71209876666404164913e-01) (8, -8.34274589478521816366e-02) (9, 4.78127074935698170854e-01) (0, 9.02222469449043273926e-02) (1, -1.60584589533146471219e-01) (2, 7.22799082786548946489e-02) (3, -3.38456166862688923036e-01) (4, 6.75269160013719282887e-01) (5, -5.05132400686886362529e-01) (6, -1.04682590654560092602e-01) (7, -1.40971366365505612617e-01) (8, -1.42895994046428054247e-01) (9, 2.15923755596302890947e-01) (0, 5.34365549683570861816e-02) (1, 2.11169297419932261439e-01) (2, -5.17469513587426946377e-02) (3, -5.62399918958085970333e-02) (4, 1.42017999543249673344e-01) (5, 7.36061155207103468001e-01) (6, -1.20483780803982670760e-01) (7, -1.41424815518937402326e-01) (8, 4.46993560090974684229e-03) (9, -2.17886565682686994538e-01) (0, 5.30894622206687927246e-02) (1, 1.86566972478357934184e-01) (2, -6.98107937307240050684e-02) (3, 4.69046381042776738823e-01) (4, 2.65691294859351445634e-01) (5, 2.78997854631338304543e-01) (6, -6.32407212391162820708e-01) (7, 7.50548305190844700086e-01) (8, -1.17171634997302237524e-01) (9, -4.81631215026366299448e-01) (0, -9.62588265538215637207e-02) (1, -1.89211192576103470753e-01) (2, 1.48546081295627740992e-01) (3, -2.07747936581269376788e+00) (4, 1.00107574177239166957e+00) (5, -8.50058645118874967039e-01) (6, 3.11950065142850396782e-01) (7, -2.06355650062466158823e-02) (8, 6.94780208204859306420e-02) (9, 7.34511416027892938274e-01) (0, -2.57247537374496459961e-02) (1, -1.97137886516099619660e-01) (2, 2.10076344558486199920e-01) (3, -6.47631046819074018828e-01) (4, 8.99455260062062111892e-01) (5, -1.36750213899216155333e+00) (6, 1.01527975036133713549e-01) (7, -1.30556472432498266167e-01) (8, -1.69055007941381202352e-02) (9, 7.84145553240730763811e-01) (0, 9.23942998051643371582e-02) (1, -3.55494108169785216766e-01) (2, 2.46601475491821348074e-01) (3, -1.17687265509783500761e+00) (4, 9.55336601629214854370e-01) (5, -4.90066304229889518340e-02) (6, 2.66544051213670696310e-01) (7, -1.61307321870192099666e+00) (8, 4.96793814582074336889e-03) (9, 8.29203751235213726289e-01) (0, -5.75695559382438659668e-02) (1, -2.10623505677208888720e-01) (2, 2.57962908942609481233e-01) (3, -9.70026543931225782025e-01) (4, 5.04130384236485151739e-01) (5, 2.61010385146662637901e-01) (6, 3.38582061470613648879e-01) (7, -1.64245960054722250909e+00) (8, -6.30519395476426547376e-02) (9, 6.82770799759484625646e-01) (0, 3.59145924448966979980e-02) (1, -1.30245368896322100127e-01) (2, 1.15035305707469934222e-01) (3, -2.50735640318690972128e-02) (4, -1.26645320838345509795e-01) (5, -5.89785696240425649783e-01) (6, 1.57328429394661684082e-01) (7, 8.60285874776259978924e-02) (8, 7.59944054411258035353e-02) (9, 1.45068759020223730927e-01) (0, 6.43461272120475769043e-02) (1, -9.37509594940954954501e-02) (2, 9.08355626153886652752e-02) (3, -1.34164864823204221800e+00) (4, 9.53026498110949304987e-01) (5, -6.86159633898826726295e-01) (6, 4.27271873283818548472e-01) (7, -2.33547856727992469983e-01) (8, -3.63605793927827894430e-02) (9, 4.17986396348529465339e-01) (0, -4.22684848308563232422e-02) (1, -3.85176344895822656000e-02) (2, 1.32137381913192660313e-03) (3, -7.55060657935395451723e-01) (4, 9.88824418722889841860e-01) (5, -1.29421948534606134906e+00) (6, 3.61738342228398568334e-01) (7, 3.31614511784052601318e-01) (8, -3.88270483966982812851e-02) (9, 1.75439532643556328484e-01) (0, 3.72265353798866271973e-02) (1, 1.54749367793578004177e-02) (2, -5.37862220153181788684e-02) (3, 8.64679521372629156239e-01) (4, -8.02248479353755206134e-01) (5, 5.33271084024164787607e-01) (6, -1.51166977980644212654e-01) (7, -5.01455641868148727092e-02) (8, 2.16433375018961565717e-01) (9, -2.40871145491767912894e-01) (0, -8.01180005073547363281e-02) (1, -4.80628795651105375497e-02) (2, -2.49363174864986013313e-02) (3, -7.23059724725520769351e-02) (4, -6.14646940146778120173e-01) (5, -3.19315744102769361046e-01) (6, 2.98126785066057387041e-01) (7, 2.41695181474304354730e-01) (8, 1.14432264257508922722e-01) (9, 1.42253054238195952852e-01) (0, -3.78794483840465545654e-02) (1, -3.67662528181175798925e-02) (2, -5.29743362945171714085e-02) (3, -3.24242592232874132785e-02) (4, -3.92931821668619118970e-01) (5, -3.50438997184331302304e-01) (6, 1.77506234384389394165e-01) (7, 4.41283298116415145795e-01) (8, -7.58075176516119085719e-04) (9, 2.71417781770485894155e-02) (0, -8.67229253053665161133e-02) (1, 8.35957807518152018478e-02) (2, 7.89765214793879469224e-03) (3, 3.74681139399422394320e-02) (4, 3.40377227953359118295e-01) (5, -5.42138441506346824283e-01) (6, 9.82538916708407539247e-02) (7, 1.96713824939315828910e-01) (8, 1.11281864546460745879e-01) (9, -8.37444209101329273270e-02) (0, 7.29915276169776916504e-02) (1, 1.00465145293367461021e-01) (2, -6.96652766939250961409e-02) (3, 1.49778737613449774990e+00) (4, -1.57494210347691021568e+00) (5, 1.10371532159275420604e+00) (6, 9.26688769889223024068e-02) (7, -2.69486968446042307601e-01) (8, 1.40487708928234311667e-01) (9, -3.93583050826031455305e-01) (0, 4.56207022070884704590e-02) (1, 1.31526079534415085703e-01) (2, -7.71356666526930023764e-02) (3, -1.20448952859954647177e-01) (4, 2.93904285908450468856e-01) (5, -1.48260482419482531036e-01) (6, 3.32704202722549635673e-02) (7, 9.76933454183749466759e-02) (8, 1.29162855707758705837e-01) (9, -1.09160612669845738520e-01) (0, 4.80701550841331481934e-02) (1, 1.00192044679976693944e-01) (2, -9.85291913186673862235e-02) (3, 4.26903551873220543644e-01) (4, 3.03208208552722714713e-02) (5, 3.07526125115909987340e-01) (6, -4.73434750294127959513e-01) (7, 2.00120918970558281380e-01) (8, 4.21862913883485207700e-02) (9, -1.81147292267929610476e-01) (0, -9.08677354454994201660e-02) (1, 1.82178258535453663214e-01) (2, -9.18715500363985887455e-02) (3, 1.12062581994996107726e-01) (4, -6.06357251655985710070e-02) (5, 1.00045618070372419051e-01) (6, 1.41351488508082601125e-01) (7, 2.71202456882969733520e-01) (8, 1.03444806205087322382e-01) (9, -2.40336718999416443232e-01) (0, -2.58807837963104248047e-03) (1, 2.43016010649766495133e-01) (2, -1.33108026256965911172e-01) (3, 1.51745743228029361660e-01) (4, -6.69320228584184051535e-01) (5, 6.20661804173820330632e-01) (6, 3.63546651121582298227e-01) (7, 3.67723856146940530909e-01) (8, 2.96666643334233315343e-01) (9, -4.47185229827302910266e-01) (0, -1.81962922215461730957e-02) (1, 8.68336915413972648681e-02) (2, 8.47251836627047894002e-02) (3, -2.87276586627188246226e-01) (4, 5.17540133441359628819e-01) (5, 1.37772030750466008969e-02) (6, -4.44502335580100327306e-02) (7, -1.12956214991365613831e-01) (8, -4.78307046064364929649e-02) (9, -4.69815729659120162598e-02) (0, 7.72407129406929016113e-02) (1, -1.16067295733316006023e-01) (2, -4.53132462030408217357e-02) (3, -6.33375170703945999939e-01) (4, 6.23431795617647055430e-01) (5, -5.95470583241922701845e-01) (6, 2.49131508665246859113e-01) (7, 1.26899776683952414391e-01) (8, -4.39643251902613330095e-02) (9, 3.92874242445650570521e-02) (0, -8.12626332044601440430e-02) (1, -3.28486354280928954941e-02) (2, -4.67082957826902844811e-02) (3, 1.92288295677593840116e-01) (4, 8.65604255660353122392e-02) (5, -1.07460483019457139764e-01) (6, -2.00744946272112589902e-01) (7, 7.41721646955015856406e-02) (8, -1.86836730713587570452e-02) (9, -1.03093867178819017377e-02) (0, 4.37943562865257263184e-02) (1, -1.99303029219590588372e-01) (2, 1.73906425565719002790e-01) (3, -1.11529370725114995722e+00) (4, 5.01956737589850043868e-01) (5, 7.69350672198566842841e-02) (6, 3.69227142487408677152e-01) (7, -1.24469787584941293801e+00) (8, -3.99143601759613733670e-02) (9, 6.17067183654290141170e-01) (0, 9.51008498668670654297e-03) (1, -9.73785272344326602312e-02) (2, 1.25517949544241447235e-01) (3, -6.82212633406806545633e-02) (4, -4.89026284261589561098e-01) (5, -2.20320335420169766127e-01) (6, 9.35184423424697958138e-02) (7, 1.50239385308251816031e-01) (8, -2.15957379966157936302e-02) (9, 1.79830593641633090796e-01) (0, -8.27476456761360168457e-02) (1, -6.75467147600570805288e-02) (2, 1.51098161501622335612e-01) (3, -3.42168021201036232082e-01) (4, -4.76572615339498795173e-01) (5, -7.95472114130082869066e-02) (6, 2.99014149782672877809e-01) (7, -1.53634507271623504954e-01) (8, 4.91034226892396244435e-02) (9, 2.69621681216405562065e-01) (0, -8.36559236049652099609e-02) (1, -9.77458929502311169024e-02) (2, -8.81411317859347176462e-03) (3, 1.95322128816246554095e-01) (4, -5.80257832992607025524e-01) (5, 3.92056508488850152805e-01) (6, -3.23955700088944531512e-02) (7, -1.92236106296078956834e-01) (8, -7.67937084237970413181e-02) (9, 1.61815465858421464462e-01) (0, -1.76080316305160522461e-03) (1, -3.97712862506369724258e-02) (2, -3.70132307697130166768e-02) (3, -3.93413858041116781816e-01) (4, 1.08298523459406315084e+00) (5, -3.91686327719391658153e-01) (6, 4.94673196225797195957e-02) (7, -4.40450902376563813156e-01) (8, 4.47383473854019442228e-02) (9, 1.18809053305523285027e-01) (0, 3.11480984091758728027e-02) (1, -1.91432252081859023696e-02) (2, -6.14773815430297765252e-05) (3, -2.49847173464358390804e-01) (4, 9.06364959862477476138e-02) (5, -3.60263508010020161443e-01) (6, 1.66291727721437770926e-01) (7, 4.30145607589217729427e-02) (8, -1.02596624388120269411e-01) (9, 1.88934538402311613670e-01) (0, -4.58090715110301971436e-02) (1, -1.31494155342819996068e-01) (2, -4.34231249127838489499e-02) (3, -7.94772433704445058211e-01) (4, 8.88593847564955297003e-01) (5, -1.73436644912684595488e-01) (6, 2.62944375568415045219e-01) (7, -4.08185687635501615045e-01) (8, 1.03410925599633593541e-01) (9, 8.06004880733367755352e-03) (0, -9.43724513053894042969e-02) (1, -6.71506641461678266403e-02) (2, -1.51360747848343964866e-02) (3, -4.63585495503579941845e-02) (4, 4.82126175449997862454e-01) (5, -1.90505281305020479632e-01) (6, -2.57052002989217931450e-01) (7, -2.47158917091739038785e-02) (8, -1.63250814782684126880e-02) (9, -3.70715898389216633180e-02) (0, -1.13938376307487487793e-02) (1, 7.03883757408960919477e-01) (2, -6.26958342430363080311e-01) (3, 1.85894142535675532812e+00) (4, -5.46271098994714709995e-01) (5, 1.85360301009921402127e+00) (6, -2.30763723555625827055e-01) (7, 2.02297824607362453087e-01) (8, -8.38971765662357704674e-02) (9, -1.90462930678474440249e+00) (0, -2.81608253717422485352e-02) (1, 1.55530042367316351237e-01) (2, -9.87513060995583863422e-02) (3, 5.82263346715723648095e-02) (4, -8.38489596559774570672e-03) (5, -4.17959114162533076908e-02) (6, 2.03750333892774304623e-01) (7, 4.32794798189462870397e-01) (8, 6.28166495511862238432e-02) (9, -2.64553791327136300637e-01) (0, 5.07874712347984313965e-02) (1, -1.62456629039190392216e-01) (2, -2.15570480664388566816e-02) (3, -1.29129641412144402501e+00) (4, 5.44926201743629157193e-01) (5, -7.01432333416267317361e-01) (6, 6.83355070402632991389e-01) (7, -1.38368107869392714671e-01) (8, -6.31270331486950830868e-02) (9, 2.13191163692243751404e-01) (0, 7.87880644202232360840e-02) (1, 3.28351946682697681812e-01) (2, -1.39030884587077824266e-01) (3, -4.02855626420646828478e+00) (4, -5.82252086719347916599e-01) (5, -5.08303430299278602433e+00) (6, -1.06008313232834616713e+00) (7, 7.15684724628874135988e+00) (8, -1.72826132496741058375e-01) (9, -6.54653438704816847959e-01) (0, 9.59583595395088195801e-02) (1, 7.62107739228953264508e-04) (2, 6.15471040685605375042e-02) (3, -3.30297309918289538899e-01) (4, 3.60145525518328624148e-01) (5, -1.64365115221781349364e-01) (6, 8.36005775620663749148e-02) (7, -6.04720370329622988748e-02) (8, 5.89805531617378572817e-02) (9, -3.43578414852132377200e-02) (0, -1.31347775459289550781e-03) (1, 8.55588010786796776541e-02) (2, -6.01183523862553192973e-02) (3, 4.18438671455953592471e-01) (4, -1.29519303676325553409e-01) (5, -2.24424641455168827342e-01) (6, -1.43421155579858572438e-01) (7, 2.48587163480660289228e-01) (8, 1.55541270221798838547e-01) (9, -9.55806540545894312011e-02) (0, -2.53183394670486450195e-03) (1, 8.03644595357836527549e-02) (2, -8.27602977166329578651e-02) (3, -4.70794264992989264229e-01) (4, 1.20411416518748870530e+00) (5, -1.63579958271392322811e-01) (6, -2.43514354529337728739e-01) (7, -3.95403452904704300064e-01) (8, 1.91501758400884902755e-01) (9, -3.79794197313304826569e-02) (0, 8.38535353541374206543e-02) (1, 3.23321126929342061995e-02) (2, 2.89966666674993864272e-02) (3, 5.94956675121726535904e-02) (4, 3.79664934958021671463e-02) (5, -1.52892921616208876667e-01) (6, -7.70003741283472181722e-02) (7, 3.91521241894487337376e-01) (8, 1.08412981228038510229e-01) (9, -2.56926270333809048108e-01) (0, 9.18705686926841735840e-02) (1, 7.09452034100805511985e-02) (2, 7.04335476409736482850e-02) (3, 4.69310999899063163721e-01) (4, -9.12812884428227500067e-01) (5, 2.72284305380457170020e-01) (6, -8.14448605337431408291e-02) (7, 7.20487020689868501444e-02) (8, 3.73781718776618546163e-02) (9, 1.04416813436885150268e-01) (0, -9.40169543027877807617e-02) (1, -6.95955499030175839259e-02) (2, 7.27335778264014826133e-02) (3, -9.49932164666582867785e-02) (4, 2.37523297668637105307e-02) (5, -2.40972156820896399321e-01) (6, 2.02164203892953975306e-01) (7, 1.40223190217090065701e-01) (8, -5.07790291391607279126e-02) (9, -3.71470137146079695811e-02) (0, -7.37034827470779418945e-02) (1, -1.00841229739135868071e-01) (2, 8.84686805921235802641e-02) (3, -6.75968292691964789398e-01) (4, 8.72236624938137472540e-01) (5, -1.66880092976397359505e-01) (6, 1.69271984064089997535e-01) (7, -8.03757329859017821683e-01) (8, 9.83964866357843054301e-02) (9, 3.31954630917160098402e-01) (0, -6.87359273433685302734e-03) (1, 7.56951815950045181491e-02) (2, -7.80602635493379548581e-02) (3, -1.52862957033365359782e-01) (4, 2.48485007405509050749e-01) (5, 3.37514606771681602293e-01) (6, -2.10181569643308308049e-01) (7, -1.96456179139443798398e-01) (8, 4.44095277162288720740e-02) (9, -2.83450017539542339917e-02) (0, 5.09794279932975769043e-02) (1, -3.78359820037535571347e-02) (2, -5.77865976400674177804e-02) (3, -5.79034494576625813345e-01) (4, 7.71809177975845361885e-01) (5, -4.45279706784724005342e-01) (6, 1.49508981630151943643e-01) (7, -2.84981018758035838101e-02) (8, 1.15967333813897580108e-01) (9, -3.74760042653572642002e-02) (0, -3.30442190170288085938e-02) (1, 1.91127033717344331498e-02) (2, 6.42927813018053934124e-02) (3, -6.27294161113225307025e-02) (4, -1.49683759773146046745e-01) (5, -2.78747624729924758924e-01) (6, 2.37296603637959763189e-01) (7, 2.30033432693054262774e-01) (8, -4.70026197664492537132e-02) (9, 2.26456183476247546738e-02) (0, -9.64346081018447875977e-02) (1, -5.40424817797162532207e-02) (2, -1.06621322483078054266e-01) (3, 8.66962793248952867664e-01) (4, -2.62039372525007252523e-01) (5, 1.70975364639935178968e-01) (6, -5.33136303074908224353e-01) (7, 2.16035909497216793707e-01) (8, -1.48937101886311897697e-02) (9, -9.71848532565991185539e-02) (0, -2.93984040617942810059e-02) (1, -5.63366598443234778415e-01) (2, 5.11234957021531100096e-01) (3, -2.36626008061479131683e+00) (4, 1.84987007569605133028e+00) (5, -4.72988192010724173286e-01) (6, 2.12228842579298582205e-01) (7, -9.62362218748403996926e-01) (8, -1.69928303588544604708e-02) (9, 1.53303138677316552752e+00) (0, -2.20751762390136718750e-03) (1, 1.15215455904932220776e-01) (2, -2.33376085127411196651e-02) (3, -5.04804898333725660109e-01) (4, 8.96283432191427809066e-01) (5, -4.98236383958584383436e-01) (6, -2.45024186496217259712e-02) (7, 3.89539183848181369552e-01) (8, -1.37127405708541011409e-01) (9, -1.42000416704372384169e-01) (0, 7.10598602890968322754e-02) (1, 3.64834780833430571967e-01) (2, -3.07304250330718564665e-01) (3, 1.45233543137162302017e+00) (4, -1.29448644839035020837e+00) (5, 7.56348155943013744640e-01) (6, 4.90883996940690223165e-02) (7, 5.76616071776786184855e-02) (8, 4.68823390941806916743e-01) (9, -6.80379598938692708998e-01) (0, 1.41733884811401367188e-02) (1, -5.66452889309550733365e-01) (2, 3.87857986551672695441e-01) (3, -7.88472530138500271590e-01) (4, -7.77847438664072271530e-02) (5, -1.26139708703439534787e+00) (6, 1.40021272516582501177e-01) (7, -5.66575105714908211496e-01) (8, -4.61739435333812231477e-02) (9, 1.28543268744203520448e+00) (0, 5.40844127535820007324e-02) (1, -1.09616262567040434472e-01) (2, 8.27117807060719356649e-02) (3, -1.14633247536247973031e+00) (4, 1.64538492183445805850e+00) (5, -6.74605933520000089487e-01) (6, 3.50000239277987734710e-02) (7, -2.94385515058808000521e-01) (8, 2.79726090705788368873e-02) (9, 2.61345895260586158493e-01) (0, -3.80793288350105285645e-02) (1, -4.47615760440806587095e-01) (2, 4.25250355433791193960e-01) (3, -1.79449819243840447136e+00) (4, 2.00126578477550420843e+00) (5, -4.24543225477329311257e-01) (6, 1.73934980969594310540e-01) (7, -1.07953384425399168123e+00) (8, -3.93163072185438167150e-02) (9, 1.13552097572677146431e+00) (0, -5.73674663901329040527e-02) (1, 1.21132059335338562733e-01) (2, -1.41077955022144818642e-01) (3, 4.84208408562104342110e-01) (4, -5.79806106169320975563e-02) (5, 3.88372242700475267529e-01) (6, -1.50306853136564805284e-01) (7, -1.64005320413763561183e-01) (8, 1.28242496142255912872e-01) (9, -1.43639914541555113736e-01) (0, -5.91452419757843017578e-03) (1, 4.15240016845532244893e-01) (2, -3.88725258236828352665e-01) (3, 1.90078053589633677589e+00) (4, -6.15239354075974631542e-01) (5, 2.04172386567424091197e+00) (6, -2.83442991689235479491e-01) (7, -7.38360823164637580795e-01) (8, -7.69118602725508970774e-02) (9, -1.00681929729299435294e+00) (0, -4.17238064110279083252e-02) (1, 8.91290991511036259642e-03) (2, -8.84392774775873413695e-02) (3, -3.49626855120598212245e-01) (4, 8.00748396658171879281e-01) (5, -2.04047656731534576835e-01) (6, -1.22489054169612282541e-01) (7, -1.40659075287263957144e-01) (8, -4.67028617145646002262e-02) (9, 3.17023895927768667447e-02) (0, 8.20396840572357177734e-03) (1, 3.06253850260441329301e-01) (2, -3.12885377406307063630e-01) (3, 8.60683431374298701932e-01) (4, -4.11384742473434594778e-01) (5, 1.72672828775342845908e+00) (6, 1.03941018737598778188e+00) (7, 1.13014233554186119268e-01) (8, 2.02209511328762220339e-01) (9, -1.10519095460317462454e+00) (0, 1.78728923201560974121e-02) (1, -1.10690662740076967152e-01) (2, 4.95702322411588208739e-02) (3, 5.92155640541160918633e-02) (4, -4.45750352804161753539e-01) (5, 9.54002420148110236164e-02) (6, 4.54218909227655856520e-02) (7, -2.18771263119628966987e-01) (8, 3.56087413888319798128e-02) (9, 1.99229226704470879783e-01) (0, 4.83185276389122009277e-02) (1, 2.95612011415437303530e-01) (2, -2.00871155830237541062e-01) (3, 1.50958216180551474395e+00) (4, -4.19640787873771459182e-01) (5, 3.30561422715716590748e-01) (6, 