FANN_FLO_2.1
num_layers=3
learning_rate=0.000050
connection_rate=1.000000
network_type=0
learning_momentum=0.000000
training_algorithm=2
train_error_function=1
train_stop_function=0
cascade_output_change_fraction=0.010000
quickprop_decay=-0.000100
quickprop_mu=1.750000
rprop_increase_factor=1.200000
rprop_decrease_factor=0.500000
rprop_delta_min=0.000000
rprop_delta_max=50.000000
rprop_delta_zero=0.100000
cascade_output_stagnation_epochs=12
cascade_candidate_change_fraction=0.010000
cascade_candidate_stagnation_epochs=12
cascade_max_out_epochs=150
cascade_max_cand_epochs=150
cascade_num_candidate_groups=2
bit_fail_limit=3.49999999999999977796e-01
cascade_candidate_limit=1.00000000000000000000e+03
cascade_weight_multiplier=4.00000000000000022204e-01
cascade_activation_functions_count=10
cascade_activation_functions=3 5 7 8 10 11 14 15 16 17 
cascade_activation_steepnesses_count=4
cascade_activation_steepnesses=2.50000000000000000000e-01 5.00000000000000000000e-01 7.50000000000000000000e-01 1.00000000000000000000e+00 
layer_sizes=10 501 2 
scale_included=0
neurons (num_inputs, activation_function, activation_steepness)=(0, 0, 0.00000000000000000000e+00) (0, 0, 0.00000000000000000000e+00) (0, 0, 0.00000000000000000000e+00) (0, 0, 0.00000000000000000000e+00) (0, 0, 0.00000000000000000000e+00) (0, 0, 0.00000000000000000000e+00) (0, 0, 0.00000000000000000000e+00) (0, 0, 0.00000000000000000000e+00) (0, 0, 0.00000000000000000000e+00) (0, 0, 0.00000000000000000000e+00) (10, 5, 5.00000000000000000000e-01) (10, 5, 5.00000000000000000000e-01) (10, 5, 5.00000000000000000000e-01) (10, 5, 5.00000000000000000000e-01) (10, 5, 5.00000000000000000000e-01) (10, 5, 5.00000000000000000000e-01) (10, 5, 5.00000000000000000000e-01) (10, 5, 5.00000000000000000000e-01) (10, 5, 5.00000000000000000000e-01) (10, 5, 5.00000000000000000000e-01) (10, 5, 5.00000000000000000000e-01) (10, 5, 5.00000000000000000000e-01) (10, 5, 5.00000000000000000000e-01) (10, 5, 5.00000000000000000000e-01) (10, 5, 5.00000000000000000000e-01) (10, 5, 5.00000000000000000000e-01) (10, 5, 5.00000000000000000000e-01) (10, 5, 5.00000000000000000000e-01) (10, 5, 5.00000000000000000000e-01) (10, 5, 5.00000000000000000000e-01) (10, 5, 5.00000000000000000000e-01) (10, 5, 5.00000000000000000000e-01) (10, 5, 5.00000000000000000000e-01) (10, 5, 5.00000000000000000000e-01) (10, 5, 5.00000000000000000000e-01) (10, 5, 5.00000000000000000000e-01) (10, 5, 5.00000000000000000000e-01) (10, 5, 5.00000000000000000000e-01) (10, 5, 5.00000000000000000000e-01) (10, 5, 5.00000000000000000000e-01) (10, 5, 5.00000000000000000000e-01) (10, 5, 5.00000000000000000000e-01) (10, 5, 5.00000000000000000000e-01) (10, 5, 5.00000000000000000000e-01) (10, 5, 5.00000000000000000000e-01) (10, 5, 5.00000000000000000000e-01) (10, 5, 5.00000000000000000000e-01) (10, 5, 5.00000000000000000000e-01) (10, 5, 5.00000000000000000000e-01) (10, 5, 5.00000000000000000000e-01) (10, 5, 5.00000000000000000000e-01) (10, 5, 5.00000000000000000000e-01) (10, 5, 5.00000000000000000000e-01) (10, 5, 5.00000000000000000000e-01) (10, 5, 5.00000000000000000000e-01) (10, 5, 5.00000000000000000000e-01) (10, 5, 5.00000000000000000000e-01) (10, 5, 5.00000000000000000000e-01) (10, 5, 5.00000000000000000000e-01) (10, 5, 5.00000000000000000000e-01) (10, 5, 5.00000000000000000000e-01) (10, 5, 5.00000000000000000000e-01) (10, 5, 5.00000000000000000000e-01) (10, 5, 5.00000000000000000000e-01) (10, 5, 5.00000000000000000000e-01) (10, 5, 5.00000000000000000000e-01) (10, 5, 5.00000000000000000000e-01) (10, 5, 5.00000000000000000000e-01) (10, 5, 5.00000000000000000000e-01) (10, 5, 5.00000000000000000000e-01) (10, 5, 5.00000000000000000000e-01) (10, 5, 5.00000000000000000000e-01) (10, 5, 5.00000000000000000000e-01) (10, 5, 5.00000000000000000000e-01) (10, 5, 5.00000000000000000000e-01) (10, 5, 5.00000000000000000000e-01) (10, 5, 5.00000000000000000000e-01) (10, 5, 5.00000000000000000000e-01) (10, 5, 5.00000000000000000000e-01) (10, 5, 5.00000000000000000000e-01) (10, 5, 5.00000000000000000000e-01) (10, 5, 5.00000000000000000000e-01) (10, 5, 5.00000000000000000000e-01) (10, 5, 5.00000000000000000000e-01) (10, 5, 5.00000000000000000000e-01) (10, 5, 5.00000000000000000000e-01) (10, 5, 5.00000000000000000000e-01) (10, 5, 5.00000000000000000000e-01) (10, 5, 5.00000000000000000000e-01) (10, 5, 5.00000000000000000000e-01) (10, 5, 5.00000000000000000000e-01) (10, 5, 5.00000000000000000000e-01) (10, 5, 5.00000000000000000000e-01) (10, 5, 5.00000000000000000000e-01) (10, 5, 5.00000000000000000000e-01) (10, 5, 5.00000000000000000000e-01) (10, 5, 5.00000000000000000000e-01) (10, 5, 5.00000000000000000000e-01) (10, 5, 5.00000000000000000000e-01) (10, 5, 5.00000000000000000000e-01) (10, 5, 5.00000000000000000000e-01) (10, 5, 5.00000000000000000000e-01) (10, 5, 5.00000000000000000000e-01) (10, 5, 5.00000000000000000000e-01) (10, 5, 5.00000000000000000000e-01) (10, 5, 5.00000000000000000000e-01) (10, 5, 5.00000000000000000000e-01) (10, 5, 5.00000000000000000000e-01) (10, 5, 5.00000000000000000000e-01) (10, 5, 5.00000000000000000000e-01) (10, 5, 5.00000000000000000000e-01) (10, 5, 5.00000000000000000000e-01) (10, 5, 5.00000000000000000000e-01) (10, 5, 5.00000000000000000000e-01) (10, 5, 5.00000000000000000000e-01) (10, 5, 5.00000000000000000000e-01) (10, 5, 5.00000000000000000000e-01) (10, 5, 5.00000000000000000000e-01) (10, 5, 5.00000000000000000000e-01) (10, 5, 5.00000000000000000000e-01) (10, 5, 5.00000000000000000000e-01) (10, 5, 5.00000000000000000000e-01) (10, 5, 5.00000000000000000000e-01) (10, 5, 5.00000000000000000000e-01) (10, 5, 5.00000000000000000000e-01) (10, 5, 5.00000000000000000000e-01) (10, 5, 5.00000000000000000000e-01) (10, 5, 5.00000000000000000000e-01) (10, 5, 5.00000000000000000000e-01) (10, 5, 5.00000000000000000000e-01) (10, 5, 5.00000000000000000000e-01) (10, 5, 5.00000000000000000000e-01) (10, 5, 5.00000000000000000000e-01) (10, 5, 5.00000000000000000000e-01) (10, 5, 5.00000000000000000000e-01) (10, 5, 5.00000000000000000000e-01) (10, 5, 5.00000000000000000000e-01) (10, 5, 5.00000000000000000000e-01) (10, 5, 5.00000000000000000000e-01) (10, 5, 5.00000000000000000000e-01) (10, 5, 5.00000000000000000000e-01) (10, 5, 5.00000000000000000000e-01) (10, 5, 5.00000000000000000000e-01) (10, 5, 5.00000000000000000000e-01) (10, 5, 5.00000000000000000000e-01) (10, 5, 5.00000000000000000000e-01) (10, 5, 5.00000000000000000000e-01) (10, 5, 5.00000000000000000000e-01) (10, 5, 5.00000000000000000000e-01) (10, 5, 5.00000000000000000000e-01) (10, 5, 5.00000000000000000000e-01) (10, 5, 5.00000000000000000000e-01) (10, 5, 5.00000000000000000000e-01) (10, 5, 5.00000000000000000000e-01) (10, 5, 5.00000000000000000000e-01) (10, 5, 5.00000000000000000000e-01) (10, 5, 5.00000000000000000000e-01) (10, 5, 5.00000000000000000000e-01) (10, 5, 5.00000000000000000000e-01) (10, 5, 5.00000000000000000000e-01) (10, 5, 5.00000000000000000000e-01) (10, 5, 5.00000000000000000000e-01) (10, 5, 5.00000000000000000000e-01) (10, 5, 5.00000000000000000000e-01) (10, 5, 5.00000000000000000000e-01) (10, 5, 5.00000000000000000000e-01) (10, 5, 5.00000000000000000000e-01) (10, 5, 5.00000000000000000000e-01) (10, 5, 5.00000000000000000000e-01) (10, 5, 5.00000000000000000000e-01) (10, 5, 5.00000000000000000000e-01) (10, 5, 5.00000000000000000000e-01) (10, 5, 5.00000000000000000000e-01) (10, 5, 5.00000000000000000000e-01) (10, 5, 5.00000000000000000000e-01) (10, 5, 5.00000000000000000000e-01) (10, 5, 5.00000000000000000000e-01) (10, 5, 5.00000000000000000000e-01) (10, 5, 5.00000000000000000000e-01) (10, 5, 5.00000000000000000000e-01) (10, 5, 5.00000000000000000000e-01) (10, 5, 5.00000000000000000000e-01) (10, 5, 5.00000000000000000000e-01) (10, 5, 5.00000000000000000000e-01) (10, 5, 5.00000000000000000000e-01) (10, 5, 5.00000000000000000000e-01) (10, 5, 5.00000000000000000000e-01) (10, 5, 5.00000000000000000000e-01) (10, 5, 5.00000000000000000000e-01) (10, 5, 5.00000000000000000000e-01) (10, 5, 5.00000000000000000000e-01) (10, 5, 5.00000000000000000000e-01) (10, 5, 5.00000000000000000000e-01) (10, 5, 5.00000000000000000000e-01) (10, 5, 5.00000000000000000000e-01) (10, 5, 5.00000000000000000000e-01) (10, 5, 5.00000000000000000000e-01) (10, 5, 5.00000000000000000000e-01) (10, 5, 5.00000000000000000000e-01) (10, 5, 5.00000000000000000000e-01) (10, 5, 5.00000000000000000000e-01) (10, 5, 5.00000000000000000000e-01) (10, 5, 5.00000000000000000000e-01) (10, 5, 5.00000000000000000000e-01) (10, 5, 5.00000000000000000000e-01) (10, 5, 5.00000000000000000000e-01) (10, 5, 5.00000000000000000000e-01) (10, 5, 5.00000000000000000000e-01) (10, 5, 5.00000000000000000000e-01) (10, 5, 5.00000000000000000000e-01) (10, 5, 5.00000000000000000000e-01) (10, 5, 5.00000000000000000000e-01) (10, 5, 5.00000000000000000000e-01) (10, 5, 5.00000000000000000000e-01) (10, 5, 5.00000000000000000000e-01) (10, 5, 5.00000000000000000000e-01) (10, 5, 5.00000000000000000000e-01) (10, 5, 5.00000000000000000000e-01) (10, 5, 5.00000000000000000000e-01) (10, 5, 5.00000000000000000000e-01) (10, 5, 5.00000000000000000000e-01) (10, 5, 5.00000000000000000000e-01) (10, 5, 5.00000000000000000000e-01) (10, 5, 5.00000000000000000000e-01) (10, 5, 5.00000000000000000000e-01) (10, 5, 5.00000000000000000000e-01) (10, 5, 5.00000000000000000000e-01) (10, 5, 5.00000000000000000000e-01) (10, 5, 5.00000000000000000000e-01) (10, 5, 5.00000000000000000000e-01) (10, 5, 5.00000000000000000000e-01) (10, 5, 5.00000000000000000000e-01) (10, 5, 5.00000000000000000000e-01) (10, 5, 5.00000000000000000000e-01) (10, 5, 5.00000000000000000000e-01) (10, 5, 5.00000000000000000000e-01) (10, 5, 5.00000000000000000000e-01) (10, 5, 5.00000000000000000000e-01) (10, 5, 5.00000000000000000000e-01) (10, 5, 5.00000000000000000000e-01) (10, 5, 5.00000000000000000000e-01) (10, 5, 5.00000000000000000000e-01) (10, 5, 5.00000000000000000000e-01) (10, 5, 5.00000000000000000000e-01) (10, 5, 5.00000000000000000000e-01) (10, 5, 5.00000000000000000000e-01) (10, 5, 5.00000000000000000000e-01) (10, 5, 5.00000000000000000000e-01) (10, 5, 5.00000000000000000000e-01) (10, 5, 5.00000000000000000000e-01) (10, 5, 5.00000000000000000000e-01) (10, 5, 5.00000000000000000000e-01) (10, 5, 5.00000000000000000000e-01) (10, 5, 5.00000000000000000000e-01) (10, 5, 5.00000000000000000000e-01) (10, 5, 5.00000000000000000000e-01) (10, 5, 5.00000000000000000000e-01) (10, 5, 5.00000000000000000000e-01) (10, 5, 5.00000000000000000000e-01) (10, 5, 5.00000000000000000000e-01) (10, 5, 5.00000000000000000000e-01) (10, 5, 5.00000000000000000000e-01) (10, 5, 5.00000000000000000000e-01) (10, 5, 5.00000000000000000000e-01) (10, 5, 5.00000000000000000000e-01) (10, 5, 5.00000000000000000000e-01) (10, 5, 5.00000000000000000000e-01) (10, 5, 5.00000000000000000000e-01) (10, 5, 5.00000000000000000000e-01) (10, 5, 5.00000000000000000000e-01) (10, 5, 5.00000000000000000000e-01) (10, 5, 5.00000000000000000000e-01) (10, 5, 5.00000000000000000000e-01) (10, 5, 5.00000000000000000000e-01) (10, 5, 5.00000000000000000000e-01) (10, 5, 5.00000000000000000000e-01) (10, 5, 5.00000000000000000000e-01) (10, 5, 5.00000000000000000000e-01) (10, 5, 5.00000000000000000000e-01) (10, 5, 5.00000000000000000000e-01) (10, 5, 5.00000000000000000000e-01) (10, 5, 5.00000000000000000000e-01) (10, 5, 5.00000000000000000000e-01) (10, 5, 5.00000000000000000000e-01) (10, 5, 5.00000000000000000000e-01) (10, 5, 5.00000000000000000000e-01) (10, 5, 5.00000000000000000000e-01) (10, 5, 5.00000000000000000000e-01) (10, 5, 5.00000000000000000000e-01) (10, 5, 5.00000000000000000000e-01) (10, 5, 5.00000000000000000000e-01) (10, 5, 5.00000000000000000000e-01) (10, 5, 5.00000000000000000000e-01) (10, 5, 5.00000000000000000000e-01) (10, 5, 5.00000000000000000000e-01) (10, 5, 5.00000000000000000000e-01) (10, 5, 5.00000000000000000000e-01) (10, 5, 5.00000000000000000000e-01) (10, 5, 5.00000000000000000000e-01) (10, 5, 5.00000000000000000000e-01) (10, 5, 5.00000000000000000000e-01) (10, 5, 5.00000000000000000000e-01) (10, 5, 5.00000000000000000000e-01) (10, 5, 5.00000000000000000000e-01) (10, 5, 5.00000000000000000000e-01) (10, 5, 5.00000000000000000000e-01) (10, 5, 5.00000000000000000000e-01) (10, 5, 5.00000000000000000000e-01) (10, 5, 5.00000000000000000000e-01) (10, 5, 5.00000000000000000000e-01) (10, 5, 5.00000000000000000000e-01) (10, 5, 5.00000000000000000000e-01) (10, 5, 5.00000000000000000000e-01) (10, 5, 5.00000000000000000000e-01) (10, 5, 5.00000000000000000000e-01) (10, 5, 5.00000000000000000000e-01) (10, 5, 5.00000000000000000000e-01) (10, 5, 5.00000000000000000000e-01) (10, 5, 5.00000000000000000000e-01) (10, 5, 5.00000000000000000000e-01) (10, 5, 5.00000000000000000000e-01) (10, 5, 5.00000000000000000000e-01) (10, 5, 5.00000000000000000000e-01) (10, 5, 5.00000000000000000000e-01) (10, 5, 5.00000000000000000000e-01) (10, 5, 5.00000000000000000000e-01) (10, 5, 5.00000000000000000000e-01) (10, 5, 5.00000000000000000000e-01) (10, 5, 5.00000000000000000000e-01) (10, 5, 5.00000000000000000000e-01) (10, 5, 5.00000000000000000000e-01) (10, 5, 5.00000000000000000000e-01) (10, 5, 5.00000000000000000000e-01) (10, 5, 5.00000000000000000000e-01) (10, 5, 5.00000000000000000000e-01) (10, 5, 5.00000000000000000000e-01) (10, 5, 5.00000000000000000000e-01) (10, 5, 5.00000000000000000000e-01) (10, 5, 5.00000000000000000000e-01) (10, 5, 5.00000000000000000000e-01) (10, 5, 5.00000000000000000000e-01) (10, 5, 5.00000000000000000000e-01) (10, 5, 5.00000000000000000000e-01) (10, 5, 5.00000000000000000000e-01) (10, 5, 5.00000000000000000000e-01) (10, 5, 5.00000000000000000000e-01) (10, 5, 5.00000000000000000000e-01) (10, 5, 5.00000000000000000000e-01) (10, 5, 5.00000000000000000000e-01) (10, 5, 5.00000000000000000000e-01) (10, 5, 5.00000000000000000000e-01) (10, 5, 5.00000000000000000000e-01) (10, 5, 5.00000000000000000000e-01) (10, 5, 5.00000000000000000000e-01) (10, 5, 5.00000000000000000000e-01) (10, 5, 5.00000000000000000000e-01) (10, 5, 5.00000000000000000000e-01) (10, 5, 5.00000000000000000000e-01) (10, 5, 5.00000000000000000000e-01) (10, 5, 5.00000000000000000000e-01) (10, 5, 5.00000000000000000000e-01) (10, 5, 5.00000000000000000000e-01) (10, 5, 5.00000000000000000000e-01) (10, 5, 5.00000000000000000000e-01) (10, 5, 5.00000000000000000000e-01) (10, 5, 5.00000000000000000000e-01) (10, 5, 5.00000000000000000000e-01) (10, 5, 5.00000000000000000000e-01) (10, 5, 5.00000000000000000000e-01) (10, 5, 5.00000000000000000000e-01) (10, 5, 5.00000000000000000000e-01) (10, 5, 5.00000000000000000000e-01) (10, 5, 5.00000000000000000000e-01) (10, 5, 5.00000000000000000000e-01) (10, 5, 5.00000000000000000000e-01) (10, 5, 5.00000000000000000000e-01) (10, 5, 5.00000000000000000000e-01) (10, 5, 5.00000000000000000000e-01) (10, 5, 5.00000000000000000000e-01) (10, 5, 5.00000000000000000000e-01) (10, 5, 5.00000000000000000000e-01) (10, 5, 5.00000000000000000000e-01) (10, 5, 5.00000000000000000000e-01) (10, 5, 5.00000000000000000000e-01) (10, 5, 5.00000000000000000000e-01) (10, 5, 5.00000000000000000000e-01) (10, 5, 5.00000000000000000000e-01) (10, 5, 5.00000000000000000000e-01) (10, 5, 5.00000000000000000000e-01) (10, 5, 5.00000000000000000000e-01) (10, 5, 5.00000000000000000000e-01) (10, 5, 5.00000000000000000000e-01) (10, 5, 5.00000000000000000000e-01) (10, 5, 5.00000000000000000000e-01) (10, 5, 5.00000000000000000000e-01) (10, 5, 5.00000000000000000000e-01) (10, 5, 5.00000000000000000000e-01) (10, 5, 5.00000000000000000000e-01) (10, 5, 5.00000000000000000000e-01) (10, 5, 5.00000000000000000000e-01) (10, 5, 5.00000000000000000000e-01) (10, 5, 5.00000000000000000000e-01) (10, 5, 5.00000000000000000000e-01) (10, 5, 5.00000000000000000000e-01) (10, 5, 5.00000000000000000000e-01) (10, 5, 5.00000000000000000000e-01) (10, 5, 5.00000000000000000000e-01) (10, 5, 5.00000000000000000000e-01) (10, 5, 5.00000000000000000000e-01) (10, 5, 5.00000000000000000000e-01) (10, 5, 5.00000000000000000000e-01) (10, 5, 5.00000000000000000000e-01) (10, 5, 5.00000000000000000000e-01) (10, 5, 5.00000000000000000000e-01) (10, 5, 5.00000000000000000000e-01) (10, 5, 5.00000000000000000000e-01) (10, 5, 5.00000000000000000000e-01) (10, 5, 5.00000000000000000000e-01) (10, 5, 5.00000000000000000000e-01) (10, 5, 5.00000000000000000000e-01) (10, 5, 5.00000000000000000000e-01) (10, 5, 5.00000000000000000000e-01) (10, 5, 5.00000000000000000000e-01) (10, 5, 5.00000000000000000000e-01) (10, 5, 5.00000000000000000000e-01) (10, 5, 5.00000000000000000000e-01) (10, 5, 5.00000000000000000000e-01) (10, 5, 5.00000000000000000000e-01) (10, 5, 5.00000000000000000000e-01) (10, 5, 5.00000000000000000000e-01) (10, 5, 5.00000000000000000000e-01) (10, 5, 5.00000000000000000000e-01) (10, 5, 5.00000000000000000000e-01) (10, 5, 5.00000000000000000000e-01) (10, 5, 5.00000000000000000000e-01) (10, 5, 5.00000000000000000000e-01) (10, 5, 5.00000000000000000000e-01) (10, 5, 5.00000000000000000000e-01) (10, 5, 5.00000000000000000000e-01) (10, 5, 5.00000000000000000000e-01) (10, 5, 5.00000000000000000000e-01) (10, 5, 5.00000000000000000000e-01) (10, 5, 5.00000000000000000000e-01) (10, 5, 5.00000000000000000000e-01) (10, 5, 5.00000000000000000000e-01) (10, 5, 5.00000000000000000000e-01) (10, 5, 5.00000000000000000000e-01) (10, 5, 5.00000000000000000000e-01) (10, 5, 5.00000000000000000000e-01) (10, 5, 5.00000000000000000000e-01) (10, 5, 5.00000000000000000000e-01) (10, 5, 5.00000000000000000000e-01) (10, 5, 5.00000000000000000000e-01) (10, 5, 5.00000000000000000000e-01) (10, 5, 5.00000000000000000000e-01) (10, 5, 5.00000000000000000000e-01) (10, 5, 5.00000000000000000000e-01) (10, 5, 5.00000000000000000000e-01) (10, 5, 5.00000000000000000000e-01) (10, 5, 5.00000000000000000000e-01) (10, 5, 5.00000000000000000000e-01) (10, 5, 5.00000000000000000000e-01) (10, 5, 5.00000000000000000000e-01) (10, 5, 5.00000000000000000000e-01) (10, 5, 5.00000000000000000000e-01) (10, 5, 5.00000000000000000000e-01) (10, 5, 5.00000000000000000000e-01) (10, 5, 5.00000000000000000000e-01) (10, 5, 5.00000000000000000000e-01) (10, 5, 5.00000000000000000000e-01) (10, 5, 5.00000000000000000000e-01) (10, 5, 5.00000000000000000000e-01) (10, 5, 5.00000000000000000000e-01) (10, 5, 5.00000000000000000000e-01) (10, 5, 5.00000000000000000000e-01) (10, 5, 5.00000000000000000000e-01) (10, 5, 5.00000000000000000000e-01) (10, 5, 5.00000000000000000000e-01) (10, 5, 5.00000000000000000000e-01) (10, 5, 5.00000000000000000000e-01) (10, 5, 5.00000000000000000000e-01) (10, 5, 5.00000000000000000000e-01) (10, 5, 5.00000000000000000000e-01) (10, 5, 5.00000000000000000000e-01) (10, 5, 5.00000000000000000000e-01) (10, 5, 5.00000000000000000000e-01) (10, 5, 5.00000000000000000000e-01) (10, 5, 5.00000000000000000000e-01) (10, 5, 5.00000000000000000000e-01) (10, 5, 5.00000000000000000000e-01) (10, 5, 5.00000000000000000000e-01) (10, 5, 5.00000000000000000000e-01) (10, 5, 5.00000000000000000000e-01) (10, 5, 5.00000000000000000000e-01) (10, 5, 5.00000000000000000000e-01) (10, 5, 5.00000000000000000000e-01) (10, 5, 5.00000000000000000000e-01) (10, 5, 5.00000000000000000000e-01) (10, 5, 5.00000000000000000000e-01) (10, 5, 5.00000000000000000000e-01) (10, 5, 5.00000000000000000000e-01) (10, 5, 5.00000000000000000000e-01) (10, 5, 5.00000000000000000000e-01) (10, 5, 5.00000000000000000000e-01) (10, 5, 5.00000000000000000000e-01) (10, 5, 5.00000000000000000000e-01) (10, 5, 5.00000000000000000000e-01) (10, 5, 5.00000000000000000000e-01) (10, 5, 5.00000000000000000000e-01) (10, 5, 5.00000000000000000000e-01) (0, 5, 0.00000000000000000000e+00) (501, 0, 5.00000000000000000000e-01) (0, 0, 0.00000000000000000000e+00) 
connections (connected_to_neuron, weight)=(0, -3.14541384577751159668e-02) (1, 3.70714289666413911618e+05) (2, -2.78035665242326387670e+05) (3, -3.00586690675294259563e+05) (4, -4.53485607830845750868e+05) (5, -8.08749648690655594692e+05) (6, -2.00458765573125623632e+05) (7, -6.65704335180682246573e+05) (8, -5.12120387700898223557e+05) (9, -9.26785769852076307870e+05) (0, 8.92342254519462585449e-02) (1, -3.70789354832937708125e+05) (2, 2.78092026534518925473e+05) (3, 3.00644911429946136195e+05) (4, 4.53566107527153508272e+05) (5, 8.08883073079146444798e+05) (6, 2.00504788355161290383e+05) (7, 6.65820420241008163430e+05) (8, 5.12213446813947462942e+05) (9, 9.26973154470282839611e+05) (0, 5.49499318003654479980e-02) (1, -3.70770663002824992873e+05) (2, 2.78077958680047711823e+05) (3, 3.00632906364292139187e+05) (4, 4.53554804166536661796e+05) (5, 8.08875150574737112038e+05) (6, 2.00488446200704580406e+05) (7, 6.65809649470777600072e+05) (8, 5.12215592682672373485e+05) (9, 9.26926741077630198561e+05) (0, -5.41862212121486663818e-02) (1, 3.70733822273434081580e+05) (2, -2.78050362847616488580e+05) (3, -3.00602942413245036732e+05) (4, -4.53509893233408918604e+05) (5, -8.08794230725207831711e+05) (6, -2.00469430389715271303e+05) (7, -6.65740680016662692651e+05) (8, -5.12153129646358138416e+05) (9, -9.26834355780693120323e+05) (0, 2.75067985057830810547e-03) (1, -3.70706258153941598721e+05) (2, 2.78029647953488398343e+05) (3, 3.00580042747997911647e+05) (4, 4.53475506832870887592e+05) (5, 8.08731170357219991274e+05) (6, 2.00454330683265230618e+05) (7, 6.65689257821297156624e+05) (8, 5.12106749803514278028e+05) (9, 9.26765763895703363232e+05) (0, 4.95099350810050964355e-02) (1, 3.70715627888323913794e+05) (2, -2.78036792817718058359e+05) (3, -3.00583193949339154642e+05) (4, -4.53471745494835369755e+05) (5, -8.08707620812022476457e+05) (6, -2.00464873947888147086e+05) (7, -6.65681970127881621011e+05) (8, -5.12076925946923962329e+05) (9, -9.26789216249501216225e+05) (0, 4.46359142661094665527e-02) (1, 3.70687939953437133227e+05) (2, -2.78015814265227410942e+05) (3, -3.00564782582398736849e+05) (4, -4.53452345121418358758e+05) (5, -8.08688612932226271369e+05) (6, -2.00444129508676473051e+05) (7, -6.65654435458780732006e+05) (8, -5.12075691224381676875e+05) (9, -9.26719647493008291349e+05) (0, 5.07483854889869689941e-02) (1, 3.70670286582841014024e+05) (2, -2.78002710561173735186e+05) (3, -3.00549962329442088958e+05) (4, -4.53429935934641864151e+05) (5, -8.08647749449094641022e+05) (6, -2.00434447765984310536e+05) (7, -6.65621273989218752831e+05) (8, -5.12045846860644116532e+05) (9, -9.26675533682820736431e+05) (0, 3.72591838240623474121e-02) (1, -3.70713266335432068445e+05) (2, 2.78034880625323683489e+05) (3, 3.00585898646739777178e+05) (4, 4.53484153113605338149e+05) (5, 8.08747147547121276148e+05) (6, 2.00458118382140557515e+05) (7, 6.65702499835568363778e+05) (8, 5.12118477214840648230e+05) (9, 9.26783046967111760750e+05) (0, -6.74807727336883544922e-02) (1, 3.70804705022959562484e+05) (2, -2.78103412607767037116e+05) (3, -3.00657327350806386676e+05) (4, -4.53580374087489559315e+05) (5, -8.08903236942903953604e+05) (6, -2.00516952208165486809e+05) (7, -6.65842435600317432545e+05) (8, -5.12222806212483672425e+05) (9, -9.27011595236945897341e+05) (0, -8.31356272101402282715e-02) (1, -3.70775602659377967939e+05) (2, 2.78081759827179834247e+05) (3, 3.00633442070997785777e+05) (4, 4.53548990676470508333e+05) (5, 8.08851639445581473410e+05) (6, 2.00497248478178138612e+05) (7, 6.65794875434567104094e+05) (8, 5.12190390626714157406e+05) (9, 9.26939012214165297337e+05) (0, 3.72377559542655944824e-02) (1, 3.70704559919370221905e+05) (2, -2.78028403651758737396e+05) (3, -3.00578441571678326000e+05) (4, -4.53473252209073340055e+05) (5, -8.08727102346666739322e+05) (6, -2.00453186691998736933e+05) (7, -6.65686381845521857031e+05) (8, -5.12103487110439979006e+05) (9, -9.26761426208851858974e+05) (0, -8.14456120133399963379e-02) (1, 3.70767112307597184554e+05) (2, -2.78075213326369470451e+05) (3, -3.00629862500107265078e+05) (4, -4.53550133530733059160e+05) (5, -8.08866653848864138126e+05) (6, -2.00486456988144374918e+05) (7, -6.65802796010505640879e+05) (8, -5.12209309484259458259e+05) (9, -9.26917479971247026697e+05) (0, 3.48937287926673889160e-02) (1, 3.70745591026122681797e+05) (2, -2.78059220926100737415e+05) (3, -3.00611888333742739633e+05) (4, -4.53524256444583821576e+05) (5, -8.08819887857749010436e+05) (6, -2.00474714321291568922e+05) (7, -6.65764026154540129937e+05) (8, -5.12169500515698920935e+05) (9, -9.26864108859212952666e+05) (0, -9.35173109173774719238e-02) (1, -3.70772401200793276075e+05) (2, 2.78079322606039640959e+05) (3, 3.00630801653189933859e+05) (4, 4.53544981283844448626e+05) (5, 8.08844118817128823139e+05) (6, 2.00495474769913067576e+05) (7, 6.65788814434016589075e+05) (8, 5.12184794027770578396e+05) (9, 9.26930998243332840502e+05) (0, 8.61405208706855773926e-02) (1, -3.70671058096437598579e+05) (2, 2.78003321091681893449e+05) (3, 3.00550659140052273870e+05) (4, 4.53430883134797331877e+05) (5, 8.08649645614521112293e+05) (6, 2.00434778268964058952e+05) (7, 6.65622590083612245508e+05) (8, 5.12047160529447894078e+05) (9, 9.26677395011265994981e+05) (0, -5.27147948741912841797e-02) (1, -3.70689352519784180913e+05) (2, 2.78016954953648790251e+05) (3, 3.00565997691721771844e+05) (4, 4.53454112557053449564e+05) (5, 8.08692032411079737358e+05) (6, 2.00444940511859545950e+05) (7, 6.65657155959367635660e+05) (8, 5.12078138277864374686e+05) (9, 9.26723215233653667383e+05) (0, 7.96590745449066162109e-03) (1, -3.70716800630875630304e+05) (2, 2.78037700669615180232e+05) (3, 3.00588773880456923507e+05) (4, 4.53488719700957241002e+05) (5, 8.08755412138885818422e+05) (6, 2.00460089561371132731e+05) (7, 6.65709121572461677715e+05) (8, 5.12124460290840594098e+05) (9, 9.26792072403588681482e+05) (0, 4.05937507748603820801e-02) (1, 3.70664226386642025318e+05) (2, -2.77998309646812442224e+05) (3, -3.00545038922778156120e+05) (4, -4.53422492923144833185e+05) (5, -8.08634190116832265630e+05) (6, -2.00431110151136439526e+05) (7, -6.65610145465506007895e+05) (8, -5.12035894689952488989e+05) (9, -9.26660846694709383883e+05) (0, -4.62557077407836914062e-02) (1, -3.70713315617824497167e+05) (2, 2.78035040468527236953e+05) (3, 3.00585935164684138726e+05) (4, 4.53484393561061762739e+05) (5, 8.08747410252266912721e+05) (6, 2.00458180345824977849e+05) (7, 6.65702698674681363627e+05) (8, 5.12118679806736705359e+05) (9, 9.26783372685567010194e+05) (0, 7.01013281941413879395e-02) (1, -3.70804624023739888798e+05) (2, 2.78103370480144454632e+05) (3, 3.00657216917384241242e+05) (4, 4.53580331578049866948e+05) (5, 8.08903001750450232066e+05) (6, 2.00517022077547968365e+05) (7, 6.65842330619236337952e+05) (8, 5.12222707499252457637e+05) (9, 9.27011434236230561510e+05) (0, 1.98179483413696289062e-03) (1, 3.70803425321216695011e+05) (2, -2.78102602095182635821e+05) (3, -3.00656130190179683268e+05) (4, -4.53578770068729005288e+05) (5, -8.08900033805179526098e+05) (6, -2.00516202490291994764e+05) (7, -6.65840028198760235682e+05) (8, -5.12220596447792486288e+05) (9, -9.27008410572620807216e+05) (0, -5.03210835158824920654e-02) (1, 3.70762018153120763600e+05) (2, -2.78071611471343669109e+05) (3, -3.00625618737542245071e+05) (4, -4.53543981992090353742e+05) (5, -8.08855262869881582446e+05) (6, -2.00483731103326805169e+05) (7, -6.65793616991244838573e+05) (8, -5.12200978100543841720e+05) (9, -9.26905120618326938711e+05) (0, -8.46963375806808471680e-03) (1, 3.70807956419612804893e+05) (2, -2.78105986211600538809e+05) (3, -3.00660400924038840458e+05) (4, -4.53589712005394219887e+05) (5, -8.08926120037335320376e+05) (6, -2.00515055139688542113e+05) (7, -6.65855845686606480740e+05) (8, -5.12245341287104645744e+05) (9, -9.27019947244821465574e+05) (0, -6.88620060682296752930e-02) (1, -3.70720602446545846760e+05) (2, 2.78040572123812045902e+05) (3, 3.00591972655357851181e+05) (4, 4.53493500007638998795e+05) (5, 8.08764163646360277198e+05) (6, 2.00462213472318573622e+05) (7, 6.65716169682187028229e+05) (8, 5.12130957600540365092e+05) (9, 9.26801558045731275342e+05) (0, 7.37456008791923522949e-02) (1, -3.70661390093711146619e+05) (2, 2.77996002184172451962e+05) (3, 3.00542576619922241662e+05) (4, 4.53418861530784924980e+05) (5, 8.08627506662024999969e+05) (6, 2.00429437313240341609e+05) (7, 6.65604589394512004219e+05) (8, 5.12030956668427330442e+05) (9, 9.26653581044595804997e+05) (0, -1.95188373327255249023e-02) (1, -3.70689269103655358776e+05) (2, 2.78016941227729897946e+05) (3, 3.00565952969972160645e+05) (4, 4.53454016257953247987e+05) (5, 8.08691971398256486282e+05) (6, 2.00444957824981567683e+05) (7, 6.65657222705493913963e+05) (8, 5.12078076249949459452e+05) (9, 9.26723323770671850070e+05) (0, -5.43425194919109344482e-02) (1, -3.70712412253160902765e+05) (2, 2.78034372609425510745e+05) (3, 3.00584191645055252593e+05) (4, 4.53482620726054708939e+05) (5, 8.08743900064852205105e+05) (6, 2.00456249216176191112e+05) (7, 6.65702676024521701038e+05) (8, 5.12113189439902140293e+05) (9, 9.26781215802574763075e+05) (0, -6.32771551609039306641e-02) (1, 3.70712076100282138214e+05) (2, -2.78034100692873995285e+05) (3, -3.00584848359744122718e+05) (4, -4.53482778166729258373e+05) (5, -8.08744511164702242240e+05) (6, -2.00457397922014410142e+05) (7, -6.65700526291159214452e+05) (8, -5.12116417177654861007e+05) (9, -9.26780258971960050985e+05) (0, -4.56490106880664825439e-02) (1, -3.70718695799105393235e+05) (2, 2.78039004662473802455e+05) (3, 3.00590393790055473801e+05) (4, 4.53491088814277027268e+05) (5, 8.08759814549171598628e+05) (6, 2.00461046639932523249e+05) (7, 6.65712736540301470086e+05) (8, 5.12127709256286791060e+05) (9, 9.26796876132218982093e+05) (0, 7.65691474080085754395e-02) (1, -3.70688298667924827896e+05) (2, 2.78016258303398033604e+05) (3, 3.00565135060266940854e+05) (4, 4.53452968670676636975e+05) (5, 8.08689734010808868334e+05) (6, 2.00444482091085490538e+05) (7, 6.65655348938678740524e+05) (8, 5.12076484440635191277e+05) (9, 9.26720820560008753091e+05) (0, -5.81104047596454620361e-02) (1, 3.71136691692005784716e+05) (2, -2.78352509146173775662e+05) (3, -3.00928387751137895975e+05) (4, -4.53966324512086634059e+05) (5, -8.09573010276464279741e+05) (6, -2.00722725137615954736e+05) (7, -6.66415184116825344972e+05) (8, -5.12681782322805607691e+05) (9, -9.27841553523079724982e+05) (0, -7.17242360115051269531e-02) (1, 3.70693346064477518667e+05) (2, -2.78020004591069009621e+05) (3, -3.00569283167216461152e+05) (4, -4.53459205107017070986e+05) (5, -8.08701148401019512676e+05) (6, -2.00447129455060261535e+05) (7, -6.65664852395527181216e+05) (8, -5.12084767750867584255e+05) (9, -9.26733331068119499832e+05) (0, 8.83262827992439270020e-02) (1, -3.70661800782267935574e+05) (2, 2.77996360805335862096e+05) (3, 3.00542999534982838668e+05) (4, 4.53419441478415275924e+05) (5, 8.08628438507894170471e+05) (6, 2.00429809952016279567e+05) (7, 6.65605546285837073810e+05) (8, 5.12031770278697134927e+05) (9, 9.26654646797801018693e+05) (0, 9.71978828310966491699e-02) (1, -3.70714387304723961279e+05) (2, 2.78035762813951354474e+05) (3, 3.00586807904471992515e+05) (4, 4.53485716692616988439e+05) (5, 8.08749897500504739583e+05) (6, 2.00458755572746507823e+05) (7, 6.65704704358988092281e+05) (8, 5.12120505051278800238e+05) (9, 9.26786135494358022697e+05) (0, 3.71577814221382141113e-02) (1, -3.70809723730295954738e+05) (2, 2.78107269337191537488e+05) (3, 3.00665451724421232939e+05) (4, 4.53603955911531578749e+05) (5, 8.08965065105822519399e+05) (6, 2.00510133181013923604e+05) (7, 6.65883654309272300452e+05) (8, 5.12281396897658356465e+05) (9, 9.27024436172031331807e+05) (0, 3.03258225321769714355e-02) (1, 3.70762718140694370959e+05) (2, -2.78071969307936378755e+05) (3, -3.00626131180404161569e+05) (4, -4.53544783505147497635e+05) (5, -8.08856877258774940856e+05) (6, -2.00484063090420939261e+05) (7, -6.65794742818192695267e+05) (8, -5.12202158361557754688e+05) (9, -9.26906760485533624887e+05) (0, 8.98895487189292907715e-02) (1, -3.70767372818078380078e+05) (2, 2.78075514977896644268e+05) (3, 3.00629938207886007149e+05) (4, 4.53550585131514642853e+05) (5, 8.08867177373873419128e+05) (6, 2.00486521408897853689e+05) (7, 6.65803350145702483132e+05) (8, 5.12209774543021514546e+05) (9, 9.26918194862248376012e+05) (0, -6.81964904069900512695e-02) (1, 3.70766501683673646767e+05) (2, -2.78074931755174300633e+05) (3, -3.00625847726051171776e+05) (4, -4.53537432067902176641e+05) (5, -8.08830671184531645849e+05) (6, -2.00492131080636521801e+05) (7, -6.65777597741914447397e+05) (8, -5.12174799234174832236e+05) (9, -9.26916040560470893979e+05) (0, -9.81350988149642944336e-02) (1, -3.70733850081263808534e+05) (2, 2.78050325036371010356e+05) (3, 3.00602961335472413339e+05) (4, 4.53509898649441427551e+05) (5, 8.08794295192808960564e+05) (6, 2.00469405603544088081e+05) (7, 6.65740770105447387323e+05) (8, 5.12153285717778897379e+05) (9, 9.26834457140403101221e+05) (0, -6.80341720581054687500e-02) (1, -3.70826205513761960901e+05) (2, 2.78119698401889239904e+05) (3, 3.00675768626782402862e+05) (4, 4.53612901009181689005e+05) (5, 8.08968756037274259143e+05) (6, 2.00525227807575487532e+05) (7, 6.65890565533173386939e+05) (8, 5.12276677816310548224e+05) (9, 9.27065540753562119789e+05) (0, -5.95408380031585693359e-02) (1, 3.71264541947524063289e+05) (2, -2.78448291068165388424e+05) (3, -3.01035126094037143048e+05) (4, -4.54129129510531725828e+05) (5, -8.09873141467964393087e+05) (6, -2.00791701948974339757e+05) (7, -6.66660091894638375379e+05) (8, -5.12902004537065222394e+05) (9, -9.28161207877570879646e+05) (0, 6.44886493682861328125e-03) (1, 3.70767205427061417140e+05) (2, -2.78075401082661643159e+05) (3, -3.00629833956914313603e+05) (4, -4.53550408832667861134e+05) (5, -8.08866947936293552630e+05) (6, -2.00486531697351078037e+05) (7, -6.65803042153316782787e+05) (8, -5.12209567266671103425e+05) (9, -9.26917860789998085238e+05) (0, -9.31886658072471618652e-02) (1, 3.70677805652758863289e+05) (2, -2.78008382086755009368e+05) (3, -3.00556382528260583058e+05) (4, -4.53439594243832281791e+05) (5, -8.08665540748428436927e+05) (6, -2.00438633771663007792e+05) (7, -6.65635593028915580362e+05) (8, -5.12058781801962119061e+05) (9, -9.26694743100635940209e+05) (0, 7.54679962992668151855e-02) (1, -3.70812638178844412323e+05) (2, 2.78109483416129311081e+05) (3, 3.00664413442598655820e+05) (4, 4.53595533722755790222e+05) (5, 8.08937125848069321364e+05) (6, 2.00517731715924164746e+05) (7, 6.65864752003272995353e+05) (8, 5.12253299561358464416e+05) (9, 9.27031818498264881782e+05) (0, 6.48233667016029357910e-02) (1, 3.70708990041352866683e+05) (2, -2.78031721649650426116e+05) (3, -3.00582350519706087653e+05) (4, -4.53478835649276210461e+05) (5, -8.08737402403994929045e+05) (6, -2.00455797042547666933e+05) (7, -6.65694209453282062896e+05) (8, -5.12111222783849167172e+05) (9, -9.26772396498903632164e+05) (0, 8.62689316272735595703e-03) (1, -3.70789407829867966939e+05) (2, 2.78092166788290254772e+05) (3, 3.00644943064377177507e+05) (4, 4.53566334928448835853e+05) (5, 8.08883453999253455549e+05) (6, 2.00504964056238299236e+05) (7, 6.65820769331175833941e+05) (8, 5.12213816522366600111e+05) (9, 9.26973627038554637693e+05) (0, -1.65655687451362609863e-02) (1, -3.70710025855542218778e+05) (2, 2.78032422262463369407e+05) (3, 3.00583148845079995226e+05) (4, 4.53480065664208028466e+05) (5, 8.08739650459784897976e+05) (6, 2.00456218058688828023e+05) (7, 6.65696508296930929646e+05) (8, 5.12112891610005521215e+05) (9, 9.26774989572127815336e+05) (0, -3.44828814268112182617e-02) (1, 3.70742993346402305178e+05) (2, -2.78057188378924620338e+05) (3, -3.00609582482216472272e+05) (4, -4.53520905887950502802e+05) (5, -8.08813822698122938164e+05) (6, -2.00473259035533643328e+05) (7, -6.65759049017723300494e+05) (8, -5.12164852526003494859e+05) (9, -9.26857425278378184885e+05) (0, -3.81615050137042999268e-02) (1, 3.70665793519662925974e+05) (2, -2.77999344603802019265e+05) (3, -3.00546374870588653721e+05) (4, -4.53424401594118739013e+05) (5, -8.08637500377406599000e+05) (6, -2.00431896297331288224e+05) (7, -6.65612913392715970986e+05) (8, -5.12038333964771823958e+05) (9, -9.26664534349000779912e+05) (0, 1.78343206644058227539e-02) (1, -3.70785279929673532024e+05) (2, 2.78089024286555068102e+05) (3, 3.00641498636682808865e+05) (4, 4.53560982171009702142e+05) (5, 8.08873607662473688833e+05) (6, 2.00502633792830019956e+05) (7, 6.65812875072923372500e+05) (8, 5.12206631502885255031e+05) (9, 9.26963114271935075521e+05) (0, 7.86200165748596191406e-04) (1, -3.70821351618343382142e+05) (2, 2.78116129712544847280e+05) (3, 3.00671622786530177109e+05) (4, 4.53606676492350758053e+05) (5, 8.08957430217227083631e+05) (6, 2.00522542943620821461e+05) (7, 6.65881298200419289060e+05) (8, 5.12268224675862467848e+05) (9, 9.27053487197236507200e+05) (0, -2.63989344239234924316e-02) (1, 3.70801166504065098707e+05) (2, -2.78100804878176946659e+05) (3, -3.00658188466823019553e+05) (4, -4.53592589165927434806e+05) (5, -8.08943686072407639585e+05) (6, -2.00505455064426787430e+05) (7, -6.65865832164753461257e+05) (8, -5.12267901241937070154e+05) (9, -9.27002837944151950069e+05) (0, 9.22410860657691955566e-02) (1, -3.70773509950480540283e+05) (2, 2.78080057571768527851e+05) (3, 3.00631726621264184359e+05) (4, 4.53546205550088081509e+05) (5, 8.08846674262182903476e+05) (6, 2.00496120672781456960e+05) (7, 6.65790852123749791645e+05) (8, 5.12186716603795473929e+05) (9, 9.26933680551898316480e+05) (0, -8.47277268767356872559e-02) (1, 3.70688297258012113161e+05) (2, -2.78016366073496814352e+05) (3, -3.00565060850912646856e+05) (4, -4.53452923574957821984e+05) (5, -8.08689742361304815859e+05) (6, -2.00444445099674572702e+05) (7, -6.65655363936197827570e+05) (8, -5.12076505829167377669e+05) (9, -9.26720867324245627970e+05) (0, -3.08238416910171508789e-02) (1, -3.70833946761777333450e+05) (2, 2.78125458177087770309e+05) (3, 3.00682124015047214925e+05) (4, 4.53622716798998648301e+05) (5, 8.08986863247879431583e+05) (6, 2.00529392944379476830e+05) (7, 6.65905375279029365629e+05) (8, 5.12289901200879772659e+05) (9, 9.27084949820518377237e+05) (0, -3.47673296928405761719e-02) (1, 3.70708332039474742487e+05) (2, -2.78031186645445297472e+05) (3, -3.00581730404191242997e+05) (4, -4.53478059676630480681e+05) (5, -8.08735784927458968014e+05) (6, -2.00455367259061255027e+05) (7, -6.65693217026204103604e+05) (8, -5.12110104373232985381e+05) (9, -9.26770844783881679177e+05) (0, 1.27960667014122009277e-02) (1, 3.70821956811472366098e+05) (2, -2.78116429810604196973e+05) (3, -3.00672087701315293089e+05) (4, -4.53607305562577908859e+05) (5, -8.08958526567824417725e+05) (6, -2.00522865158512169728e+05) (7, -6.65882326412093476392e+05) (8, -5.12269095774105109740e+05) (9, -9.27054801513311685994e+05) (0, -9.51979085803031921387e-02) (1, 3.70734060747145093046e+05) (2, -2.78050609628782491200e+05) (3, -3.00603181576159026008e+05) (4, -4.53510361360535840504e+05) (5, -8.08794934762385906652e+05) (6, -2.00469696819685661467e+05) (7, -6.65741330124527448788e+05) (8, -5.12153752177842252422e+05) (9, -9.26835184533198713325e+05) (0, 9.38942283391952514648e-03) (1, 3.70822215006435057148e+05) (2, -2.78116643896703317296e+05) (3, -3.00672313935109938029e+05) (4, -4.53607633815188077278e+05) (5, -8.08959101794102578424e+05) (6, -2.00523004556381201837e+05) (7, -6.65882757517958409153e+05) (8, -5.12269480229982349556e+05) (9, -9.27055343708232278004e+05) (0, 3.29763516783714294434e-02) (1, -3.70685496683917997871e+05) (2, 2.78014103118883911520e+05) (3, 3.00562717600206437055e+05) (4, 4.53449202256881282665e+05) (5, 8.08683199844584101811e+05) (6, 2.00442856921785569284e+05) (7, 6.65649923042504116893e+05) (8, 5.12071600787663541269e+05) (9, 9.26713699148472514935e+05) (0, -6.67713135480880737305e-02) (1, 3.70666798108861024957e+05) (2, -2.78000151911782217212e+05) (3, -3.00547181426647992339e+05) (4, -4.53425758646813977975e+05) (5, -8.08639954556653392501e+05) (6, -2.00432538239580433583e+05) (7, -6.65614839180211420171e+05) (8, -5.12040219135263527278e+05) (9, -9.26667066367183229886e+05) (0, 6.54832795262336730957e-02) (1, -3.70814646141100092791e+05) (2, 2.78111040678190474864e+05) (3, 3.00665965854848793242e+05) (4, 4.53598217956137086730e+05) (5, 8.08941662582831806503e+05) (6, 2.00518892063930106815e+05) (7, 6.65868464982342673466e+05) (8, 5.12256714356572367251e+05) (9, 9.27036734053201274946e+05) (0, 8.52073207497596740723e-02) (1, -3.70735189821173669770e+05) (2, 2.78051439161755843088e+05) (3, 3.00604113032204273622e+05) (4, 4.53511753994614467956e+05) (5, 8.08797718543108319864e+05) (6, 2.00470312372858141316e+05) (7, 6.65743395128103904426e+05) (8, 5.12155671336636471096e+05) (9, 9.26838156452883500606e+05) (0, 2.38410606980323791504e-02) (1, -3.70709991580894798972e+05) (2, 2.78032481458173773717e+05) (3, 3.00583018349690712057e+05) (4, 4.53480114551407110412e+05) (5, 8.08739473030248074792e+05) (6, 2.00456246055068128044e+05) (7, 6.65696154039937420748e+05) (8, 5.12112762710742419586e+05) (9, 9.26774778789364150725e+05) (0, -5.77985681593418121338e-02) (1, -3.70821764927277865354e+05) (2, 2.78116411619115737267e+05) (3, 3.00672109421231842134e+05) (4, 4.53607168413901992608e+05) (5, 8.08958541294666938484e+05) (6, 2.00522832012084923917e+05) (7, 6.65882140357318101451e+05) (8, 5.12269093701323494315e+05) (9, 9.27054563958874903619e+05) (0, 8.95504280924797058105e-02) (1, -3.70667101036195526831e+05) (2, 2.78000272477056481875e+05) (3, 3.00547389262086071540e+05) (4, 4.53426197932430659421e+05) (5, 8.08640613224085187539e+05) (6, 2.00432763034448056715e+05) (7, 6.65615361052156658843e+05) (8, 5.12040662748203903902e+05) (9, 9.26667759625223348849e+05) (0, 3.11076119542121887207e-02) (1, -3.70712814770467288326e+05) (2, 2.78034559978543198667e+05) (3, 3.00581443217865133192e+05) (4, 4.53470677640416484792e+05) (5, 8.08709389619274530560e+05) (6, 2.00462919448549830122e+05) (7, 6.65675205669897026382e+05) (8, 5.12084801285378052853e+05) (9, 9.26781943974422989413e+05) (0, -6.89860433340072631836e-03) (1, -3.71364896869619260542e+05) (2, 2.78523683376721513923e+05) (3, 3.01121641699271567632e+05) (4, 4.54254876598187722266e+05) (5, 8.10103239439174416475e+05) (6, 2.00856973277599347057e+05) (7, 6.66837879164017504081e+05) (8, 5.13094638680321280845e+05) (9, 9.28412307268976117484e+05) (0, 5.73011860251426696777e-02) (1, 3.70711675273841654416e+05) (2, -2.78033832748529384844e+05) (3, -3.00584451163108809851e+05) (4, -4.53482142035082448274e+05) (5, -8.08743635258395923302e+05) (6, -2.00457307185465586372e+05) (7, -6.65699409566783462651e+05) (8, -5.12115794794401561376e+05) (9, -9.26779095837568864226e+05) (0, -9.42174419760704040527e-02) (1, -3.70796739306086732540e+05) (2, 2.78097553245424700435e+05) (3, 3.00651124269292864483e+05) (4, 4.53575566649507090915e+05) (5, 8.08900405864328728057e+05) (6, 2.00509027237954433076e+05) (7, 6.65834743687367998064e+05) (8, 5.12226389557866496034e+05) (9, 9.26991982201667386107e+05) (0, -7.29844942688941955566e-02) (1, -3.70696448794413881842e+05) (2, 2.78022371044351661112e+05) (3, 3.00571853717987367418e+05) (4, 4.53463079592132242396e+05) (5, 8.08708426833291654475e+05) (6, 2.00448813866446260363e+05) (7, 6.65670740328606101684e+05) (8, 5.12090136028896144126e+05) (9, 9.26741135543079348281e+05) (0, 2.25896462798118591309e-02) (1, -3.70832646213598898612e+05) (2, 2.78124462973207992036e+05) (3, 3.00681130468350776937e+05) (4, 4.53621018302597920410e+05) (5, 8.08983784253901802003e+05) (6, 2.00528714677765528904e+05) (7, 6.65902879343890701421e+05) (8, 5.12287611993051134050e+05) (9, 9.27081613766372320242e+05) (0, 1.49581432342529296875e-02) (1, 3.70754196781322592869e+05) (2, -2.78065602714476757683e+05) (3, -3.00615589080907870084e+05) (4, -4.53522209319001762196e+05) (5, -8.08802684189663385041e+05) (6, -2.00485425744655658491e+05) (7, -6.65754795716363703832e+05) (8, -5.12154065345288487151e+05) (9, -9.26885718268520315178e+05) (0, -5.92839121818542480469e-02) (1, -3.70675749085826158989e+05) (2, 2.78006922918120049872e+05) (3, 3.00554755797588615678e+05) (4, 4.53437089003718749154e+05) (5, 8.08660737201388459653e+05) (6, 2.00437488150756485993e+05) (7, 6.65631771028591087088e+05) (8, 5.12055321885828161612e+05) (9, 9.26689527963940752670e+05) (0, -2.93045714497566223145e-02) (1, 3.71243758426623011474e+05) (2, -2.78432824989000975620e+05) (3, -3.01017962661629950162e+05) (4, -4.54102452102477604058e+05) (5, -8.09823983777311863378e+05) (6, -2.00780976137345423922e+05) (7, -6.66619867039569886401e+05) (8, -5.12865822776661603712e+05) (9, -9.28109536000853637233e+05) (0, 1.08414739370346069336e-02) (1, 3.70753598034564813133e+05) (2, -2.78065262197376228869e+05) (3, -3.00615028236982878298e+05) (4, -4.53521363698908535298e+05) (5, -8.08801017397894174792e+05) (6, -2.00484946371989557520e+05) (7, -6.65753413528650766239e+05) (8, -5.12152901088665938005e+05) (9, -9.26883893573537701741e+05) (0, 9.31471362709999084473e-02) (1, -3.70704963448822905775e+05) (2, 2.78028799300689366646e+05) (3, 3.00579017886605637614e+05) (4, 4.53473989677091885824e+05) (5, 8.08728242174022016115e+05) (6, 2.00453634479351923801e+05) (7, 6.65687090564793325029e+05) (8, 5.12104587542523455340e+05) (9, 9.26762612944160937332e+05) (0, -5.16276694834232330322e-02) (1, -3.70740958718643698376e+05) (2, 2.78055635562746610958e+05) (3, 3.00604058882995042950e+05) (4, 4.53503477984325552825e+05) (5, 8.08766116920117055997e+05) (6, 2.00478128764129913179e+05) (7, 6.65729379369796020910e+05) (8, 5.12125384446886193473e+05) (9, 9.26852177214720053598e+05) (0, -2.42318511009216308594e-02) (1, -3.70687499893632717431e+05) (2, 2.78015522084120893851e+05) (3, 3.00564349583780276589e+05) (4, 4.53451777030823694076e+05) (5, 8.08687663557733525522e+05) (6, 2.00443875743781507481e+05) (7, 6.65653659226261428557e+05) (8, 5.12074917655609548092e+05) (9, 9.26718675059372326359e+05) (0, -7.93183892965316772461e-02) (1, 3.70735916144076152705e+05) (2, -2.78051920842184103094e+05) (3, -3.00604666874050744809e+05) (4, -4.53512587451267754659e+05) (5, -8.08799259754598489963e+05) (6, -2.00470583342801284743e+05) (7, -6.65744843809664482251e+05) (8, -5.12156808664425043389e+05) (9, -9.26839931588298990391e+05) (0, -5.75827918946743011475e-02) (1, -3.70693024753973761108e+05) (2, 2.78019685735487437341e+05) (3, 3.00568939192392514087e+05) (4, 4.53458568520536879078e+05) (5, 8.08700286231969948858e+05) (6, 2.00446959489635715727e+05) (7, 6.65664223563865292817e+05) (8, 5.12084146440938522574e+05) (9, 9.26732309823609888554e+05) (0, 9.62326005101203918457e-02) (1, -3.70736507680061855353e+05) (2, 2.78052492181917768903e+05) (3, 3.00605188370214193128e+05) (4, 4.53513464178853842895e+05) (5, 8.08800723652366898023e+05) (6, 2.00471111905870173359e+05) (7, 6.65745897039135335945e+05) (8, 5.12157888389053812716e+05) (9, 9.26841414461387204938e+05) (0, -5.25156334042549133301e-02) (1, -3.70773829805753193796e+05) (2, 2.78080277040412882343e+05) (3, 3.00631796321105794050e+05) (4, 4.53546679862659482751e+05) (5, 8.08847232370276236907e+05) (6, 2.00496240699163638055e+05) (7, 6.65791278528514900245e+05) (8, 5.12187073737804137636e+05) (9, 9.26934365401326562278e+05) (0, 7.12879374623298645020e-02) (1, -3.71334981173067644704e+05) (2, 2.78501190627505362500e+05) (3, 3.01096650572991929948e+05) (4, 4.54216223112867621239e+05) (5, 8.10031263994400040247e+05) (6, 2.00841407623847742798e+05) (7, 6.66779346291674068198e+05) (8, 5.13041744919817836490e+05) (9, 9.28337261600552825257e+05) (0, -5.85128329694271087646e-02) (1, 3.70681888579259626567e+05) (2, -2.78011254921815125272e+05) (3, -3.00559584363258501980e+05) (4, -4.53444687698645750061e+05) (5, -8.08674609290710068308e+05) (6, -2.00440839142427634215e+05) (7, -6.65642964031479787081e+05) (8, -5.12065381972988252528e+05) (9, -9.26704530814316123724e+05) (0, 8.03679302334785461426e-02) (1, -3.70695193826530827209e+05) (2, 2.78021336450072063599e+05) (3, 3.00570691301754326560e+05) (4, 4.53461317375800106674e+05) (5, 8.08705337695972062647e+05) (6, 2.00448130484241963131e+05) (7, 6.65668311089505790733e+05) (8, 5.12087851730310881976e+05) (9, 9.26737779894706793129e+05) (0, -7.36763179302215576172e-02) (1, 3.70814861786807072349e+05) (2, -2.78111060443641617894e+05) (3, -3.00666180028826871421e+05) (4, -4.53598280953207518905e+05) (5, -8.08942092592232511379e+05) (6, -2.00519016219220677158e+05) (7, -6.65868857597269350663e+05) (8, -5.12257035580419935286e+05) (9, -9.27037015980207477696e+05) (0, -2.61405110359191894531e-02) (1, -3.70728160836575494613e+05) (2, 2.78046230096124927513e+05) (3, 3.00594334627966047265e+05) (4, 4.53490225051025860012e+05) (5, 8.08745334347152966075e+05) (6, 2.00471513052139955107e+05) (7, 6.65704196757566649467e+05) (8, 5.12110860992690897547e+05) (9, 9.26820537443310022354e+05) (0, -8.92407447099685668945e-03) (1, -3.70711800917959539220e+05) (2, 2.78033914122028159909e+05) (3, 3.00584769875349476933e+05) (4, 4.53482518709498341195e+05) (5, 8.08743977481588837691e+05) (6, 2.00457398745770886308e+05) (7, 6.65699574973746435717e+05) (8, 5.12116108249236363918e+05) (9, 9.26779506984503357671e+05) (0, 8.55120047926902770996e-02) (1, -3.70744672165137075353e+05) (2, 2.78058536693726491649e+05) (3, 3.00611070476586872246e+05) (4, 4.53522877120051067322e+05) (5, 8.08817454672445892356e+05) (6, 2.00474192648159747478e+05) (7, 6.65762332002030801959e+05) (8, 5.12168215197517594788e+05) (9, 9.26861643447384936735e+05) (0, -7.84404575824737548828e-02) (1, 3.70766009792967466637e+05) (2, -2.78074481227454147302e+05) (3, -3.00628898824199161027e+05) (4, -4.53549003877465438563e+05) (5, -8.08864411436977679841e+05) (6, -2.00485797579466161551e+05) (7, -6.65801013023405335844e+05) (8, -5.12207725870749389287e+05) (9, -9.26915115709338337183e+05) (0, 8.70006904006004333496e-02) (1, 3.70703496281975531019e+05) (2, -2.78027559218261332717e+05) (3, -3.00573023705550003797e+05) (4, -4.53456074093334143981e+05) (5, -8.08679196285743848421e+05) (6, -2.00458206325727049261e+05) (7, -6.65658802535142516717e+05) (8, -5.12056195614604221191e+05) (9, -9.26758440980715444311e+05) (0, -5.16746975481510162354e-02) (1, -3.70725435312538116705e+05) (2, 2.78044075563049875200e+05) (3, 3.00596072404042817652e+05) (4, 4.53499547176369815134e+05) (5, 8.08775293708946439438e+05) (6, 2.00464914192308089696e+05) (7, 6.65725106671887799166e+05) (8, 5.12139206641630327795e+05) (9, 9.26813615300704375841e+05) (0, -7.10111111402511596680e-02) (1, -3.70741408286673133262e+05) (2, 2.78056079432162223384e+05) (3, 3.00608454427143326029e+05) (4, 4.53519091362868784927e+05) (5, 8.08810238768759067170e+05) (6, 2.00472474262814444955e+05) (7, 6.65756282262776861899e+05) (8, 5.12162328090056485962e+05) (9, 9.26853551242782035843e+05) (0, -1.62769407033920288086e-02) (1, 3.70810010203612793703e+05) (2, -2.78107441853262193035e+05) (3, -3.00662125975022325292e+05) (4, -4.53592243183924409095e+05) (5, -8.08930946989892399870e+05) (6, -2.00516346659020317020e+05) (7, -6.65859798399281688035e+05) (8, -5.12248909766168915667e+05) (9, -9.27025036304448964074e+05) (0, 9.84477475285530090332e-02) (1, -3.70724682313826575410e+05) (2, 2.78043534157891932409e+05) (3, 3.00590750805982272141e+05) (4, 4.53483005900496209506e+05) (5, 8.08728422079781070352e+05) (6, 2.00469952180590975331e+05) (7, 6.65699001408691634424e+05) (8, 5.12092092361584771425e+05) (9, 9.26811676730922539718e+05) (0, 6.61692693829536437988e-02) (1, -3.70808642385157465469e+05) (2, 2.78106405522706976626e+05) (3, 3.00660924694681772962e+05) (4, 4.53590440549773513339e+05) (5, 8.08927592344878590666e+05) (6, 2.00515461155447963392e+05) (7, 6.65857056697620078921e+05) (8, 5.12246435850914218463e+05) (9, 9.27021528269745409489e+05) (0, 5.24676963686943054199e-02) (1, 3.70800923456370423082e+05) (2, -2.78100673828462313395e+05) (3, -3.00658093147033767309e+05) (4, -4.53592332126363646239e+05) (5, -8.08943263970888801850e+05) (6, -2.00505398007139097899e+05) (7, -6.65865580552282510325e+05) (8, -5.12267615605820843484e+05) (9, -9.27002425794013193808e+05) (0, -6.14784024655818939209e-02) (1, -3.70727021132051420864e+05) (2, 2.78045307221391180065e+05) (3, 3.00597443090702116024e+05) (4, 4.53501580009062658064e+05) (5, 8.08779075325568323024e+05) (6, 2.00465911698089184938e+05) (7, 6.65728215998276136816e+05) (8, 5.12141904490527987946e+05) (9, 9.26817716278611449525e+05) (0, 3.97215560078620910645e-02) (1, 3.70674714683360478375e+05) (2, -2.78006112223194504622e+05) (3, -3.00553732563152618241e+05) (4, -4.53435802184459869750e+05) (5, -8.08658324549707816914e+05) (6, -2.00436877861706452677e+05) (7, -6.65629762239726027474e+05) (8, -5.12053570272163779009e+05) (9, -9.26686960330278845504e+05) (0, -5.81921227276325225830e-02) (1, 3.70738439209071453661e+05) (2, -2.78053817867473640945e+05) (3, -3.00606861132637481205e+05) (4, -4.53515731902116618585e+05) (5, -8.08804989321149303578e+05) (6, -2.00471980764109786833e+05) (7, -6.65749485808108933270e+05) (8, -5.12161052315277280286e+05) (9, -9.26846159080754849128e+05) (0, 2.20693573355674743652e-02) (1, 3.70696440188006439712e+05) (2, -2.78022318416854541283e+05) (3, -3.00571861140245571733e+05) (4, -4.53463064922852732707e+05) (5, -8.08708629926892928779e+05) (6, -2.00448959319016896188e+05) (7, -6.65670695919388672337e+05) (8, -5.12090218286845600232e+05) (9, -9.26741216658778022975e+05) (0, -8.56104344129562377930e-02) (1, 3.70685360003929992672e+05) (2, -2.78013998062487167772e+05) (3, -3.00562701745487516746e+05) (4, -4.53449282684759236872e+05) (5, -8.08683026095831533894e+05) (6, -2.00442906635578634450e+05) (7, -6.65649879933585296385e+05) (8, -5.12071516184276842978e+05) (9, -9.26713583079159725457e+05) (0, 3.12272682785987854004e-02) (1, -3.70742605670641874894e+05) (2, 2.78056976161160389893e+05) (3, 3.00609238240287115332e+05) (4, 4.53520311067437811289e+05) (5, 8.08812837881359970197e+05) (6, 2.00472993445351981791e+05) (7, 6.65758198394764564000e+05) (8, 5.12164198098515160382e+05) (9, 9.26856225298683508299e+05) (0, 8.59053209424018859863e-02) (1, 3.70753977213133068290e+05) (2, -2.78065585067376086954e+05) (3, -3.00615375569380004890e+05) (4, -4.53522012561522249598e+05) (5, -8.08802230405464535579e+05) (6, -2.00485155216143699363e+05) (7, -6.65754326955316821113e+05) (8, -5.12153826923802844249e+05) (9, -9.26885126475780620240e+05) (0, 2.19269841909408569336e-02) (1, 3.70763332842588890344e+05) (2, -2.78072571765375090763e+05) (3, -3.00626748455993481912e+05) (4, -4.53545632470377080608e+05) (5, -8.08858366374595905654e+05) (6, -2.00484330026356212329e+05) (7, -6.65795927691378747113e+05) (8, -5.12203252738739538472e+05) (9, -9.26908438156579621136e+05) (0, 1.87582597136497497559e-02) (1, -3.70718463586128840689e+05) (2, 2.78038840439534978941e+05) (3, 3.00586163612228003331e+05) (4, 4.53477750806764233857e+05) (5, 8.08722501024316065013e+05) (6, 2.00466029845427285181e+05) (7, 6.65685733452735352330e+05) (8, 5.12094165965255640913e+05) (9, 9.26795834734368138015e+05) (0, 3.53765860199928283691e-02) (1, -3.70713123099507298321e+05) (2, 2.78034862145619466901e+05) (3, 3.00581295729861711152e+05) (4, 4.53468631720583594870e+05) (5, 8.08701919487709761597e+05) (6, 2.00463519011719734408e+05) (7, 6.65677376911212340929e+05) (8, 5.12072753366917779204e+05) (9, 9.26782995125804096460e+05) (0, -9.93338450789451599121e-02) (1, -3.70745959058981505223e+05) (2, 2.78059489534675900359e+05) (3, 3.00612098953766224440e+05) (4, 4.53524501496309880167e+05) (5, 8.08820236680308589712e+05) (6, 2.00474925125907873735e+05) (7, 6.65764849262401927263e+05) (8, 5.12170507934261520859e+05) (9, 9.26864961437171092257e+05) (0, 7.22328498959541320801e-02) (1, 3.70779558688051532954e+05) (2, -2.78084715108211152256e+05) (3, -3.00636669264927564654e+05) (4, -4.53553957340246415697e+05) (5, -8.08860538853003759868e+05) (6, -2.00499397924359975150e+05) (7, -6.65802156045097857714e+05) (8, -5.12196989148816501256e+05) (9, -9.26948798066774732433e+05) (0, 8.22678953409194946289e-03) (1, -3.70761609549070184585e+05) (2, 2.78071316505969909485e+05) (3, 3.00621872161665174644e+05) (4, 4.53531582118634716608e+05) (5, 8.08819655765657196753e+05) (6, 2.00489461539966636337e+05) (7, 6.65768730030408012681e+05) (8, 5.12166654762974358164e+05) (9, 9.26904202874808106571e+05) (0, -8.59537124633789062500e-02) (1, 3.70761929100589070003e+05) (2, -2.78071573221926577389e+05) (3, -3.00622077131990634371e+05) (4, -4.53531892250723438337e+05) (5, -8.08820389396661776118e+05) (6, -2.00489652062831562944e+05) (7, -6.65769288194447639398e+05) (8, -5.12167216004967747722e+05) (9, -9.26904959117208141834e+05) (0, -7.92279839515686035156e-03) (1, -3.70723544121345796157e+05) (2, 2.78042583937753224745e+05) (3, 3.00594406949435768183e+05) (4, 4.53497027636104437988e+05) (5, 8.08770779240977833979e+05) (6, 2.00463790839300752850e+05) (7, 6.65721650470789056271e+05) (8, 5.12135898648751841392e+05) (9, 9.26808832833718741313e+05) (0, -3.32262367010116577148e-03) (1, -3.70712944525481725577e+05) (2, 2.78034684387001616415e+05) (3, 3.00584583398549817502e+05) (4, 4.53483221990107616875e+05) (5, 8.08745003167914692312e+05) (6, 2.00456542618225066690e+05) (7, 6.65703554377467255108e+05) (8, 5.12113902029049990233e+05) (9, 9.26782373891585390083e+05) (0, 2.61506065726280212402e-02) (1, -3.70794022282386664301e+05) (2, 2.78095393673374725040e+05) (3, 3.00648771676344855223e+05) (4, 4.53572060871627531014e+05) (5, 8.08893859491082723252e+05) (6, 2.00507353304045245750e+05) (7, 6.65829327440831228159e+05) (8, 5.12221554127312265337e+05) (9, 9.26984962660718359984e+05) (0, 7.00496807694435119629e-02) (1, -3.70678250207790406421e+05) (2, 2.78008602162763942033e+05) (3, 3.00556604796158906538e+05) (4, 4.53440037577865005005e+05) (5, 8.08666287836008588783e+05) (6, 2.00438828926466667326e+05) (7, 6.65636273844720912166e+05) (8, 5.12059426787897129543e+05) (9, 9.26695519793177139945e+05) (0, 8.51804092526435852051e-02) (1, 3.70822770407991542015e+05) (2, -2.78117077595351263881e+05) (3, -3.00672837462503463030e+05) (4, -4.53608357947793847416e+05) (5, -8.08960553819086635485e+05) (6, -2.00523274140684254235e+05) (7, -6.65883897947829333134e+05) (8, -5.12270532417452544905e+05) (9, -9.27056876799400197342e+05) (0, -4.85187247395515441895e-02) (1, 3.70756969810534559656e+05) (2, -2.78067794821338786278e+05) (3, -3.00617888098406372592e+05) (4, -4.53525628686380281579e+05) (5, -8.08808776316151837818e+05) (6, -2.00486775290119490819e+05) (7, -6.65759823901404277422e+05) (8, -5.12158759687664452940e+05) (9, -9.26892281830184860155e+05) (0, -6.39805644750595092773e-02) (1, 3.70702960195968276821e+05) (2, -2.78027184266682656016e+05) (3, -3.00577227175905834883e+05) (4, -4.53471081560039194301e+05) (5, -8.08723292208121158183e+05) (6, -2.00452393034551525488e+05) (7, -6.65682995265402249061e+05) (8, -5.12100842755537771154e+05) (9, -9.26757196909875608981e+05) (0, -1.15284770727157592773e-02) (1, 3.70673507119500136469e+05) (2, -2.78005000411049288232e+05) (3, -3.00552612987862608861e+05) (4, -4.53434141403313726187e+05) (5, -8.08655228734216419980e+05) (6, -2.00436179223932325840e+05) (7, -6.65627210565275629051e+05) (8, -5.12051246133817767259e+05) (9, -9.26683619105816120282e+05) (0, 3.97243127226829528809e-02) (1, 3.70755127814043837134e+05) (2, -2.78066438284606614616e+05) (3, -3.00616334317532891873e+05) (4, -4.53523363719440181740e+05) (5, -8.08804770153747755103e+05) (6, -2.00485854144654935226e+05) (7, -6.65756494498071842827e+05) (8, -5.12155769540662819054e+05) (9, -9.26887918400527676567e+05) (0, 7.91116803884506225586e-03) (1, 3.70797021356458542868e+05) (2, -2.78097803958645265084e+05) (3, -3.00651270649149431847e+05) (4, -4.53575915148407104425e+05) (5, -8.08900935343758901581e+05) (6, -2.00509186472040601075e+05) (7, -6.65835227663335506804e+05) (8, -5.12226703331145457923e+05) (9, -9.26992761108333477750e+05) (0, 1.11616104841232299805e-02) (1, 3.70738082109588547610e+05) (2, -2.78053520458335173316e+05) (3, -3.00601855340537498705e+05) (4, -4.53500078066366782878e+05) (5, -8.08759989279627450742e+05) (6, -2.00476687358687078813e+05) (7, -6.65724230373817845248e+05) (8, -5.12120678064020059537e+05) (9, -9.26845431722208741121e+05) (0, -1.41005665063858032227e-02) (1, 3.70802571540955395903e+05) (2, -2.78101928973471862264e+05) (3, -3.00655872060603753198e+05) (4, -4.53582846339096839074e+05) (5, -8.08913548945656628348e+05) (6, -2.00512198370611178689e+05) (7, -6.65845486153495032340e+05) (8, -5.12236063496362767182e+05) (9, -9.27006413169862003997e+05) (0, 2.22432836890220642090e-02) (1, 3.70717856809664575849e+05) (2, -2.78038460597688797861e+05) (3, -3.00585837058141885791e+05) (4, -4.53477299085394362919e+05) (5, -8.08721335406822967343e+05) (6, -2.00465766087026539026e+05) (7, -6.65684951865743496455e+05) (8, -5.12093582189240842126e+05) (9, -9.26794861262394348159e+05) (0, 1.73123329877853393555e-02) (1, 3.70663958937529416289e+05) (2, -2.77997949010833050124e+05) (3, -3.00544741498439107090e+05) (4, -4.53422157491654856130e+05) (5, -8.08633244733910541981e+05) (6, -2.00430895656636945205e+05) (7, -6.65609418316607014276e+05) (8, -5.12035262478135991842e+05) (9, -9.26659850141630275175e+05) (0, -2.38749906420707702637e-02) (1, -3.70807533685530477669e+05) (2, 2.78105656465521082282e+05) (3, 3.00660194979802472517e+05) (4, 4.53589251658934517764e+05) (5, 8.08925416951915132813e+05) (6, 2.00515006421983329346e+05) (7, 6.65855198190931696445e+05) (8, 5.12244745662521396298e+05) (9, 9.27019029982595238835e+05) (0, -9.01771560311317443848e-02) (1, 3.70700052077790664043e+05) (2, -2.78025089026748493779e+05) (3, -3.00570914040700881742e+05) (4, -4.53454746762115508318e+05) (5, -8.08680163376664393581e+05) (6, -2.00455892223307804670e+05) (7, -6.65651378669671481475e+05) (8, -5.12063438388151582330e+05) (9, -9.26750279321377514862e+05) (0, -3.67345064878463745117e-02) (1, -3.70686809289858676493e+05) (2, 2.78015014759742596652e+05) (3, 3.00563903315020201262e+05) (4, 4.53450830396807228681e+05) (5, 8.08686090221368358470e+05) (6, 2.00443602766197524033e+05) (7, 6.65652507045872975141e+05) (8, 5.12073807400989695452e+05) (9, 9.26716935673831962049e+05) (0, -6.34673982858657836914e-02) (1, -3.70719543061053205747e+05) (2, 2.78039606080960598774e+05) (3, 3.00587151205844071228e+05) (4, 4.53479309738350450061e+05) (5, 8.08725270554267568514e+05) (6, 2.00466790352510666708e+05) (7, 6.65688012053853948601e+05) (8, 5.12096282486643583979e+05) (9, 9.26799003993545309640e+05) (0, 3.04185524582862854004e-02) (1, -3.70668427981651213486e+05) (2, 2.78001382768435345497e+05) (3, 3.00548438605225703213e+05) (4, 4.53427648811183287762e+05) (5, 8.08643584207588573918e+05) (6, 2.00433423400397383375e+05) (7, 6.65617839175476925448e+05) (8, 5.12042766442681837361e+05) (9, 9.26671082075674203224e+05) (0, 8.99260118603706359863e-02) (1, -3.70717424221380671952e+05) (2, 2.78037957589682308026e+05) (3, 3.00589342889214458410e+05) (4, 4.53489372019600123167e+05) (5, 8.08756650969227193855e+05) (6, 2.00460298900079389568e+05) (7, 6.65710388433288782835e+05) (8, 5.12125409794888517354e+05) (9, 9.26793525385101209395e+05) (0, 9.17628630995750427246e-02) (1, -3.70714894713650166523e+05) (2, 2.78036174994677072391e+05) (3, 3.00587179947069729678e+05) (4, 4.53486295990402228199e+05) (5, 8.08751144000142929144e+05) (6, 2.00459101517656119540e+05) (7, 6.65705574038438149728e+05) (8, 5.12121230680984037463e+05) (9, 9.26787325896824360825e+05) (0, 5.43807670474052429199e-02) (1, 3.70679453048229159322e+05) (2, -2.78009520240610174369e+05) (3, -3.00557641912002465688e+05) (4, -4.53441510631159821060e+05) (5, -8.08669013241599546745e+05) (6, -2.00439463031269289786e+05) (7, -6.65638491126972483471e+05) (8, -5.12061389923421666026e+05) (9, -9.26698435040539014153e+05) (0, -9.50223878026008605957e-02) (1, -3.70743759578962519299e+05) (2, 2.78057705826143675949e+05) (3, 3.00610109929126978386e+05) (4, 4.53521632735509949271e+05) (5, 8.08815198466539266519e+05) (6, 2.00473557587568473537e+05) (7, 6.65760471096796914935e+05) (8, 5.12166359440032800194e+05) (9, 9.26859227353172958829e+05) (0, 4.74385693669319152832e-02) (1, 3.70741078530926664826e+05) (2, -2.78055828548958408646e+05) (3, -3.00604742005545122083e+05) (4, -4.53505643234723247588e+05) (5, -8.08772388528209761716e+05) (6, -2.00477984373007057002e+05) (7, -6.65730225280225859024e+05) (8, -5.12132302934717037715e+05) (9, -9.26852683708808268420e+05) (0, -6.91110044717788696289e-02) (1, 3.71175996479487454053e+05) (2, -2.78381930708261963446e+05) (3, -3.00961177072612335905e+05) (4, -4.54015889644334558398e+05) (5, -8.09664030408526421525e+05) (6, -2.00744436623427114682e+05) (7, -6.66489463165019638836e+05) (8, -5.12748543834363692440e+05) (9, -9.27939886281394283287e+05) (0, 5.55822029709815979004e-02) (1, 3.70706871045431005768e+05) (2, -2.78030175253567576874e+05) (3, -3.00580687996471358929e+05) (4, -4.53476343072110204957e+05) (5, -8.08732567277217982337e+05) (6, -2.00454705841264629271e+05) (7, -6.65690473205042071640e+05) (8, -5.12107724411764647812e+05) (9, -9.26767278702585725114e+05) (0, 7.67476186156272888184e-02) (1, -3.70745919248544727452e+05) (2, 2.78059430324437736999e+05) (3, 3.00612047019061108585e+05) (4, 4.53524612565041927155e+05) (5, 8.08820379241619724780e+05) (6, 2.00474872229097352829e+05) (7, 6.65764613079587696120e+05) (8, 5.12170174955185677391e+05) (9, 9.26864807175370515324e+05) (0, -2.68826633691787719727e-03) (1, 3.70739147144793940242e+05) (2, -2.78054273682301922236e+05) (3, -3.00607302193345851265e+05) (4, -4.53516511765563918743e+05) (5, -8.08806262584256241098e+05) (6, -2.00472228261994954664e+05) (7, -6.65750745020690723322e+05) (8, -5.12161950599205098115e+05) (9, -9.26847627159815514460e+05) (0, 3.78263369202613830566e-02) (1, -3.70749848140222718939e+05) (2, 2.78062509123900672421e+05) (3, 3.00615315025544492528e+05) (4, 4.53529110525486059487e+05) (5, 8.08828425611442653462e+05) (6, 2.00476870572120038560e+05) (7, 6.65772073834749055095e+05) (8, 5.12177812781722459476e+05) (9, 9.26874619396558031440e+05) (0, -6.40758424997329711914e-02) (1, 3.70676799077922827564e+05) (2, -2.78007578841315233149e+05) (3, -3.00555528684966382571e+05) (4, -4.53438347469581407495e+05) (5, -8.08663147959704510868e+05) (6, -2.00438139543047494953e+05) (7, -6.65633670543459942564e+05) (8, -5.12057103163552004844e+05) (9, -9.26692074543918715790e+05) (0, 4.93528768420219421387e-02) (1, -3.70676162763764325064e+05) (2, 2.78007159877905796748e+05) (3, 3.00554949611760268454e+05) (4, 4.53437559766488790046e+05) (5, 8.08661520714919664897e+05) (6, 2.00437689624351070961e+05) (7, 6.65632395659661851823e+05) (8, 5.12055888440128881484e+05) (9, 9.26690389974856749177e+05) (0, -1.67320221662521362305e-02) (1, 3.70669674246269860305e+05) (2, -2.78002242750570818316e+05) (3, -3.00549631021084089298e+05) (4, -4.53429426499879918993e+05) (5, -8.08646684633903671056e+05) (6, -2.00434151661758020055e+05) (7, -6.65620278826723457314e+05) (8, -5.12045019014508754481e+05) (9, -9.26674328891119686887e+05) (0, 2.69422754645347595215e-02) (1, -3.70713192155373690184e+05) (2, 2.78034892886390152853e+05) (3, 3.00581272564667218830e+05) (4, 4.53468664460980275180e+05) (5, 8.08702150000064168125e+05) (6, 2.00463699050684721442e+05) (7, 6.65677508319322252646e+05) (8, 5.12072912600776937325e+05) (9, 9.26783140869722468778e+05) (0, -1.93907842040061950684e-02) (1, 3.71262089690856868401e+05) (2, -2.78446581894621311221e+05) (3, -3.01033262657543004025e+05) (4, -4.54126078605798422359e+05) (5, -8.09867746684016776271e+05) (6, -2.00790533705718029523e+05) (7, -6.66655704678037902340e+05) (8, -5.12897965895896661095e+05) (9, -9.28155326823031762615e+05) (0, -4.93507981300354003906e-02) (1, -3.70698399290048866533e+05) (2, 2.78023822944344428834e+05) (3, 3.00573381373776530381e+05) (4, 4.53465559810711478349e+05) (5, 8.08712845280332257971e+05) (6, 2.00449951043031876907e+05) (7, 6.65674461793520604260e+05) (8, 5.12093338728445814922e+05) (9, 9.26745933869360946119e+05) (0, -5.64729012548923492432e-02) (1, 3.70700251809270819649e+05) (2, -2.78025206643294775859e+05) (3, -3.00575092476537916809e+05) (4, -4.53467854081997647882e+05) (5, -8.08717400095742661506e+05) (6, -2.00451087466240685899e+05) (7, -6.65677925017252331600e+05) (8, -5.12096565293181862216e+05) (9, -9.26750706699164002202e+05) (0, 6.11846372485160827637e-02) (1, 3.70736990427467040718e+05) (2, -2.78052757900303637143e+05) (3, -3.00605663297868333757e+05) (4, -4.53514190048285992816e+05) (5, -8.08801880047474056482e+05) (6, -2.00471352838983555557e+05) (7, -6.65746703499610419385e+05) (8, -5.12158858938852150459e+05) (9, -9.26842664026951882988e+05) (0, -9.21225994825363159180e-02) (1, -3.70800700528656132519e+05) (2, 2.78100481000864761882e+05) (3, 3.00654440482260426506e+05) (4, 4.53580602986350771971e+05) (5, 8.08909493214072776027e+05) (6, 2.00511242776330414927e+05) (7, 6.65842118740061530843e+05) (8, 5.12232941800930362660e+05) (9, 9.27001877215444575995e+05) (0, -7.08308815956115722656e-02) (1, 3.70797784963539510500e+05) (2, -2.78098266111898992676e+05) (3, -3.00651913266343006399e+05) (4, -4.53576797685994300991e+05) (5, -8.08902611905178986490e+05) (6, -2.00509510881770955166e+05) (7, -6.65836513498198823072e+05) (8, -5.12227991251766798086e+05) (9, -9.26994538002890069038e+05) (0, -1.88679099082946777344e-02) (1, -3.70676115672978397924e+05) (2, 2.78007014712423435412e+05) (3, 3.00554811411569244228e+05) (4, 4.53437405107459868304e+05) (5, 8.08661293449906166643e+05) (6, 2.00437668903028388740e+05) (7, 6.65632188264776137657e+05) (8, 5.12055750959427794442e+05) (9, 9.26690076300889719278e+05) (0, -4.46432232856750488281e-02) (1, 3.70759506892420409713e+05) (2, -2.78069524424354662187e+05) (3, -3.00619961879172478803e+05) (4, -4.53528715272954315878e+05) (5, -8.08814548163039842620e+05) (6, -2.00488269765958859352e+05) (7, -6.65764532248707371764e+05) (8, -5.12162976603018410970e+05) (9, -9.26898621851761825383e+05) (0, -8.33368971943855285645e-02) (1, -3.70741460260855674278e+05) (2, 2.78056162378521228675e+05) (3, 3.00608274328837986104e+05) (4, 4.53518946888249425683e+05) (5, 8.08810305147117702290e+05) (6, 2.00472498219865199644e+05) (7, 6.65756259717756765895e+05) (8, 5.12162305847343173809e+05) (9, 9.26853530784946284257e+05) (0, -7.41181746125221252441e-02) (1, -3.70733714246974268463e+05) (2, 2.78050319614384323359e+05) (3, 3.00602866078535385896e+05) (4, 4.53509869614999508485e+05) (5, 8.08794253435121732764e+05) (6, 2.00469391891374252737e+05) (7, 6.65741002840414061211e+05) (8, 5.12153112700074387249e+05) (9, 9.26834515536201186478e+05) (0, 6.71390816569328308105e-02) (1, 3.70716134205673821270e+05) (2, -2.78037069167532725260e+05) (3, -3.00583563421296072192e+05) (4, -4.53472240470022719819e+05) (5, -8.08708476383002242073e+05) (6, -2.00465171467696083710e+05) (7, -6.65682769238151027821e+05) (8, -5.12077634718427609187e+05) (9, -9.26790160001468146220e+05) (0, 9.58725735545158386230e-02) (1, 3.70664627846808813047e+05) (2, -2.77998366740435129032e+05) (3, -3.00545249761621642392e+05) (4, -4.53422910747453744989e+05) (5, -8.08634912019068375230e+05) (6, -2.00431279543819458922e+05) (7, -6.65610669261542381719e+05) (8, -5.12036363346361380536e+05) (9, -9.26661635541934170760e+05) (0, -2.59277075529098510742e-02) (1, -3.70750759406990662683e+05) (2, 2.78063091225913842209e+05) (3, 3.00612649304491467774e+05) (4, 4.53517732583770644851e+05) (5, 8.08794385216945782304e+05) (6, 2.00483389664843591163e+05) (7, 6.65748057003282010555e+05) (8, 5.12148132125417760108e+05) (9, 9.26876623436419642530e+05) (0, 9.42120775580406188965e-02) (1, 3.70697987746231898200e+05) (2, -2.78023542375619290397e+05) (3, -3.00573146406030689832e+05) (4, -4.53465009644766862039e+05) (5, -8.08711940254861721769e+05) (6, -2.00449771137225965504e+05) (7, -6.65673508793831686489e+05) (8, -5.12092601287517987657e+05) (9, -9.26744829304890357889e+05) (0, -6.56948089599609375000e-02) (1, -3.70713948423128691502e+05) (2, 2.78035486590958724264e+05) (3, 3.00586444523083278909e+05) (4, 4.53485208768669341225e+05) (5, 8.08748992175550200045e+05) (6, 2.00458597926927002845e+05) (7, 6.65703617973617045209e+05) (8, 5.12119721412474813405e+05) (9, 9.26784962279605097137e+05) (0, -3.88314910233020782471e-02) (1, -3.70713794408783665858e+05) (2, 2.78035286623998428695e+05) (3, 3.00586256416998512577e+05) (4, 4.53484858808691555168e+05) (5, 8.08748457312551094219e+05) (6, 2.00458399706469412195e+05) (7, 6.65703417912392527796e+05) (8, 5.12119250043926120270e+05) (9, 9.26784441929499618709e+05) (0, -2.79751941561698913574e-02) (1, 3.70761607315037923399e+05) (2, -2.78071073996351624373e+05) (3, -3.00621672472959151492e+05) (4, -4.53531332512723573018e+05) (5, -8.08819365061682881787e+05) (6, -2.00489336373317259131e+05) (7, -6.65768329444096656516e+05) (8, -5.12166390450796461664e+05) (9, -9.26903739880267530680e+05) (0, 1.45413875579833984375e-02) (1, -3.70684029102143424097e+05) (2, 2.78013077971079619601e+05) (3, 3.00561657331618596800e+05) (4, 4.53447417454013717361e+05) (5, 8.08679858100504148751e+05) (6, 2.00442148515043139923e+05) (7, 6.65647365552386501804e+05) (8, 5.12069259764597227331e+05) (9, 9.26710163247709511779e+05) (0, -2.13347822427749633789e-02) (1, -3.70693372987166047096e+05) (2, 2.78020096846545755398e+05) (3, 3.00569371035273012239e+05) (4, 4.53459183323997422121e+05) (5, 8.08701547413768828847e+05) (6, 2.00447225597016513348e+05) (7, 6.65664919001314323395e+05) (8, 5.12085080316864652559e+05) (9, 9.26733519964331877418e+05) (0, 8.88735055923461914062e-03) (1, -3.70747549557265592739e+05) (2, 2.78060575627735292073e+05) (3, 3.00613315768522035796e+05) (4, 4.53526486915733024944e+05) (5, 8.08823740333555964753e+05) (6, 2.00475733690451626899e+05) (7, 6.65767595878403168172e+05) (8, 5.12172952935445471667e+05) (9, 9.26868702090492006391e+05) (0, -3.23489457368850708008e-02) (1, 3.70703938371099007782e+05) (2, -2.78027803847591509111e+05) (3, -3.00577888589264068287e+05) (4, -4.53472341253172548022e+05) (5, -8.08725486392798600718e+05) (6, -2.00452851143631938612e+05) (7, -6.65685107248418848030e+05) (8, -5.12102421057583997026e+05) (9, -9.26759640930149704218e+05) (0, 6.00917413830757141113e-02) (1, -3.70816481262659304775e+05) (2, 2.78112346817145706154e+05) (3, 3.00667559699204633944e+05) (4, 4.53600413570942473598e+05) (5, 8.08946043003711849451e+05) (6, 2.00519808637495356379e+05) (7, 6.65872006493658176623e+05) (8, 5.12259949143458798062e+05) (9, 9.27041217211024952121e+05) (0, 2.33266577124595642090e-02) (1, -3.70704001463734661229e+05) (2, 2.78027995351314893924e+05) (3, 3.00573557490951789077e+05) (4, 4.53456913610321178567e+05) (5, 8.08680478928226395510e+05) (6, 2.00458462799989356427e+05) (7, 6.65659788748346851207e+05) (8, 5.12057133724473300390e+05) (9, 9.26759964230188867077e+05) (0, -5.81877641379833221436e-02) (1, -3.70731358773576153908e+05) (2, 2.78048522229677881114e+05) (3, 3.00600820413474750239e+05) (4, 4.53506844547470740508e+05) (5, 8.08788689322080113925e+05) (6, 2.00468090650483791251e+05) (7, 6.65736123689826927148e+05) (8, 5.12149007961825525854e+05) (9, 9.26828312697832006961e+05) (0, 7.57764205336570739746e-02) (1, 3.70765936503421515226e+05) (2, -2.78074286418101692107e+05) (3, -3.00625326790645776782e+05) (4, -4.53536757557463482954e+05) (5, -8.08829315165159292519e+05) (6, -2.00491764729566173628e+05) (7, -6.65776489224518998526e+05) (8, -5.12173775849443394691e+05) (9, -9.26914623407684033737e+05) (0, -9.95849817991256713867e-02) (1, -3.70773718522589595523e+05) (2, 2.78080286693120375276e+05) (3, 3.00631804300612013321e+05) (4, 4.53546603548090672120e+05) (5, 8.08847085650898865424e+05) (6, 2.00496217387192766182e+05) (7, 6.65791127082482213154e+05) (8, 5.12186991664574772585e+05) (9, 9.26934034398051211610e+05) (0, -8.12334641814231872559e-02) (1, 3.70782346328429877758e+05) (2, -2.78086737882706394885e+05) (3, -3.00638978702530905139e+05) (4, -4.53557246354490227532e+05) (5, -8.08866808380877017044e+05) (6, -2.00501046164886240149e+05) (7, -6.65807362739659147337e+05) (8, -5.12201527836739842314e+05) (9, -9.26955787458791513927e+05) (0, -1.98881775140762329102e-02) (1, -3.70720979691281449050e+05) (2, 2.78040746713399130385e+05) (3, 3.00592338152356678620e+05) (4, 4.53493929695502039976e+05) (5, 8.08765131673021591268e+05) (6, 2.00462533521546138218e+05) (7, 6.65716863506283028983e+05) (8, 5.12131652805339894257e+05) (9, 9.26802550536291440949e+05) (0, -7.49549493193626403809e-02) (1, 3.70732126404697832186e+05) (2, -2.78049165263603383210e+05) (3, -3.00601492134946573060e+05) (4, -4.53507823977604450192e+05) (5, -8.08790643775823526084e+05) (6, -2.00468629865697002970e+05) (7, -6.65737603684876812622e+05) (8, -5.12150449397309566848e+05) (9, -9.26830304292482323945e+05) (0, -9.28589552640914916992e-02) (1, 3.71362289468964328989e+05) (2, -2.78521679304800054524e+05) (3, -3.01119475291568844113e+05) (4, -4.54251489212240499910e+05) (5, -8.10097030171730672009e+05) (6, -2.00855538954713440035e+05) (7, -6.66832805059103411622e+05) (8, -5.13090062913247093093e+05) (9, -9.28405704668120597489e+05) (0, 6.34093508124351501465e-02) (1, -3.70765832400036626495e+05) (2, 2.78074337156957131810e+05) (3, 3.00628779964890738484e+05) (4, 4.53548777634550817311e+05) (5, 8.08863959259225986898e+05) (6, 2.00485821451548632467e+05) (7, 6.65800725490886252373e+05) (8, 5.12207514840018644463e+05) (9, 9.26914711609516642056e+05) (0, 7.36479982733726501465e-02) (1, -3.70684087125328835100e+05) (2, 2.78013144957627344411e+05) (3, 3.00561562592389353085e+05) (4, 4.53447670909980137367e+05) (5, 8.08680107833856251091e+05) (6, 2.00442103291987907141e+05) (7, 6.65647456597965094261e+05) (8, 5.12069437351687403861e+05) (9, 9.26710522600643918850e+05) (0, 8.75061526894569396973e-02) (1, 3.70712896079539437778e+05) (2, -2.78034646781074872706e+05) (3, -3.00585495414001343306e+05) (4, -4.53483825903659220785e+05) (5, -8.08746245240501943044e+05) (6, -2.00457809808534366312e+05) (7, -6.65701860983729711734e+05) (8, -5.12117761554905213416e+05) (9, -9.26782214243100141175e+05) (0, -3.38269025087356567383e-02) (1, -3.70737180493379419204e+05) (2, 2.78052819087088573724e+05) (3, 3.00605645595601177774e+05) (4, 4.53514124540287244599e+05) (5, 8.08801998875824734569e+05) (6, 2.00471325253046466969e+05) (7, 6.65746911725515616126e+05) (8, 5.12158882894339156337e+05) (9, 9.26842795843212865293e+05) (0, -4.04724664986133575439e-02) (1, -3.70821536344983323943e+05) (2, 2.78116068157590867486e+05) (3, 3.00671792861621477641e+05) (4, 4.53606743515566922724e+05) (5, 8.08957558655758504756e+05) (6, 2.00522567321171023650e+05) (7, 6.65881508419705554843e+05) (8, 5.12268385413801006507e+05) (9, 9.27053819883185089566e+05) (0, 1.28038525581359863281e-02) (1, -3.70713510644327674527e+05) (2, 2.78035080718625162262e+05) (3, 3.00585916745737486053e+05) (4, 4.53484467353771789931e+05) (5, 8.08747634805401205085e+05) (6, 2.00458164714354410535e+05) (7, 6.65702783387751551345e+05) (8, 5.12118791160567081533e+05) (9, 9.26783596580285695381e+05) (0, -9.91393700242042541504e-02) (1, 3.70706325361917435657e+05) (2, -2.78029744614685070701e+05) (3, -3.00576191964795521926e+05) (4, -4.53462671615583181847e+05) (5, -8.08694791145463241264e+05) (6, -2.00459312950351304607e+05) (7, -6.65663216434048605151e+05) (8, -5.12074112321882683318e+05) (9, -9.26766047913890215568e+05) (0, -6.33275210857391357422e-02) (1, 3.70750027603652561083e+05) (2, -2.78062474607504089363e+05) (3, -3.00612080000672372989e+05) (4, -4.53516910141912871040e+05) (5, -8.08793021962475613691e+05) (6, -2.00482992827891488560e+05) (7, -6.65746751962928217836e+05) (8, -5.12146921251901541837e+05) (9, -9.26874976496136980131e+05) (0, 6.31027594208717346191e-02) (1, 3.70724953489709936548e+05) (2, -2.78043688832607411314e+05) (3, -3.00595667220714502037e+05) (4, -4.53498978517498588189e+05) (5, -8.08774183546497952193e+05) (6, -2.00464659648697183002e+05) (7, -6.65724188424886204302e+05) (8, -5.12138292928402952384e+05) (9, -9.26812472836881992407e+05) (0, -9.79271605610847473145e-02) (1, -3.70828448689342360012e+05) (2, 2.78121457798390649259e+05) (3, 3.00677692385788483080e+05) (4, 4.53615698982785921544e+05) (5, 8.08974067847894737497e+05) (6, 2.00526506441369449021e+05) (7, 6.65894908574937144294e+05) (8, 5.12280481950478861108e+05) (9, 9.27071330357474391349e+05) (0, 3.16405668854713439941e-02) (1, -3.70692019380765967071e+05) (2, 2.78019060433785081841e+05) (3, 3.00568107314935710747e+05) (4, 4.53457461751986411400e+05) (5, 8.08698055626657209359e+05) (6, 2.00446421253667154815e+05) (7, 6.65662162908354192041e+05) (8, 5.12082509273325733375e+05) (9, 9.26729825654084677808e+05) (0, 7.09227696061134338379e-02) (1, -3.70730350353132176679e+05) (2, 2.78047655748257762752e+05) (3, 3.00600037891376356129e+05) (4, 4.53505544741868216079e+05) (5, 8.08786299465867225081e+05) (6, 2.00467559512015868677e+05) (7, 6.65734003482692874968e+05) (8, 5.12147239629691292066e+05) (9, 9.26825578926289221272e+05) (0, 9.19266715645790100098e-02) (1, 3.70736116143407125492e+05) (2, -2.78052222485867096111e+05) (3, -3.00604868918593681883e+05) (4, -4.53512871088342973962e+05) (5, -8.08799809874982805923e+05) (6, -2.00470780703251133673e+05) (7, -6.65745069877871195786e+05) (8, -5.12157253403222654015e+05) (9, -9.26840372820886201225e+05) (0, -4.19321842491626739502e-02) (1, 3.70722240686116274446e+05) (2, -2.78041767310559109319e+05) (3, -3.00593370263534015976e+05) (4, -4.53495499800989171490e+05) (5, -8.08767884558735415339e+05) (6, -2.00463064181328576524e+05) (7, -6.65719303814369137399e+05) (8, -5.12133783022144634742e+05) (9, -9.26805600290248636156e+05) (0, -9.66787263751029968262e-02) (1, -3.70711359965127136093e+05) (2, 2.78033661038316960912e+05) (3, 3.00584265713352884632e+05) (4, 4.53481930404980492312e+05) (5, 8.08742964919877587818e+05) (6, 2.00457162709782074671e+05) (7, 6.65699116196236340329e+05) (8, 5.12115332475469098426e+05) (9, 9.26778510683581815101e+05) (0, 4.12387922406196594238e-02) (1, 3.70671175823632860556e+05) (2, -2.78003406028519268148e+05) (3, -3.00550718037036655005e+05) (4, -4.53431211720401712228e+05) (5, -8.08649999988612835295e+05) (6, -2.00434972206659294898e+05) (7, -6.65622976940938387997e+05) (8, -5.12047472703806415666e+05) (9, -9.26677808093041530810e+05) (0, -8.16647484898567199707e-02) (1, -3.70835049657530267723e+05) (2, 2.78126246326587977819e+05) (3, 3.00683033717888058163e+05) (4, 4.53624115941340918653e+05) (5, 8.08989533314845175482e+05) (6, 2.00529913893775723409e+05) (7, 6.65907364551619859412e+05) (8, 5.12291694293903536163e+05) (9, 9.27087575302801793441e+05) (0, -5.59110008180141448975e-02) (1, -3.70708096242965315469e+05) (2, 2.78031233753327745944e+05) (3, 3.00581563485335092992e+05) (4, 4.53477786571924516466e+05) (5, 8.08735481187763158232e+05) (6, 2.00455340994448342826e+05) (7, 6.65692846215480589308e+05) (8, 5.12109787600132403895e+05) (9, 9.26770382176045444794e+05) (0, -3.05578783154487609863e-02) (1, -3.70826307194697437808e+05) (2, 2.78119830798480543308e+05) (3, 3.00675846244988148101e+05) (4, 4.53612988031716493424e+05) (5, 8.08968931850527296774e+05) (6, 2.00525327409287565388e+05) (7, 6.65890820164800854400e+05) (8, 5.12276754072654701304e+05) (9, 9.27065882053130422719e+05) (0, 4.31931540369987487793e-02) (1, 3.70793265615566342603e+05) (2, -2.78094929205815889873e+05) (3, -3.00651613947752979584e+05) (4, -4.53582702438085514586e+05) (5, -8.08925439247811911628e+05) (6, -2.00501087738179514417e+05) (7, -6.65850899665086646564e+05) (8, -5.12254414362116367556e+05) (9, -9.26983204109936137684e+05) (0, 5.70374205708503723145e-02) (1, 3.70677166405188385397e+05) (2, -2.78007888049566419795e+05) (3, -3.00555800400504202116e+05) (4, -4.53438919857822940685e+05) (5, -8.08663983027621055953e+05) (6, -2.00438324770248029381e+05) (7, -6.65634432548912824132e+05) (8, -5.12057757302065961994e+05) (9, -9.26693128482496249489e+05) (0, 7.50004425644874572754e-02) (1, -3.70800120435132237617e+05) (2, 2.78100050192357564811e+05) (3, 3.00653898438947042450e+05) (4, 4.53579714780816168059e+05) (5, 8.08908144193444051780e+05) (6, 2.00510833742888062261e+05) (7, 6.65840935669968719594e+05) (8, 5.12232000987570034340e+05) (9, 9.27000384728712961078e+05) (0, -4.05908189713954925537e-02) (1, -3.70675927561956632417e+05) (2, 2.78006870678948995192e+05) (3, 3.00554670294612878934e+05) (4, 4.53437166706836200319e+05) (5, 8.08661007335967733525e+05) (6, 2.00437576370045309886e+05) (7, 6.65631876585787860677e+05) (8, 5.12055459153784031514e+05) (9, 9.26689783875704393722e+05) (0, -7.70707204937934875488e-02) (1, 3.70678721642805961892e+05) (2, -2.78009080347985727713e+05) (3, -3.00557095327990246005e+05) (4, -4.53440720303560374305e+05) (5, -8.08667524882455822080e+05) (6, -2.00439124474609503523e+05) (7, -6.65637316918755881488e+05) (8, -5.12060279223903140519e+05) (9, -9.26696869797744322568e+05) (0, 3.36338356137275695801e-02) (1, 3.70687559826585464180e+05) (2, -2.78015681001146789640e+05) (3, -3.00564399041100288741e+05) (4, -4.53451980213740258478e+05) (5, -8.08687887188733555377e+05) (6, -2.00443971850003727013e+05) (7, -6.65653853404509485699e+05) (8, -5.12075108558103791438e+05) (9, -9.26718921570906299166e+05) (0, 9.95811074972152709961e-03) (1, 3.70721125854893820360e+05) (2, -2.78040998048011795618e+05) (3, -3.00587849814637505915e+05) (4, -4.53478751036576577462e+05) (5, -8.08720471167803276330e+05) (6, -2.00467997209642489906e+05) (7, -6.65692419985385495238e+05) (8, -5.12086249742447806057e+05) (9, -9.26802962622248916887e+05) (0, -7.30791687965393066406e-02) (1, -3.70674361902382806875e+05) (2, 2.78005930802641261835e+05) (3, 3.00553546771068417002e+05) (4, 4.53435353004870121367e+05) (5, 8.08657613729914883152e+05) (6, 2.00436752971767302370e+05) (7, 6.65629085892230039462e+05) (8, 5.12052941546680696774e+05) (9, 9.26686008969835587777e+05) (0, 8.14757496118545532227e-03) (1, -3.70714778064209851436e+05) (2, 2.78036123796837229747e+05) (3, 3.00587070355505682528e+05) (4, 4.53486266009683429729e+05) (5, 8.08750831573262694292e+05) (6, 2.00459020873592671705e+05) (7, 6.65705482186905224808e+05) (8, 5.12121036952673399355e+05) (9, 9.26787119046311476268e+05) (0, -4.77314405143260955811e-02) (1, 3.70680061038557614665e+05) (2, -2.78009999102769535966e+05) (3, -3.00558195149551436771e+05) (4, -4.53442378021508629899e+05) (5, -8.08670444071882171556e+05) (6, -2.00439786449338746024e+05) (7, -6.65639628069970989600e+05) (8, -5.12062413965811312664e+05) (9, -9.26700034626960405149e+05) (0, 3.54999080300331115723e-02) (1, 3.70739723212638811674e+05) (2, -2.78054795769615797326e+05) (3, -3.00607784503945673350e+05) (4, -4.53517438328354794066e+05) (5, -8.08807910636642831378e+05) (6, -2.00472777675781544531e+05) (7, -6.65751654713880736381e+05) (8, -5.12163229628731380217e+05) (9, -9.26849237378939636983e+05) (0, 4.27474454045295715332e-02) (1, -3.70716789308613981120e+05) (2, 2.78037592204951040912e+05) (3, 3.00587756116696400568e+05) (4, 4.53488091640965081751e+05) (5, 8.08753872290900791995e+05) (6, 2.00458682871639117366e+05) (7, 6.65710627241194364615e+05) (8, 5.12120346778674283996e+05) (9, 9.26791934676981647499e+05) (0, 1.66383236646652221680e-02) (1, 3.70709026207874587271e+05) (2, -2.78031790894403646234e+05) (3, -3.00582324364086787682e+05) (4, -4.53478880065450735856e+05) (5, -8.08737446952904225327e+05) (6, -2.00455573671279125847e+05) (7, -6.65694897823122562841e+05) (8, -5.12111082751859503333e+05) (9, -9.26772683180956519209e+05) (0, -9.39621180295944213867e-02) (1, -3.70768665729219792411e+05) (2, 2.78076545086593541782e+05) (3, 3.00627628874912043102e+05) (4, 4.53540180763467331417e+05) (5, 8.08835758565920172259e+05) (6, 2.00493392510857142042e+05) (7, 6.65781813588649965823e+05) (8, 5.12178557720033393707e+05) (9, 9.26921632700881571509e+05) (0, 7.71460682153701782227e-03) (1, -3.70716954103990399744e+05) (2, 2.78037754191230807919e+05) (3, 3.00587911571849836037e+05) (4, 4.53488340516846044920e+05) (5, 8.08754212864713394083e+05) (6, 2.00458772728171519702e+05) (7, 6.65711001778258243576e+05) (8, 5.12120717850243032444e+05) (9, 9.26792369941066601314e+05) (0, 8.89290049672126770020e-02) (1, 3.70673067045499570668e+05) (2, -2.78004835200425528456e+05) (3, -3.00552314610397850629e+05) (4, -4.53433435882896184921e+05) (5, -8.08654249169922550209e+05) (6, -2.00435943218701868318e+05) (7, -6.65626499001378891990e+05) (8, -5.12050602636381518096e+05) (9, -9.26682590289053856395e+05) (0, -8.54727700352668762207e-02) (1, 3.70808344740607950371e+05) (2, -2.78106279949302610476e+05) (3, -3.00660736468586546835e+05) (4, -4.53590161182279640343e+05) (5, -8.08927144743944867514e+05) (6, -2.00515336181419959757e+05) (7, -6.65856605117767932825e+05) (8, -5.12246048532824148424e+05) (9, -9.27020982698772335425e+05) (0, 8.97000655531883239746e-02) (1, -3.70725300317230983637e+05) (2, 2.78044117100920644589e+05) (3, 3.00595983422094199341e+05) (4, 4.53499378727003990207e+05) (5, 8.08775060983637114987e+05) (6, 2.00464937191338860430e+05) (7, 6.65725083484407863580e+05) (8, 5.12139012640578555875e+05) (9, 9.26813404977512778714e+05) (0, 1.74566358327865600586e-03) (1, 3.70685428694003727287e+05) (2, -2.78013991874156170525e+05) (3, -3.00562674140219343826e+05) (4, -4.53449108591753174551e+05) (5, -8.08682909681102028117e+05) (6, -2.00442845613682118710e+05) (7, -6.65649925647089490667e+05) (8, -5.12071482992251403630e+05) (9, -9.26713552287953789346e+05) (0, -1.84156596660614013672e-02) (1, 3.70826680827999662142e+05) (2, -2.78119894290341297165e+05) (3, -3.00675942355141334701e+05) (4, -4.53613299090855114628e+05) (5, -8.08969698458889615722e+05) (6, -2.00525330404644220835e+05) (7, -6.65891347738618147559e+05) (8, -5.12277356155860004947e+05) (9, -9.27066648993411683477e+05) (0, 8.12293812632560729980e-02) (1, 3.70735479029996553436e+05) (2, -2.78051761362435587216e+05) (3, -3.00604343624414119404e+05) (4, -4.53512133739798038732e+05) (5, -8.08798443406234495342e+05) (6, -2.00470545697321067564e+05) (7, -6.65743988279625773430e+05) (8, -5.12156151876267511398e+05) (9, -9.26838875076969037764e+05) (0, 5.42199239134788513184e-02) (1, 3.70740002626225119457e+05) (2, -2.78055062247337365989e+05) (3, -3.00603692259829083923e+05) (4, -4.53504391335191554390e+05) (5, -8.08770247872899053618e+05) (6, -2.00477314866668166360e+05) (7, -6.65728283449360169470e+05) (8, -5.12130707008675672114e+05) (9, -9.26850055878757149912e+05) (0, -7.91245400905609130859e-02) (1, -3.71095606802264577709e+05) (2, 2.78321654294896812644e+05) (3, 3.00894418177620507777e+05) (4, 4.53914764046164462343e+05) (5, 8.09478701368315494619e+05) (6, 2.00700156488846434513e+05) (7, 6.66337839327857946046e+05) (8, 5.12612709218470437918e+05) (9, 9.27739226055090897717e+05) (0, 1.18487477302551269531e-02) (1, 3.70720251525445200969e+05) (2, -2.78040059474507637788e+05) (3, -3.00586992019013676327e+05) (4, -4.53477316381792945322e+05) (5, -8.08718025457171257585e+05) (6, -2.00467344460388383595e+05) (7, -6.65690424688159953803e+05) (8, -5.12084553072722745128e+05) (9, -9.26800336727246758528e+05) (0, 1.30639523267745971680e-02) (1, 3.70810001737867482007e+05) (2, -2.78107598952657950576e+05) (3, -3.00662172454925486818e+05) (4, -4.53592295022979320493e+05) (5, -8.08931085328331100754e+05) (6, -2.00516276230186660541e+05) (7, -6.65859812942268094048e+05) (8, -5.12248855783033359330e+05) (9, -9.27025268461793777533e+05) (0, 1.98690593242645263672e-03) (1, -3.70741422003587475047e+05) (2, 2.78055922788520227186e+05) (3, 3.00609075114705134183e+05) (4, 4.53519231758077628911e+05) (5, 8.08811473587479442358e+05) (6, 2.00473372832909080898e+05) (7, 6.65754956124939955771e+05) (8, 5.12165627543680777308e+05) (9, 9.26853265534406993538e+05) (0, -1.74832269549369812012e-02) (1, -3.70719301389877859037e+05) (2, 2.78039465448905364610e+05) (3, 3.00590921875202679075e+05) (4, 4.53491937077807669993e+05) (5, 8.08761364299787441269e+05) (6, 2.00461655707075813552e+05) (7, 6.65713726673463010229e+05) (8, 5.12128907316141296178e+05) (9, 9.26798393597320304252e+05) (0, -5.07715009152889251709e-02) (1, -3.70741611150598444510e+05) (2, 2.78056105587601428851e+05) (3, 3.00604741525509511121e+05) (4, 4.53504214216278749518e+05) (5, 8.08767842265664483421e+05) (6, 2.00478460711365332827e+05) (7, 6.65730733585367561318e+05) (8, 5.12126488354957080446e+05) (9, 9.26854008225979516283e+05) (0, -5.91778196394443511963e-02) (1, -3.70686414414717874024e+05) (2, 2.78014747008264122996e+05) (3, 3.00563505029032996390e+05) (4, 4.53450424774368351791e+05) (5, 8.08685280640105600469e+05) (6, 2.00443344675111002289e+05) (7, 6.65651818105429178104e+05) (8, 5.12073267937008175068e+05) (9, 9.26716145159951061942e+05) (0, -1.15825235843658447266e-03) (1, 3.70708083158069115598e+05) (2, -2.78031102931883651763e+05) (3, -3.00577596554051793646e+05) (4, -4.53464878264742204919e+05) (5, -8.08698846263249055482e+05) (6, -2.00460364986045751721e+05) (7, -6.65666583169737248681e+05) (8, -5.12077034248672658578e+05) (9, -9.26770445615776116028e+05) (0, -3.32404971122741699219e-02) (1, -3.70713775091030867770e+05) (2, 2.78035350753562466707e+05) (3, 3.00581727547264599707e+05) (4, 4.53469317627790849656e+05) (5, 8.08703335751304053701e+05) (6, 2.00463895295530586736e+05) (7, 6.65678493038185639307e+05) (8, 5.12073805710576998536e+05) (9, 9.26784577852289658040e+05) (0, -1.96746960282325744629e-02) (1, -3.70676864992784685455e+05) (2, 2.78007599796933936886e+05) (3, 3.00555526210944983177e+05) (4, 4.53438459293761581648e+05) (5, 8.08663175958799314685e+05) (6, 2.00438096703703806270e+05) (7, 6.65633670839520404115e+05) (8, 5.12057117583273909986e+05) (9, 9.26692138964225072414e+05) (0, 4.06073108315467834473e-02) (1, 3.70829863106520962901e+05) (2, -2.78122444595369626768e+05) (3, -3.00678826640941901132e+05) (4, -4.53617455917411658447e+05) (5, -8.08977415353590389714e+05) (6, -2.00527156123383378144e+05) (7, -6.65897690910858334973e+05) (8, -5.12283056231990049127e+05) (9, -9.27074716876920312643e+05) (0, -1.23629719018936157227e-02) (1, 3.70734269571336801164e+05) (2, -2.78050690599644964095e+05) (3, -3.00603225658209063113e+05) (4, -4.53510484905784949660e+05) (5, -8.08795351167985470966e+05) (6, -2.00469679568652936723e+05) (7, -6.65741850498971063644e+05) (8, -5.12153984198736492544e+05) (9, -9.26835700442487490363e+05) (0, 7.08595588803291320801e-02) (1, -3.70792231247624324169e+05) (2, 2.78094142151548119728e+05) (3, 3.00647282992348365951e+05) (4, 4.53569826013491256163e+05) (5, 8.08889912754095857963e+05) (6, 2.00506531790486274986e+05) (7, 6.65826112831754144281e+05) (8, 5.12218489409498288296e+05) (9, 9.26980667909661773592e+05) (0, -8.58811736106872558594e-02) (1, -3.70831468993661517743e+05) (2, 2.78123639537189912517e+05) (3, 3.00680136344539932907e+05) (4, 4.53619478891251143068e+05) (5, 8.08981210399618605152e+05) (6, 2.00527993322989408625e+05) (7, 6.65900701931404531933e+05) (8, 5.12285767054760595784e+05) (9, 9.27078806171448086388e+05) (0, -4.84552159905433654785e-02) (1, 3.70704268323218682781e+05) (2, -2.78028193375709815882e+05) (3, -3.00574392886727000587e+05) (4, -4.53459997302530275192e+05) (5, -8.08689924044998711906e+05) (6, -2.00458201462773489766e+05) (7, -6.65659443584874272346e+05) (8, -5.12070692627435375471e+05) (9, -9.26760942159201134928e+05) (0, 5.29094412922859191895e-02) (1, -3.70705726525496051181e+05) (2, 2.78029264617182896473e+05) (3, 3.00579438875852792989e+05) (4, 4.53474646009735239204e+05) (5, 8.08729821670848876238e+05) (6, 2.00453439033436588943e+05) (7, 6.65689405183316674083e+05) (8, 5.12104509332372341305e+05) (9, 9.26764624102237285115e+05) (0, 5.16276285052299499512e-02) (1, 3.70805571427858667448e+05) (2, -2.78104188122010906227e+05) (3, -3.00658540698521188460e+05) (4, -4.53586721315008646343e+05) (5, -8.08920796241883188486e+05) (6, -2.00513859705614333507e+05) (7, -6.65851509137155488133e+05) (8, -5.12241430150477681309e+05) (9, -9.27014188594794599339e+05) (0, -2.32814997434616088867e-03) (1, -3.70751479071473644581e+05) (2, 2.78063546732000890188e+05) (3, 3.00616746287228714209e+05) (4, 4.53530917933371732943e+05) (5, 8.08831768605045741424e+05) (6, 2.00477695125876896782e+05) (7, 6.65775205680419341661e+05) (8, 5.12180871804752910975e+05) (9, 9.26878602861987659708e+05) (0, -1.66171640157699584961e-02) (1, 3.70736159493974584620e+05) (2, -2.78052255153286969289e+05) (3, -3.00604967300698219333e+05) (4, -4.53512954403680749238e+05) (5, -8.08800025131493341178e+05) (6, -2.00470857833618647419e+05) (7, -6.65745178383981459774e+05) (8, -5.12157387565902201459e+05) (9, -9.26840562448793207295e+05) (0, 6.41924217343330383301e-02) (1, 3.70694023182963312138e+05) (2, -2.78020458811023563612e+05) (3, -3.00569850892547809053e+05) (4, -4.53460006037169718184e+05) (5, -8.08702875236705411226e+05) (6, -2.00447609144931484479e+05) (7, -6.65666176598293823190e+05) (8, -5.12086032355871342588e+05) (9, -9.26735091120810131542e+05) (0, -1.88867896795272827148e-02) (1, -3.70710946163187094498e+05) (2, 2.78033223614365444519e+05) (3, 3.00579262760624929797e+05) (4, 4.53465552361078385729e+05) (5, 8.08696400136051466689e+05) (6, 2.00462312865687446902e+05) (7, 6.65672888300116057508e+05) (8, 5.12068793381112394854e+05) (9, 9.26777037899640388787e+05) (0, 4.11776229739189147949e-02) (1, 3.70803274451101780869e+05) (2, -2.78102468285028764512e+05) (3, -3.00656391072307247669e+05) (4, -4.53583718886832823046e+05) (5, -8.08915280591356568038e+05) (6, -2.00512423874895670451e+05) (7, -6.65846753889214596711e+05) (8, -5.12237299557376070879e+05) (9, -9.27007980744669213891e+05) (0, 4.62312027812004089355e-02) (1, 3.70716828224394645076e+05) (2, -2.78037652440700214356e+05) (3, -3.00587810083098418545e+05) (4, -4.53488149055673740804e+05) (5, -8.08753851149653783068e+05) (6, -2.00458737764846184291e+05) (7, -6.65710673333902261220e+05) (8, -5.12120352951514592860e+05) (9, -9.26791888965911697596e+05) (0, -4.75752428174018859863e-02) (1, 3.70677896060728759039e+05) (2, -2.78008422071212960873e+05) (3, -3.00556460309477581177e+05) (4, -4.53439800483628467191e+05) (5, -8.08665521881838212721e+05) (6, -2.00438677861262811348e+05) (7, -6.65635658711540163495e+05) (8, -5.12058851621721347328e+05) (9, -9.26694720095964963548e+05) (0, 8.60733017325401306152e-02) (1, -3.70772790110627829563e+05) (2, 2.78079585258128528949e+05) (3, 3.00630952615178946871e+05) (4, 4.53545413729091931600e+05) (5, 8.08844763387107639574e+05) (6, 2.00495627098551223753e+05) (7, 6.65789374104413320310e+05) (8, 5.12185281682369590271e+05) (9, 9.26931753810283378698e+05) (0, 3.23341414332389831543e-02) (1, -3.70700295020744088106e+05) (2, 2.78025177331584622152e+05) (3, 3.00575147401455673389e+05) (4, 4.53467940108227427118e+05) (5, 8.08717423796244198456e+05) (6, 2.00451040477936039679e+05) (7, 6.65678083073315676302e+05) (8, 5.12096605839797412045e+05) (9, 9.26750854653836111538e+05) (0, 9.24831554293632507324e-02) (1, 3.70746145099658519030e+05) (2, -2.78059530752113321796e+05) (3, -3.00612211471708083991e+05) (4, -4.53524665189143386669e+05) (5, -8.08820517939694575034e+05) (6, -2.00474984307983890176e+05) (7, -6.65765102658670977689e+05) (8, -5.12170685835775686428e+05) (9, -9.26865270480186212808e+05) (0, -8.87002795934677124023e-02) (1, -3.70705477658755902667e+05) (2, 2.78029051048773224466e+05) (3, 3.00579369991273328196e+05) (4, 4.53474529052778612822e+05) (5, 8.08729294748176704161e+05) (6, 2.00453746472823724616e+05) (7, 6.65688164995258324780e+05) (8, 5.12105121489708370063e+05) (9, 9.26763841629318543710e+05) (0, -3.58145013451576232910e-02) (1, -3.70739709866820543539e+05) (2, 2.78054824876389233395e+05) (3, 3.00607824828505166806e+05) (4, 4.53517420274731179234e+05) (5, 8.08808019159956253134e+05) (6, 2.00472829121453512926e+05) (7, 6.65751785331321414560e+05) (8, 5.12163276321703335270e+05) (9, 9.26849325725967879407e+05) (0, 2.16796994209289550781e-04) (1, -3.70661679814258532133e+05) (2, 2.77996251225009793416e+05) (3, 3.00542788399670971557e+05) (4, 4.53419194395149068441e+05) (5, 8.08627883145361905918e+05) (6, 2.00429590129618853098e+05) (7, 6.65604975246992078610e+05) (8, 5.12031338003849610686e+05) (9, 9.26653956323545426130e+05) (0, -6.54879733920097351074e-02) (1, -3.70750000554844853468e+05) (2, 2.78062563402828935068e+05) (3, 3.00615414711419492960e+05) (4, 