FANN_FLO_2.1
num_layers=3
learning_rate=0.000100
connection_rate=1.000000
network_type=0
learning_momentum=0.000000
training_algorithm=2
train_error_function=1
train_stop_function=0
cascade_output_change_fraction=0.010000
quickprop_decay=-0.000100
quickprop_mu=1.750000
rprop_increase_factor=1.200000
rprop_decrease_factor=0.500000
rprop_delta_min=0.000000
rprop_delta_max=50.000000
rprop_delta_zero=0.100000
cascade_output_stagnation_epochs=12
cascade_candidate_change_fraction=0.010000
cascade_candidate_stagnation_epochs=12
cascade_max_out_epochs=150
cascade_max_cand_epochs=150
cascade_num_candidate_groups=2
bit_fail_limit=3.49999999999999977796e-01
cascade_candidate_limit=1.00000000000000000000e+03
cascade_weight_multiplier=4.00000000000000022204e-01
cascade_activation_functions_count=10
cascade_activation_functions=3 5 7 8 10 11 14 15 16 17 
cascade_activation_steepnesses_count=4
cascade_activation_steepnesses=2.50000000000000000000e-01 5.00000000000000000000e-01 7.50000000000000000000e-01 1.00000000000000000000e+00 
layer_sizes=10 501 7 
scale_included=0
neurons (num_inputs, activation_function, activation_steepness)=(0, 0, 0.00000000000000000000e+00) (0, 0, 0.00000000000000000000e+00) (0, 0, 0.00000000000000000000e+00) (0, 0, 0.00000000000000000000e+00) (0, 0, 0.00000000000000000000e+00) (0, 0, 0.00000000000000000000e+00) (0, 0, 0.00000000000000000000e+00) (0, 0, 0.00000000000000000000e+00) (0, 0, 0.00000000000000000000e+00) (0, 0, 0.00000000000000000000e+00) (10, 5, 5.00000000000000000000e-01) (10, 5, 5.00000000000000000000e-01) (10, 5, 5.00000000000000000000e-01) (10, 5, 5.00000000000000000000e-01) (10, 5, 5.00000000000000000000e-01) (10, 5, 5.00000000000000000000e-01) (10, 5, 5.00000000000000000000e-01) (10, 5, 5.00000000000000000000e-01) (10, 5, 5.00000000000000000000e-01) (10, 5, 5.00000000000000000000e-01) (10, 5, 5.00000000000000000000e-01) (10, 5, 5.00000000000000000000e-01) (10, 5, 5.00000000000000000000e-01) (10, 5, 5.00000000000000000000e-01) (10, 5, 5.00000000000000000000e-01) (10, 5, 5.00000000000000000000e-01) (10, 5, 5.00000000000000000000e-01) (10, 5, 5.00000000000000000000e-01) (10, 5, 5.00000000000000000000e-01) (10, 5, 5.00000000000000000000e-01) (10, 5, 5.00000000000000000000e-01) (10, 5, 5.00000000000000000000e-01) (10, 5, 5.00000000000000000000e-01) (10, 5, 5.00000000000000000000e-01) (10, 5, 5.00000000000000000000e-01) (10, 5, 5.00000000000000000000e-01) (10, 5, 5.00000000000000000000e-01) (10, 5, 5.00000000000000000000e-01) (10, 5, 5.00000000000000000000e-01) (10, 5, 5.00000000000000000000e-01) (10, 5, 5.00000000000000000000e-01) (10, 5, 5.00000000000000000000e-01) (10, 5, 5.00000000000000000000e-01) (10, 5, 5.00000000000000000000e-01) (10, 5, 5.00000000000000000000e-01) (10, 5, 5.00000000000000000000e-01) (10, 5, 5.00000000000000000000e-01) (10, 5, 5.00000000000000000000e-01) (10, 5, 5.00000000000000000000e-01) (10, 5, 5.00000000000000000000e-01) (10, 5, 5.00000000000000000000e-01) (10, 5, 5.00000000000000000000e-01) (10, 5, 5.00000000000000000000e-01) (10, 5, 5.00000000000000000000e-01) (10, 5, 5.00000000000000000000e-01) (10, 5, 5.00000000000000000000e-01) (10, 5, 5.00000000000000000000e-01) (10, 5, 5.00000000000000000000e-01) (10, 5, 5.00000000000000000000e-01) (10, 5, 5.00000000000000000000e-01) (10, 5, 5.00000000000000000000e-01) (10, 5, 5.00000000000000000000e-01) (10, 5, 5.00000000000000000000e-01) (10, 5, 5.00000000000000000000e-01) (10, 5, 5.00000000000000000000e-01) (10, 5, 5.00000000000000000000e-01) (10, 5, 5.00000000000000000000e-01) (10, 5, 5.00000000000000000000e-01) (10, 5, 5.00000000000000000000e-01) (10, 5, 5.00000000000000000000e-01) (10, 5, 5.00000000000000000000e-01) (10, 5, 5.00000000000000000000e-01) (10, 5, 5.00000000000000000000e-01) (10, 5, 5.00000000000000000000e-01) (10, 5, 5.00000000000000000000e-01) (10, 5, 5.00000000000000000000e-01) (10, 5, 5.00000000000000000000e-01) (10, 5, 5.00000000000000000000e-01) (10, 5, 5.00000000000000000000e-01) (10, 5, 5.00000000000000000000e-01) (10, 5, 5.00000000000000000000e-01) (10, 5, 5.00000000000000000000e-01) (10, 5, 5.00000000000000000000e-01) (10, 5, 5.00000000000000000000e-01) (10, 5, 5.00000000000000000000e-01) (10, 5, 5.00000000000000000000e-01) (10, 5, 5.00000000000000000000e-01) (10, 5, 5.00000000000000000000e-01) (10, 5, 5.00000000000000000000e-01) (10, 5, 5.00000000000000000000e-01) (10, 5, 5.00000000000000000000e-01) (10, 5, 5.00000000000000000000e-01) (10, 5, 5.00000000000000000000e-01) (10, 5, 5.00000000000000000000e-01) (10, 5, 5.00000000000000000000e-01) (10, 5, 5.00000000000000000000e-01) (10, 5, 5.00000000000000000000e-01) (10, 5, 5.00000000000000000000e-01) (10, 5, 5.00000000000000000000e-01) (10, 5, 5.00000000000000000000e-01) (10, 5, 5.00000000000000000000e-01) (10, 5, 5.00000000000000000000e-01) (10, 5, 5.00000000000000000000e-01) (10, 5, 5.00000000000000000000e-01) (10, 5, 5.00000000000000000000e-01) (10, 5, 5.00000000000000000000e-01) (10, 5, 5.00000000000000000000e-01) (10, 5, 5.00000000000000000000e-01) (10, 5, 5.00000000000000000000e-01) (10, 5, 5.00000000000000000000e-01) (10, 5, 5.00000000000000000000e-01) (10, 5, 5.00000000000000000000e-01) (10, 5, 5.00000000000000000000e-01) (10, 5, 5.00000000000000000000e-01) (10, 5, 5.00000000000000000000e-01) (10, 5, 5.00000000000000000000e-01) (10, 5, 5.00000000000000000000e-01) (10, 5, 5.00000000000000000000e-01) (10, 5, 5.00000000000000000000e-01) (10, 5, 5.00000000000000000000e-01) (10, 5, 5.00000000000000000000e-01) (10, 5, 5.00000000000000000000e-01) (10, 5, 5.00000000000000000000e-01) (10, 5, 5.00000000000000000000e-01) (10, 5, 5.00000000000000000000e-01) (10, 5, 5.00000000000000000000e-01) (10, 5, 5.00000000000000000000e-01) (10, 5, 5.00000000000000000000e-01) (10, 5, 5.00000000000000000000e-01) (10, 5, 5.00000000000000000000e-01) (10, 5, 5.00000000000000000000e-01) (10, 5, 5.00000000000000000000e-01) (10, 5, 5.00000000000000000000e-01) (10, 5, 5.00000000000000000000e-01) (10, 5, 5.00000000000000000000e-01) (10, 5, 5.00000000000000000000e-01) (10, 5, 5.00000000000000000000e-01) (10, 5, 5.00000000000000000000e-01) (10, 5, 5.00000000000000000000e-01) (10, 5, 5.00000000000000000000e-01) (10, 5, 5.00000000000000000000e-01) (10, 5, 5.00000000000000000000e-01) (10, 5, 5.00000000000000000000e-01) (10, 5, 5.00000000000000000000e-01) (10, 5, 5.00000000000000000000e-01) (10, 5, 5.00000000000000000000e-01) (10, 5, 5.00000000000000000000e-01) (10, 5, 5.00000000000000000000e-01) (10, 5, 5.00000000000000000000e-01) (10, 5, 5.00000000000000000000e-01) (10, 5, 5.00000000000000000000e-01) (10, 5, 5.00000000000000000000e-01) (10, 5, 5.00000000000000000000e-01) (10, 5, 5.00000000000000000000e-01) (10, 5, 5.00000000000000000000e-01) (10, 5, 5.00000000000000000000e-01) (10, 5, 5.00000000000000000000e-01) (10, 5, 5.00000000000000000000e-01) (10, 5, 5.00000000000000000000e-01) (10, 5, 5.00000000000000000000e-01) (10, 5, 5.00000000000000000000e-01) (10, 5, 5.00000000000000000000e-01) (10, 5, 5.00000000000000000000e-01) (10, 5, 5.00000000000000000000e-01) (10, 5, 5.00000000000000000000e-01) (10, 5, 5.00000000000000000000e-01) (10, 5, 5.00000000000000000000e-01) (10, 5, 5.00000000000000000000e-01) (10, 5, 5.00000000000000000000e-01) (10, 5, 5.00000000000000000000e-01) (10, 5, 5.00000000000000000000e-01) (10, 5, 5.00000000000000000000e-01) (10, 5, 5.00000000000000000000e-01) (10, 5, 5.00000000000000000000e-01) (10, 5, 5.00000000000000000000e-01) (10, 5, 5.00000000000000000000e-01) (10, 5, 5.00000000000000000000e-01) (10, 5, 5.00000000000000000000e-01) (10, 5, 5.00000000000000000000e-01) (10, 5, 5.00000000000000000000e-01) (10, 5, 5.00000000000000000000e-01) (10, 5, 5.00000000000000000000e-01) (10, 5, 5.00000000000000000000e-01) (10, 5, 5.00000000000000000000e-01) (10, 5, 5.00000000000000000000e-01) (10, 5, 5.00000000000000000000e-01) (10, 5, 5.00000000000000000000e-01) (10, 5, 5.00000000000000000000e-01) (10, 5, 5.00000000000000000000e-01) (10, 5, 5.00000000000000000000e-01) (10, 5, 5.00000000000000000000e-01) (10, 5, 5.00000000000000000000e-01) (10, 5, 5.00000000000000000000e-01) (10, 5, 5.00000000000000000000e-01) (10, 5, 5.00000000000000000000e-01) (10, 5, 5.00000000000000000000e-01) (10, 5, 5.00000000000000000000e-01) (10, 5, 5.00000000000000000000e-01) (10, 5, 5.00000000000000000000e-01) (10, 5, 5.00000000000000000000e-01) (10, 5, 5.00000000000000000000e-01) (10, 5, 5.00000000000000000000e-01) (10, 5, 5.00000000000000000000e-01) (10, 5, 5.00000000000000000000e-01) (10, 5, 5.00000000000000000000e-01) (10, 5, 5.00000000000000000000e-01) (10, 5, 5.00000000000000000000e-01) (10, 5, 5.00000000000000000000e-01) (10, 5, 5.00000000000000000000e-01) (10, 5, 5.00000000000000000000e-01) (10, 5, 5.00000000000000000000e-01) (10, 5, 5.00000000000000000000e-01) (10, 5, 5.00000000000000000000e-01) (10, 5, 5.00000000000000000000e-01) (10, 5, 5.00000000000000000000e-01) (10, 5, 5.00000000000000000000e-01) (10, 5, 5.00000000000000000000e-01) (10, 5, 5.00000000000000000000e-01) (10, 5, 5.00000000000000000000e-01) (10, 5, 5.00000000000000000000e-01) (10, 5, 5.00000000000000000000e-01) (10, 5, 5.00000000000000000000e-01) (10, 5, 5.00000000000000000000e-01) (10, 5, 5.00000000000000000000e-01) (10, 5, 5.00000000000000000000e-01) (10, 5, 5.00000000000000000000e-01) (10, 5, 5.00000000000000000000e-01) (10, 5, 5.00000000000000000000e-01) (10, 5, 5.00000000000000000000e-01) (10, 5, 5.00000000000000000000e-01) (10, 5, 5.00000000000000000000e-01) (10, 5, 5.00000000000000000000e-01) (10, 5, 5.00000000000000000000e-01) (10, 5, 5.00000000000000000000e-01) (10, 5, 5.00000000000000000000e-01) (10, 5, 5.00000000000000000000e-01) (10, 5, 5.00000000000000000000e-01) (10, 5, 5.00000000000000000000e-01) (10, 5, 5.00000000000000000000e-01) (10, 5, 5.00000000000000000000e-01) (10, 5, 5.00000000000000000000e-01) (10, 5, 5.00000000000000000000e-01) (10, 5, 5.00000000000000000000e-01) (10, 5, 5.00000000000000000000e-01) (10, 5, 5.00000000000000000000e-01) (10, 5, 5.00000000000000000000e-01) (10, 5, 5.00000000000000000000e-01) (10, 5, 5.00000000000000000000e-01) (10, 5, 5.00000000000000000000e-01) (10, 5, 5.00000000000000000000e-01) (10, 5, 5.00000000000000000000e-01) (10, 5, 5.00000000000000000000e-01) (10, 5, 5.00000000000000000000e-01) (10, 5, 5.00000000000000000000e-01) (10, 5, 5.00000000000000000000e-01) (10, 5, 5.00000000000000000000e-01) (10, 5, 5.00000000000000000000e-01) (10, 5, 5.00000000000000000000e-01) (10, 5, 5.00000000000000000000e-01) (10, 5, 5.00000000000000000000e-01) (10, 5, 5.00000000000000000000e-01) (10, 5, 5.00000000000000000000e-01) (10, 5, 5.00000000000000000000e-01) (10, 5, 5.00000000000000000000e-01) (10, 5, 5.00000000000000000000e-01) (10, 5, 5.00000000000000000000e-01) (10, 5, 5.00000000000000000000e-01) (10, 5, 5.00000000000000000000e-01) (10, 5, 5.00000000000000000000e-01) (10, 5, 5.00000000000000000000e-01) (10, 5, 5.00000000000000000000e-01) (10, 5, 5.00000000000000000000e-01) (10, 5, 5.00000000000000000000e-01) (10, 5, 5.00000000000000000000e-01) (10, 5, 5.00000000000000000000e-01) (10, 5, 5.00000000000000000000e-01) (10, 5, 5.00000000000000000000e-01) (10, 5, 5.00000000000000000000e-01) (10, 5, 5.00000000000000000000e-01) (10, 5, 5.00000000000000000000e-01) (10, 5, 5.00000000000000000000e-01) (10, 5, 5.00000000000000000000e-01) (10, 5, 5.00000000000000000000e-01) (10, 5, 5.00000000000000000000e-01) (10, 5, 5.00000000000000000000e-01) (10, 5, 5.00000000000000000000e-01) (10, 5, 5.00000000000000000000e-01) (10, 5, 5.00000000000000000000e-01) (10, 5, 5.00000000000000000000e-01) (10, 5, 5.00000000000000000000e-01) (10, 5, 5.00000000000000000000e-01) (10, 5, 5.00000000000000000000e-01) (10, 5, 5.00000000000000000000e-01) (10, 5, 5.00000000000000000000e-01) (10, 5, 5.00000000000000000000e-01) (10, 5, 5.00000000000000000000e-01) (10, 5, 5.00000000000000000000e-01) (10, 5, 5.00000000000000000000e-01) (10, 5, 5.00000000000000000000e-01) (10, 5, 5.00000000000000000000e-01) (10, 5, 5.00000000000000000000e-01) (10, 5, 5.00000000000000000000e-01) (10, 5, 5.00000000000000000000e-01) (10, 5, 5.00000000000000000000e-01) (10, 5, 5.00000000000000000000e-01) (10, 5, 5.00000000000000000000e-01) (10, 5, 5.00000000000000000000e-01) (10, 5, 5.00000000000000000000e-01) (10, 5, 5.00000000000000000000e-01) (10, 5, 5.00000000000000000000e-01) (10, 5, 5.00000000000000000000e-01) (10, 5, 5.00000000000000000000e-01) (10, 5, 5.00000000000000000000e-01) (10, 5, 5.00000000000000000000e-01) (10, 5, 5.00000000000000000000e-01) (10, 5, 5.00000000000000000000e-01) (10, 5, 5.00000000000000000000e-01) (10, 5, 5.00000000000000000000e-01) (10, 5, 5.00000000000000000000e-01) (10, 5, 5.00000000000000000000e-01) (10, 5, 5.00000000000000000000e-01) (10, 5, 5.00000000000000000000e-01) (10, 5, 5.00000000000000000000e-01) (10, 5, 5.00000000000000000000e-01) (10, 5, 5.00000000000000000000e-01) (10, 5, 5.00000000000000000000e-01) (10, 5, 5.00000000000000000000e-01) (10, 5, 5.00000000000000000000e-01) (10, 5, 5.00000000000000000000e-01) (10, 5, 5.00000000000000000000e-01) (10, 5, 5.00000000000000000000e-01) (10, 5, 5.00000000000000000000e-01) (10, 5, 5.00000000000000000000e-01) (10, 5, 5.00000000000000000000e-01) (10, 5, 5.00000000000000000000e-01) (10, 5, 5.00000000000000000000e-01) (10, 5, 5.00000000000000000000e-01) (10, 5, 5.00000000000000000000e-01) (10, 5, 5.00000000000000000000e-01) (10, 5, 5.00000000000000000000e-01) (10, 5, 5.00000000000000000000e-01) (10, 5, 5.00000000000000000000e-01) (10, 5, 5.00000000000000000000e-01) (10, 5, 5.00000000000000000000e-01) (10, 5, 5.00000000000000000000e-01) (10, 5, 5.00000000000000000000e-01) (10, 5, 5.00000000000000000000e-01) (10, 5, 5.00000000000000000000e-01) (10, 5, 5.00000000000000000000e-01) (10, 5, 5.00000000000000000000e-01) (10, 5, 5.00000000000000000000e-01) (10, 5, 5.00000000000000000000e-01) (10, 5, 5.00000000000000000000e-01) (10, 5, 5.00000000000000000000e-01) (10, 5, 5.00000000000000000000e-01) (10, 5, 5.00000000000000000000e-01) (10, 5, 5.00000000000000000000e-01) (10, 5, 5.00000000000000000000e-01) (10, 5, 5.00000000000000000000e-01) (10, 5, 5.00000000000000000000e-01) (10, 5, 5.00000000000000000000e-01) (10, 5, 5.00000000000000000000e-01) (10, 5, 5.00000000000000000000e-01) (10, 5, 5.00000000000000000000e-01) (10, 5, 5.00000000000000000000e-01) (10, 5, 5.00000000000000000000e-01) (10, 5, 5.00000000000000000000e-01) (10, 5, 5.00000000000000000000e-01) (10, 5, 5.00000000000000000000e-01) (10, 5, 5.00000000000000000000e-01) (10, 5, 5.00000000000000000000e-01) (10, 5, 5.00000000000000000000e-01) (10, 5, 5.00000000000000000000e-01) (10, 5, 5.00000000000000000000e-01) (10, 5, 5.00000000000000000000e-01) (10, 5, 5.00000000000000000000e-01) (10, 5, 5.00000000000000000000e-01) (10, 5, 5.00000000000000000000e-01) (10, 5, 5.00000000000000000000e-01) (10, 5, 5.00000000000000000000e-01) (10, 5, 5.00000000000000000000e-01) (10, 5, 5.00000000000000000000e-01) (10, 5, 5.00000000000000000000e-01) (10, 5, 5.00000000000000000000e-01) (10, 5, 5.00000000000000000000e-01) (10, 5, 5.00000000000000000000e-01) (10, 5, 5.00000000000000000000e-01) (10, 5, 5.00000000000000000000e-01) (10, 5, 5.00000000000000000000e-01) (10, 5, 5.00000000000000000000e-01) (10, 5, 5.00000000000000000000e-01) (10, 5, 5.00000000000000000000e-01) (10, 5, 5.00000000000000000000e-01) (10, 5, 5.00000000000000000000e-01) (10, 5, 5.00000000000000000000e-01) (10, 5, 5.00000000000000000000e-01) (10, 5, 5.00000000000000000000e-01) (10, 5, 5.00000000000000000000e-01) (10, 5, 5.00000000000000000000e-01) (10, 5, 5.00000000000000000000e-01) (10, 5, 5.00000000000000000000e-01) (10, 5, 5.00000000000000000000e-01) (10, 5, 5.00000000000000000000e-01) (10, 5, 5.00000000000000000000e-01) (10, 5, 5.00000000000000000000e-01) (10, 5, 5.00000000000000000000e-01) (10, 5, 5.00000000000000000000e-01) (10, 5, 5.00000000000000000000e-01) (10, 5, 5.00000000000000000000e-01) (10, 5, 5.00000000000000000000e-01) (10, 5, 5.00000000000000000000e-01) (10, 5, 5.00000000000000000000e-01) (10, 5, 5.00000000000000000000e-01) (10, 5, 5.00000000000000000000e-01) (10, 5, 5.00000000000000000000e-01) (10, 5, 5.00000000000000000000e-01) (10, 5, 5.00000000000000000000e-01) (10, 5, 5.00000000000000000000e-01) (10, 5, 5.00000000000000000000e-01) (10, 5, 5.00000000000000000000e-01) (10, 5, 5.00000000000000000000e-01) (10, 5, 5.00000000000000000000e-01) (10, 5, 5.00000000000000000000e-01) (10, 5, 5.00000000000000000000e-01) (10, 5, 5.00000000000000000000e-01) (10, 5, 5.00000000000000000000e-01) (10, 5, 5.00000000000000000000e-01) (10, 5, 5.00000000000000000000e-01) (10, 5, 5.00000000000000000000e-01) (10, 5, 5.00000000000000000000e-01) (10, 5, 5.00000000000000000000e-01) (10, 5, 5.00000000000000000000e-01) (10, 5, 5.00000000000000000000e-01) (10, 5, 5.00000000000000000000e-01) (10, 5, 5.00000000000000000000e-01) (10, 5, 5.00000000000000000000e-01) (10, 5, 5.00000000000000000000e-01) (10, 5, 5.00000000000000000000e-01) (10, 5, 5.00000000000000000000e-01) (10, 5, 5.00000000000000000000e-01) (10, 5, 5.00000000000000000000e-01) (10, 5, 5.00000000000000000000e-01) (10, 5, 5.00000000000000000000e-01) (10, 5, 5.00000000000000000000e-01) (10, 5, 5.00000000000000000000e-01) (10, 5, 5.00000000000000000000e-01) (10, 5, 5.00000000000000000000e-01) (10, 5, 5.00000000000000000000e-01) (10, 5, 5.00000000000000000000e-01) (10, 5, 5.00000000000000000000e-01) (10, 5, 5.00000000000000000000e-01) (10, 5, 5.00000000000000000000e-01) (10, 5, 5.00000000000000000000e-01) (10, 5, 5.00000000000000000000e-01) (10, 5, 5.00000000000000000000e-01) (10, 5, 5.00000000000000000000e-01) (10, 5, 5.00000000000000000000e-01) (10, 5, 5.00000000000000000000e-01) (10, 5, 5.00000000000000000000e-01) (10, 5, 5.00000000000000000000e-01) (10, 5, 5.00000000000000000000e-01) (10, 5, 5.00000000000000000000e-01) (10, 5, 5.00000000000000000000e-01) (10, 5, 5.00000000000000000000e-01) (10, 5, 5.00000000000000000000e-01) (10, 5, 5.00000000000000000000e-01) (10, 5, 5.00000000000000000000e-01) (10, 5, 5.00000000000000000000e-01) (10, 5, 5.00000000000000000000e-01) (10, 5, 5.00000000000000000000e-01) (10, 5, 5.00000000000000000000e-01) (10, 5, 5.00000000000000000000e-01) (10, 5, 5.00000000000000000000e-01) (10, 5, 5.00000000000000000000e-01) (10, 5, 5.00000000000000000000e-01) (10, 5, 5.00000000000000000000e-01) (10, 5, 5.00000000000000000000e-01) (10, 5, 5.00000000000000000000e-01) (10, 5, 5.00000000000000000000e-01) (10, 5, 5.00000000000000000000e-01) (10, 5, 5.00000000000000000000e-01) (10, 5, 5.00000000000000000000e-01) (10, 5, 5.00000000000000000000e-01) (10, 5, 5.00000000000000000000e-01) (10, 5, 5.00000000000000000000e-01) (10, 5, 5.00000000000000000000e-01) (10, 5, 5.00000000000000000000e-01) (10, 5, 5.00000000000000000000e-01) (10, 5, 5.00000000000000000000e-01) (10, 5, 5.00000000000000000000e-01) (10, 5, 5.00000000000000000000e-01) (10, 5, 5.00000000000000000000e-01) (10, 5, 5.00000000000000000000e-01) (10, 5, 5.00000000000000000000e-01) (10, 5, 5.00000000000000000000e-01) (10, 5, 5.00000000000000000000e-01) (10, 5, 5.00000000000000000000e-01) (10, 5, 5.00000000000000000000e-01) (10, 5, 5.00000000000000000000e-01) (10, 5, 5.00000000000000000000e-01) (10, 5, 5.00000000000000000000e-01) (10, 5, 5.00000000000000000000e-01) (10, 5, 5.00000000000000000000e-01) (10, 5, 5.00000000000000000000e-01) (10, 5, 5.00000000000000000000e-01) (10, 5, 5.00000000000000000000e-01) (10, 5, 5.00000000000000000000e-01) (10, 5, 5.00000000000000000000e-01) (10, 5, 5.00000000000000000000e-01) (10, 5, 5.00000000000000000000e-01) (0, 5, 0.00000000000000000000e+00) (501, 0, 5.00000000000000000000e-01) (501, 0, 5.00000000000000000000e-01) (501, 0, 5.00000000000000000000e-01) (501, 0, 5.00000000000000000000e-01) (501, 0, 5.00000000000000000000e-01) (501, 0, 5.00000000000000000000e-01) (0, 0, 0.00000000000000000000e+00) 
connections (connected_to_neuron, weight)=(0, 1.63242220878601074219e-04) (1, 1.64163395616642532326e-01) (2, -1.33126845473969884770e-01) (3, -2.41911874080712074875e-01) (4, 8.61014595795896342523e-01) (5, 2.46869433205521349173e-01) (6, 2.37942005610294049500e-01) (7, -4.57083597510528072405e-01) (8, -1.86989193017462224100e-01) (9, -1.33148174368508065424e-01) (0, -2.19385400414466857910e-02) (1, 1.16308993285190051536e-01) (2, -3.75548898691722074505e-02) (3, 2.17170080143167021358e-01) (4, 8.92404779422711458281e-01) (5, 2.65448076699367971343e-02) (6, 2.73557781830768786957e-01) (7, 3.89661283766824864672e-02) (8, -2.03520928788841509727e-01) (9, -4.66888083605286385858e-01) (0, 7.97281637787818908691e-02) (1, 1.24831369101598954607e+00) (2, -8.41585226949962961207e-01) (3, 2.31858994303375398616e+00) (4, 1.44563444527893714131e+00) (5, 1.30089076274878445716e+00) (6, -2.57593148439371977254e-01) (7, -3.78737290279898553003e-01) (8, 4.04956258051297257605e-01) (9, -3.10671198069086518245e+00) (0, -4.56508584320545196533e-02) (1, -4.60408468288798999879e-01) (2, 2.59636321472285547252e-01) (3, -6.78218970522906028364e-01) (4, -1.08845919290845727367e+00) (5, -9.32448631856859444511e-01) (6, 5.73797449354773059227e-01) (7, -1.74949791770514839762e-01) (8, -2.29068180078017630263e-01) (9, 8.17148856179604976546e-01) (0, 2.82584503293037414551e-02) (1, -4.22791086678141261879e-02) (2, -3.77235613432439376852e-03) (3, -1.36974772085840523772e-01) (4, -3.11523372364805595236e-01) (5, 2.30677751495261484926e-01) (6, -3.95120785480559955083e-01) (7, -5.57914903382020418987e-02) (8, 3.87053997075494024549e-02) (9, 2.10840439559162290406e-01) (0, -1.08038857579231262207e-02) (1, -3.84193108411829409299e-01) (2, 2.51456719586354904283e-01) (3, -3.63740034279103996440e+00) (4, 2.72202946626098807315e+00) (5, -1.23949270363174446352e+00) (6, -1.57742452650465547759e-01) (7, 2.99094851670615280437e-01) (8, 1.66463834737025195842e-01) (9, 1.02112861954204081627e+00) (0, -3.52707579731941223145e-02) (1, 2.88064263555763477864e-01) (2, -1.87845146129475754071e-01) (3, 3.14125299485751158235e-02) (4, 2.14457856544804892351e+00) (5, -6.03121058099475138015e-01) (6, 1.76469270684624063295e-01) (7, 3.88632412526829007504e-01) (8, -4.88465029814689616350e-02) (9, -7.35980297856760778963e-01) (0, 9.41024497151374816895e-02) (1, 3.56415403946514386391e-01) (2, -3.61147249537813352926e-01) (3, 4.33193977163127075247e-01) (4, 1.30569762304007008780e+00) (5, 1.00499523088589959308e+00) (6, -1.65328160799152523719e-01) (7, -3.06570235617838249276e-01) (8, 4.70022635781437020386e-02) (9, -9.18777878245161661042e-01) (0, -4.22842465341091156006e-02) (1, 9.04349538440936268069e-02) (2, -6.15065043982545509027e-02) (3, -1.71822888807640850040e-01) (4, -2.82285323488609851683e-01) (5, 5.35444330763639730897e-01) (6, 1.58326513497553222898e-01) (7, -2.92317002475569076569e-01) (8, -1.13166952781448386378e-02) (9, 6.65749788891408511571e-02) (0, -8.56773033738136291504e-02) (1, 7.73428113688014954447e-03) (2, -7.59461464839427807805e-02) (3, 2.26663008046580305432e+00) (4, -2.95159329115704549551e+00) (5, 1.03264198459646960870e+00) (6, 2.63373704784546802671e-01) (7, -7.14281931183320395462e-01) (8, -8.91306609899032847855e-02) (9, -1.55821093207413885473e-01) (0, 5.57712838053703308105e-02) (1, 6.68063452604905766430e-02) (2, -5.33952780636981275131e-02) (3, 4.05195484643510128731e-01) (4, 3.19577209583658705672e-01) (5, 3.70096286227144466441e-01) (6, -6.25806198703641625158e-01) (7, 8.75940327112731953463e-02) (8, 2.15815512703402850869e-01) (9, -3.10963248402855052532e-01) (0, 8.11751261353492736816e-02) (1, -8.71542912935829305887e-01) (2, 7.06287499305095378688e-01) (3, -2.38050691739659958657e+00) (4, -1.00193198220720902647e+00) (5, -1.04019133921916906438e+00) (6, 2.48205249260592453187e-01) (7, -5.12645471037081357224e-01) (8, -3.24568514518595752083e-01) (9, 2.16370263376675309175e+00) (0, 2.98201516270637512207e-02) (1, 1.65216434785112123440e-02) (2, -1.88306762865195036205e-02) (3, 2.57701842878138520643e-01) (4, -7.59894998514344943707e-01) (5, -9.44096503254442942499e-02) (6, 2.54947889018026840890e-01) (7, 5.49394381462848468978e-01) (8, -9.45566621612839094957e-03) (9, -6.47419253459332183498e-02) (0, -4.53745722770690917969e-02) (1, 9.34129439203143854820e-03) (2, -2.10152378857734363493e-02) (3, -2.60594961853315432165e-01) (4, 1.04973804253384916940e+00) (5, -9.37539039374365029689e-02) (6, 2.17821801352544391905e-01) (7, -3.87213134496676103513e-01) (8, -2.93477682465778211274e-01) (9, -8.57550224266599298018e-02) (0, -2.12533473968505859375e-02) (1, -1.42667688610601084420e-01) (2, 2.12893862413240653186e-01) (3, 2.76125269427387499965e-02) (4, -1.97691346932506295531e+00) (5, 8.56972303678347202549e-01) (6, -1.33986631431544933601e-01) (7, -3.20077794049936303900e-01) (8, -1.64045845739365037108e-01) (9, 5.77077299809588661894e-01) (0, -2.16511040925979614258e-02) (1, -1.27899794707570207963e-01) (2, -8.64256625633596543834e-03) (3, 4.31293601328229414538e-01) (4, -1.23674973221731598905e+00) (5, -3.00440332661248421520e-01) (6, 1.34233570402254087650e-01) (7, 6.32786115384956104890e-01) (8, 9.11858887690288333339e-02) (9, 1.43599112654391125599e-01) (0, 4.64118495583534240723e-02) (1, 2.83552306448391466809e-01) (2, -1.91048970486894204024e-01) (3, 6.55793102103236380529e-01) (4, 6.77288371786629928017e-01) (5, 6.25622061220908132206e-01) (6, -6.80844309644270451187e-01) (7, 4.79288493972645668340e-01) (8, -1.74529704142866869294e-03) (9, -6.11224553374047463450e-01) (0, 8.00564885139465332031e-04) (1, -1.60915054045727923260e-01) (2, 1.10154352830840365773e-01) (3, 1.02917152360694971747e-01) (4, -3.10708912681013416091e-01) (5, 4.73007219046573182397e-02) (6, -8.67449602205652814391e-01) (7, 5.44536976335532052484e-02) (8, 1.44823198797709051799e-01) (9, 2.29719839152324301068e-01) (0, 5.87006881833076477051e-02) (1, -1.99782088275835101321e+00) (2, 1.40916513559247502663e+00) (3, -5.56537289763570264256e+00) (4, 3.94214032850719631185e+00) (5, 1.77500610412355648293e+01) (6, 6.54949512380533560574e-01) (7, -1.77812113066464689837e+01) (8, -2.87693795549014974533e-01) (9, 4.96628178348317028679e+00) (0, 1.96887701749801635742e-02) (1, 6.83969985160123084000e-01) (2, -5.83147010365804407961e-01) (3, -4.44538572114564889404e+00) (4, 4.02341055873877273541e+00) (5, -3.56556088266757331695e+00) (6, -1.65375677409460908329e+00) (7, 9.96939845078561592828e-01) (8, -9.15402980956170897464e-01) (9, -1.60755334102305136312e+00) (0, -6.94330036640167236328e-03) (1, 7.82147354357415475201e-02) (2, 2.36042323356016985059e-02) (3, 2.33037287015383814959e-01) (4, 8.89791803816874171673e-01) (5, -8.22319487266429893779e-01) (6, -1.20348761156036737630e-01) (7, 4.78395048377937726070e-01) (8, -2.74757179892797867571e-02) (9, -2.40858444688983069915e-01) (0, 3.51385101675987243652e-02) (1, 1.09220264272311212705e-01) (2, -3.17003608971408879641e-03) (3, 1.12096183473182064994e+00) (4, -1.13787383711140255294e+00) (5, -2.75884421953665637250e-01) (6, -1.07728871514488844241e+00) (7, 1.97982960603309532388e+00) (8, 1.39595440710320092131e-02) (9, -1.16473062377285455082e-01) (0, 4.32690158486366271973e-02) (1, 1.70950723264907705756e-01) (2, -4.05095965223584569825e-02) (3, 1.47766470455052512101e+00) (4, -3.37918354153070943369e+00) (5, 1.07355160928070425541e+00) (6, -5.92898186610284594344e-01) (7, -4.89387918852693948324e-01) (8, 4.08645143899320550940e-01) (9, -2.02437554980948980488e-01) (0, -8.32773447036743164062e-02) (1, 4.46738187769367078861e-01) (2, -4.26880804299668348278e-01) (3, 2.24617076940557369724e+00) (4, -1.50540994568065467085e+00) (5, 8.33595218627909528841e-01) (6, 2.37533897964191054175e-01) (7, 8.05794723136099011462e-01) (8, -1.66525078716605712259e-01) (9, -1.24713388780516609700e+00) (0, 6.03646412491798400879e-02) (1, -8.18759308855048661968e-01) (2, 5.37069036886545392306e-01) (3, -4.65478037260292598631e+00) (4, 1.98278103901200863923e+00) (5, -2.01416517288006469144e+00) (6, -2.02568748804160786436e-01) (7, 2.75515127659196501497e-01) (8, -6.24571484007974825348e-02) (9, 2.02757973993980877836e+00) (0, 9.87730920314788818359e-04) (1, -3.75585953328201813117e-02) (2, 6.09612148205199641526e-02) (3, -2.47895887873505083032e-01) (4, 4.27850798486155869949e-01) (5, -9.04635558559160779524e-01) (6, 7.55947973901721220757e-02) (7, -7.88138214285332289188e-02) (8, 1.88109563362246268170e-01) (9, 2.73491537802751427666e-01) (0, 5.01655116677284240723e-02) (1, 2.62607829215198762540e-01) (2, -9.58025186822205748749e-02) (3, 9.05499525194660925820e-01) (4, -8.08273005317426740390e-01) (5, 3.75623180653559762820e-01) (6, 1.16408124304231766488e-02) (7, 9.71021095796848809911e-01) (8, 4.91808108138931457387e-02) (9, -4.78639729177208095301e-01) (0, 6.00938126444816589355e-02) (1, 3.25349068219447146166e-01) (2, -2.61108795609423072204e-01) (3, 1.16592340803237259905e+00) (4, -9.83781236203198239387e-01) (5, 9.22310948853889200905e-01) (6, -2.20567834274649043902e-01) (7, 9.00651220151120313062e-01) (8, 1.35638099264874297661e-02) (9, -6.74464645671201123989e-01) (0, 5.53345307707786560059e-02) (1, -8.92559339027903936303e-02) (2, -4.86899745150753612832e-02) (3, -1.40714093634821013623e-01) (4, -7.38637063183917752518e-01) (5, 4.38933783144881906058e-01) (6, 1.40194847840964281760e-01) (7, 9.41901444770775475579e-02) (8, -1.74546135227800242040e-01) (9, 1.09795452262185774805e-01) (0, -3.92304323613643646240e-02) (1, 2.75001556702602567572e-01) (2, -2.48123499399502650542e-01) (3, 7.57114921038895771765e-01) (4, 6.19115004872707319628e-01) (5, 5.50844665589880655432e-01) (6, -8.23808058776695051328e-01) (7, 6.37455462258194938130e-01) (8, 7.84934040209222562423e-03) (9, -5.63847600242032287454e-01) (0, 9.53223332762718200684e-02) (1, -2.21383074493045201026e-02) (2, 4.65232130668464041734e-03) (3, 3.11488206580887772024e-01) (4, 3.88919506342955689782e-02) (5, -4.76791862992581139125e-01) (6, -2.84435789918637271789e-01) (7, 4.51963873280397554488e-01) (8, 9.85405372712636895560e-02) (9, -5.35522824598253371908e-02) (0, -2.61667221784591674805e-02) (1, -1.05315335532519691042e-01) (2, 1.65106442153890947688e-01) (3, -5.33372480919570568503e-01) (4, 3.36117234951364030060e-01) (5, -7.60837588090650940309e-01) (6, 8.59778248736458916568e-01) (7, -6.08838018366712474538e-01) (8, -2.11039918542751975261e-01) (9, 3.89812142750953549708e-01) (0, 9.33365896344184875488e-02) (1, 6.16898657837211747412e-02) (2, -1.10536029159093093788e-02) (3, -5.55914615550170521097e-01) (4, 8.70603811532602356316e-01) (5, 6.08608338147416993991e-01) (6, 5.51256809993965646299e-01) (7, -9.94166099567509120583e-01) (8, -1.66898152313186248774e-01) (9, -2.32834157089173210409e-01) (0, -1.07745826244354248047e-03) (1, 4.26581839706063170592e-01) (2, -1.96679415170473576024e-01) (3, -1.11522955938359502603e+00) (4, 3.55089311616934200089e+00) (5, -1.81861031445075510549e-01) (6, -3.33194228883582743705e-01) (7, -3.17459694816020598918e-01) (8, 2.24647819630457157292e-02) (9, -8.57917501244616964584e-01) (0, 7.18848407268524169922e-03) (1, 6.73794217053758359715e-02) (2, 7.12721353662464224277e-02) (3, 2.64619048115543875621e-01) (4, -4.53781449176529017020e-01) (5, 4.86685141944582622120e-01) (6, -9.33372198298853206211e-01) (7, 5.17715149530188156746e-01) (8, -8.34068711028607273628e-02) (9, -4.80486693838019091052e-02) (0, 3.90169769525527954102e-03) (1, 2.23033926890506356555e-01) (2, -1.50796390701975591142e-01) (3, -1.02519802749641855688e-01) (4, 1.47015295952930680201e+00) (5, 3.02411788950924520503e-01) (6, 1.45830563280882563593e-01) (7, -3.10865963530223277100e-01) (8, -2.02643766838813521591e-01) (9, -5.56510797406862933734e-01) (0, -6.36228770017623901367e-02) (1, -8.56677696786537906659e-02) (2, -1.46507411686890350738e-02) (3, -1.09598130106232802272e-01) (4, -5.07762733422108314407e-01) (5, 5.93929283916861616710e-01) (6, -1.42093691489218326707e-01) (7, -3.24936944168199182137e-01) (8, -1.11939997384723904927e-01) (9, 1.99036605825565149352e-01) (0, -7.16821700334548950195e-02) (1, 1.43131660050688835906e-01) (2, -2.78389968920573840916e-02) (3, 7.07235484666489444550e-01) (4, -6.20709080305523408505e-01) (5, 1.62211453695356666582e-01) (6, -6.04942109537785710494e-01) (7, 9.26616723500193084639e-01) (8, 9.03207348290144679259e-02) (9, -2.07832664565586383576e-01) (0, -8.57040286064147949219e-04) (1, -1.01528688342475179041e-01) (2, 2.14577720739683230899e-01) (3, -1.05213094017833741489e+00) (4, 1.27823738784795803980e+00) (5, -4.73021616087300089681e-01) (6, 3.64982200535021894527e-01) (7, -1.42010882317804365549e+00) (8, -2.40205247786298009549e-01) (9, 4.94219990002828679643e-01) (0, -2.57077291607856750488e-02) (1, 2.05416327859594301242e-02) (2, -9.10754238177446107105e-02) (3, -1.57681043013004729136e-01) (4, 3.30465675939220701607e-02) (5, 3.24955675203305704990e-01) (6, 2.76672096124195243672e-01) (7, -2.11407112667253482829e-01) (8, -1.29542391546429158655e-01) (9, -3.97449225548797135943e-02) (0, 2.91603729128837585449e-02) (1, 3.25395696939161918268e-03) (2, 1.11616840335861639000e-01) (3, -6.77956419425396528133e-01) (4, 9.68746511683340916221e-01) (5, -6.30301867993906417276e-01) (6, 1.38880097703305782630e-01) (7, -3.09236122463326545962e-01) (8, 7.55365451165259382815e-02) (9, 2.12609452913706614696e-01) (0, -4.47654202580451965332e-02) (1, -2.26890846264125103926e-02) (2, -2.30936702957852540985e-02) (3, -4.23571100585854287690e-01) (4, 9.24613325564750399010e-01) (5, 6.56649596785349731753e-02) (6, -6.01476024481915720610e-03) (7, -7.84015291370655065251e-01) (8, -1.31484472998360663043e-01) (9, 1.26551810446293183654e-01) (0, -9.14868712425231933594e-03) (1, 5.18315870786105678536e-02) (2, -3.82718528974358082606e-02) (3, 1.54522952558785481303e-01) (4, -6.20801286503738225520e-01) (5, 2.47387995565591725655e-02) (6, 6.15676253920336979952e-01) (7, 3.99362260969412463663e-01) (8, -2.67197660757254151775e-01) (9, -8.77585794092337057037e-02) (0, 7.81522616744041442871e-02) (1, -1.04482231379616527511e-01) (2, -5.19249976865267526271e-02) (3, 1.12477165440366166926e+00) (4, -1.89865121433453065691e+00) (5, 1.83559545993847539336e+00) (6, 5.08462833346229214904e-01) (7, -1.02700710052418342499e+00) (8, -8.14950773100876491029e-02) (9, 1.07577944400578953688e-01) (0, -4.54834774136543273926e-02) (1, -2.94399240377362481080e-01) (2, 2.11615436719952254574e-01) (3, -7.38566690982408013966e-01) (4, 3.08295581814191588244e-01) (5, -6.22047962577149893271e-01) (6, -7.60436533392412072896e-02) (7, -7.27918726395860637979e-01) (8, 2.50302876662960416265e-01) (9, 5.18165390349375698520e-01) (0, -9.15133655071258544922e-02) (1, -2.93879306158278119643e-01) (2, 1.38962615907853082042e-01) (3, -6.70312556472510534533e-01) (4, -1.97681786377870899463e-01) (5, -3.81199748653028747114e-01) (6, -3.80716473038626504466e-02) (7, -8.66862764159685328380e-01) (8, 2.70329309285462573986e-02) (9, 7.00459956727683463740e-01) (0, -2.38809958100318908691e-02) (1, -5.98652971000659187006e-02) (2, -5.77300479850709410967e-02) (3, 3.18668443426340708413e-01) (4, -1.44069957584145513785e+00) (5, 4.40581687568780522302e-01) (6, 2.53897123982751105054e-01) (7, 3.63987815381056512010e-01) (8, -1.50097192648747490562e-01) (9, 4.96688813495306039081e-02) (0, 4.83011677861213684082e-02) (1, 1.80318646147037339733e-02) (2, -4.47340099151572190284e-02) (3, -3.59458663319902560485e-01) (4, 3.00246548678199387528e-01) (5, 5.22909948546614877785e-01) (6, -3.91933136965737435875e-02) (7, -5.51701417593281617791e-01) (8, -6.13521590190748769555e-02) (9, 6.24820645863206694526e-02) (0, 6.39111921191215515137e-02) (1, -6.14572534208531681688e-02) (2, -2.78352913077800148689e-02) (3, 4.45963563168006796311e-02) (4, -9.27559080110582634404e-01) (5, 1.02078847109586967612e+00) (6, 3.78207937169846464265e-01) (7, -5.87912086270174993885e-01) (8, -2.61812400594808258880e-01) (9, 1.66041693152298108771e-01) (0, 8.82065817713737487793e-02) (1, 7.18957334572020434482e-02) (2, -6.64424708590211077208e-03) (3, 6.70606537606080133074e-01) (4, -1.69525357906242812867e+00) (5, 8.08794854966563225851e-01) (6, -5.17672143881258151055e-01) (7, 4.32414191583349816206e-01) (8, -3.26564035506717309509e-02) (9, 5.71670015304172850212e-03) (0, 2.55464389920234680176e-02) (1, -3.94007855795515338215e-01) (2, 3.61747061195032748593e-01) (3, 8.36394716955444650353e-01) (4, -2.53951421800864007849e+00) (5, -3.52857740282496057382e-01) (6, -8.38121323919528010693e-02) (7, 1.14687929009300293437e+00) (8, 4.22159743257920841430e-02) (9, 1.05124642362866582701e+00) (0, 6.83421418070793151855e-02) (1, 5.95672081907119399524e-01) (2, -3.35547829791764729013e-01) (3, 1.67623269088257798032e+00) (4, 1.20211779739126445321e+00) (5, 1.20681800760142152740e+01) (6, 6.63478182560912399524e-01) (7, -1.05801406103225090760e+01) (8, 5.04180312438111566387e-01) (9, -1.30475164328985937523e+00) (0, 6.30425885319709777832e-02) (1, -9.12221756262333594023e-02) (2, 1.89631142592617429887e-01) (3, -9.37669963160429019433e-03) (4, -1.06310254243968005383e+00) (5, -3.88457317103162724781e-01) (6, -2.76766377291256839011e-02) (7, 6.05546783547495692801e-01) (8, -2.51663392776406988696e-03) (9, 3.14961913149234273845e-01) (0, -3.63221988081932067871e-02) (1, 9.19902955729393762008e-02) (2, -4.07409638344666050203e-02) (3, 2.50028405385474827849e-01) (4, 2.26682255076459671095e-01) (5, 4.43165968231750695416e-01) (6, -2.42336599021572618451e-01) (7, -3.18635722813563060374e-02) (8, 2.29476801784759792957e-01) (9, -3.67094201405633757673e-01) (0, -3.03897634148597717285e-02) (1, 3.84212020417290731067e-02) (2, 2.58053916781852306361e-02) (3, 1.26912410833226629858e-01) (4, -3.00710029815381141294e-01) (5, 1.21106527322025536719e+00) (6, -8.21700189070060371677e-01) (7, -1.50898978403310457530e-01) (8, 3.04234240428348720608e-02) (9, -1.70104055573456591777e-01) (0, -5.88947720825672149658e-02) (1, -2.53797504518639638338e-01) (2, 1.64254015843783574002e-01) (3, -8.32607784564757258394e-01) (4, -2.85204366751891591480e-01) (5, -7.62476678394854778809e-01) (6, 7.32773648617929151960e-01) (7, -4.31263059789784464204e-01) (8, -9.15731719936848653774e-02) (9, 5.94618589217963955385e-01) (0, -8.93003791570663452148e-02) (1, 2.63110734278947766551e-01) (2, -1.30658626373848008040e-01) (3, 3.97894135511870430943e-02) (4, 7.15262556417263328790e-01) (5, 8.15604531521293196761e-01) (6, -3.47874720040551421718e-01) (7, -5.99792342364545150168e-02) (8, -1.04928533581828714594e-01) (9, -3.95687452840334019655e-01) (0, -6.29399716854095458984e-03) (1, -3.56476995858741874112e-01) (2, 1.34792192662637061451e-01) (3, -2.93345120203530740355e+00) (4, 3.16194084062886915376e+00) (5, -8.90878374035373621354e-01) (6, -2.02295594795623812079e-01) (7, 1.92889580499511978373e-02) (8, 5.65187922602525191773e-02) (9, 7.98407667659554953765e-01) (0, 5.10931015014648437500e-04) (1, -3.28605336487741261919e-01) (2, 2.25450005412376669467e-01) (3, -2.69949510333052522526e+00) (4, 2.38688690275914838779e+00) (5, -1.34109320426101485957e+00) (6, -1.51980198145090117379e-01) (7, 2.48526722510832021040e-01) (8, 2.32222806763977523969e-01) (9, 8.69006072581593236315e-01) (0, -8.01895484328269958496e-02) (1, -2.00718895667905766755e-01) (2, 1.28122934009153838231e-01) (3, -9.19842289444312122271e-01) (4, 4.70214992715336677076e-01) (5, 2.04594623181083179464e-01) (6, 9.31239984965531314431e-02) (7, -1.40905653560067656294e+00) (8, -1.19538350324272693581e-01) (9, 4.19109101280713269855e-01) (0, -2.89035588502883911133e-02) (1, -1.23453361877614728459e-01) (2, -1.48353516393894945685e-02) (3, 9.83842931550632168736e-04) (4, 4.66417287479711870773e-03) (5, -9.06551229345278319904e-01) (6, 2.83582779591088407489e-01) (7, 1.13198684442221433888e-01) (8, 1.56659443660438962853e-01) (9, 1.92572328172068929497e-01) (0, -7.25383237004280090332e-02) (1, 1.03321063655724257324e-01) (2, -5.81438490287435605364e-02) (3, -9.07966238577356393735e-02) (4, -1.27226640630515225316e-01) (5, 5.02100098278251527617e-01) (6, 3.05475345272232801097e-01) (7, -1.22363064983589481249e-01) (8, -4.09100749490049903079e-02) (9, -1.50389060721106110341e-01) (0, -3.16591486334800720215e-02) (1, 3.95561798356653254727e-02) (2, -6.07049069511141556332e-02) (3, 1.10384115037230334799e+00) (4, -2.69910988231738091514e+00) (5, 8.95664282941326717058e-01) (6, 3.29979366631068637972e-01) (7, -3.50920028578743173342e-02) (8, -1.12936803132356530788e-02) (9, 5.60050087811782767999e-02) (0, -1.07959061861038208008e-02) (1, 2.36772715771259606443e-01) (2, -1.57875359784076407799e-01) (3, -4.26007333640685492693e-01) (4, 2.48540719313191571516e+00) (5, -3.08691753020487902326e-01) (6, -1.06673557081076189612e-01) (7, -1.94356288964746881653e-01) (8, 7.87046086044345394317e-02) (9, -7.11384226814023579166e-01) (0, -9.47672128677368164062e-03) (1, -9.57615467058524350019e-02) (2, 8.88087613245218260305e-02) (3, -8.88732087100397305512e-01) (4, 1.06004928876414372674e+00) (5, -1.38162977353374460954e+00) (6, 1.40492242918134391250e-01) (7, -3.22016867655652225255e-02) (8, 1.66713118691342199185e-01) (9, 5.57944108333789601240e-01) (0, -7.00344741344451904297e-02) (1, -1.26769069694866481912e-01) (2, 1.72438093545526693884e-01) (3, -3.07092744714969057007e-01) (4, -1.24874622340662655429e-01) (5, -2.99527950911788576338e-01) (6, -3.41230748961900864913e-01) (7, -1.91138922297656582705e-01) (8, 1.54869714403212926923e-01) (9, 3.74308636693560514708e-01) (0, -1.76262855529785156250e-02) (1, 3.22834160385123136727e-01) (2, -2.67250915212515427477e-01) (3, 1.51240054098956855366e-01) (4, 2.40398016521360835540e+00) (5, -1.54749663820901273148e-01) (6, -4.72301410284405420725e-01) (7, 1.01012332321066794494e-01) (8, 1.82450666029220887054e-01) (9, -8.74276785695519476072e-01) (0, 9.79997292160987854004e-02) (1, -1.72116201532200946422e-01) (2, 1.09004375645683937446e-01) (3, -4.07300020288899777832e-01) (4, -6.27210137225498592928e-02) (5, 8.47077455790747446684e-01) (6, 4.94579846780920151517e-01) (7, -1.18872337236567537921e+00) (8, -4.75246125797153473602e-01) (9, 1.68289868564227701464e-01) (0, -7.74254202842712402344e-02) (1, -4.82153793679135841965e-02) (2, 1.43058525436100369976e-01) (3, -7.76761490402854692938e-02) (4, -5.63467879764235290985e-01) (5, -2.29532366376997226665e-01) (6, -1.82131328898462535593e-01) (7, 3.35322202736747024265e-02) (8, 2.68018525787345585076e-01) (9, 2.76273408409629439575e-01) (0, 4.58342358469963073730e-02) (1, -2.74113441535961011031e-01) (2, 7.44879842021587690315e-02) (3, -1.66478509004924953019e-02) (4, -6.37979157053194079197e-01) (5, -2.05816701377912636417e-01) (6, -5.42128946848928761071e-01) (7, 2.08998038032430694111e-01) (8, 1.09018270649057103655e-02) (9, 3.65310723655248636987e-01) (0, 8.00340697169303894043e-02) (1, 6.28048091497276778084e-02) (2, -1.50459522147939867009e-01) (3, 1.89372346564582377804e-01) (4, 5.06803769490194802594e-02) (5, 6.04368422854988596171e-01) (6, 6.15083417216486447177e-02) (7, 1.78040802083736897365e-02) (8, -1.12268733526618133545e-01) (9, -3.22621030575586553724e-01) (0, 2.77303829789161682129e-02) (1, 7.66812844437221030613e-02) (2, 4.89709371058801926080e-02) (3, 4.12064124124641925628e-02) (4, 1.35222321411163026728e-01) (5, 4.41226558216224362674e-01) (6, -3.59231109717012719873e-01) (7, -9.63352933903367791846e-03) (8, -8.98073357874619032648e-02) (9, -9.96675040229485775800e-02) (0, 1.90167129039764404297e-03) (1, -7.17711863314901693522e-02) (2, 1.71594269007134314631e-01) (3, -3.80909665809202990783e-01) (4, -9.48994533464104783604e-01) (5, 1.52545011029767946242e-01) (6, 5.52982048707864493053e-01) (7, -4.98580084531096257017e-01) (8, -9.39834148387139606262e-02) (9, 4.73844345012292833541e-01) (0, 6.19764700531959533691e-02) (1, -3.12686142892656393499e-01) (2, 9.51471906684928647735e-02) (3, -6.02951815482551389813e-01) (4, -6.77322075246003380000e-02) (5, -1.04386670283947857740e+00) (6, 7.50796480828031520538e-02) (7, -1.79446964974815437177e-01) (8, 2.46003353539910513126e-01) (9, 6.14346267210795771163e-01) (0, 7.49972537159919738770e-02) (1, 2.19279956637905726335e-01) (2, -1.89256751402529177497e-01) (3, 1.23348460179766794553e+00) (4, -1.42034469092551307590e+00) (5, 1.25937867469528397280e+00) (6, -3.53472077018048003172e-01) (7, 1.54538162267710027509e-01) (8, -1.67888561756023041438e-01) (9, -4.26676198390810335059e-01) (0, -8.99528264999389648438e-02) (1, 1.40826561370468117396e-01) (2, 8.58816443461325046416e-03) (3, 3.91256245236332900195e-01) (4, -9.40758282619109098555e-01) (5, 6.03753937642507065853e-01) (6, 2.84560087301455488795e-01) (7, 3.30367972127913245295e-01) (8, -8.26105876472197058619e-04) (9, -2.78928751297151056310e-01) (0, -8.33131521940231323242e-02) (1, 1.61172860079563662339e-01) (2, -1.98505102257118926090e-01) (3, -5.75120013424016307546e-01) (4, 2.58827368279664238315e+00) (5, -6.82780143895064695059e-01) (6, 4.80969734879313284837e-02) (7, -9.95897536607704379763e-04) (8, -1.46464275558383316689e-01) (9, -3.38598204686297643562e-01) (0, -3.05436551570892333984e-04) (1, -3.66294186501279483981e-02) (2, -5.32732577109060745357e-02) (3, -1.45600291395625275337e-01) (4, -2.61621454825854637960e-01) (5, 1.09428886382211376649e+00) (6, 2.14894726463981840248e-02) (7, -7.07713477959155068397e-01) (8, -1.35268140656658597543e-01) (9, 2.16370792906623830854e-02) (0, 1.88676491379737854004e-02) (1, -2.58078729037776672187e-03) (2, 1.01774635202666746681e-01) (3, 9.26071942581542933981e-02) (4, -7.21492645900649653967e-01) (5, 7.61814400988699985673e-02) (6, -9.23665137564635141398e-02) (7, 3.75607269315536174137e-01) (8, -1.21895917634066319746e-01) (9, 1.07893057289882868255e-01) (0, -1.80129706859588623047e-03) (1, 6.32480792482461307014e-02) (2, 4.99910397232421720159e-03) (3, 4.20538098355907163928e-01) (4, 1.93883539457437581444e-02) (5, -2.99294613219017235917e-01) (6, -4.85276807565860335281e-01) (7, 4.23352826940031401470e-01) (8, 2.15852065265593362486e-01) (9, -7.83884804149054398303e-02) (0, -4.02446649968624114990e-02) (1, -1.71198807411503978182e-01) (2, 2.04487357104658429297e-01) (3, -5.27080177964276197500e-01) (4, 1.06426228339428829983e-01) (5, -6.57187416204412788723e-01) (6, 1.86269377343441955297e-01) (7, -5.34825492899807297675e-01) (8, 7.99045152753030396564e-02) (9, 5.06616860015056680311e-01) (0, 5.52283599972724914551e-02) (1, 1.40452706623882511705e-01) (2, -9.89636434680282450760e-02) (3, 2.36472668002453678682e+00) (4, -3.04640280693776910326e+00) (5, 1.11504694224397771229e+00) (6, 1.43328985249374762923e-01) (7, -3.94292407770739372630e-01) (8, 4.78844660930826254708e-02) (9, -5.18718376280826065639e-01) (0, -5.29900602996349334717e-02) (1, -1.69915333276644459071e-01) (2, 1.89461653967081006256e-01) (3, 7.75560224628491501342e-01) (4, -1.91580956896431997549e+00) (5, -1.63002906951411019598e+00) (6, -6.69089131946951853891e-01) (7, 2.42388603181963846467e+00) (8, -1.54905218231263713813e-01) (9, 2.85344171985381089840e-01) (0, 9.42929908633232116699e-02) (1, 3.59674619472986623059e-01) (2, -2.26901618269662541660e-01) (3, 1.82732577423544717554e+00) (4, -1.36999329536118774620e+00) (5, 9.20773540265572010277e-01) (6, -2.47390928007998028848e-01) (7, 8.13561218452867995765e-01) (8, -2.59253055560620115916e-02) (9, -8.78880117925255666123e-01) (0, -6.11756481230258941650e-02) (1, -5.61475016850487354536e-02) (2, 8.85070419444525247066e-02) (3, 5.90050288194497521421e-02) (4, -8.01749974149966959658e-01) (5, -2.04315530166608652629e-02) (6, 5.53944598968614365653e-01) (7, 1.24312158740290695791e-01) (8, -2.78841359313900416517e-01) (9, 1.32699074392234078745e-01) (0, -4.17827144265174865723e-02) (1, 3.79290031175722741619e-01) (2, -2.62899504438773357062e-01) (3, 8.02470968378957261180e-01) (4, 3.50295465027502583855e-01) (5, 1.10679038411146102305e+00) (6, 2.42495807845353218701e-02) (7, 6.04333755864248645118e-01) (8, -9.15132449702747569065e-02) (9, -9.61184103739781248166e-01) (0, 6.87958672642707824707e-02) (1, -3.91786648347649049673e-02) (2, 1.17306659259993201205e-01) (3, -1.57600631752801895180e-01) (4, 4.64947078636886002023e-01) (5, -7.42364351797532684429e-01) (6, -1.12070309054675451566e-01) (7, 3.09219429901044888520e-02) (8, 9.32224873213368249170e-02) (9, 1.73549372333964169179e-01) (0, 5.41278198361396789551e-02) (1, -3.32971576769406779617e-02) (2, 1.02041185939225037549e-01) (3, 2.41373003410850717199e-01) (4, 2.28359789936436741176e-01) (5, -8.00363973075196577511e-01) (6, 2.29166664221647053967e-01) (7, 2.13161997219823429184e-01) (8, 7.59222894341202072382e-03) (9, -2.45153894228453822501e-02) (0, 7.42140933871269226074e-02) (1, -3.56505661996670622504e-02) (2, 3.02936183133849963600e-02) (3, -5.76928549717360517057e-01) (4, 6.66816878339539509390e-01) (5, 1.94644984183276470446e-01) (6, 4.01557610117546648354e-01) (7, -8.65898205985349944669e-01) (8, 1.67792181337802354113e-02) (9, 1.79875771930685032785e-02) (0, 2.40263193845748901367e-02) (1, -1.11818940458021459650e-01) (2, 8.98922633508533186486e-02) (3, -1.84883414059469397550e-01) (4, -1.39241349195822705642e-01) (5, -3.14989499133887906890e-01) (6, -1.62330113842376472233e-01) (7, -1.21680999400444078695e-01) (8, -1.53671565595236842006e-01) (9, 4.14026721113153528542e-01) (0, 9.88107398152351379395e-02) (1, 1.03158861951123267953e-01) (2, -2.27265734639794575456e-01) (3, 8.42537288829880215424e-01) (4, -4.78212196957438884226e-01) (5, 2.73870584892212887151e-01) (6, -3.18599386815362345393e-02) (7, 3.47204356266616775972e-01) (8, 1.82571320788229296550e-01) (9, -3.76454518626447687257e-01) (0, -4.77781370282173156738e-02) (1, -1.77736943135491348711e-01) (2, 1.77125932051524978550e-02) (3, -1.27512224140224700308e-01) (4, -2.84109499888881622542e-01) (5, 2.08081274272199800990e-01) (6, -5.13166039364387205346e-01) (7, -3.37665471901166580615e-01) (8, 8.06284861641385214304e-02) (9, 3.04309239411940934961e-01) (0, 8.66661146283149719238e-02) (1, 1.92253313064956521394e-01) (2, -4.84682687375019016773e-02) (3, 3.83876175325411517214e-01) (4, -3.70481180963500855707e-01) (5, 7.77973266809140029387e-01) (6, -3.45486507178700219534e-01) (7, 4.14689911874843053496e-01) (8, -1.83610716303472004673e-01) (9, -3.01105601341474571342e-01) (0, -6.12834617495536804199e-02) (1, 3.59307031536343024491e-01) (2, -2.26879923197749050479e-01) (3, -7.73293748730175201089e-01) (4, 2.57859963611348996793e+00) (5, -2.04022595053947146393e-02) (6, 2.50335579582794232056e-01) (7, -1.07211527305115095210e+00) (8, 8.54516953897915820804e-03) (9, -7.58229516953724314021e-01) (0, -3.29022109508514404297e-03) (1, 9.07329059298110779386e-02) (2, 1.88241685438556745347e-02) (3, 1.37763679268068345296e-01) (4, -6.90838283009701514814e-01) (5, 1.25790131019821149749e+00) (6, -3.14431444189513076282e-01) (7, -1.87438645859869496002e-01) (8, -6.50514106800614833048e-02) (9, -1.41305902763010998724e-01) (0, 2.02390551567077636719e-02) (1, -2.41152178111304404950e-01) (2, 2.13280294733087238956e-01) (3, -2.13259916520932568673e+00) (4, 2.36048921070428496805e+00) (5, -1.09238229299472844325e+00) (6, -3.07856452707511885070e-01) (7, -9.82506112811171589128e-02) (8, 2.05105589533955579018e-01) (9, 7.10079249894754904737e-01) (0, 2.58262231945991516113e-02) (1, 1.08772711079109574150e-01) (2, -5.44748892045048699329e-02) (3, -2.98878219614736539977e-01) (4, 1.44821388623212032876e+00) (5, -4.79391827458036934306e-01) (6, 2.13636607373708070634e-01) (7, -2.70076824956597461025e-01) (8, 5.10146207410098265211e-02) (9, -1.79787172925519739275e-01) (0, -3.55480611324310302734e-03) (1, 1.86480407190617175628e-02) (2, -1.37487359290715649429e-01) (3, 4.57020838971824994168e-01) (4, 3.95404184305412520484e-01) (5, -5.31089814011670879879e-01) (6, -4.90880131567280331151e-01) (7, 7.40312211510933182446e-01) (8, 2.57810841348720565236e-01) (9, -2.98220698851363263948e-01) (0, -6.40671625733375549316e-02) (1, 4.21411722906441799097e-02) (2, 9.86124087118705611177e-02) (3, 1.72873853703335106369e-01) (4, -1.13801426729498578183e+00) (5, 2.12540489674325677738e-01) (6, 2.75075116498572691537e-01) (7, 4.41634208433748010059e-01) (8, -7.41837854047001643565e-02) (9, 7.65981152449659620507e-03) (0, -2.16741710901260375977e-02) (1, -2.00968705896223051588e-02) (2, 4.67510948541348114738e-02) (3, -6.20607023269604124449e-02) (4, 6.60198806156618189789e-01) (5, -1.24064715360895738705e+00) (6, -5.85289491143188705946e-02) (7, 4.03180960297714330309e-01) (8, 2.97348189602002488385e-01) (9, 3.24205814013039383958e-02) (0, 3.10082510113716125488e-02) (1, 2.12273291796366003759e-01) (2, -9.27757170423567645301e-02) (3, 1.11828581314380809397e-01) (4, 3.27433226440783708977e-01) (5, 9.48313599611115720656e-01) (6, -1.12875896213491713760e-01) (7, -2.32091020574316242442e-01) (8, -1.28248136041094334958e-01) (9, -3.62659624591504858859e-01) (0, -8.53411555290222167969e-02) (1, 1.14316757127502319213e-01) (2, -1.01857174638559200286e-01) (3, 1.37304159075767673315e+00) (4, -6.33171910935136805776e-01) (5, -3.32458510941089524504e-01) (6, -9.59704997484030375432e-01) (7, 2.21016778916569212043e+00) (8, 1.30057689624174938059e-01) (9, -5.01458216719082527923e-01) (0, 2.93840244412422180176e-02) (1, 1.35781187311321605016e-01) (2, 1.51196077499101671354e-02) (3, 2.39087362713507223244e-01) (4, 4.28912610452554243778e-01) (5, -1.35059874041489724750e-01) (6, -1.11666978251352910778e-01) (7, 3.15532176692236543403e-01) (8, -7.40170991207412115598e-02) (9, -2.45741979518384390246e-01) (0, -2.72739380598068237305e-02) (1, 2.37501057833965661947e-01) (2, -1.46199232228500924924e-01) (3, 9.73108187591152362650e-01) (4, -3.71823844957832050362e-01) (5, 1.07798895541554684563e+00) (6, -4.95018901280874445980e-01) (7, 7.35761879978274024872e-01) (8, -8.49403894857317653955e-02) (9, -7.56105407701259113473e-01) (0, -1.67740732431411743164e-02) (1, 6.70890950716363509976e-02) (2, 1.15542099955021730640e-02) (3, -1.20769155086991580167e-02) (4, 8.51930458961453695999e-01) (5, -1.12144058052847439555e+00) (6, 2.61363995551774676296e-02) (7, 3.21134271492218403843e-01) (8, 1.50724997162144214169e-01) (9, -1.34768358262482654958e-02) (0, 6.23024180531501770020e-02) (1, -3.60425214076983135847e-01) (2, 2.57499454621218981654e-01) (3, -8.81170592488434212264e-01) (4, -1.74061510133821895074e+00) (5, -5.69213177573347633986e-02) (6, 2.69783058748299942042e-01) (7, -6.66526362324659338299e-01) (8, 6.98681665102099114240e-02) (9, 1.03262261948258782240e+00) (0, -5.81693947315216064453e-02) (1, 2.71437945915020073517e-01) (2, -1.75134064967069430496e-01) (3, -7.49560506756922095839e-01) (4, 2.55858681345101279803e+00) (5, 2.34948466348299356277e-01) (6, -6.55256071528866335107e-02) (7, -7.55581618882292360695e-01) (8, -2.90159494837161635594e-01) (9, -7.82677382113700859101e-01) (0, -5.01751378178596496582e-02) (1, -2.56424689354655566120e+00) (2, 2.01425285497432948745e+00) (3, 1.31069168074538211499e+00) (4, -4.43235396903566059024e+00) (5, 1.05755048413731653767e+01) (6, 8.72535364480392594544e-01) (7, -9.71104883707538668602e+00) (8, 6.89641696458914155166e-01) (9, 6.59444723805221677537e+00) (0, 2.75116041302680969238e-02) (1, -1.36056114449635782299e-02) (2, -7.76383583087952022783e-02) (3, 4.00057822365149751143e-01) (4, -9.16832824302308058151e-01) (5, -2.31665879443441496965e-01) (6, 1.10476479512673170236e-01) (7, 3.04943982242302569219e-01) (8, 2.45345677582043480980e-01) (9, 1.23672799322615906137e-01) (0, -7.58940726518630981445e-02) (1, -2.73382617506982873723e-02) (2, 7.71292497197987314550e-02) (3, -3.43705164766519799535e-01) (4, 9.81523690063444753662e-01) (5, -9.31323958368884471937e-03) (6, -1.35317568990778180904e-02) (7, -5.97515186652714525017e-01) (8, 3.06674041623031896561e-04) (9, -4.86179798906705082362e-02) (0, -4.37269024550914764404e-02) (1, -1.36436131253623131598e-02) (2, -5.79286920536461191755e-02) (3, 1.21077243717068228079e+00) (4, -2.04648244470670492845e+00) (5, 6.30715952766358500803e-01) (6, 2.06046218526968361040e-01) (7, 3.82515651346803542410e-01) (8, -3.96137181680928998628e-02) (9, -2.20146500405012546242e-01) (0, 2.66285464167594909668e-02) (1, 2.10831090047923809527e-02) (2, -3.13031477283774658971e-02) (3, 1.01290860117254943873e+00) (4, -2.03372166414784683042e+00) (5, 1.00856185027044276126e+00) (6, -9.57735216358415186733e-02) (7, 1.67427947303299164139e-02) (8, 2.40304992995747646045e-03) (9, -1.19673313383035731516e-01) (0, 9.27926525473594665527e-02) (1, -2.74951575923294500026e-01) (2, 9.55513370992853161567e-02) (3, -1.11122283767952412248e+00) (4, 4.18514822020422283533e-01) (5, -8.70939056257321819743e-01) (6, 2.13682375407250046973e-01) (7, -7.44800006307683837292e-01) (8, 2.94893702450442274365e-01) (9, 7.19011765540321756696e-01) (0, 5.88831827044486999512e-02) (1, -1.16957822806550607031e-01) (2, -2.58315564193478189314e-02) (3, -3.84497956772557394900e-02) (4, -2.29705943928718542280e-01) (5, 3.32013750316445199751e-01) (6, -1.52168237309567161430e-01) (7, -1.29269801548543866732e-01) (8, -1.31421742829035403943e-01) (9, 9.02128042452632894488e-02) (0, -1.77840441465377807617e-02) (1, 1.03138524563856498473e-01) (2, -1.26045475357589892296e-01) (3, -4.28115573311167174619e-01) (4, 1.75862679205091687606e+00) (5, 8.74868474848967819790e-02) (6, -1.32680964419160135614e-01) (7, -2.57796008741719373525e-01) (8, 5.17107478984680027367e-02) (9, -5.35404876549425146059e-01) (0, -5.58386407792568206787e-02) (1, 3.01686907008033300404e-01) (2, -1.76127028982880379226e-01) (3, 3.51004381413567323467e-01) (4, 1.54527465956914777934e+00) (5, -7.53250279338655570616e-02) (6, -2.30601501286254478851e-01) (7, 1.49015971255801904505e-01) (8, -1.41627860148214296254e-01) (9, -5.38178515173094895729e-01) (0, 7.42538496851921081543e-02) (1, -4.06417401065451988629e-02) (2, 1.54773628445713934410e-01) (3, -2.69027426148702952791e-01) (4, -4.04746853597925226875e-01) (5, 2.12511346623775965181e-01) (6, -2.23394713416996855415e-02) (7, -2.17772771136871767794e-01) (8, -3.10408149639827712907e-01) (9, 3.68711721507252954133e-01) (0, -7.66900703310966491699e-02) (1, -1.87462080861654611930e-01) (2, 2.23741264526294419968e-01) (3, -2.20130855057094620975e-01) (4, -4.93862336981346183862e-01) (5, -1.06262694441013860747e+00) (6, 2.92671599607507881835e-01) (7, 1.20138928089521479503e-01) (8, 1.79637365304756227435e-02) (9, 5.13519353781019760596e-01) (0, 2.14926376938819885254e-02) (1, -7.43717339559137463612e-02) (2, -3.81887034011184622884e-02) (3, -2.60219087889331901486e-01) (4, 9.70655648413657812235e-01) (5, -7.15259942540663828936e-01) (6, 1.27472624504552017877e-01) (7, -1.18330055461595945454e-01) (8, 1.92720223241284988047e-01) (9, -3.84402822892681433897e-02) (0, 5.96385374665260314941e-02) (1, 1.15542738174557305109e-01) (2, -1.40058026488923514918e-01) (3, -9.89318929455871159950e-02) (4, 5.01454623487599615572e-01) (5, -3.45546926600808351759e-02) (6, -1.75376364045861266039e-01) (7, -9.04774988705907556863e-02) (8, 3.15136186959071751268e-01) (9, -1.08664855448293171114e-01) (0, 4.83871027827262878418e-02) (1, -3.38097191051753842572e-01) (2, 1.63331852254341963748e-01) (3, -7.90604097418226237082e-01) (4, 5.24749389132296628624e-01) (5, -1.35610925625258982308e+00) (6, 1.29914294194698021201e-01) (7, -1.12469628337623223091e-01) (8, 2.84682194894119111606e-01) (9, 5.72339296828103250014e-01) (0, 7.65532255172729492188e-03) (1, -1.18519658070430633501e-01) (2, -8.16081299186180355448e-04) (3, 1.16477653764091054756e-01) (4, 2.36244828473781504075e-01) (5, -2.53471401085860748026e-01) (6, -6.32140624976995080253e-01) (7, -5.63714363487793287955e-02) (8, 1.63655564004485665208e-01) (9, 1.56485252632744986645e-01) (0, -6.91171586513519287109e-02) (1, -9.80791784769625002438e-02) (2, 1.24559202227499360438e-01) (3, -1.66370779188024764395e+00) (4, 2.41158841831108228249e+00) (5, -1.30576667198674689629e+00) (6, -1.38446764215236273188e-01) (7, 4.39996107501763711323e-01) (8, 2.27106359581130921865e-02) (9, 3.74303786070826427501e-01) (0, 6.09521567821502685547e-03) (1, -1.42554024860343492298e-01) (2, 4.29722927548894795269e-02) (3, -4.20497814217568460782e-02) (4, -1.58621693681521069852e-01) (5, -5.38994172423391648685e-01) (6, 3.26276808894726377819e-01) (7, -2.86073773531030084438e-02) (8, 6.37637823261314462542e-02) (9, 1.53132158033842780132e-01) (0, 7.56388232111930847168e-02) (1, 4.73419257949237240468e-02) (2, 4.00128249860758414269e-02) (3, -1.66569510948549881491e-01) (4, -6.03118896503547330390e-01) (5, 3.51493618240020067045e-01) (6, 4.29861181978608009047e-01) (7, 8.00934951031352787565e-02) (8, -2.00269770719197687248e-01) (9, 2.68534660462307443740e-02) (0, -4.34028692543506622314e-02) (1, -1.92324479045969221058e-01) (2, 2.89910165311863143867e-01) (3, -7.89413834642632039618e-01) (4, 3.02854301901994138468e-01) (5, -1.67583164046906007982e+00) (6, 4.54667159563340930739e-02) (7, 5.84525906819818641402e-01) (8, 1.62461288770883116594e-01) (9, 7.20952637797890871774e-01) (0, 6.53237774968147277832e-02) (1, -1.25524597596437303970e-01) (2, 1.50340467491241469578e-01) (3, 2.95712463308170931953e+01) (4, 2.03688233410952364011e+01) (5, -1.93733955790683047837e+01) (6, -1.06592143424980023703e+00) (7, 6.53118353652197725090e-01) (8, -3.24502198538367481184e-01) (9, 4.78348152665616643819e-01) (0, 5.88083937764167785645e-02) (1, -1.56623889351004436099e-01) (2, 2.74867122504133920557e-01) (3, -1.30058593540339884065e-01) (4, -1.71918224578367317967e+00) (5, 1.89403776236187343374e-01) (6, 5.50770075460248267896e-02) (7, -9.70171994499809953183e-02) (8, -1.12801975298667644942e-01) (9, 7.11624189824164421481e-01) (0, -4.07788939774036407471e-02) (1, 1.27835407752627305822e-01) (2, -3.29870189717321460332e-02) (3, 3.03366691345397065938e-01) (4, 7.20591368773384699509e-01) (5, 3.39608122399394751767e-01) (6, -7.11287395000021360758e-01) (7, 7.02937892533295610731e-02) (8, 1.20823009447375687153e-01) (9, -3.09198070066069086170e-01) (0, 9.25782397389411926270e-02) (1, -5.71815308792811699545e-02) (2, -4.67828820002559528368e-02) (3, 8.30246535577308431009e-01) (4, -1.59744971691234893818e+00) (5, 1.50496987128580061999e-01) (6, -2.92792317848110106304e-01) (7, 1.08083040154423182244e+00) (8, -1.71093513354350877653e-02) (9, -5.16244627874526892941e-02) (0, -9.72399562597274780273e-02) (1, -6.08286841360575984000e-03) (2, -1.12954129751871041459e-02) (3, -4.67053318232946504396e-02) (4, -5.02628475795115603475e-01) (5, -2.64001133954909691925e-02) (6, -5.18229830182459633159e-02) (7, -1.33223431383900248193e-01) (8, 1.29622561591703544526e-01) (9, 2.90056999366727408241e-01) (0, -7.03081041574478149414e-02) (1, 1.04789991789220354734e-01) (2, -7.14484431692744698106e-02) (3, 1.22255555850745722957e+00) (4, -2.08405146419654219159e+00) (5, 8.36127234344011593947e-01) (6, 2.69744061209353291897e-01) (7, 1.12647031872064776192e-01) (8, -1.38056259667820147019e-01) (9, -1.18116401416992214402e-01) (0, -9.31169316172599792480e-02) (1, -9.92190335903179398969e-01) (2, 8.43098474453224833169e-01) (3, -1.91044409581990537461e+00) (4, -1.56894745859082851425e+00) (5, -1.52347547277864858728e+00) (6, 2.58397823944132576379e-01) (7, 4.30823011956735668626e-01) (8, -4.63505895386587263296e-01) (9, 2.64033392124792998246e+00) (0, 3.34401205182075500488e-02) (1, -1.69505646881173699381e-01) (2, 9.18528050687650310380e-03) (3, -2.66750013451093948014e-01) (4, -4.65175770197392979277e-01) (5, -3.84628059543324296587e-01) (6, 4.48317479023121745474e-01) (7, -2.04548582786966970382e-01) (8, 4.13027234588991543074e-02) (9, 3.36387278652904742060e-01) (0, 1.60914063453674316406e-02) (1, 2.70867438198910404079e-02) (2, 9.24504428493302075898e-03) (3, -3.21233604182038168240e-01) (4, 1.45538323608308289847e-01) (5, 9.13835048591491727610e-02) (6, 8.91928894416669226786e-02) (7, -1.96681576947091235619e-01) (8, 6.65513365300515330469e-02) (9, 5.49469028706853837574e-02) (0, -9.12098810076713562012e-02) (1, 1.64545778204929660227e+00) (2, -1.18625308960638808919e+00) (3, 1.29884295584840749882e+01) (4, -7.02673793637340171614e+00) (5, 4.43793346870085514411e+00) (6, 1.17506152758437600880e+01) (7, -3.47592700195083315062e-01) (8, -5.05215778433869555641e-01) (9, -3.95483260651261314678e+00) (0, -2.99262404441833496094e-02) (1, 1.18228692363752177497e-02) (2, -6.07149227374280467395e-02) (3, 6.19418322460278392150e-01) (4, -1.93040605161856115846e-01) (5, -6.80686161817767448889e-02) (6, -8.41262838891294828514e-01) (7, 8.51618878538497936503e-01) (8, 2.03675118952432676611e-01) (9, -1.89174559849331624939e-01) (0, 3.30078974366188049316e-02) (1, 2.35394656522343620475e-01) (2, -3.19064477356688525056e-01) (3, 6.83046759765198019387e-01) (4, 1.39730486583861357452e+00) (5, 3.37209025391576266983e-01) (6, -6.08940850395844335274e-01) (7, 4.31000638021465709571e-01) (8, 1.29807879922057889388e-01) (9, -8.30212991344933204374e-01) (0, 5.09057119488716125488e-02) (1, 8.50024524654305890792e-02) (2, -6.11976592484936784966e-02) (3, 1.08758346616814841057e-01) (4, -2.23530579991753713953e-01) (5, 7.97079888259181745802e-01) (6, -5.85337056897916485632e-01) (7, 4.15832278400307744914e-02) (8, 3.04139062992169056932e-02) (9, -1.20992195686967771162e-01) (0, -3.19325551390647888184e-02) (1, -1.00876763405722547073e-01) (2, 1.20580802628658334541e-01) (3, -3.61242707862175993494e-01) (4, 2.40458679120677476515e-01) (5, -2.52911844715228352910e-04) (6, -4.73187712310330965693e-01) (7, -3.19024705595951085790e-01) (8, 2.14583152316511815982e-01) (9, 1.82742552688542531092e-01) (0, 5.19319251179695129395e-02) (1, -7.59050366484047139837e-02) (2, 1.60641319468812299176e-01) (3, 3.89795930434756410232e-01) (4, -1.37852566238844076452e+00) (5, -1.48211444186265944856e-01) (6, -2.49410897877356679819e-01) (7, 7.25941434876468338899e-01) (8, 6.41916913244876263800e-02) (9, 2.38437528958716282723e-01) (0, 6.38466551899909973145e-02) (1, 1.30339687166004775110e-01) (2, 4.48796394486800365176e-02) (3, 7.23138273919674112733e-01) (4, -1.20454911808453712929e+00) (5, 1.06622592617612488297e+00) (6, -2.81521363487674036730e-01) (7, -2.61899984296516175064e-01) (8, -7.37922606884531249484e-04) (9, -9.31042000587058715677e-02) (0, 7.39032104611396789551e-02) (1, 2.88030377959071826055e-01) (2, -8.22525578997039263918e-02) (3, 3.25015171154245441354e-01) (4, 2.51265820793640459740e-01) (5, 8.67907021574094605931e-01) (6, -2.95321782762832274472e-01) (7, 3.20479490673246547594e-01) (8, -6.27730555596929945539e-02) (9, -5.44519288924431910104e-01) (0, 6.97492435574531555176e-02) (1, -3.32850012102469811071e-02) (2, 4.35394732593583494440e-02) (3, -3.43513549500222670208e-01) (4, 7.40552114991071652739e-01) (5, -7.25339962484540690113e-01) (6, 5.04507977723952172333e-01) (7, -5.57254456724656677125e-01) (8, 6.37800156194278794475e-02) (9, 2.39029538611267106107e-01) (0, 5.96852228045463562012e-02) (1, 1.66189816846424170960e-02) (2, -4.01400940309618384227e-02) (3, 3.14123760157802744963e-01) (4, -1.79761725657259924249e-01) (5, -4.00221908787335933777e-01) (6, 9.98283204109668420578e-02) (7, 4.26074729715940514474e-01) (8, 2.10968200611781647735e-01) (9, -1.52322764757786915935e-01) (0, -4.90616150200366973877e-02) (1, 2.72107180951932647872e-01) (2, -2.69640760122838496482e-01) (3, 1.23486212088419899935e+00) (4, -1.09340778693791196297e+00) (5, 1.20105065557012924415e+00) (6, -5.36556491205444463510e-01) (7, 4.85724816266802805753e-01) (8, 3.55943513888950929802e-02) (9, -5.94220884141705818493e-01) (0, 6.69044181704521179199e-02) (1, -2.37905876847513991779e-01) (2, 1.98788672322328580089e-01) (3, -1.75658748982543522210e+00) (4, 1.11084396725219836100e+00) (5, -7.32744518619242862778e-02) (6, 4.99778425095694200930e-01) (7, -2.21993461097190936115e+00) (8, 3.45482230903260550958e-02) (9, 6.77983315071601810864e-01) (0, -1.58037543296813964844e-02) (1, 6.81358691878726357993e-02) (2, -1.03621139513480328698e-01) (3, 1.24127061143696182377e+00) (4, -1.91057097078723781003e+00) (5, 3.20955064144367530066e-01) (6, -3.56074708440469234194e-01) (7, 1.46592830367523752066e+00) (8, 3.59269074975625685164e-02) (9, -2.46388371245869569615e-01) (0, 2.44960561394691467285e-02) (1, 2.25959029049431353586e-01) (2, -1.37067158707043251775e-01) (3, 1.38702188193039632758e+00) (4, -1.40431573700867406984e+00) (5, 6.00384327982085519437e-01) (6, -2.49427218822131264997e-02) (7, 1.26315588825368640968e+00) (8, -1.35090225834678251404e-01) (9, -6.18483280765053544670e-01) (0, -6.22473657131195068359e-03) (1, -6.38422052581204130250e-02) (2, 1.29863117301386832292e-01) (3, -2.23345724722395194695e-01) (4, -7.71282830039800582078e-01) (5, 9.17690690759699334578e-01) (6, -1.40654392712414727518e-01) (7, -3.63081907948456406032e-01) (8, -3.13782969358991359332e-01) (9, 2.67676374693560481521e-01) (0, -1.13804787397384643555e-02) (1, 3.10043010300920483802e-02) (2, -7.70888003100823199221e-02) (3, 1.34462044879087666560e-01) (4, 4.65348468993779462721e-01) (5, -1.31574577975345463621e+00) (6, -5.60073866044742074699e-01) (7, 1.32685955413693679183e+00) (8, 4.21430545853740512463e-01) (9, -2.38538809912096333443e-01) (0, -7.84888863563537597656e-04) (1, -2.04654493359772732264e-01) (2, 1.43108148819254210604e-01) (3, -2.31686794488032132833e+00) (4, -2.75915378397857535830e+00) (5, -4.75768277328735833542e-01) (6, 2.13535328676767971467e-01) (7, -1.96028417045693093002e+00) (8, -3.76992487119908181725e-02) (9, 5.24797389726092800011e-01) (0, 9.79796126484870910645e-02) (1, -1.58255507183013954808e-01) (2, -1.46879873186471637814e-02) (3, -1.58109752791559560192e-01) (4, -2.96286120257969187719e-01) (5, -2.96459256668687443081e-01) (6, 4.52364819278529783908e-01) (7, -1.25054267645279770793e-01) (8, -1.00956501870818615707e-02) (9, 1.69556528657594102194e-01) (0, 2.85439565777778625488e-02) (1, -2.18327710093229127031e-01) (2, 4.96885098972484409718e-02) (3, -7.07307044367702086873e-01) (4, 9.27750291693826278916e-01) (5, -1.02200307035039417158e+00) (6, 7.72429331595540641375e-02) (7, -8.77918054982248924345e-02) (8, 1.42501032903040780742e-01) (9, 2.90123269113733317504e-01) (0, -8.10480862855911254883e-02) (1, -2.90329886957564342609e-01) (2, 1.95056943956420175690e-01) (3, -1.56407841892727772493e-01) (4, -8.49954358626580863678e-01) (5, -2.07743574307280354230e-01) (6, 1.67489758252900022839e-01) (7, -2.24682860888516605646e-01) (8, -6.32681182552509990824e-02) (9, 4.60926175079005850943e-01) (0, -1.33815929293632507324e-02) (1, 3.23240941132562187299e-01) (2, -3.21405368198100227506e-01) (3, 4.13128456461551252232e+00) (4, -3.10723363316669765055e+00) (5, 1.84828216104548720411e-01) (6, 5.43890100681349242251e-01) (7, 1.55029097796303416690e-01) (8, -2.01673069164270413189e-01) (9, -1.06845844006923718084e+00) (0, -6.17238357663154602051e-02) (1, 1.56504973984574954904e-03) (2, 8.54485831020595915097e-02) (3, 1.86680976933647868599e+00) (4, -4.01294857041709729373e+00) (5, 1.48887928030439553595e+00) (6, -8.39403712153164782706e-01) (7, -1.51294018177190303653e+00) (8, 3.82775229369865022111e-01) (9, 1.56661070505352328919e-01) (0, -5.30181527137756347656e-02) (1, 1.65361908714710709178e-01) (2, -1.41878664598498821503e-01) (3, 5.42351874197275041212e-01) (4, -5.55581995250914850715e+00) (5, 3.90696136480445321837e-01) (6, -1.49315652214352856397e+00) (7, -2.61945557097176884298e+00) (8, 1.12100332172130667807e-01) (9, -3.25704132866115825262e-01) (0, -9.24563109874725341797e-02) (1, -1.08876775123317295901e-01) (2, -5.65073580163707803181e-02) (3, 1.14999894705628477598e-01) (4, -1.31015787410034256766e+00) (5, 4.91929795594972851802e-01) (6, -1.45715968688590102875e-01) (7, 3.40047144746389806702e-01) (8, 1.17807898404402561221e-01) (9, 6.88286868672617208054e-02) (0, 2.59503349661827087402e-02) (1, 1.38344043471055777594e-01) (2, -1.61914740858778355426e-01) (3, -9.32568756268794207820e-01) (4, 2.04112102232696779325e+00) (5, 3.88078768966931109130e-01) (6, 6.85346057489478854841e-01) (7, -1.35043393107964093680e+00) (8, -2.19089929439376635001e-01) (9, -6.11558142993905984319e-01) (0, -9.39104780554771423340e-02) (1, 7.22698751468742791454e-03) (2, -1.21316160137770537308e-01) (3, 7.68626071338054717152e-01) (4, -7.80782170481489234959e-01) (5, 2.79504515608119230574e-01) (6, -3.76813212840737543630e-01) (7, 8.49618805769509100045e-01) (8, -1.41309131527949327634e-01) (9, -2.52418716335799930839e-01) (0, -3.55907902121543884277e-02) (1, 4.64552777391320920186e-02) (2, -1.27643721169366175516e-01) (3, 2.52877099142145622679e-01) (4, 6.71578563659859240076e-01) (5, -2.08452969011197586369e-01) (6, 2.59117007268396482011e-01) (7, 2.62878376526108015199e-01) (8, -2.29122569117565400010e-01) (9, -3.37892374615192447873e-01) (0, 1.23781114816665649414e-02) (1, 1.31757204970583241543e-01) (2, -1.60581467852591253109e-01) (3, 2.54012896371505147997e-01) (4, 4.11103961666953954257e-01) (5, 2.72701530380793810693e-01) (6, -3.89861233602107670748e-01) (7, 8.15779568002419630535e-02) (8, 1.08399381522491047337e-03) (9, -2.00771735958414743184e-01) (0, 6.09630718827247619629e-02) (1, -2.35867034906106221026e-01) (2, 2.59186200062967275759e-01) (3, -2.34718547512115932596e-01) (4, -4.63728386386473234726e-01) (5, -1.03626557102248528786e+00) (6, 7.76905987229569161556e-02) (7, -2.59802002338332227449e-01) (8, 3.02384723887502926409e-01) (9, 5.81721367970045477591e-01) (0, -2.75957137346267700195e-02) (1, -1.77556007530014575702e-01) (2, 2.12221784089251713779e-01) (3, 1.62811532524092889007e-01) (4, -1.49435269048995644781e+00) (5, -8.20957189433808853796e-02) (6, -3.18902138418372615991e-01) (7, 3.92969605066885496747e-01) (8, 9.70665873040944537919e-02) (9, 4.65139108215135044233e-01) (0, -3.61914709210395812988e-02) (1, 1.71996327364450946051e-01) (2, -2.80293712112364201694e-01) (3, 3.99264497419993302785e+00) (4, -3.76560039689539216567e+00) (5, 1.84575878406085025496e+00) (6, 1.55211475565846773739e-01) (7, -1.29260461037474838619e+00) (8, -2.73765661569812801535e-01) (9, -6.62813720911950787773e-01) (0, 7.83805027604103088379e-02) (1, -2.67022430119282283556e-01) (2, 1.96004041818684082710e-01) (3, 3.09911979702676587678e-01) (4, -2.30137880210159551098e+00) (5, 5.51581952709599199203e-01) (6, 2.52477907336607743094e-01) (7, -1.27272830022630317748e-01) (8, 4.73691889720301781419e-02) (9, 4.21072008006727005469e-01) (0, -7.67255723476409912109e-02) (1, 3.31329114386638368117e-01) (2, -1.31616823113758912855e-01) (3, 2.12441040520507984368e+00) (4, -1.39877497465260702825e+00) (5, 2.12839918624549706561e-01) (6, -2.08812441493268691195e-01) (7, 2.08684874935535313867e+00) (8, -1.73899068691953845311e-01) (9, -6.94731890283731945424e-01) (0, -3.75489592552185058594e-02) (1, 5.37518769101339929928e-02) (2, -1.21681903272570571262e-01) (3, -6.81672723776295952369e-02) (4, 1.06377432828034113044e+00) (5, -9.40612812104131834623e-01) (6, 1.11556435240148049681e-01) (7, 2.97638698483826513730e-01) (8, 2.06865351604607089486e-01) (9, -1.81563071806239817452e-01) (0, 9.60591658949851989746e-02) (1, -2.06394275292097056917e-01) (2, 1.80764030862123309396e-01) (3, -7.26691465937450931101e-01) (4, 1.00283253460299337512e+00) (5, -8.51043427635959859323e-01) (6, 1.32375796466097561590e-04) (7, -7.95470574528258977942e-01) (8, 6.36243926506860763004e-02) (9, 5.10789549013857313575e-01) (0, -3.39300930500030517578e-02) (1, -1.83005462297373439062e-01) (2, 1.57358747131081722070e-01) (3, -1.71223376850321917786e+00) (4, 2.18549586783943139423e+00) (5, -7.93603946040414731655e-01) (6, 3.19251520505471619860e-01) (7, -8.91472077531059947653e-01) (8, 1.38567108905692265575e-01) (9, 5.22761757693215645126e-01) (0, 9.69300940632820129395e-02) (1, 9.73637650236652413271e-02) (2, -1.20856635259485770129e-01) (3, 3.24263608866059982461e-01) (4, -5.63488865965240059985e-01) (5, 5.11849725139425282272e-01) (6, 2.63047121053362253917e-01) (7, 5.79515770442172173382e-01) (8, -1.45732992007658129774e-01) (9, -3.69985009189791380635e-01) (0, 6.54232501983642578125e-03) (1, 9.32280576502597137234e-03) (2, 3.68862553963430206405e-02) (3, 1.00297347873516642935e-01) (4, -1.29528015136782981287e+00) (5, 4.43611914213963787201e-01) (6, 1.52947306200620830596e-01) (7, 3.71100154766310086352e-01) (8, -1.43320896155158555851e-01) (9, 9.02285276284662818291e-02) (0, -3.56217101216316223145e-02) (1, -1.48787788674859894344e-01) (2, 1.41615514364593464425e-01) (3, 3.62811800205894152693e-01) (4, -1.46417570479029568453e+00) (5, 1.93756322349535242688e-01) (6, -2.89851379745253434628e-01) (7, 3.92835714612258912748e-01) (8, 1.45239789657601564565e-01) (9, 1.97133650073517074919e-01) (0, -6.43390342593193054199e-02) (1, 1.03288052088782195126e-01) (2, -1.06303032567218652682e-01) (3, -8.94468685979891597881e-01) (4, 2.33644308138903689098e+00) (5, -1.47061239193600118424e-01) (6, 4.97463868378722806618e-01) (7, -1.02047985077022773659e+00) (8, -1.01132825474230469975e-01) (9, -4.58512065576383909260e-01) (0, 9.63916853070259094238e-02) (1, -6.29601628427008286337e-01) (2, 4.70873872447352903592e-01) (3, 5.36486138458568517784e-01) (4, -3.07540038046336983157e+00) (5, 8.16063758536318684111e-02) (6, -5.33827302161165966055e-03) (7, 2.81933132397378161116e-01) (8, 1.10119337239464765155e-01) (9, 1.70899081812374409317e+00) (0, 9.47084277868270874023e-03) (1, 1.09212909759036150281e-01) (2, -6.92123376734303241697e-02) (3, 3.84987641544053682541e-01) (4, -4.78459327674656542673e-01) (5, 1.23088716386217073007e-01) (6, 1.42904126275936634027e-02) (7, 4.84784745631067881533e-01) (8, -4.91646237979412592534e-02) (9, -1.47752106490131179806e-01) (0, 9.39311757683753967285e-02) (1, -4.82060570617990138964e-02) (2, 6.82294273078800916910e-02) (3, 2.83647217547505769986e-01) (4, -3.52040227188491816612e-01) (5, -3.02572445994480597464e-02) (6, -4.87141181704598760782e-02) (7, 1.33213839430035924094e-01) (8, 1.04352861233439647703e-01) (9, -5.80105305709982185802e-02) (0, 5.29423430562019348145e-02) (1, 1.26935510485232716515e-01) (2, -2.15780257172000139443e-01) (3, 4.35740704382623356139e-01) (4, -2.22034427406577306030e-01) (5, 7.31448152912444915508e-01) (6, -2.88552891262626287627e-01) (7, 3.72938256030847570255e-01) (8, 1.31983522587454854547e-01) (9, -4.48385652524303846000e-01) (0, 9.80194434523582458496e-02) (1, -1.96856546990804487374e-01) (2, 1.13306435639230165813e-01) (3, -5.29054036206901945327e-01) (4, 2.00152673176192563709e-01) (5, -2.13542061817768275001e-01) (6, 1.79569595117038349752e-01) (7, -5.41655812062342700841e-01) (8, 1.45463024844052768447e-01) (9, 2.34484159928365437642e-01) (0, 6.35038092732429504395e-02) (1, 1.65392213625439515878e-01) (2, -6.12672314514995375312e-02) (3, 1.60915294894561661243e-01) (4, -8.16693445494235947812e-01) (5, 8.13665404680085968536e-01) (6, 1.29172505192423764386e-01) (7, 4.52979270384216703427e-02) (8, -2.72291966358457933339e-02) (9, -9.39195480513564523450e-02) (0, 8.07873383164405822754e-02) (1, -7.23415485191251372843e-02) (2, 1.17563410376578247885e-01) (3, -4.68640104722514216906e-01) (4, 1.73445958457897830840e+00) (5, -1.03227891737829713392e+00) (6, 2.14322522692930533816e-01) (7, -9.55098811651508422527e-02) (8, -8.33104314766990872165e-02) (9, -1.80070813328995979474e-02) (0, 8.17347839474678039551e-02) (1, 2.73815235776742771368e-01) (2, -3.10655475618774434832e-01) (3, 2.28476428135718306889e-01) (4, 1.11272345980085640704e+00) (5, 4.55853360468073898204e-01) (6, 3.28013204211374198582e-01) (7, -3.39177037747416323943e-02) (8, -1.16427216815528977722e-01) (9, -7.24185944306428575068e-01) (0, -5.15967048704624176025e-02) (1, 1.45801887837671145798e-01) (2, -6.23356595095795468220e-02) (3, 1.00447451036961377113e+00) (4, -1.07279369120341194765e+00) (5, 1.85818364194863816508e+00) (6, -1.97560241761144533834e-02) (7, -1.15405785103032743066e+00) (8, -7.53220720865597492821e-02) (9, -4.01706548848778710603e-01) (0, 9.58891138434410095215e-02) (1, 2.44830229297208906702e-01) (2, -1.01784274663697826835e-01) (3, 8.14179226622743112962e-01) (4, -9.35217759454195718405e-01) (5, 5.03045636686081043543e-01) (6, -5.63496584661831834140e-01) (7, 1.27616849917497643396e+00) (8, 1.89393019236246656911e-01) (9, -4.11220143027448137296e-01) (0, -2.31654196977615356445e-03) (1, -1.00823977986711152410e-01) (2, 3.16647193578825023041e-02) (3, -6.72034707396407249291e-01) (4, -1.49901734691648552689e-01) (5, 5.89239598476735015886e-01) (6, -1.68354971365134248318e-01) (7, -7.94724966433933754928e-01) (8, -1.67839441818610601853e-01) (9, 4.51348398873525791242e-01) (0, 8.38530138134956359863e-02) (1, 6.12585165564752259781e-02) (2, -1.54062836875429015615e-01) (3, -4.45906007916122781864e-01) (4, 1.87942255685386605535e+00) (5, -1.84837267242530217670e-01) (6, -3.30954481471195105513e-02) (7, -5.21422192923270411136e-01) (8, 4.10614483574471486604e-02) (9, -3.00276806817768748825e-01) (0, -9.03440192341804504395e-02) (1, 4.15544652980171028145e-02) (2, 3.81185158775760148456e-03) (3, 3.10901889359688876624e-01) (4, 1.30905078289980519868e-01) (5, -6.03251387041941589118e-01) (6, 3.14666113133678482239e-01) (7, 2.35872621924200748245e-01) (8, 4.37966028090412545781e-02) (9, -1.04648499201142677895e-01) (0, 3.84566858410835266113e-02) (1, 2.18217912355880061526e-01) (2, -1.95223341166831682036e-01) (3, 2.94471366723806493582e+00) (4, -3.49394291622662889196e+00) (5, 9.97863436308139672981e-01) (6, 1.62268702918520024703e-01) (7, -5.18547017597233428354e-01) (8, -3.70672952729625276858e-02) (9, -5.36739744344849500912e-01) (0, -6.09787218272686004639e-02) (1, -7.05205035589548112629e-02) (2, 6.64551375346376510533e-02) (3, 7.70765267416548716106e-01) (4, -2.66423889870088359544e+00) (5, 1.23312384356655924122e+00) (6, 4.82142818662095018478e-01) (7, -5.94500002873785127200e-01) (8, 1.89517803492600056536e-01) (9, 2.46589741950874657972e-01) (0, -5.03387860953807830811e-02) (1, 2.02116864357301195820e-01) (2, -3.30381090482351029436e-03) (3, 1.79741641409636332405e-01) (4, 1.16148248678849388971e-01) (5, 4.66955675038937756405e-01) (6, -3.19450766396080013121e-02) (7, -1.77121266509673719325e-02) (8, 6.03365920340064101901e-02) (9, -2.82987030679638373876e-01) (0, 7.05284848809242248535e-02) (1, 1.53986189165659204114e-01) (2, -1.05861001386471101360e-01) (3, 2.15047024429809691126e-01) (4, -6.26910286492448953766e-01) (5, 7.43023670174541628342e-01) (6, -3.03732358771951690968e-02) (7, 2.38777349795602861215e-01) (8, -1.58661905634980893165e-01) (9, -1.38824720926512518160e-01) (0, 5.36289140582084655762e-02) (1, 3.36090258032002917044e-02) (2, -3.26265809140982923631e-02) (3, -4.05313800878765950753e-01) (4, 8.73997664164097964878e-01) (5, -2.49241432487335740076e-01) (6, 2.53012451118635184333e-01) (7, -4.48806094650027742610e-01) (8, -8.42232454975177791123e-02) (9, 7.07555360421402435023e-02) (0, 6.28381446003913879395e-02) (1, -1.90132575175433304882e-01) (2, 1.55463102767482291844e-02) (3, -4.40975670180317053104e-02) (4, 2.23600393327143071032e-01) (5, -9.72099389798412483188e-01) (6, -1.20033843569165771248e-01) (7, 1.08824348287619596110e-01) (8, 1.28484360778626655053e-01) (9, 2.63645292424439570134e-01) (0, -5.67223764955997467041e-02) (1, 3.83388225582107708411e-02) (2, 2.83977576087069763511e-02) (3, 1.40878504846105512271e+00) (4, -2.94375483039418606168e+00) (5, 1.30565815772894455726e+00) (6, 3.81181809501553003905e-01) (7, -6.79315922503787916753e-01) (8, -1.01263809853753800061e-01) (9, 1.29137414359446589529e-01) (0, -2.04846635460853576660e-02) (1, 2.83116102619804382856e-02) (2, -7.62398410889174038552e-02) (3, -2.87003376411703925442e-01) (4, 1.47216076196029876932e+00) (5, -3.81061667734427511611e-01) (6, 2.63833238610174991567e-01) (7, -5.26246355381629671299e-01) (8, -1.39493614014740141549e-01) (9, -7.35580661405750152460e-02) (0, -5.11834807693958282471e-02) (1, -3.53603765962792859767e-01) (2, 2.29405766798790100580e-01) (3, -2.40049890447112579395e+00) (4, 1.58626048146269571504e+00) (5, -1.37566025759278875995e+00) (6, 3.62717080132142141724e-02) (7, 1.83105692015313903376e-01) (8, 1.84698123909145861532e-01) (9, 1.05692671015473127483e+00) (0, -4.71271649003028869629e-02) (1, 1.63154926585175712173e-02) (2, -1.10339499042153739981e-04) (3, -1.58615560639782077201e-01) (4, -3.36176436960685942612e-01) (5, -1.41492754018572641783e-01) (6, 7.42738346208322575137e-01) (7, -1.05626635981773409068e-01) (8, -2.19544395873381231743e-01) (9, 1.26897466260320640474e-01) (0, -1.09825283288955688477e-02) (1, 1.01765041546093819996e-02) (2, 8.12587276104107802954e-02) (3, 1.89194342672395349192e-01) (4, -1.35636366211998082854e+00) (5, 7.83163394068072560295e-01) (6, -3.49621925749674655748e-01) (7, 1.43551766859302376567e-01) (8, 2.02821525304493904818e-02) (9, 1.07928427558131909136e-01) (0, -5.23995049297809600830e-02) (1, -1.12329798991284549037e-01) (2, 1.04778405692254120152e-01) (3, -9.39206290544995769931e-02) (4, -1.20722670062046344430e-01) (5, -7.20175128076115278475e-01) (6, -2.03333937591930108413e-01) (7, -7.21288885391016959536e-02) (8, 2.33335858093928011359e-01) (9, 3.93840935217380172517e-01) (0, 2.93120741844177246094e-04) (1, -5.38072025046946733617e-01) (2, 4.32663209934384396238e-01) (3, -1.25912214231204555581e+00) (4, -1.08228150931154853964e+00) (5, -1.20403618909156318040e+00) (6, 4.75477765176004818493e-01) (7, -3.05602002924311333398e-01) (8, -2.09871524211637627833e-01) (9, 1.26124072637654016660e+00) (0, -2.53666788339614868164e-02) (1, 1.72414094358591896139e-01) (2, -1.86935978121990559186e-01) (3, -2.45066455666322430273e-01) (4, 1.01114362897076381920e+00) (5, 6.83767298474134976871e-01) (6, 1.67033027650166532307e-01) (7, -5.18060680030934195273e-01) (8, -2.27791381753330385296e-01) (9, -3.84999167546280551822e-01) (0, -8.52207839488983154297e-03) (1, -1.97843375188568731948e-01) (2, 5.66944851595757928764e-02) (3, -3.09611935702775453727e-01) (4, -5.35554856387618016811e-01) (5, 5.61798342068499434454e-01) (6, 4.62488662159750540948e-01) (7, -5.36224465054792154284e-01) (8, -4.25266942566121575187e-01) (9, 2.41378525601078086638e-01) (0, 7.22008943557739257812e-03) (1, -1.95470368572884661829e-02) (2, -3.30191000767924916492e-02) (3, 2.43390953199555504227e-01) (4, -1.40795047371727988228e-01) (5, 2.93513934197461509590e-02) (6, -3.72785894598196443361e-01) (7, 5.06102895156692045298e-01) (8, 1.92206734771945275675e-01) (9, -2.24927718264709891605e-01) (0, 9.56688076257705688477e-03) (1, -2.28290313099553443532e-01) (2, 3.04395758446038944278e-01) (3, 3.29817789655004023341e-01) (4, -3.43896785455922504582e+00) (5, 8.85530777703857574501e-01) (6, -6.27212891733177957398e-01) (7, -7.81947101763672103303e-01) (8, 3.28043940019436985889e-01) (9, 7.14288632359820208073e-01) (0, -1.79515033960342407227e-02) (1, -3.35035707063880749956e-01) (2, 1.69146135827461657763e-01) (3, -6.81072013484262273053e-01) (4, -3.60977082163770446321e-01) (5, -1.25736266979654986997e+00) (6, 2.70122486322455834795e-01) (7, 3.44168962117287619007e-02) (8, 3.99050544400094721331e-03) (9, 7.94180143642789437841e-01) (0, 9.10162553191184997559e-02) (1, -3.87092389840961281777e-01) (2, 3.35251007735050343683e-01) (3, -1.81205339868265613568e+00) (4, 6.23121891606216116166e-01) (5, -1.66892051181207867749e+00) (6, 2.22292153820915300289e-01) (7, 9.96404338539390366236e-01) (8, -6.48430634200275191059e-02) (9, 1.10305580665438984767e+00) (0, 3.53288426995277404785e-02) (1, -1.65704431461153947613e-02) (2, 1.34375312725190126928e-01) (3, -1.38393918094021073362e-01) (4, -6.07614041885920053154e-01) (5, -1.31584594453850484141e-01) (6, 4.22249386957463113124e-02) (7, 8.02157431796210185215e-02) (8, 5.36313384981174957888e-03) (9, 2.89175246488823201041e-01) (0, -6.52777552604675292969e-02) (1, 2.72213933292448917456e-01) (2, -7.11592174496146756546e-02) (3, -4.59516839963071521691e-01) (4, 1.24376703158136892036e+00) (5, 8.46020150599957609927e-01) (6, 3.49697491375333346930e-01) (7, -1.12093849930530953252e+00) (8, -6.74865629040003328631e-02) (9, -4.06251137265213668748e-01) (0, -3.08256074786186218262e-02) (1, 2.21504009492170028661e-01) (2, -8.36891935966909694677e-02) (3, 3.20445242023264853515e-01) (4, -5.11665387751157219043e-01) (5, 7.56654341774778305130e-01) (6, -2.84449425616584372634e-01) (7, 4.76011825596910242986e-01) (8, -1.64471940068776911748e-02) (9, -2.99248931872362622375e-01) (0, 3.40612977743148803711e-03) (1, -1.42561729217627851385e-02) (2, 8.13929017979648644632e-02) (3, -3.04911382639287353857e-01) (4, 9.93211001280395466839e-02) (5, 6.09797541230109430010e-01) (6, -2.37799957936747241583e-01) (7, -3.66254255459753319535e-01) (8, -1.91393989674891462638e-01) (9, 8.42614609661361535498e-02) (0, -5.45822791755199432373e-02) (1, -3.04710978974838786471e-01) (2, 2.56205597676216256797e-01) (3, -8.18574258345914018697e-01) (4, -1.13374061873615072926e+00) (5, -1.74410075279964493777e-01) (6, 2.46329601421575450360e-01) (7, -5.94304306284518690795e-01) (8, -8.33376854329634896013e-03) (9, 8.77138903264892522138e-01) (0, 9.93360951542854309082e-02) (1, -5.27459796247077505882e-01) (2, 2.84785152209955261249e-01) (3, -1.41635399892944213729e-01) (4, -2.23150685295667328134e+00) (5, -3.07944223030659935958e-01) (6, 2.40117820925189795478e-01) (7, 2.43538084708755014907e-01) (8, -1.42234476668970794000e-01) (9, 1.05659828826167845328e+00) (0, -4.35965731739997863770e-02) (1, -2.31597462081910222993e-05) (2, 9.91940877317495639520e-02) (3, 1.24829992257542501943e-01) (4, -9.66988998849674152858e-01) (5, 4.39360080806929009789e-01) (6, -5.99835431048482137228e-01) (7, 4.05494975577019634017e-01) (8, -2.04691733061987929387e-01) (9, 1.64037262061940275482e-01) (0, 7.05061033368110656738e-02) (1, -2.12113426683906119985e-01) (2, 1.01224552138574952487e-01) (3, 7.51462251009857529205e-01) (4, -2.42499613871963948242e+00) (5, 1.08734359428509216872e-01) (6, -1.69178200951077356562e-01) (7, 8.26886924588124405666e-01) (8, 1.47064155963496479007e-01) (9, 5.48836112167749634594e-01) (0, 1.28342956304550170898e-02) (1, 2.84713095505884916658e-02) (2, -1.12763700900945895711e-01) (3, 2.51202410059145286869e-01) (4, -1.37203464156326754297e-01) (5, -1.89819973699492910990e-01) (6, 1.27307103789610440853e-02) (7, 2.17253323006461968037e-01) (8, 2.62963483501009565035e-01) (9, -1.25866662358244230102e-01) (0, -6.49064481258392333984e-02) (1, 1.17526114519025930844e-02) (2, -1.11102208894149588614e-02) (3, 1.58098310643362682804e+00) (4, -2.36931227775438202343e+00) (5, 7.39047666762104649152e-01) (6, 1.26930602089516175734e-01) (7, 4.60158385708183848006e-01) (8, -2.45538011300729552833e-01) (9, -3.19886483385023068227e-01) (0, -8.43107551336288452148e-02) (1, 5.05943311498836742479e-02) (2, -3.61325191890071936718e-02) (3, 3.78986866671904773507e-02) (4, 7.23028728123662145499e-01) (5, -1.41041770956037232354e-01) (6, -1.35801685035098040899e-01) (7, 4.65347627559130685992e-02) (8, 1.76948408182007549394e-01) (9, -2.89534631681021836780e-01) (0, 6.51035234332084655762e-02) (1, -9.99039462083804313819e-02) (2, 1.27891317075018939864e-01) (3, -3.98761075521554264611e-01) (4, 2.49187416483275636647e-01) (5, -6.64962915463954574308e-03) (6, 2.14983115366338017882e-01) (7, -4.13380767978816121566e-01) (8, -1.33026425233401524029e-01) (9, 1.36536480455098918618e-01) (0, 7.71814584732055664062e-03) (1, -1.15050823734474422233e-01) (2, 1.09424366612960094480e-01) (3, -9.16748303604235648123e-01) (4, 1.15359035775718599126e+00) (5, -1.13515169195711207450e+00) (6, -1.92599836048926165155e-02) (7, -2.38333390908016362619e-01) (8, 1.21017908475727270501e-01) (9, 5.32144463922408106349e-01) (0, 3.44053655862808227539e-03) (1, -2.02862589350319526271e-02) (2, 3.70198520862277877241e-02) (3, -1.84778200320217328434e-01) (4, -1.38561012708105585345e-01) (5, 2.20591659391202704610e-01) (6, 3.38537060854126103937e-01) (7, -2.85336448156168820400e-01) (8, -8.78447783263246358143e-03) (9, 1.35086809076077046105e-02) (0, -1.11993625760078430176e-02) (1, 3.01900032451278110823e-01) (2, -2.72998802952857444470e-01) (3, 8.00130897364790372173e-01) (4, -5.18409095062785540975e-01) (5, 1.18424865245292143534e+00) (6, -5.00818308880432661034e-01) (7, 5.20007480750160122618e-01) (8, 1.34330655476844140761e-01) (9, -6.11464236653349257899e-01) (0, -3.19217070937156677246e-02) (1, -3.90851132144917276512e-02) (2, 7.24212458037339218420e-02) (3, 1.84409605175957558298e-01) (4, -1.53905030768638462213e+00) (5, 3.81929640680404136610e-01) (6, -2.32008640028874973948e-01) (7, 5.84525340514440161499e-01) (8, 2.08481752769306888373e-01) (9, 6.44147860682478395900e-02) (0, 5.52554950118064880371e-02) (1, 7.53410752612955203489e-02) (2, -3.34761605410572801733e-02) (3, -2.24731785195178557224e-01) (4, 4.45843713097575589099e-01) (5, 6.28451681930392025421e-01) (6, 6.11520905297463154837e-02) (7, -3.67873902394534268989e-01) (8, -9.96543982775005138253e-02) (9, -2.08745757986629254521e-01) (0, -1.94791331887245178223e-02) (1, 1.47716255166329465259e-02) (2, -8.83942098303614059995e-02) (3, -1.21844108433998149499e-01) (4, 1.18275596883895128819e+00) (5, -2.78304979163995880320e-01) (6, -1.20988601927352765197e-01) (7, -3.83228893169919759831e-01) (8, -6.77618365758126117715e-02) (9, -2.25898402874793874373e-02) (0, -1.09288915991783142090e-02) (1, -2.94759278464312574064e-02) (2, -2.66036629700520423081e-02) (3, 2.02078300531357391012e-01) (4, -9.57731379433515939148e-01) (5, 6.79581570469741769180e-01) (6, -6.86842977780918323427e-02) (7, -6.19664698792013676765e-02) (8, -1.50952767834518376128e-02) (9, 5.33011679768819468528e-02) (0, -1.68957859277725219727e-02) (1, -1.45795811816843756681e-01) (2, -3.49299500846646931995e-02) (3, -2.94657446419185675701e-01) (4, 1.07859932422654036799e+00) (5, -7.31665595205402197188e-01) (6, -4.59250159146580017033e-01) (7, 5.66331546469272650163e-03) (8, 1.17805178612115826753e-01) (9, 1.00823041311973213285e-01) (0, 5.60699775815010070801e-02) (1, 6.32631620419496082386e-02) (2, 2.12749491890905084723e-02) (3, -2.74353132110510433694e-01) (4, 1.65613002047065194233e-01) (5, 2.71353637379751377878e-01) (6, -1.88525024976495342299e-01) (7, -4.43935875283579861605e-01) (8, 1.43738656078767040869e-01) (9, 1.34371391025080472170e-01) (0, -8.25998634099960327148e-02) (1, 1.35857970324645804805e-01) (2, -1.44303702419572132953e-01) (3, 2.51610058617031395745e-01) (4, 9.81042848462616245975e-01) (5, -3.32421538899450239035e-02) (6, -6.34267846032926629896e-01) (7, 3.33707673987342356980e-02) (8, 3.62813947999137964562e-01) (9, -3.24089223661586323111e-01) (0, 6.01224228739738464355e-02) (1, 2.16170667918286829590e+00) (2, -1.64970355899446974313e+00) (3, 1.12860143056018351615e+01) (4, -5.83703396510893224303e+00) (5, 4.61072706851084834767e+00) (6, 1.29243424849853738579e+00) (7, -1.48377406993611948849e+00) (8, 5.77828394914980614239e-01) (9, -5.24697209675373876792e+00) (0, -3.42012494802474975586e-02) (1, 9.24851714698519122848e-02) (2, -1.20793327251647764076e-01) (3, 6.26865035051551444667e-01) (4, -1.08316119945978539540e+00) (5, 2.16929854242301600742e-01) (6, -1.98133418956737916705e-01) (7, 1.09703514239687716092e+00) (8, -5.73511874956826074590e-03) (9, -2.18286487988640170999e-01) (0, 9.90489870309829711914e-03) (1, 2.22105573348986645721e-01) (2, -1.30350458050289080836e-01) (3, 1.19130754205373667887e+00) (4, -1.62056271765483761449e+00) (5, 9.14673072451750668321e-01) (6, -1.13214609274646202386e-01) (7, 3.89046783354622560669e-01) (8, -1.50755543031226957318e-01) (9, -2.90826872569114436295e-01) (0, 5.36277815699577331543e-02) (1, 2.13618258568012475695e-01) (2, -3.30390799287000463957e-02) (3, 4.87149086961470023649e-01) (4, -3.69165838507322319195e-01) (5, 4.60023039877543393761e-01) (6, -9.02112237000666783437e-02) (7, 5.44206527977050713574e-01) (8, -7.85546606322621299157e-02) (9, -3.50477567395519273852e-01) (0, 3.28120365738868713379e-02) (1, -7.22228995775075210961e-02) (2, -5.02656465906516566888e-02) (3, 1.44116918454556031115e+00) (4, -3.20491613806832287281e+00) (5, 6.82583250364534932508e-01) (6, 1.41215537961420917190e-01) (7, 8.29097294616643054610e-02) (8, 4.01748476585292446650e-02) (9, 1.14595646199695030271e-02) (0, -2.66954302787780761719e-02) (1, 2.32973249103240936941e-01) (2, -3.01379217547804584276e-02) (3, 2.29364354995685804095e-01) (4, 1.13253335368654006743e+00) (5, -6.02819307547529215086e-01) (6, 1.87750720625807568376e-02) (7, 1.40476771158854124577e-01) (8, 1.36280006863366331959e-01) (9, -3.21993745480204263121e-01) (0, -8.26075375080108642578e-02) (1, -5.24659145144977454023e-02) (2, 1.31533742939511921755e-01) (3, 6.99755153778643529394e-02) (4, -1.24663201776277143829e+00) (5, -7.48074274597098493045e-02) (6, -1.05825408766575299047e-01) (7, 2.22556055970632410412e-01) (8, 2.54121633378664835146e-01) (9, 3.45623657919004678707e-01) (0, -7.97902792692184448242e-03) (1, -2.23338540599277201107e-03) (2, -5.85807920530009573756e-02) (3, 1.02742389902219288800e-01) (4, -1.19057619207539833184e+00) (5, 7.44348479105745086670e-01) (6, 8.56362328518680410161e-02) (7, 4.18177110045664379712e-02) (8, -1.17065717773918151479e-01) (9, 1.10155107731731566334e-01) (0, 3.88507172465324401855e-02) (1, 2.09176536583021044358e-01) (2, -2.13712657752044316029e-01) (3, 5.95626853668631772720e-01) (4, 1.16874649035118460816e+00) (5, 9.02343755099571653844e-01) (6, -6.42874849710381890411e-01) (7, -4.33491820010742989755e-01) (8, 5.05504472126845794122e-01) (9, -6.90390394834357601361e-01) (0, -4.58998195827007293701e-02) (1, -8.26990987066592297960e-02) (2, 1.34647530332489662186e-01) (3, -3.31850666990054360417e-02) (4, -1.40545370807172415040e-01) (5, -1.00179896720394245868e+00) (6, 2.77518422203854753239e-01) (7, 5.31892936311205294375e-02) (8, 1.69527708320020537025e-01) (9, 3.01258514375494668158e-01) (0, -7.72511065006256103516e-02) (1, -8.72024942933109642462e-02) (2, 3.89863121881046451045e-02) (3, -1.45655000114786159493e-01) (4, -1.19993944744536437663e-01) (5, -8.10014169241311976499e-01) (6, 5.41104435998969623967e-01) (7, 2.42037148782264302516e-02) (8, -2.08308613397976849502e-01) (9, 3.36148188635309097538e-01) (0, -1.28861218690872192383e-02) (1, 7.58423862866594994392e-02) (2, -7.26997243622050925982e-02) (3, 2.74624291299946754474e-01) (4, -6.08772646902862923923e-01) (5, 3.83860140491448287303e-01) (6, -4.80608849194486487111e-01) (7, 7.15602187834831537927e-01) (8, -1.88899321589834440216e-01) (9, -1.20135966194644880356e-01) (0, -7.29402601718902587891e-02) (1, 6.76920123825624775460e-02) (2, 3.22207113407304499009e-02) (3, 1.74062193944468257545e-01) (4, -9.09009505455836919197e-01) (5, 1.65370005748861514938e-01) (6, 1.43315321894016411974e-01) (7, 3.06533003045414809140e-01) (8, 2.50755142221900484412e-01) (9, -5.13784867849009438401e-02) (0, 2.52078846096992492676e-02) (1, -4.76898630511024285844e-03) (2, 4.72271787379213506264e-02) (3, 6.71129968766347034803e-02) (4, -1.35151624233192463320e-01) (5, -5.61685842127131129686e-01) (6, -1.20059915410772086175e-01) (7, 3.26830227241246829006e-01) (8, 8.65069972366995926238e-02) (9, 1.53460821262343949378e-01) (0, 5.22354766726493835449e-02) (1, 1.26414073190679238090e-01) (2, -2.33385872231153146394e-01) (3, 9.37954978364316072081e-01) (4, -9.74304410348413196807e-01) (5, 1.09457940549877386083e+00) (6, 7.96633202677494295374e-02) (7, 2.41447706429845670995e-01) (8, -1.33378681834397883055e-01) (9, -5.65393624657471671746e-01) (0, 1.48326605558395385742e-02) (1, 4.05322316365779145020e-01) (2, -3.26930292380800457952e-01) (3, -1.15851101284099311517e-01) (4, 2.55280989167578065135e+00) (5, -8.99876877220644910693e-01) (6, 1.11538943396795511148e-02) (7, 7.79841756245521766644e-01) (8, 3.32267442165253869268e-03) (9, -7.92344723088719393722e-01) (0, 1.16003528237342834473e-02) (1, 7.71789762742550178309e-02) (2, -8.99023106967861834748e-02) (3, -5.75366444428401568878e-01) (4, 1.10211703102641123131e+00) (5, 3.75073738828576919158e-01) (6, 5.61731090075747063750e-01) (7, -1.03270802003754669229e+00) (8, -1.16985764418057733294e-01) (9, -1.76222992034564929220e-01) (0, 5.14002516865730285645e-02) (1, 7.55886614141795948330e-02) (2, -5.34319913521676386620e-03) (3, 1.86934035492375055787e-01) (4, 4.16904549079290032143e-01) (5, -4.16618018713875715164e-01) (6, 1.07975431117831574546e-01) (7, 