FANN_FLO_2.1
num_layers=3
learning_rate=0.000050
connection_rate=1.000000
network_type=0
learning_momentum=0.000000
training_algorithm=2
train_error_function=1
train_stop_function=0
cascade_output_change_fraction=0.010000
quickprop_decay=-0.000100
quickprop_mu=1.750000
rprop_increase_factor=1.200000
rprop_decrease_factor=0.500000
rprop_delta_min=0.000000
rprop_delta_max=50.000000
rprop_delta_zero=0.100000
cascade_output_stagnation_epochs=12
cascade_candidate_change_fraction=0.010000
cascade_candidate_stagnation_epochs=12
cascade_max_out_epochs=150
cascade_max_cand_epochs=150
cascade_num_candidate_groups=2
bit_fail_limit=3.49999999999999977796e-01
cascade_candidate_limit=1.00000000000000000000e+03
cascade_weight_multiplier=4.00000000000000022204e-01
cascade_activation_functions_count=10
cascade_activation_functions=3 5 7 8 10 11 14 15 16 17 
cascade_activation_steepnesses_count=4
cascade_activation_steepnesses=2.50000000000000000000e-01 5.00000000000000000000e-01 7.50000000000000000000e-01 1.00000000000000000000e+00 
layer_sizes=10 501 2 
scale_included=0
neurons (num_inputs, activation_function, activation_steepness)=(0, 0, 0.00000000000000000000e+00) (0, 0, 0.00000000000000000000e+00) (0, 0, 0.00000000000000000000e+00) (0, 0, 0.00000000000000000000e+00) (0, 0, 0.00000000000000000000e+00) (0, 0, 0.00000000000000000000e+00) (0, 0, 0.00000000000000000000e+00) (0, 0, 0.00000000000000000000e+00) (0, 0, 0.00000000000000000000e+00) (0, 0, 0.00000000000000000000e+00) (10, 5, 5.00000000000000000000e-01) (10, 5, 5.00000000000000000000e-01) (10, 5, 5.00000000000000000000e-01) (10, 5, 5.00000000000000000000e-01) (10, 5, 5.00000000000000000000e-01) (10, 5, 5.00000000000000000000e-01) (10, 5, 5.00000000000000000000e-01) (10, 5, 5.00000000000000000000e-01) (10, 5, 5.00000000000000000000e-01) (10, 5, 5.00000000000000000000e-01) (10, 5, 5.00000000000000000000e-01) (10, 5, 5.00000000000000000000e-01) (10, 5, 5.00000000000000000000e-01) (10, 5, 5.00000000000000000000e-01) (10, 5, 5.00000000000000000000e-01) (10, 5, 5.00000000000000000000e-01) (10, 5, 5.00000000000000000000e-01) (10, 5, 5.00000000000000000000e-01) (10, 5, 5.00000000000000000000e-01) (10, 5, 5.00000000000000000000e-01) (10, 5, 5.00000000000000000000e-01) (10, 5, 5.00000000000000000000e-01) (10, 5, 5.00000000000000000000e-01) (10, 5, 5.00000000000000000000e-01) (10, 5, 5.00000000000000000000e-01) (10, 5, 5.00000000000000000000e-01) (10, 5, 5.00000000000000000000e-01) (10, 5, 5.00000000000000000000e-01) (10, 5, 5.00000000000000000000e-01) (10, 5, 5.00000000000000000000e-01) (10, 5, 5.00000000000000000000e-01) (10, 5, 5.00000000000000000000e-01) (10, 5, 5.00000000000000000000e-01) (10, 5, 5.00000000000000000000e-01) (10, 5, 5.00000000000000000000e-01) (10, 5, 5.00000000000000000000e-01) (10, 5, 5.00000000000000000000e-01) (10, 5, 5.00000000000000000000e-01) (10, 5, 5.00000000000000000000e-01) (10, 5, 5.00000000000000000000e-01) (10, 5, 5.00000000000000000000e-01) (10, 5, 5.00000000000000000000e-01) (10, 5, 5.00000000000000000000e-01) (10, 5, 5.00000000000000000000e-01) (10, 5, 5.00000000000000000000e-01) (10, 5, 5.00000000000000000000e-01) (10, 5, 5.00000000000000000000e-01) (10, 5, 5.00000000000000000000e-01) (10, 5, 5.00000000000000000000e-01) (10, 5, 5.00000000000000000000e-01) (10, 5, 5.00000000000000000000e-01) (10, 5, 5.00000000000000000000e-01) (10, 5, 5.00000000000000000000e-01) (10, 5, 5.00000000000000000000e-01) (10, 5, 5.00000000000000000000e-01) (10, 5, 5.00000000000000000000e-01) (10, 5, 5.00000000000000000000e-01) (10, 5, 5.00000000000000000000e-01) (10, 5, 5.00000000000000000000e-01) (10, 5, 5.00000000000000000000e-01) (10, 5, 5.00000000000000000000e-01) (10, 5, 5.00000000000000000000e-01) (10, 5, 5.00000000000000000000e-01) (10, 5, 5.00000000000000000000e-01) (10, 5, 5.00000000000000000000e-01) (10, 5, 5.00000000000000000000e-01) (10, 5, 5.00000000000000000000e-01) (10, 5, 5.00000000000000000000e-01) (10, 5, 5.00000000000000000000e-01) (10, 5, 5.00000000000000000000e-01) (10, 5, 5.00000000000000000000e-01) (10, 5, 5.00000000000000000000e-01) (10, 5, 5.00000000000000000000e-01) (10, 5, 5.00000000000000000000e-01) (10, 5, 5.00000000000000000000e-01) (10, 5, 5.00000000000000000000e-01) (10, 5, 5.00000000000000000000e-01) (10, 5, 5.00000000000000000000e-01) (10, 5, 5.00000000000000000000e-01) (10, 5, 5.00000000000000000000e-01) (10, 5, 5.00000000000000000000e-01) (10, 5, 5.00000000000000000000e-01) (10, 5, 5.00000000000000000000e-01) (10, 5, 5.00000000000000000000e-01) (10, 5, 5.00000000000000000000e-01) (10, 5, 5.00000000000000000000e-01) (10, 5, 5.00000000000000000000e-01) (10, 5, 5.00000000000000000000e-01) (10, 5, 5.00000000000000000000e-01) (10, 5, 5.00000000000000000000e-01) (10, 5, 5.00000000000000000000e-01) (10, 5, 5.00000000000000000000e-01) (10, 5, 5.00000000000000000000e-01) (10, 5, 5.00000000000000000000e-01) (10, 5, 5.00000000000000000000e-01) (10, 5, 5.00000000000000000000e-01) (10, 5, 5.00000000000000000000e-01) (10, 5, 5.00000000000000000000e-01) (10, 5, 5.00000000000000000000e-01) (10, 5, 5.00000000000000000000e-01) (10, 5, 5.00000000000000000000e-01) (10, 5, 5.00000000000000000000e-01) (10, 5, 5.00000000000000000000e-01) (10, 5, 5.00000000000000000000e-01) (10, 5, 5.00000000000000000000e-01) (10, 5, 5.00000000000000000000e-01) (10, 5, 5.00000000000000000000e-01) (10, 5, 5.00000000000000000000e-01) (10, 5, 5.00000000000000000000e-01) (10, 5, 5.00000000000000000000e-01) (10, 5, 5.00000000000000000000e-01) (10, 5, 5.00000000000000000000e-01) (10, 5, 5.00000000000000000000e-01) (10, 5, 5.00000000000000000000e-01) (10, 5, 5.00000000000000000000e-01) (10, 5, 5.00000000000000000000e-01) (10, 5, 5.00000000000000000000e-01) (10, 5, 5.00000000000000000000e-01) (10, 5, 5.00000000000000000000e-01) (10, 5, 5.00000000000000000000e-01) (10, 5, 5.00000000000000000000e-01) (10, 5, 5.00000000000000000000e-01) (10, 5, 5.00000000000000000000e-01) (10, 5, 5.00000000000000000000e-01) (10, 5, 5.00000000000000000000e-01) (10, 5, 5.00000000000000000000e-01) (10, 5, 5.00000000000000000000e-01) (10, 5, 5.00000000000000000000e-01) (10, 5, 5.00000000000000000000e-01) (10, 5, 5.00000000000000000000e-01) (10, 5, 5.00000000000000000000e-01) (10, 5, 5.00000000000000000000e-01) (10, 5, 5.00000000000000000000e-01) (10, 5, 5.00000000000000000000e-01) (10, 5, 5.00000000000000000000e-01) (10, 5, 5.00000000000000000000e-01) (10, 5, 5.00000000000000000000e-01) (10, 5, 5.00000000000000000000e-01) (10, 5, 5.00000000000000000000e-01) (10, 5, 5.00000000000000000000e-01) (10, 5, 5.00000000000000000000e-01) (10, 5, 5.00000000000000000000e-01) (10, 5, 5.00000000000000000000e-01) (10, 5, 5.00000000000000000000e-01) (10, 5, 5.00000000000000000000e-01) (10, 5, 5.00000000000000000000e-01) (10, 5, 5.00000000000000000000e-01) (10, 5, 5.00000000000000000000e-01) (10, 5, 5.00000000000000000000e-01) (10, 5, 5.00000000000000000000e-01) (10, 5, 5.00000000000000000000e-01) (10, 5, 5.00000000000000000000e-01) (10, 5, 5.00000000000000000000e-01) (10, 5, 5.00000000000000000000e-01) (10, 5, 5.00000000000000000000e-01) (10, 5, 5.00000000000000000000e-01) (10, 5, 5.00000000000000000000e-01) (10, 5, 5.00000000000000000000e-01) (10, 5, 5.00000000000000000000e-01) (10, 5, 5.00000000000000000000e-01) (10, 5, 5.00000000000000000000e-01) (10, 5, 5.00000000000000000000e-01) (10, 5, 5.00000000000000000000e-01) (10, 5, 5.00000000000000000000e-01) (10, 5, 5.00000000000000000000e-01) (10, 5, 5.00000000000000000000e-01) (10, 5, 5.00000000000000000000e-01) (10, 5, 5.00000000000000000000e-01) (10, 5, 5.00000000000000000000e-01) (10, 5, 5.00000000000000000000e-01) (10, 5, 5.00000000000000000000e-01) (10, 5, 5.00000000000000000000e-01) (10, 5, 5.00000000000000000000e-01) (10, 5, 5.00000000000000000000e-01) (10, 5, 5.00000000000000000000e-01) (10, 5, 5.00000000000000000000e-01) (10, 5, 5.00000000000000000000e-01) (10, 5, 5.00000000000000000000e-01) (10, 5, 5.00000000000000000000e-01) (10, 5, 5.00000000000000000000e-01) (10, 5, 5.00000000000000000000e-01) (10, 5, 5.00000000000000000000e-01) (10, 5, 5.00000000000000000000e-01) (10, 5, 5.00000000000000000000e-01) (10, 5, 5.00000000000000000000e-01) (10, 5, 5.00000000000000000000e-01) (10, 5, 5.00000000000000000000e-01) (10, 5, 5.00000000000000000000e-01) (10, 5, 5.00000000000000000000e-01) (10, 5, 5.00000000000000000000e-01) (10, 5, 5.00000000000000000000e-01) (10, 5, 5.00000000000000000000e-01) (10, 5, 5.00000000000000000000e-01) (10, 5, 5.00000000000000000000e-01) (10, 5, 5.00000000000000000000e-01) (10, 5, 5.00000000000000000000e-01) (10, 5, 5.00000000000000000000e-01) (10, 5, 5.00000000000000000000e-01) (10, 5, 5.00000000000000000000e-01) (10, 5, 5.00000000000000000000e-01) (10, 5, 5.00000000000000000000e-01) (10, 5, 5.00000000000000000000e-01) (10, 5, 5.00000000000000000000e-01) (10, 5, 5.00000000000000000000e-01) (10, 5, 5.00000000000000000000e-01) (10, 5, 5.00000000000000000000e-01) (10, 5, 5.00000000000000000000e-01) (10, 5, 5.00000000000000000000e-01) (10, 5, 5.00000000000000000000e-01) (10, 5, 5.00000000000000000000e-01) (10, 5, 5.00000000000000000000e-01) (10, 5, 5.00000000000000000000e-01) (10, 5, 5.00000000000000000000e-01) (10, 5, 5.00000000000000000000e-01) (10, 5, 5.00000000000000000000e-01) (10, 5, 5.00000000000000000000e-01) (10, 5, 5.00000000000000000000e-01) (10, 5, 5.00000000000000000000e-01) (10, 5, 5.00000000000000000000e-01) (10, 5, 5.00000000000000000000e-01) (10, 5, 5.00000000000000000000e-01) (10, 5, 5.00000000000000000000e-01) (10, 5, 5.00000000000000000000e-01) (10, 5, 5.00000000000000000000e-01) (10, 5, 5.00000000000000000000e-01) (10, 5, 5.00000000000000000000e-01) (10, 5, 5.00000000000000000000e-01) (10, 5, 5.00000000000000000000e-01) (10, 5, 5.00000000000000000000e-01) (10, 5, 5.00000000000000000000e-01) (10, 5, 5.00000000000000000000e-01) (10, 5, 5.00000000000000000000e-01) (10, 5, 5.00000000000000000000e-01) (10, 5, 5.00000000000000000000e-01) (10, 5, 5.00000000000000000000e-01) (10, 5, 5.00000000000000000000e-01) (10, 5, 5.00000000000000000000e-01) (10, 5, 5.00000000000000000000e-01) (10, 5, 5.00000000000000000000e-01) (10, 5, 5.00000000000000000000e-01) (10, 5, 5.00000000000000000000e-01) (10, 5, 5.00000000000000000000e-01) (10, 5, 5.00000000000000000000e-01) (10, 5, 5.00000000000000000000e-01) (10, 5, 5.00000000000000000000e-01) (10, 5, 5.00000000000000000000e-01) (10, 5, 5.00000000000000000000e-01) (10, 5, 5.00000000000000000000e-01) (10, 5, 5.00000000000000000000e-01) (10, 5, 5.00000000000000000000e-01) (10, 5, 5.00000000000000000000e-01) (10, 5, 5.00000000000000000000e-01) (10, 5, 5.00000000000000000000e-01) (10, 5, 5.00000000000000000000e-01) (10, 5, 5.00000000000000000000e-01) (10, 5, 5.00000000000000000000e-01) (10, 5, 5.00000000000000000000e-01) (10, 5, 5.00000000000000000000e-01) (10, 5, 5.00000000000000000000e-01) (10, 5, 5.00000000000000000000e-01) (10, 5, 5.00000000000000000000e-01) (10, 5, 5.00000000000000000000e-01) (10, 5, 5.00000000000000000000e-01) (10, 5, 5.00000000000000000000e-01) (10, 5, 5.00000000000000000000e-01) (10, 5, 5.00000000000000000000e-01) (10, 5, 5.00000000000000000000e-01) (10, 5, 5.00000000000000000000e-01) (10, 5, 5.00000000000000000000e-01) (10, 5, 5.00000000000000000000e-01) (10, 5, 5.00000000000000000000e-01) (10, 5, 5.00000000000000000000e-01) (10, 5, 5.00000000000000000000e-01) (10, 5, 5.00000000000000000000e-01) (10, 5, 5.00000000000000000000e-01) (10, 5, 5.00000000000000000000e-01) (10, 5, 5.00000000000000000000e-01) (10, 5, 5.00000000000000000000e-01) (10, 5, 5.00000000000000000000e-01) (10, 5, 5.00000000000000000000e-01) (10, 5, 5.00000000000000000000e-01) (10, 5, 5.00000000000000000000e-01) (10, 5, 5.00000000000000000000e-01) (10, 5, 5.00000000000000000000e-01) (10, 5, 5.00000000000000000000e-01) (10, 5, 5.00000000000000000000e-01) (10, 5, 5.00000000000000000000e-01) (10, 5, 5.00000000000000000000e-01) (10, 5, 5.00000000000000000000e-01) (10, 5, 5.00000000000000000000e-01) (10, 5, 5.00000000000000000000e-01) (10, 5, 5.00000000000000000000e-01) (10, 5, 5.00000000000000000000e-01) (10, 5, 5.00000000000000000000e-01) (10, 5, 5.00000000000000000000e-01) (10, 5, 5.00000000000000000000e-01) (10, 5, 5.00000000000000000000e-01) (10, 5, 5.00000000000000000000e-01) (10, 5, 5.00000000000000000000e-01) (10, 5, 5.00000000000000000000e-01) (10, 5, 5.00000000000000000000e-01) (10, 5, 5.00000000000000000000e-01) (10, 5, 5.00000000000000000000e-01) (10, 5, 5.00000000000000000000e-01) (10, 5, 5.00000000000000000000e-01) (10, 5, 5.00000000000000000000e-01) (10, 5, 5.00000000000000000000e-01) (10, 5, 5.00000000000000000000e-01) (10, 5, 5.00000000000000000000e-01) (10, 5, 5.00000000000000000000e-01) (10, 5, 5.00000000000000000000e-01) (10, 5, 5.00000000000000000000e-01) (10, 5, 5.00000000000000000000e-01) (10, 5, 5.00000000000000000000e-01) (10, 5, 5.00000000000000000000e-01) (10, 5, 5.00000000000000000000e-01) (10, 5, 5.00000000000000000000e-01) (10, 5, 5.00000000000000000000e-01) (10, 5, 5.00000000000000000000e-01) (10, 5, 5.00000000000000000000e-01) (10, 5, 5.00000000000000000000e-01) (10, 5, 5.00000000000000000000e-01) (10, 5, 5.00000000000000000000e-01) (10, 5, 5.00000000000000000000e-01) (10, 5, 5.00000000000000000000e-01) (10, 5, 5.00000000000000000000e-01) (10, 5, 5.00000000000000000000e-01) (10, 5, 5.00000000000000000000e-01) (10, 5, 5.00000000000000000000e-01) (10, 5, 5.00000000000000000000e-01) (10, 5, 5.00000000000000000000e-01) (10, 5, 5.00000000000000000000e-01) (10, 5, 5.00000000000000000000e-01) (10, 5, 5.00000000000000000000e-01) (10, 5, 5.00000000000000000000e-01) (10, 5, 5.00000000000000000000e-01) (10, 5, 5.00000000000000000000e-01) (10, 5, 5.00000000000000000000e-01) (10, 5, 5.00000000000000000000e-01) (10, 5, 5.00000000000000000000e-01) (10, 5, 5.00000000000000000000e-01) (10, 5, 5.00000000000000000000e-01) (10, 5, 5.00000000000000000000e-01) (10, 5, 5.00000000000000000000e-01) (10, 5, 5.00000000000000000000e-01) (10, 5, 5.00000000000000000000e-01) (10, 5, 5.00000000000000000000e-01) (10, 5, 5.00000000000000000000e-01) (10, 5, 5.00000000000000000000e-01) (10, 5, 5.00000000000000000000e-01) (10, 5, 5.00000000000000000000e-01) (10, 5, 5.00000000000000000000e-01) (10, 5, 5.00000000000000000000e-01) (10, 5, 5.00000000000000000000e-01) (10, 5, 5.00000000000000000000e-01) (10, 5, 5.00000000000000000000e-01) (10, 5, 5.00000000000000000000e-01) (10, 5, 5.00000000000000000000e-01) (10, 5, 5.00000000000000000000e-01) (10, 5, 5.00000000000000000000e-01) (10, 5, 5.00000000000000000000e-01) (10, 5, 5.00000000000000000000e-01) (10, 5, 5.00000000000000000000e-01) (10, 5, 5.00000000000000000000e-01) (10, 5, 5.00000000000000000000e-01) (10, 5, 5.00000000000000000000e-01) (10, 5, 5.00000000000000000000e-01) (10, 5, 5.00000000000000000000e-01) (10, 5, 5.00000000000000000000e-01) (10, 5, 5.00000000000000000000e-01) (10, 5, 5.00000000000000000000e-01) (10, 5, 5.00000000000000000000e-01) (10, 5, 5.00000000000000000000e-01) (10, 5, 5.00000000000000000000e-01) (10, 5, 5.00000000000000000000e-01) (10, 5, 5.00000000000000000000e-01) (10, 5, 5.00000000000000000000e-01) (10, 5, 5.00000000000000000000e-01) (10, 5, 5.00000000000000000000e-01) (10, 5, 5.00000000000000000000e-01) (10, 5, 5.00000000000000000000e-01) (10, 5, 5.00000000000000000000e-01) (10, 5, 5.00000000000000000000e-01) (10, 5, 5.00000000000000000000e-01) (10, 5, 5.00000000000000000000e-01) (10, 5, 5.00000000000000000000e-01) (10, 5, 5.00000000000000000000e-01) (10, 5, 5.00000000000000000000e-01) (10, 5, 5.00000000000000000000e-01) (10, 5, 5.00000000000000000000e-01) (10, 5, 5.00000000000000000000e-01) (10, 5, 5.00000000000000000000e-01) (10, 5, 5.00000000000000000000e-01) (10, 5, 5.00000000000000000000e-01) (10, 5, 5.00000000000000000000e-01) (10, 5, 5.00000000000000000000e-01) (10, 5, 5.00000000000000000000e-01) (10, 5, 5.00000000000000000000e-01) (10, 5, 5.00000000000000000000e-01) (10, 5, 5.00000000000000000000e-01) (10, 5, 5.00000000000000000000e-01) (10, 5, 5.00000000000000000000e-01) (10, 5, 5.00000000000000000000e-01) (10, 5, 5.00000000000000000000e-01) (10, 5, 5.00000000000000000000e-01) (10, 5, 5.00000000000000000000e-01) (10, 5, 5.00000000000000000000e-01) (10, 5, 5.00000000000000000000e-01) (10, 5, 5.00000000000000000000e-01) (10, 5, 5.00000000000000000000e-01) (10, 5, 5.00000000000000000000e-01) (10, 5, 5.00000000000000000000e-01) (10, 5, 5.00000000000000000000e-01) (10, 5, 5.00000000000000000000e-01) (10, 5, 5.00000000000000000000e-01) (10, 5, 5.00000000000000000000e-01) (10, 5, 5.00000000000000000000e-01) (10, 5, 5.00000000000000000000e-01) (10, 5, 5.00000000000000000000e-01) (10, 5, 5.00000000000000000000e-01) (10, 5, 5.00000000000000000000e-01) (10, 5, 5.00000000000000000000e-01) (10, 5, 5.00000000000000000000e-01) (10, 5, 5.00000000000000000000e-01) (10, 5, 5.00000000000000000000e-01) (10, 5, 5.00000000000000000000e-01) (10, 5, 5.00000000000000000000e-01) (10, 5, 5.00000000000000000000e-01) (10, 5, 5.00000000000000000000e-01) (10, 5, 5.00000000000000000000e-01) (10, 5, 5.00000000000000000000e-01) (10, 5, 5.00000000000000000000e-01) (10, 5, 5.00000000000000000000e-01) (10, 5, 5.00000000000000000000e-01) (10, 5, 5.00000000000000000000e-01) (10, 5, 5.00000000000000000000e-01) (10, 5, 5.00000000000000000000e-01) (10, 5, 5.00000000000000000000e-01) (10, 5, 5.00000000000000000000e-01) (10, 5, 5.00000000000000000000e-01) (10, 5, 5.00000000000000000000e-01) (10, 5, 5.00000000000000000000e-01) (10, 5, 5.00000000000000000000e-01) (10, 5, 5.00000000000000000000e-01) (10, 5, 5.00000000000000000000e-01) (10, 5, 5.00000000000000000000e-01) (10, 5, 5.00000000000000000000e-01) (10, 5, 5.00000000000000000000e-01) (10, 5, 5.00000000000000000000e-01) (10, 5, 5.00000000000000000000e-01) (10, 5, 5.00000000000000000000e-01) (10, 5, 5.00000000000000000000e-01) (10, 5, 5.00000000000000000000e-01) (10, 5, 5.00000000000000000000e-01) (10, 5, 5.00000000000000000000e-01) (10, 5, 5.00000000000000000000e-01) (10, 5, 5.00000000000000000000e-01) (10, 5, 5.00000000000000000000e-01) (10, 5, 5.00000000000000000000e-01) (10, 5, 5.00000000000000000000e-01) (10, 5, 5.00000000000000000000e-01) (10, 5, 5.00000000000000000000e-01) (10, 5, 5.00000000000000000000e-01) (10, 5, 5.00000000000000000000e-01) (10, 5, 5.00000000000000000000e-01) (10, 5, 5.00000000000000000000e-01) (10, 5, 5.00000000000000000000e-01) (10, 5, 5.00000000000000000000e-01) (10, 5, 5.00000000000000000000e-01) (10, 5, 5.00000000000000000000e-01) (10, 5, 5.00000000000000000000e-01) (10, 5, 5.00000000000000000000e-01) (10, 5, 5.00000000000000000000e-01) (10, 5, 5.00000000000000000000e-01) (10, 5, 5.00000000000000000000e-01) (10, 5, 5.00000000000000000000e-01) (10, 5, 5.00000000000000000000e-01) (10, 5, 5.00000000000000000000e-01) (10, 5, 5.00000000000000000000e-01) (10, 5, 5.00000000000000000000e-01) (10, 5, 5.00000000000000000000e-01) (10, 5, 5.00000000000000000000e-01) (10, 5, 5.00000000000000000000e-01) (10, 5, 5.00000000000000000000e-01) (10, 5, 5.00000000000000000000e-01) (10, 5, 5.00000000000000000000e-01) (10, 5, 5.00000000000000000000e-01) (10, 5, 5.00000000000000000000e-01) (10, 5, 5.00000000000000000000e-01) (10, 5, 5.00000000000000000000e-01) (10, 5, 5.00000000000000000000e-01) (10, 5, 5.00000000000000000000e-01) (10, 5, 5.00000000000000000000e-01) (10, 5, 5.00000000000000000000e-01) (10, 5, 5.00000000000000000000e-01) (10, 5, 5.00000000000000000000e-01) (10, 5, 5.00000000000000000000e-01) (10, 5, 5.00000000000000000000e-01) (10, 5, 5.00000000000000000000e-01) (10, 5, 5.00000000000000000000e-01) (0, 5, 0.00000000000000000000e+00) (501, 0, 5.00000000000000000000e-01) (0, 0, 0.00000000000000000000e+00) 
connections (connected_to_neuron, weight)=(0, 1.13445073366165161133e-02) (1, -5.46975398259434281156e-02) (2, 9.89136948583590608353e-02) (3, -2.21827127298906967567e-01) (4, -1.00187208378077471926e-01) (5, 1.78157781460689473851e-01) (6, 3.17410151231530324178e-01) (7, -5.86883592370530782212e-01) (8, -1.04355624260851251317e-01) (9, 2.47543985445455749783e-01) (0, 7.03415498137474060059e-02) (1, 1.92807291681613875156e-02) (2, -4.89197708469573597223e-02) (3, 8.71161021316959743865e-02) (4, 7.88982692248052647210e-02) (5, -3.16880698217165135411e-01) (6, -2.90210269346824090153e-01) (7, 4.20951736030691747725e-01) (8, 4.03229559193024056363e-02) (9, -1.09991462214575314027e-01) (0, 3.85364219546318054199e-02) (1, 1.64243679799205566372e-01) (2, -2.03632395012186162564e-01) (3, -7.14973559056123475486e-01) (4, -1.53556698620836895586e+00) (5, -1.97179780960566808368e+00) (6, -7.69850556201038926929e-01) (7, -3.65998389571298654577e-01) (8, -4.43977302141134677615e-01) (9, -6.84327131900471785642e-01) (0, 4.39643338322639465332e-02) (1, 6.36254799584169278281e-02) (2, -8.03601650310317577874e-02) (3, -8.78348613098765995666e-01) (4, -2.18606538928267951638e-01) (5, 9.34708042013254081226e-01) (6, 9.78550334601381965882e-01) (7, -2.87528082861223710509e+00) (8, 5.61275952265270605679e-01) (9, 2.57327104113784857486e-03) (0, -8.31203088164329528809e-02) (1, 1.31821210676070166290e-01) (2, -1.57408550334093531864e-02) (3, 2.01191035774610144093e-01) (4, 2.97013078423339571543e-01) (5, -2.64813373587693967615e-01) (6, -4.98544864137392351733e-01) (7, 1.25914695180855451540e+00) (8, 2.67662596581806503174e-03) (9, -2.99794148637755164533e-01) (0, -9.18599218130111694336e-03) (1, 9.31349739969266066097e-01) (2, -7.34692162305633611474e-01) (3, -1.44180294569629818824e+00) (4, -2.96421811751996888695e-01) (5, 2.90104500954561951576e-02) (6, 3.23759096670110213534e-01) (7, 7.59452991303366786724e+00) (8, -7.93420680385492516073e-01) (9, -2.28308908402983634645e+00) (0, 4.68681007623672485352e-03) (1, -2.21027098895832142811e-02) (2, 3.48681463153234991181e-02) (3, -7.61199751205873936799e-02) (4, -1.11608417122067371530e-01) (5, -2.85991066175049879483e-01) (6, -2.97606107210856118961e-01) (7, 1.40139735475479698668e-01) (8, 7.85635085425100132550e-02) (9, 2.50600223244780082044e-02) (0, 6.15027621388435363770e-02) (1, 3.88970378314245704421e-02) (2, -1.25712683668575714302e-01) (3, 1.53598902091919981006e-01) (4, 6.96519312109259547405e-01) (5, 8.61499176388843546093e-01) (6, 1.02904172170574947920e+00) (7, -8.20550537739916596713e-01) (8, 2.70176880746189063132e-01) (9, -4.31293369024887476848e-02) (0, 8.53674933314323425293e-02) (1, -6.61554009785546570654e-02) (2, -5.60154526629003321481e-02) (3, 8.04348839827032091598e-03) (4, 3.56615440527822458172e-01) (5, 6.65999685460011980886e-01) (6, 5.85747434615495166099e-01) (7, -6.77116116719538974067e-01) (8, 6.91088665938767304775e-02) (9, 8.91462233802342053635e-04) (0, -9.94391292333602905273e-02) (1, -1.86082350046057998227e+00) (2, 1.28291762307680823341e+00) (3, 1.44531178924287795340e+00) (4, 1.01409277054953816943e+00) (5, 5.22916340391614653527e+00) (6, 4.03730806090385863083e-01) (7, -4.66847590898209929833e+00) (8, 6.27191133094405772752e-01) (9, 4.46727478207729422621e+00) (0, 7.29121267795562744141e-03) (1, -5.54763458617850008237e-02) (2, -1.71889415050336356872e-02) (3, 8.85378481131084527078e-01) (4, 2.13132686966887563429e+00) (5, 2.19565189338964561472e+00) (6, 8.33890512319753751669e-01) (7, 2.21838852043758388843e-01) (8, 2.03247443927187826374e-01) (9, 9.84307657796071183709e-02) (0, 6.30535557866096496582e-02) (1, -9.62543537745555344287e-01) (2, 7.66707851014068575424e-01) (3, 2.56052469943940996799e+00) (4, 2.23499823845751910412e+00) (5, 5.16321605090102320190e+00) (6, 5.41291223614369321204e-01) (7, -2.92634114194784800134e+00) (8, 5.95677377669023150331e-02) (9, 2.60642875986860333981e+00) (0, 6.56384006142616271973e-02) (1, 3.62995875408601356704e-02) (2, 9.93165196828871416068e-02) (3, -1.07962248857902676225e-01) (4, -1.06576564596054870759e-01) (5, 2.83952107220767246964e-01) (6, 2.80751934209891362837e-01) (7, -3.97101706145276012183e-01) (8, -7.08164085425199707480e-02) (9, 1.27954982834452779539e-01) (0, 9.46877896785736083984e-03) (1, 8.62771925302312503447e-02) (2, -1.56808086258976270289e-01) (3, 1.18527908156884603796e-01) (4, 3.18680259924676634320e-01) (5, -3.74456404685677091138e-01) (6, -4.15885204953702569686e-01) (7, 1.58915363374936990937e+00) (8, 1.03502776250233657906e-01) (9, -3.13669256114092354082e-01) (0, -7.18089938163757324219e-02) (1, 1.10647906525874473171e-01) (2, -1.29269167530302819813e-01) (3, -3.47926707071262442117e-01) (4, -5.92031479693817530574e-01) (5, 7.04331207419385707524e-01) (6, 4.04912955174146660386e-01) (7, -2.40140451795146647740e+00) (8, 2.12189411501675362359e-01) (9, -3.63976683874398465601e-01) (0, 9.96504724025726318359e-03) (1, -2.91986044857097837291e-01) (2, 2.51720096255324377044e-01) (3, 4.43149179638835988282e-01) (4, 9.34495341955505098852e-01) (5, 1.46370364976838174265e+00) (6, 8.50778746471868352330e-01) (7, 2.62862164478181392635e-01) (8, 3.86627239101076436434e-01) (9, 6.84705789172537437892e-01) (0, 1.70258656144142150879e-02) (1, 4.63308082093467042684e-03) (2, 5.05583961600188022678e-02) (3, 9.32032065583698471345e-02) (4, -3.88305476516572489754e-02) (5, -1.62613991584587308514e-01) (6, -1.79599631238942764044e-01) (7, 4.81684560814280154917e-02) (8, 8.88619176728617093941e-02) (9, -2.35102806505864229958e-02) (0, -8.71681571006774902344e-02) (1, -2.37549991274524446849e-01) (2, 1.78019468385443524472e-01) (3, 3.39293293028980869064e-01) (4, 4.73740120272138298674e-01) (5, 1.34063361796590974073e+00) (6, 9.20760329315435721576e-01) (7, 6.32827543827223920614e-02) (8, 3.13675354326757138690e-01) (9, 5.38565891148041986369e-01) (0, -7.15660750865936279297e-02) (1, -4.85525071943173902600e-02) (2, -1.15614679431693595513e-01) (3, 1.18876921420428938170e-01) (4, 1.00984963472146679897e-01) (5, -5.35651477050715432715e-02) (6, -1.08768363631973924432e-01) (7, -1.18808810224090316554e-01) (8, 4.75331121973928058533e-02) (9, 2.37667188854054356462e-02) (0, -7.65802115201950073242e-02) (1, 2.98988029544523803427e-01) (2, -1.77247582141059956129e-01) (3, -6.94193620780892306499e-01) (4, -1.50328661228215354484e+00) (5, -1.98916615130852747484e+00) (6, -8.50636082285574857131e-01) (7, -2.16049320820536933097e-01) (8, -4.58762749725019181035e-01) (9, -5.50204519641566913712e-01) (0, -2.63245403766632080078e-02) (1, -1.71243814056489772335e-02) (2, 4.12075402159618464637e-02) (3, -2.86302470182636270568e-01) (4, -3.21915051730767620697e-01) (5, -5.37829380226301889678e-01) (6, -5.38667460351844873401e-01) (7, 8.10411305835715273238e-02) (8, 2.20927384169190277330e-01) (9, -1.66978765918584737271e-01) (0, -1.62922590970993041992e-03) (1, -1.87823027240323603415e+00) (2, 1.38583979190823303185e+00) (3, -3.78458756234878412883e+00) (4, -1.13795725996993581930e+01) (5, -1.37569554109132390352e+01) (6, 6.32389579449060379446e-01) (7, -5.90740434154689131319e-01) (8, 1.43966492323943251463e+00) (9, 4.54263212388087112004e+00) (0, -5.38459084928035736084e-02) (1, 5.10814545257378682663e-01) (2, -4.10991098883504490935e-01) (3, 1.94125669755044261144e+00) (4, 4.64252132267806150168e+00) (5, 6.26420072111671011328e+00) (6, -2.70031784312115663571e-01) (7, 2.39255787441364908830e+00) (8, 2.47186340618135325098e-01) (9, -1.14504681329915602994e+00) (0, 4.42989692091941833496e-02) (1, 1.52643551887801348643e-01) (2, -1.51229920209969920242e-01) (3, 2.12549473683528233892e+00) (4, -2.71538276091310626370e+00) (5, -8.08174059184524229416e-01) (6, 2.93169840533223302614e+00) (7, -4.20634839423242556933e+00) (8, -3.51009189264709453582e+00) (9, -5.26542420094738283787e-01) (0, -6.53673708438873291016e-03) (1, 4.64778940303904541942e-01) (2, -4.29015549215765235047e-01) (3, -2.53457442437165214599e+00) (4, -2.29816261949705280543e+00) (5, -6.96049393447434328053e-01) (6, -1.55917894010416779871e+00) (7, -7.30506646613948484870e-01) (8, -8.89257689764673120436e-01) (9, -1.03948588650336293249e+00) (0, 5.16472756862640380859e-03) (1, -1.95811592875446555118e-02) (2, 4.79961878315620371627e-02) (3, -6.52841902676819407780e-01) (4, -3.93115615100995408060e-01) (5, 7.73332707279657638466e-01) (6, 8.97081271867756435690e-01) (7, -3.08357363898107994515e+00) (8, 3.57030762319988093090e-01) (9, 8.08573683936684578510e-02) (0, -3.52892503142356872559e-02) (1, -8.38001394333787036350e-02) (2, -2.00120732887133050137e-02) (3, 9.92384200489931506128e-02) (4, 2.07739102070494202623e-01) (5, 1.50105520563548588964e-01) (6, 1.61632185081663909409e-01) (7, -1.42333460233658781746e-01) (8, -3.79006455568486541607e-02) (9, -4.22219015503581263093e-02) (0, -8.74739587306976318359e-02) (1, -5.83214505871798483128e+00) (2, 4.40078568355198651574e+00) (3, -1.83130450704769853765e+00) (4, 3.80264515157995441896e+00) (5, 1.36597505827436229708e+01) (6, -4.97185407231754729340e-03) (7, -3.70741133225176540122e+01) (8, -7.12829445354777102573e-01) (9, 1.43705247631069923386e+01) (0, -9.94764417409896850586e-02) (1, -3.39575667152121463133e+00) (2, 2.56202284410204184084e+00) (3, 7.74138909529496110906e+00) (4, 7.78436564236347727785e+00) (5, 3.70092208456142168771e+00) (6, 1.00674784842529820850e+01) (7, -1.12231513652803531755e+01) (8, 1.58251459412490413925e+00) (9, 8.60253409841040195261e+00) (0, -1.20814889669418334961e-02) (1, 8.70379318250610545249e+00) (2, -6.55272843467442367427e+00) (3, 2.91155833805498120981e+00) (4, 1.93056767645104798703e+01) (5, 1.88066445737058174359e+01) (6, -2.10583971762998212185e+00) (7, 7.62713394136348976637e-01) (8, -2.22843080746526966962e+00) (9, -2.15290385733704283666e+01) (0, -3.78626696765422821045e-02) (1, -3.03113286551321259310e+00) (2, 2.33362922803606220867e+00) (3, 6.60019498228642031989e+00) (4, 2.29841336753876790411e+00) (5, 7.09926950935087042183e+00) (6, -1.37752780617828296528e+00) (7, -2.32558069309252317680e+01) (8, 6.98886278890303969114e-01) (9, 7.52255222900179898460e+00) (0, -5.45171163976192474365e-02) (1, -1.76817499568799385568e-01) (2, 1.28393853433514976148e-01) (3, 7.26563546456006958962e-01) (4, 6.79571628810740846482e-01) (5, 1.14563706054073524698e-01) (6, -1.31835167894685731382e-02) (7, -3.09966146754182547696e+00) (8, -2.23096146512874515810e-01) (9, 3.28693342632769447409e-01) (0, 3.98837998509407043457e-02) (1, -1.12578404205797300008e+00) (2, 8.70854150559980721980e-01) (3, 2.17847174366743212559e+00) (4, 1.02220982466379428644e+00) (5, 2.93414761297292070452e+00) (6, 1.11982041742021976027e+00) (7, -3.06230387325980224489e+00) (8, 1.95805513720649915221e-01) (9, 3.06613645969689896376e+00) (0, -9.11384671926498413086e-02) (1, -1.56085860641130697024e-01) (2, 3.85790257986597939777e-02) (3, -3.59588178169614747226e-01) (4, -4.90265555955866738636e-01) (5, -8.93540472893558923584e-02) (6, -3.93193920546462596238e-03) (7, -2.40932246596728877330e-01) (8, 8.33502465764240640933e-02) (9, 2.69194509614206378689e-01) (0, 8.14761742949485778809e-02) (1, 4.09986457220154676406e+00) (2, -3.09672678255637512379e+00) (3, -6.74537821252416058826e+00) (4, 2.02905281108743240637e+00) (5, -7.87806333328483043843e-01) (6, -1.01567221236158893305e+01) (7, 1.12665208064126556309e+01) (8, -3.13116849099598137940e+00) (9, -1.03755079691905987005e+01) (0, 2.91096344590187072754e-02) (1, -6.65178702854656994647e-02) (2, -2.98815290194900766430e-02) (3, -1.24851084135938192321e-01) (4, 1.53406131227399687017e-02) (5, 6.01031443954545996355e-01) (6, 5.40224704821151702205e-01) (7, -4.64293202323395381992e-01) (8, -1.02112701367843589084e-01) (9, 1.36541013067970867789e-01) (0, -7.31160566210746765137e-02) (1, 1.02987406693547534076e+00) (2, -7.12516485100290752897e-01) (3, -3.08995324289057116118e+00) (4, -1.44614619379123232612e+00) (5, -4.46754871950127174784e+00) (6, -6.68736231256533364409e-01) (7, 2.51640474143599091050e+00) (8, -4.49594063443703451100e-01) (9, -2.48316923510539355746e+00) (0, -6.04162365198135375977e-02) (1, -1.25547440198884441287e+00) (2, 8.74718569018286595806e-01) (3, 2.45828522918893205285e-01) (4, -1.00482933121834894230e+00) (5, -1.25848201789994540434e+00) (6, 8.46212450538465943417e-01) (7, -5.23609490169619884448e-01) (8, 4.92172602592873931204e-01) (9, 3.05513981166117432053e+00) (0, 6.94327577948570251465e-02) (1, 1.85141880396628843997e+00) (2, -1.33492714415124491545e+00) (3, 2.26870478931142316448e-01) (4, 3.01613361861441875433e+00) (5, 2.97883453257556940486e+00) (6, -4.29715486588896911080e-01) (7, -2.72554574262193483047e-01) (8, -5.18729715728556556309e-02) (9, -4.41100529664734608559e+00) (0, -4.05002124607563018799e-02) (1, 1.01156380752010943702e+00) (2, -8.42571105652793028717e-01) (3, -1.55177399106273306018e+00) (4, -1.03538983430238640260e+00) (5, -2.75588795611543169173e+00) (6, -1.51126037358071241279e+00) (7, 2.59323237406271456251e+00) (8, -8.25519394421495800174e-01) (9, -2.73133892886611473472e+00) (0, -3.18449735641479492188e-03) (1, 1.09246751726257571025e-01) (2, -1.12235911980721053682e-01) (3, 4.45989389161447646881e-01) (4, 3.76313674849526658139e-01) (5, -1.31491578716376511515e-01) (6, -3.57126495471085325661e-01) (7, 6.68383337640480412745e-01) (8, 2.89244570963620162285e-02) (9, -3.63392472417272072160e-01) (0, 7.38520696759223937988e-02) (1, -7.47859954886359677012e-04) (2, 1.80150851460618571798e-02) (3, -2.51913315925658271022e-02) (4, 1.92637985854228199756e-01) (5, 6.13846217565671814498e-01) (6, 5.20341791907706130438e-01) (7, -1.17720190319686235370e+00) (8, 1.74761305008183542853e-01) (9, 5.51302519448495925714e-02) (0, 3.97850200533866882324e-02) (1, 3.44071583444118478390e-01) (2, -2.30182259525850835269e-01) (3, -6.50390053119188626951e-01) (4, -1.16584777072064627035e+00) (5, -1.58369106947563809129e+00) (6, -7.46797753633296146347e-01) (7, -4.82031393720238676703e-01) (8, -4.64690532781796283857e-01) (9, -7.22402378903706399171e-01) (0, 8.73697474598884582520e-02) (1, 6.87046102240083667034e-02) (2, 4.02145514969735953792e-02) (3, -1.01558659922754412896e+00) (4, 6.68745611583848820203e-01) (5, -1.41991388866752199505e+00) (6, -1.86199412717036860698e+00) (7, 4.88305240605121237962e+00) (8, 1.35847434453358173467e-01) (9, 1.37990994862754318140e-02) (0, -2.81181335449218750000e-02) (1, 1.85706907783548397228e-02) (2, -4.58484399525834820932e-02) (3, 1.54751160382233632351e-01) (4, -3.51186225920644079501e-01) (5, -7.61951759866275502020e-01) (6, -1.00649757920830595914e+00) (7, 1.37852444209747471149e+00) (8, -5.93020926186146879466e-01) (9, 4.98223393474802669911e-02) (0, -4.61280643939971923828e-02) (1, -2.00514237828681718412e-01) (2, 2.10665083116054613344e-01) (3, 5.78236512128857071957e-01) (4, 1.21662306916212181740e+00) (5, 1.58866010644834365628e+00) (6, 6.03667096089319343832e-01) (7, 6.75555188527144134802e-01) (8, 4.06450399763625735972e-01) (9, 7.56361894924696631648e-01) (0, -1.42983198165893554688e-02) (1, 1.37559129044631633931e-01) (2, 4.24924809828677082363e-03) (3, -4.13416663597138300812e-01) (4, -1.24025010467408450254e-01) (5, 7.33114828348450098261e-01) (6, 8.63962512172105290276e-01) (7, -1.64361903959048705204e+00) (8, 4.86668768346543323400e-01) (9, -1.78956798577965953134e-01) (0, -1.70654058456420898438e-02) (1, 1.25750919416643264226e-01) (2, -1.13343129109388415787e-01) (3, -4.13965093661531002844e-01) (4, -3.56402060019318123185e-01) (5, 5.54338283012282495577e-01) (6, 6.95330454884005466631e-01) (7, -2.46005627524635261949e+00) (8, 2.60678545615153078874e-01) (9, -1.25687206126322031929e-01) (0, -8.96058976650238037109e-04) (1, -1.82386962401640095877e-01) (2, 1.25926612189103115380e-01) (3, -3.14473426937121935953e-01) (4, -5.93810846759127319849e-01) (5, 9.57287276587688584772e-02) (6, 2.97830533825106935630e-01) (7, -5.32253902076785800901e-01) (8, 1.69747611013162970350e-02) (9, 3.34594825475585999630e-01) (0, 2.22007259726524353027e-02) (1, 2.14624507361221322777e-01) (2, -2.25696009647690411237e-02) (3, -3.06841005727278126614e-01) (4, -3.31812124476051073518e-01) (5, -1.04531755881402932395e+00) (6, -5.21776435280372541392e-01) (7, -3.04992027504105533975e-01) (8, 4.06073066795357776049e-02) (9, -3.74508104308001632532e-01) (0, -2.08512321114540100098e-02) (1, 5.84914846067177557343e-02) (2, -1.11888513926010693678e-01) (3, 1.47873051477863365344e-01) (4, 3.34491660612874566749e-02) (5, -1.38903828711692101106e-01) (6, -2.69017981014421148078e-01) (7, 3.43785797169828599706e-01) (8, 5.02534861082449824110e-02) (9, -1.26782398135390717009e-01) (0, -3.04644256830215454102e-02) (1, -3.79561755402449019225e-01) (2, 1.59159541758451761329e-01) (3, 6.26412455323837491505e-01) (4, 9.22421446966058100614e-01) (5, 1.55017155372697779114e+00) (6, 1.10316763441141940660e+00) (7, 2.57690030905482307666e-02) (8, 6.98807322052117707578e-01) (9, 7.62527537453477122220e-01) (0, 4.70206141471862792969e-04) (1, -3.34553502910162225970e-01) (2, 2.57450923631303452144e-01) (3, 6.98055467814701180451e-01) (4, 1.39203835894342842217e+00) (5, 2.03330981401181498658e-01) (6, -9.53511840315886816111e-02) (7, -3.52655213056308047825e+00) (8, 3.81140009357329001549e-01) (9, 8.64989572299405984346e-01) (0, -3.17846834659576416016e-02) (1, -2.03468791208126442704e-01) (2, 2.81562372342121669533e-01) (3, -2.99298160698418280745e+00) (4, -5.72566886592445190018e+00) (5, -1.17550642618249732152e+01) (6, -2.71686747051545562925e+00) (7, -1.66896502762191256686e+00) (8, -7.78743222606666174457e-01) (9, 6.97132518047585802989e-01) (0, 4.41041216254234313965e-02) (1, -1.18556640362832588220e-01) (2, 1.27921541643216313267e-01) (3, 1.44409797230462766393e-01) (4, -1.14851108268181928418e-01) (5, -8.58756757830744454907e-01) (6, -9.84140168296378847757e-01) (7, 8.74654606385340094299e-01) (8, -3.08423778385776337085e-01) (9, 1.66138654356433913828e-02) (0, 6.73765614628791809082e-02) (1, -3.72638090131678312300e-01) (2, 3.80120095743116948039e-01) (3, -6.42465997571094127316e-01) (4, 1.44262819581771428723e+00) (5, -1.17875414310719239808e+00) (6, 9.55059679515803672256e-02) (7, 4.90764936250149919061e+00) (8, 5.85731429592311059196e-01) (9, 1.10783877267894759200e+00) (0, 9.52766835689544677734e-03) (1, -1.14395839969684876003e+00) (2, 9.81046950447375554205e-01) (3, 2.75601555501954198490e-01) (4, -8.36409937948447201883e-01) (5, -1.07978024489102053529e+00) (6, 9.02609472671303980640e-01) (7, -5.21381505213184381908e-01) (8, 6.70937197824649222966e-01) (9, 3.01259854312899788553e+00) (0, 3.97311821579933166504e-02) (1, -4.04349004580933923947e-01) (2, 3.41718258600444524387e-01) (3, 1.29671651209348359757e+00) (4, 1.23139304348233302733e+00) (5, -8.82274627215886425580e-02) (6, 4.38479444490854908256e-01) (7, 1.57488453403747352688e+00) (8, -4.12306423880316810782e-02) (9, 1.11131933916092906500e+00) (0, 9.70542952418327331543e-02) (1, 1.18776418560578655992e+00) (2, -9.37381225032781761897e-01) (3, -2.24458529170755899385e-01) (4, 7.72611996469420247990e-01) (5, 8.48983619214606077819e-01) (6, -9.46338539908092135633e-01) (7, 7.48410487642667487940e-01) (8, -7.85173692756556351746e-01) (9, -2.94388805314807333602e+00) (0, 5.87329939007759094238e-02) (1, -2.48282882187870396207e-01) (2, 1.60923162560292432044e-01) (3, 3.66880397036653982390e-01) (4, 8.30255690421028647030e-01) (5, 1.37833688109008134504e+00) (6, 5.46813163928568268801e-01) (7, 6.37806141324944952942e-01) (8, 2.02759971156872359499e-01) (9, 5.58257474537051989749e-01) (0, 5.83051517605781555176e-02) (1, -6.55161690221850778748e-01) (2, 5.06795915965430832095e-01) (3, 1.56757469871751631274e+00) (4, 5.31769516027940869485e-01) (5, 1.48726007604483567714e-01) (6, -6.21600340296377257276e-02) (7, -6.55020133479041266611e+00) (8, 8.39385828162955260900e-01) (9, 1.58052469294848796366e+00) (0, -5.03661595284938812256e-02) (1, 9.04344137628993044453e-02) (2, -5.33644531756701026581e-02) (3, 2.45101954398503379950e-01) (4, 4.67603687084104935323e-01) (5, -3.74105321013194699886e-02) (6, -3.33204173074037879321e-01) (7, 3.65062410933148950853e-01) (8, 3.66152957622759081535e-02) (9, -2.94393478860872970237e-01) (0, 4.41139712929725646973e-02) (1, 1.52796266939882574576e+00) (2, -1.27360208680392106295e+00) (3, -4.57692113294798552658e+00) (4, -1.40518592257829610936e+00) (5, -2.83997869518243062359e+00) (6, 2.30662715966395287515e-01) (7, 1.33205125256444478765e+01) (8, -1.21250454037636101745e+00) (9, -4.13509055889688337260e+00) (0, -3.64862531423568725586e-02) (1, 6.84086140925389996070e-01) (2, -5.69755253892453072950e-01) (3, 3.64682751369616031667e-01) (4, -5.56135393479322726051e-01) (5, -3.01503555986458060545e-01) (6, -7.40708055907262297168e-01) (7, 2.31279811903686205454e+00) (8, -5.48441768765526305174e-01) (9, -1.88542386128299188641e+00) (0, 7.40364193916320800781e-04) (1, 4.97287263459259172571e-03) (2, 6.81806877256570242896e-02) (3, 4.10063854870892710580e-02) (4, 3.38213875809751818302e-01) (5, 7.99527623470010606610e-01) (6, 9.15523366223809920150e-01) (7, -4.47977302992830783701e-01) (8, -7.93500083634764291629e-02) (9, 7.96317743764434898823e-02) (0, 9.62122529745101928711e-03) (1, -5.39312261340838094981e-01) (2, 3.06889457998954562346e-01) (3, 2.57633315698561249363e+00) (4, 2.33589337246546469018e+00) (5, 8.32561421684795854858e-01) (6, 1.38441625165277759635e+00) (7, 9.36006349706593132609e-01) (8, 1.05873299863691561207e+00) (9, 1.09547927974978720478e+00) (0, 4.65517118573188781738e-02) (1, 4.69927918984413717229e-01) (2, -3.60223259459490130485e-01) (3, 6.56983648277921772340e-01) (4, 1.78230020808847022806e+00) (5, -2.20370316674083710495e+00) (6, -1.44067816943468907098e+00) (7, 5.34272546565567907351e+00) (8, 3.25036284942247011287e-01) (9, -1.06634651515456457815e+00) (0, -1.86132639646530151367e-02) (1, 2.75451742375627750548e+00) (2, -2.15480428945057944645e+00) (3, -1.64322942199807258135e+01) (4, -1.47450021463978639957e+01) (5, -9.74852835656872684922e+00) (6, -9.31205442887350010039e+00) (7, 1.95071303112624043763e+01) (8, -2.15333589156860050196e+00) (9, -6.87284046696420158895e+00) (0, 6.25335201621055603027e-02) (1, -9.88236123306935054789e-02) (2, 1.15699454386283800272e-02) (3, -6.51097839935721678373e-01) (4, -5.91878409488050372111e-01) (5, 8.33808777902288356110e-01) (6, 9.69008170963003068188e-01) (7, -8.22605164913427722162e-01) (8, 5.49116936253857046424e-01) (9, 3.24789384748839837780e-01) (0, -6.38327300548553466797e-02) (1, 9.15210460857301955073e-02) (2, -4.09231215891567995380e-02) (3, -3.53191095659524945116e-02) (4, -3.83456238465522958325e-01) (5, -3.78424462880266876397e-01) (6, -4.82048458870121099284e-01) (7, 6.26775038823275121302e-02) (8, 1.61607620790358008644e-01) (9, 1.05486276190549718712e-01) (0, -3.45563888549804687500e-02) (1, -1.27342179060799409740e+00) (2, 9.04628009653150932934e-01) (3, -3.20933304422706539016e-02) (4, -5.58876509975754443005e-01) (5, -1.32425029406133965004e+00) (6, 1.01214220376191610384e+00) (7, -1.65091814012129856071e-01) (8, 8.68998969077975913500e-01) (9, 3.03143547328787432704e+00) (0, 5.70829287171363830566e-02) (1, 2.68482938058953068960e-01) (2, -1.59969685337449318840e-01) (3, 1.17605870901656883731e+00) (4, 1.30454054841034650103e+00) (5, -2.61606017075482366607e-01) (6, -1.19886759832867406672e+00) (7, -3.34370639596676211269e+00) (8, -1.01775543491142950181e+00) (9, -6.72057825197655778204e-01) (0, -8.11850205063819885254e-02) (1, 6.77875383720323076986e-01) (2, -5.03508291412623654182e-01) (3, -1.93263189372816790446e+00) (4, -6.65438516585395101188e-01) (5, -2.52743002151003492983e+00) (6, -2.27590791770203759725e+00) (7, 2.04136505063984019515e+00) (8, -9.62773494434996268687e-01) (9, -1.77508780118286191296e+00) (0, 9.46226343512535095215e-02) (1, 3.78211362767002068352e+00) (2, -2.86639953485067033867e+00) (3, -1.21962704165799582512e+01) (4, -1.28048281188896293514e+01) (5, -1.21763395597078414312e+01) (6, -4.35485764832089561338e+00) (7, 1.62513352145679164096e+01) (8, -2.84405469977836533602e+00) (9, -9.57756840704309198031e+00) (0, 2.56236717104911804199e-02) (1, 1.12975524712813757411e+00) (2, -8.23099688434365983625e-01) (3, -6.13160494061944505439e-02) (4, 4.88320411944806853644e-01) (5, 5.47662822308410124350e-01) (6, -3.34788202171120818917e-01) (7, 1.26049037300449517929e+00) (8, -6.16247352570479689504e-01) (9, -2.65870199102335336150e+00) (0, 1.98361054062843322754e-02) (1, 1.56393979712721259423e-01) (2, -1.65909616071043958252e-01) (3, 1.15407609408307548771e-01) (4, 1.82671629866622609040e-01) (5, 2.31449036164610225108e-02) (6, -3.58045393455462157561e-01) (7, 1.45144998344005382584e+00) (8, -1.21782939319185889299e-02) (9, -2.79383004268731138797e-01) (0, 4.49925139546394348145e-02) (1, -8.82096442050678941627e-01) (2, 7.76432964925492297148e-01) (3, -4.28959159538662593292e-01) (4, 3.50659392407760894805e-01) (5, 5.72240913785946256342e-02) (6, 4.15396881432135656187e-01) (7, -1.66650187053145582006e+00) (8, 1.79904482650264507804e+00) (9, 2.41519527377266296497e+00) (0, 2.39277482032775878906e-02) (1, -6.81269509591950345184e-02) (2, -2.11547134071974271552e-02) (3, -1.73924233364938785051e-01) (4, -7.80649597869997324828e-02) (5, 2.71764330487347272047e-01) (6, 2.17918621150778479834e-01) (7, -3.01974541278546504408e-01) (8, -7.51238206415142523165e-02) (9, 1.63042719910399369621e-01) (0, -8.75717177987098693848e-02) (1, -2.44884310918539460644e+00) (2, 1.76256644172498200263e+00) (3, -1.80978273245335691266e-01) (4, -5.11595479414892295722e+00) (5, -4.34375107778215774346e+00) (6, 3.09272748843635869598e-01) (7, 2.71642578768588938143e-01) (8, -4.91968746636124998339e-02) (9, 5.98142252756197745356e+00) (0, -6.44539892673492431641e-02) (1, 1.08757930549109964602e+01) (2, -8.25000486166294066948e+00) (3, 3.80120035159483060649e-01) (4, 2.16258672460077292499e+01) (5, 2.73647321302921078257e+01) (6, -2.26749732593288699789e+00) (7, -1.57584432596535561899e+00) (8, -1.57606388540887532024e+00) (9, -2.73361911704375906140e+01) (0, 4.60676625370979309082e-02) (1, 8.42744781674445095354e-03) (2, 8.09331294817921403917e-03) (3, 2.95649308020880727255e-02) (4, 1.17284700021248397550e-02) (5, -1.64234172286370549987e-01) (6, -5.87752799115994761792e-02) (7, 1.04236667815006331383e-03) (8, 3.21094723777601703807e-02) (9, 3.03762722983220816164e-02) (0, -3.63361239433288574219e-02) (1, -2.30210104086032013582e-01) (2, 2.57523801921166695106e-01) (3, 4.53818569700766949460e-01) (4, 1.05680927613602615445e+00) (5, 1.46464957522743932650e+00) (6, 6.39564554830980624978e-01) (7, 6.13031692641598735527e-01) (8, 3.46671155522084439848e-01) (9, 6.68693798278715334504e-01) (0, -4.85149025917053222656e-02) (1, 2.16672427585895194246e-01) (2, -1.58087361329374120889e-01) (3, 2.38264104952436467366e-01) (4, 2.91741072270590562354e+00) (5, 2.75985658327970506676e+00) (6, 1.43335587023314769972e+00) (7, 5.87064229003954385355e-01) (8, -1.47365895368868293769e-01) (9, -7.39085986293710139883e-01) (0, -7.00114667415618896484e-02) (1, -8.46246373975960031188e-01) (2, 6.46346300710339827233e-01) (3, 2.21784876378415551912e+00) (4, 1.98206140727602808660e+00) (5, 3.02732743716675845036e+00) (6, 1.37913831006027320925e+00) (7, -2.20712422575210309716e+00) (8, 4.71465203975768631928e-01) (9, 2.23544935590374516110e+00) (0, 4.86543849110603332520e-02) (1, -1.09276114080003483586e+00) (2, 7.10306930718020423932e-01) (3, 8.22088353070401733902e-01) (4, 9.13807121368449104537e-01) (5, 4.19047342776598519265e+00) (6, -7.68977253958551210111e-01) (7, -8.75480840272718197070e+00) (8, 9.48133299331003986943e-01) (9, 2.58247394421702791689e+00) (0, -9.61092337965965270996e-02) (1, 6.26544248356891153584e-02) (2, -1.57043983261117084393e-02) (3, 2.04345997668530870994e-01) (4, 3.54698649314211522654e-01) (5, -6.67289760858049973979e-02) (6, -1.61251212788594860958e-01) (7, 1.71336743687447057294e-01) (8, 1.53671005706264534978e-03) (9, -1.49621195170628301652e-01) (0, -2.89041846990585327148e-02) (1, 4.32410027507261693347e-02) (2, -1.07889407071467564175e-02) (3, 1.30201039485034114618e-01) (4, -1.96529036781157351310e-01) (5, -5.98183955524758115274e-01) (6, -5.84963307204014681950e-01) (7, 1.59306458537938144815e+00) (8, -4.49653675242167538695e-01) (9, 1.06312875716568791540e-01) (0, 9.25683453679084777832e-02) (1, -3.78077213581317406188e-01) (2, 2.64982981320944666059e-01) (3, 4.36517345572538850718e-01) (4, 8.61794799437001213249e-01) (5, 1.56268083570248217384e+00) (6, 1.04786128890937813019e+00) (7, 5.09345109473705297959e-03) (8, 5.54578302758489516400e-01) (9, 7.07330465604166347404e-01) (0, -8.52634236216545104980e-02) (1, -5.52144541042398362407e+00) (2, 3.96663773951651510430e+00) (3, 1.75545572121087651851e+01) (4, 2.35893578435963995332e+01) (5, 1.15687336005273007089e+01) (6, 2.80341147298627788587e+01) (7, -2.43783179246495080861e+01) (8, -1.29963147831968522938e-01) (9, 1.34681930665594009611e+01) (0, -7.15902447700500488281e-02) (1, 1.18162244352054246477e-01) (2, 4.34831661789586154665e-02) (3, 1.14297087926024831805e-01) (4, 5.94855067363008523790e-03) (5, -4.64522500327809895193e-01) (6, -6.26160520505260387303e-01) (7, 8.36718493464884915944e-01) (8, -1.76300544939841166703e-02) (9, -1.10260609021654173989e-01) (0, -9.72428321838378906250e-02) (1, 1.17363803067370275207e-02) (2, 8.11431484310085604506e-02) (3, 1.16674634641316221639e-01) (4, -3.52890555232597047386e-01) (5, -7.27445050723625419309e-01) (6, -7.15837494413157804374e-01) (7, 9.31100233789390885342e-01) (8, -2.08915445303335778338e-01) (9, 7.64424596029955882859e-02) (0, 7.25243166089057922363e-02) (1, -5.36644487517559734546e-02) (2, 1.95174667192807085869e-02) (3, -1.16642388323098269987e-01) (4, -2.40959330612960598295e-01) (5, -5.92288136723056607424e-02) (6, 2.29470591885766489471e-01) (7, -2.46038754914070845192e-01) (8, -1.19576718483392335085e-02) (9, 1.72364596013514448369e-01) (0, 7.83523246645927429199e-02) (1, -4.37768646252728155233e-01) (2, 4.63774990791580909999e-01) (3, 1.53179994209721015430e+00) (4, 1.42306096981929486311e+00) (5, 1.99181683507447554460e-01) (6, -2.30689498936456904854e-01) (7, 1.22004001258294847432e+00) (8, 8.50857420207746906193e-01) (9, 1.18278879094146227580e+00) (0, -1.48871392011642456055e-02) (1, 3.19184601102086462632e-01) (2, -9.63268036346795475389e-02) (3, -8.41379960055809172914e-01) (4, -1.59429063967109940769e+00) (5, -1.93423323887315068426e+00) (6, -6.37914154388813936514e-01) (7, -5.69546309342436885004e-01) (8, -4.40562288663126577770e-01) (9, -7.13608670466999717164e-01) (0, -7.52253383398056030273e-02) (1, -1.62095059148020748108e-01) (2, 1.20115035542569567606e-01) (3, -2.22872282658355430618e-01) (4, -4.24867358537216466274e-01) (5, 1.07480028106564373669e-01) (6, 3.42642345995512520584e-01) (7, -4.31161128864081477641e-01) (8, 1.49244404092331237055e-02) (9, 1.70506923625080686335e-01) (0, 7.40210488438606262207e-02) (1, -1.08708877580667561541e-02) (2, -2.40237106220639665133e-02) (3, -2.14916748310190031113e-01) (4, -3.25516029360816971927e-01) (5, -4.52179156832464124172e-01) (6, -2.19450839362024918699e-01) (7, -1.78372383269607748257e-01) (8, 2.76550811163719878483e-01) (9, 1.68244660948086571794e-01) (0, -6.57493323087692260742e-02) (1, -9.27628935503436030663e-02) (2, 1.58604106763366808908e-01) (3, -3.59935123760286745931e-01) (4, -5.52476398369949106559e-01) (5, -5.22891009587379440582e-01) (6, 1.42334462390631993900e-01) (7, -1.40349859079629046832e+00) (8, 2.67928313182803246040e-01) (9, 1.87717061769820503514e-01) (0, -9.68352630734443664551e-02) (1, 5.74197442142339919968e-01) (2, -4.04749485335053726942e-01) (3, 1.78359702371493007433e+01) (4, 1.34881256956981463446e+01) (5, 7.12860675859296222256e+00) (6, 1.40430125237092262580e+00) (7, -2.20096856272322867198e+01) (8, -1.21404720625543083301e+00) (9, -1.46221111543080928286e+00) (0, 3.63190099596977233887e-02) (1, 7.74330201812233331893e-01) (2, -5.40085716595896214720e-01) (3, -8.30653580381117917497e-01) (4, -3.07709980767784330169e-01) (5, -3.47471762999551314621e+00) (6, 4.74877485982116820384e-01) (7, 7.77911602682146252619e+00) (8, -5.40097171476713877603e-01) (9, -2.20411227660317088350e+00) (0, -3.12272533774375915527e-02) (1, -3.61451750693409581960e-02) (2, 9.51673105879178860000e-02) (3, 1.85336189849536953078e-01) (4, 3.59975369309199100254e-01) (5, 1.01975926950838680085e+00) (6, 8.98943717673453157602e-01) (7, -1.75719680127993512983e-03) (8, -3.67354069602843225084e-02) (9, 3.04353272094914473200e-01) (0, 5.02246618270874023438e-03) (1, -1.10322049865665072765e+00) (2, 6.82914177772726671556e-01) (3, -2.03134641137711680070e-01) (4, 4.14222353763747178079e-02) (5, -3.04753009112187167595e-01) (6, 6.13326015498920407154e-01) (7, -1.29444875083921240311e+00) (8, 1.31164122202373811810e+00) (9, 2.63446378359179700368e+00) (0, 7.79006555676460266113e-02) (1, -7.58938905406456587599e+00) (2, 5.55903998899695572788e+00) (3, 2.83275039806735975390e+01) (4, 2.25297313862231511905e+01) (5, 9.87275657544580731440e+00) (6, 1.08474785888354152696e+00) (7, -2.50351457126533567532e+01) (8, -6.88068248975910368159e+00) (9, 1.88191445068397733564e+01) (0, 9.61276516318321228027e-02) (1, -5.75469280496912705125e-01) (2, 4.03849149283994068860e-01) (3, 3.76044083012419594336e-01) (4, 1.65895443832350975022e+00) (5, -2.58387479883051107699e-01) (6, -3.44357454020814968132e-01) (7, -5.32684516007674702109e+00) (8, 1.27984057515904647850e+00) (9, 1.49701008129944868053e+00) (0, -5.09912893176078796387e-02) (1, -1.94160560826860499606e-02) (2, 3.77783142474045433717e-03) (3, 1.04487376504656803711e+00) (4, 1.17197466456331378382e+00) (5, 3.14474067406637303179e-01) (6, -3.54100837556040715093e-01) (7, -3.13678948365514109753e+00) (8, -4.79927763367103854542e-01) (9, -7.64542755834100168366e-02) (0, 2.20836997032165527344e-02) (1, -2.07321491982917320562e-02) (2, -6.40101397672089011959e-02) (3, -3.61107839790630047450e-02) (4, -2.23146646035975795841e-02) (5, 2.37059958190832947844e-01) (6, 3.94613597196963150626e-01) (7, -4.01217336277448932691e-01) (8, -1.27707328426890746875e-02) (9, 5.75082220499867902141e-02) (0, -5.85467219352722167969e-02) (1, 3.09167316751130898111e-02) (2, -1.16285410612546699638e-01) (3, 2.00244308748962124289e-01) (4, 4.36936056492844837607e-01) (5, -2.73562623263157297590e-03) (6, -1.15925241047723767696e-01) (7, 4.18958013279075613955e-01) (8, 1.98671783591813956582e-02) (9, -3.09114960629870982878e-01) (0, 5.65210506319999694824e-02) (1, -1.49208293628572158385e-01) (2, 8.81624277846187742735e-02) (3, -5.29210548207687606070e-02) (4, -1.51995055855402294576e-01) (5, 1.48068956084989877819e-01) (6, 3.80067663428113378110e-01) (7, -1.52741397341600282367e+00) (8, -8.15971750706858955926e-02) (9, 3.02120388850196874841e-01) (0, 8.93608555197715759277e-02) (1, -2.20985584916009658585e+00) (2, 1.49532296666149266962e+00) (3, -3.81880368674236780890e+00) (4, 1.28626312089086924928e+00) (5, 4.82019309739956014482e+00) (6, -1.50670384625370279430e+00) (7, 2.56952988114099500905e-01) (8, 4.68752377891251459374e+00) (9, 5.24391975034244595122e+00) (0, -8.25860723853111267090e-02) (1, 2.51632199319920868419e-01) (2, -2.36611940437638168522e-01) (3, -4.36155129498805471666e-01) (4, -7.32594365053038876212e-01) (5, -1.36450479991834749960e+00) (6, -8.79978777972589609746e-01) (7, -1.57337860538320745141e-01) (8, -3.80984408838833610300e-01) (9, -6.60341093024030101333e-01) (0, -4.63730171322822570801e-02) (1, 1.06117571700031276816e-01) (2, -1.27403481162010862038e-01) (3, 1.51627715488168501867e-01) (4, 2.10726682365738687830e-01) (5, 1.85540808400399104272e-01) (6, 1.36387546433238582289e-01) (7, -1.67052860432982119843e-02) (8, -5.46649109788928735942e-02) (9, -3.68346939693931507698e-02) (0, -5.50874248147010803223e-02) (1, -1.35367641282802719793e+00) (2, 1.10300748000318415976e+00) (3, 1.31745623618177813696e-02) (4, -2.06351622195104766888e+00) (5, -2.18161860263850693187e+00) (6, 6.93374150444897585643e-01) (7, 2.33719517457428693774e-01) (8, 1.87925860544340628255e-01) (9, 3.46926936091876747525e+00) (0, -3.64185348153114318848e-02) (1, 3.37138104981598685228e+00) (2, -2.56125153449859466193e+00) (3, 3.13675728460183966817e+00) (4, 1.27812736196490739360e+01) (5, 1.35979589349932314946e+01) (6, 1.39071771656770626358e+00) (7, 1.39841322671576206993e+00) (8, 2.49718656504020763975e+00) (9, -8.21573123575832298116e+00) (0, 5.51069751381874084473e-02) (1, -7.95075919674502706869e+00) (2, 6.02619234246730517413e+00) (3, 1.48539912658812074397e+01) (4, 1.94403809974464607535e+01) (5, 1.15528488914364597662e+01) (6, 2.00766928713503887138e+01) (7, -3.11146317083960219918e+01) (8, 2.83221933815130899603e+00) (9, 2.00404791657227647761e+01) (0, -6.98255151510238647461e-02) (1, -7.42837388554036248678e-02) (2, 9.94200668661451569807e-02) (3, 1.13217203518811995733e-01) (4, 5.48546213872210475238e-01) (5, 5.15835355531023997955e-01) (6, 3.68050679319111895271e-01) (7, -1.77433736431364108554e+00) (8, 3.18075448815330757979e-02) (9, 1.89289507577939802863e-01) (0, -6.77508562803268432617e-02) (1, 3.40108538162618545542e-01) (2, -2.86240031564170827050e-01) (3, -5.08535303694283236098e-01) (4, -1.08932337355702357762e+00) (5, -1.56867962660494830729e+00) (6, -8.13040572895333712999e-01) (7, -4.09538098447786380607e-01) (8, -4.53480308499895290453e-01) (9, -6.81394574523259355381e-01) (0, 2.61211022734642028809e-02) (1, -1.27401868560547526510e-01) (2, 1.46406842439235018727e-01) (3, 1.23721623147133474863e-01) (4, 1.22595520983834771478e+00) (5, 7.91547949070844247821e-01) (6, 6.86154279268276323656e-01) (7, -1.94256925550468428909e+00) (8, 2.45007282969675527218e-01) (9, 1.86045831835723679548e-01) (0, 3.44359949231147766113e-02) (1, 8.55584874881778478795e-02) (2, -6.26798521827336002632e-02) (3, -2.61921128965884320028e-01) (4, -5.09691446879974696671e-01) (5, -9.58146073935993047854e-01) (6, -6.36051699402012005180e-01) (7, -1.08772157060394322747e-01) (8, 6.40100829136342752701e-02) (9, -4.92767367545874968027e-01) (0, -9.69670563936233520508e-02) (1, -7.71680091101837639656e+00) (2, 5.80763367864328117207e+00) (3, 2.42914482963854649888e-01) (4, -1.05480175937707318923e+01) (5, -1.53070269121551589819e+01) (6, 1.94479622289858000705e+00) (7, -2.64724129241094274789e+00) (8, 3.73605507630249977780e+00) (9, 1.91396534890733072132e+01) (0, 2.13209539651870727539e-03) (1, 7.99140120320316427183e+00) (2, -5.91723983751435511635e+00) (3, 9.40594217427903167561e+00) (4, 1.99613392374103604254e+01) (5, 4.67566738010402715986e+01) (6, 2.04422472207477223805e+00) (7, -1.96239350490536756944e+00) (8, 2.13585434804784979335e+00) (9, -1.99323678022685903954e+01) (0, 9.35904905200004577637e-02) (1, -3.33397762860060842272e-01) (2, 1.11267106149268019122e-01) (3, 7.78583342459261862345e-01) (4, 1.54494245385102346724e+00) (5, 1.91530624841810870329e+00) (6, 8.09321425240217107167e-01) (7, 2.63949348532163508008e-01) (8, 4.69867280264114284272e-01) (9, 6.30783368858059412254e-01) (0, -5.55730536580085754395e-02) (1, 7.44120305868308917069e-03) (2, 1.22930882304224359247e-01) (3, 5.24485672817627465725e-02) (4, -7.64895642628316344003e-03) (5, 2.84534568758731232219e-01) (6, 4.64022885751798674914e-01) (7, -7.05519531043750092181e-01) (8, -7.19023902276679643952e-02) (9, 1.70910843310696863862e-01) (0, -5.01554869115352630615e-02) (1, 4.89716036671674892489e+00) (2, -3.76262187998543362610e+00) (3, -1.70212229122702796147e+00) (4, -7.77894875255661055746e+00) (5, -1.80080116275373214307e+01) (6, 1.49706071176681376755e+00) (7, 1.58357192535490458596e+01) (8, 6.94171205756175857537e-01) (9, -1.23484289957679447269e+01) (0, 7.75043740868568420410e-02) (1, 3.08507046604845014404e-01) (2, -2.61992740634638676678e-01) (3, -6.31830137465606234137e-01) (4, -1.20601243089210941051e+00) (5, -1.63173492077882342777e+00) (6, -7.77223801079505505207e-01) (7, -4.50764188556134703934e-01) (8, -4.79737265710494908966e-01) (9, -7.45614913613653396141e-01) (0, -1.82693600654602050781e-02) (1, 4.01311976375473208889e-02) (2, -2.55333287761202072652e-02) (3, -1.97471705721800977473e-01) (4, -2.25178843157617547543e-01) (5, -4.42955265631866101916e-01) (6, -3.74819770862149515001e-01) (7, 9.46457843644722546239e-02) (8, 1.64744665114955113339e-01) (9, 1.29201219066898603804e-01) (0, -7.77837634086608886719e-03) (1, 1.12599529051118074641e+00) (2, -7.72963380243465003616e-01) (3, -1.37309759307111090010e-01) (4, 4.91576765190801012739e-01) (5, 7.09861249741905120381e-01) (6, -8.95528046966400981255e-01) (7, 8.45081938629976270327e-01) (8, -9.38089638978925499657e-01) (9, -2.86799391416895010920e+00) (0, -4.21806871891021728516e-02) (1, -1.11055466571384611751e-01) (2, 1.52668027608644368831e-01) (3, -2.55060330384005551352e-01) (4, -8.42736977481512328225e-01) (5, -1.89850565496577944335e-01) (6, 5.97438147167462574316e-01) (7, -2.04687837828345253754e+00) (8, 2.22314664686028935423e-03) (9, 3.25576089417983105534e-01) (0, 8.12671110033988952637e-02) (1, 1.15759951659221704823e-01) (2, 1.12362445979022028408e-02) (3, -3.39410805649851043952e-01) (4, -5.02591727808419763690e-01) (5, -9.51705378945149726988e-01) (6, -1.17229176680476765426e+00) (7, 5.68711826655281527110e-01) (8, -2.11689410000690941827e-01) (9, -2.01103197505677511181e-01) (0, 5.05079850554466247559e-02) (1, 8.38994573793321457567e-02) (2, -1.34434880035893766781e-01) (3, -4.18808440534918002829e-01) (4, -7.56300007826512521447e-01) (5, 9.92676622125499785732e-01) (6, 5.83457370799914110115e-01) (7, -2.87498806436133458320e+00) (8, 2.79651100144801878500e-01) (9, -1.47143012840871029168e-01) (0, 6.21969476342201232910e-02) (1, 8.20834272895065997222e-02) (2, -1.85117088913499538982e-01) (3, -2.75951308391322369662e-01) (4, -6.25629837970033797490e-01) (5, -1.19525423798183805246e+00) (6, -6.37085415032195179208e-01) (7, -4.28193896096794202055e-01) (8, -7.71266972459161564979e-02) (9, -5.01784446039539866469e-01) (0, 1.28341689705848693848e-02) (1, -1.80242926748329729270e-01) (2, 1.81720794827899323476e-01) (3, -3.33218645050990802670e-01) (4, -5.52027791825360436562e-01) (5, 2.20928885186417789388e-01) (6, 5.34725026639935374639e-01) (7, -1.10697723285345239752e+00) (8, 6.31200823681636463691e-02) (9, 3.31097945873432386588e-01) (0, -2.03017815947532653809e-02) (1, 4.90691431238205744148e-02) (2, 8.38565570954912103963e-02) (3, -3.07113254943020795584e-02) (4, -1.57536761628830374038e-01) (5, -1.38457157938819963583e-02) (6, -8.32927142606139925274e-02) (7, -1.22711344892867627032e-01) (8, 1.84104505242550960109e-02) (9, 8.79341083579411042503e-02) (0, 4.10273671150207519531e-04) (1, -1.64576819673441043790e+00) (2, 1.27499758366669069254e+00) (3, 1.50434115131353740580e-01) (4, -3.21412428311904951883e+00) (5, -1.69236632202552139681e+00) (6, 4.01781144501722475848e-01) (7, -2.86402682117794182837e-01) (8, -2.70314915167367164628e-01) (9, 4.10310108922725724767e+00) (0, -2.94900387525558471680e-02) (1, 3.87001258143882753693e-01) (2, -3.50573259971270645430e-01) (3, -2.88285526181840445759e-01) (4, -6.58272404242413844422e-01) (5, 7.79874993599354415785e-01) (6, 7.88398639391130195975e-02) (7, -5.01414927471329541220e+00) (8, -8.45108302467468375241e-01) (9, -8.43924183421097318103e-01) (0, 5.22381737828254699707e-02) (1, -1.22794652691938632749e+00) (2, 1.00222016097197585971e+00) (3, 2.02468405848049082252e+00) (4, 4.33220532369009259099e-01) (5, 1.78459255775744773942e+00) (6, 1.55198079234275176930e+00) (7, -2.91563466465535015004e+00) (8, 2.11357831178990140941e+00) (9, 3.08197235965494664711e+00) (0, -6.93569257855415344238e-02) (1, -4.59169118504764509070e-02) (2, 2.57141842683109196621e-03) (3, 6.61121236901048070500e-01) (4, 5.35047588828966858010e-01) (5, -1.02572112209072030531e+00) (6, -6.71872310026758068346e-01) (7, 2.96554920498457796896e+00) (8, -2.43147945293513217946e-01) (9, 3.01010134323819811622e-03) (0, -1.73051729798316955566e-02) (1, 9.71533473149929632795e-02) (2, 6.60053684699948434167e-02) (3, 9.46300646043685689257e-01) (4, 2.59788238869927079477e-01) (5, -1.00244951925143688243e+00) (6, -9.37669451333834724771e-01) (7, 3.12343380666969139270e+00) (8, -5.17744423062501013533e-01) (9, -4.65153482592324044043e-02) (0, -8.12248662114143371582e-02) (1, -1.44138217666006696049e+00) (2, 9.19271535786716165184e-01) (3, 2.85133783643555904774e+00) (4, 4.51279255370617027321e-01) (5, 2.99909287052722595135e+00) (6, 9.22322607606836819549e-01) (7, -3.18345690738329256675e+00) (8, 1.18206617383120304865e+00) (9, 3.43974127492316394950e+00) (0, -2.73612812161445617676e-02) (1, 8.78888776269019372789e-02) (2, -7.80982960288893607315e-02) (3, 3.49643583130557100702e-01) (4, 4.81571655178403057462e-01) (5, 3.77825717378108383304e-01) (6, 1.52362111577481723623e-01) (7, 3.94273799389410761762e-01) (8, -3.23395560614167854041e-01) (9, -9.40665735976896344450e-03) (0, -2.74548679590225219727e-02) (1, 8.91929327334687904738e+00) (2, -6.64640962619155928337e+00) (3, -2.54231579639841243079e+01) (4, -1.47650641221752412235e+01) (5, -7.95236182818402781436e+00) (6, -3.74237571336328234128e-01) (7, 3.65256054962687741750e+01) (8, -3.99476059072028766295e-01) (9, -2.24108431434760575485e+01) (0, -2.60008797049522399902e-02) (1, -1.28215940674201278604e+00) (2, 8.96109074391474136334e-01) (3, 2.16803165566184619095e+00) (4, 1.89922250208521536941e+00) (5, 4.46176987407003977637e+00) (6, -8.84757673419084289534e-01) (7, -1.20699031534996450432e+01) (8, -1.20960290866121189524e+00) (9, 3.02912961704269978469e+00) (0, -9.61504653096199035645e-02) (1, 6.10217753856958200487e-01) (2, -5.20992890976297085004e-01) (3, 1.99028553856317458326e-01) (4, 1.12983102801426826822e+00) (5, -2.51370876540841292623e+00) (6, 1.08175057638923255432e+00) (7, 6.12333692768137805018e+00) (8, 3.17997644965717862764e-01) (9, -1.44204454697564532495e+00) (0, 3.55442836880683898926e-02) (1, 2.84835904582725028822e-02) (2, 1.01185275431940752133e-02) (3, 2.03795615191095069729e-01) (4, 3.58149601554311969309e-01) (5, 3.24949067750631370721e-01) (6, 1.55204991391558161373e-01) (7, 1.20884172127297184751e-01) (8, -1.73440748701056968173e-01) (9, -1.74694491486682368375e-01) (0, 8.41480121016502380371e-02) (1, -7.16406610112756223746e-03) (2, 2.80796550698050179085e-02) (3, -4.73509049688851269000e-01) (4, -2.22528494571323287587e-01) (5, 8.17061278748124619753e-01) (6, 7.93054636498195852923e-01) (7, -1.09991365653355921417e+00) (8, 4.71403864611316059108e-01) (9, -1.41725728748162943527e-01) (0, 1.19599923491477966309e-02) (1, -2.01999707907453002198e-02) (2, -8.31602484813234177352e-02) (3, 7.23646973934595899580e-02) (4, -1.00562124754570811347e-01) (5, -3.60561443313940521715e-01) (6, -4.81453178361580136357e-01) (7, 8.01785535197888532544e-01) (8, 8.85808411902350573142e-02) (9, -1.74141735114215212565e-01) (0, 8.90351831912994384766e-03) (1, 9.25624767839680506754e-01) (2, -7.33208941220973464681e-01) (3, 4.40121658816813920989e-01) (4, -4.65345003036199578172e-01) (5, -9.93900068068116482323e-02) (6, -6.25242404843290522365e-01) (7, 1.64411293018910131813e+00) (8, -1.66538049425000767023e+00) (9, -2.37450332790381501979e+00) (0, 8.67084935307502746582e-02) (1, 1.29132240452850544088e-01) (2, -1.92280927254845496188e-01) (3, 6.50144656822205457836e-01) (4, 2.47884578817256739924e+00) (5, 2.35031784670756449529e+00) (6, 8.68745417525149665749e-01) (7, 4.13287338412072269289e-01) (8, -7.70632864672054496147e-02) (9, -2.61564167685233051053e-01) (0, 4.52230200171470642090e-02) (1, -6.01029764055930115774e-01) (2, 3.49392922923222326581e-01) (3, -2.52590125087445604990e+00) (4, -1.20399667629031070781e+00) (5, 2.58274712657835880947e+00) (6, 1.28279795025247578266e+00) (7, -5.28355145461027131404e+00) (8, -3.69297884916300001024e-01) (9, 1.42183954998821104887e+00) (0, 5.66191747784614562988e-02) (1, 8.70396685814120374403e+00) (2, -6.60249691430362428690e+00) (3, -2.45128535652177035331e+01) (4, -1.74869766795283787530e+01) (5, -2.82383362023634543192e+00) (6, 3.52730752422226179199e-01) (7, 3.29897902772903179880e+01) (8, -8.93876691192905026284e-01) (9, -2.19455790536192694162e+01) (0, 1.89580023288726806641e-03) (1, 5.91088262535231723227e-01) (2, -5.00010857236937944492e-01) (3, -1.78640220174087027694e+00) (4, -2.04987098412534285430e+00) (5, -7.93490619983440614860e-01) (6, -5.60184278188080586602e-01) (7, -1.10661435869928603815e+00) (8, -1.24851314318478556764e+00) (9, -1.60618592882501687313e+00) (0, 9.67541411519050598145e-02) (1, -2.26369940259126822824e-01) (2, 2.13298485069037896400e-01) (3, 3.66251937312440989380e-01) (4, 1.76537435976456436038e+00) (5, 3.73158062100009790818e-01) (6, -2.47053069754459703189e-02) (7, -3.10055532429001079464e+00) (8, 1.20838186311177153698e-01) (9, 8.26631882581767230000e-01) (0, 8.26334282755851745605e-02) (1, 9.10464866348484058722e-02) (2, 6.14535310574177706666e-02) (3, 1.84400596776692987655e-01) (4, 3.56075266654425626189e-02) (5, -3.50360214417330395609e-01) (6, -4.22318964751361491938e-01) (7, 6.91992057188959619474e-01) (8, -9.02257684239454217645e-03) (9, -1.62457182603409550081e-01) (0, -6.36294335126876831055e-02) (1, 7.50627317700081897467e-02) (2, -5.18824047351224837410e-02) (3, -7.16256238648955601001e-01) (4, -4.91809801877424235261e-01) (5, 1.02946718771773015888e+00) (6, 7.24437025591860739304e-01) (7, -2.56494605276533960136e+00) (8, 6.50888519262240117236e-01) (9, -1.97509536810378028004e-01) (0, -5.56463040411472320557e-02) (1, -3.04975273973478282208e-02) (2, 6.61143092637114931920e-02) (3, -1.02001757048233360203e-01) (4, -1.23954457817445462542e-01) (5, -3.40988125729954558163e-02) (6, 1.32026180666771575378e-01) (7, -2.32549935396434342971e-01) (8, -2.46538683383320349207e-02) (9, 1.95474584342913620949e-01) (0, -3.50568741559982299805e-02) (1, -1.59188312948636356836e+00) (2, 1.33466936953919512732e+00) (3, 7.44277672707567422572e-02) (4, -2.89971302382812945453e+00) (5, -2.51421902395801666330e+00) (6, 5.41181379352042801756e-01) (7, 2.40381490421477522768e-01) (8, 4.45731277075910661822e-02) (9, 4.15546680765378706468e+00) (0, -9.49259772896766662598e-02) (1, -6.61488199788293814579e-03) (2, 1.16459644023610933705e-01) (3, -1.91178234828775681607e-03) (4, -3.83097261590449817206e-03) (5, 3.85944934068293998841e-01) (6, 5.74319799714229972665e-01) (7, -5.01712569163757948765e-01) (8, 4.31920064376507557152e-03) (9, 1.81098251182378496005e-02) (0, -7.78342932462692260742e-02) (1, -3.10127379842455530579e-01) (2, 1.50730851924408104647e-01) (3, 6.94121204663239010912e-01) (4, 1.19178681946094555677e+00) (5, 1.73610472507275170884e+00) (6, 9.27149886201974249289e-01) (7, 2.58072495645052191193e-01) (8, 6.01880650659249449852e-01) (9, 7.82887632271313527177e-01) (0, -8.70873034000396728516e-03) (1, -3.88485768018563992765e-01) (2, 3.51890106557477932991e-01) (3, -3.39563684142978994274e-01) (4, -7.13056985329123649286e-01) (5, 2.83621036457759867488e+00) (6, -5.48177408498432994222e-01) (7, -6.42680266981728465225e+00) (8, -6.99036959755474085476e-01) (9, 1.17779642611288237752e+00) (0, -5.83046637475490570068e-02) (1, -5.78559412553435806204e-02) (2, 6.99868201461402855701e-02) (3, -1.84755347459660240750e-01) (4, -3.52090820466344822659e-01) (5, 1.16406384900769169222e-01) (6, 2.31611040243488802703e-01) (7, -3.72275115880167262183e-01) (8, -6.32102938175786444042e-02) (9, 2.51138090837616068107e-01) (0, -8.95349532365798950195e-02) (1, -1.21049548221095176759e-01) (2, 9.08390693608299160111e-02) (3, -5.59425490068876429817e-01) (4, -4.58131570424745115933e-01) (5, 7.66527513499726143031e-01) (6, 8.74201589635583697913e-01) (7, -9.13142006942572637129e-01) (8, 4.24747816672855438291e-01) (9, 1.48687342883345507971e-01) (0, -4.51543740928173065186e-02) (1, 5.68683124518389107593e-02) (2, -2.64344980519913112793e-02) (3, 8.46253666467750575997e-02) (4, 1.00943740033742623829e-01) (5, 2.49093354758636614799e-01) (6, 3.07757323512262592757e-01) (7, -6.40933149088316472808e-02) (8, -3.91223668954204240045e-02) (9, -9.31699591219294631639e-02) (0, -3.30126881599426269531e-02) (1, 7.70383615136721044969e-01) (2, -6.52075220899748675407e-01) (3, -1.74425201183213807177e+00) (4, -1.42385180934676047748e+00) (5, -3.24379570776435421919e+00) (6, 2.61270207590231173800e-01) (7, 8.69062428620678240065e+00) (8, 1.03152774639565603110e+00) (9, -2.02854232326333949743e+00) (0, -6.18370473384857177734e-02) (1, -1.05305528503070469637e-01) (2, 2.88310355405702531395e-02) (3, -9.54300243513793999828e-02) (4, -2.02028105062616036847e-01) (5, -2.06497774263116745663e-01) (6, 9.46513310096935567284e-02) (7, -1.45932320978332419337e-01) (8, 4.20532026954186510803e-02) (9, 1.03328928007210232853e-01) (0, 1.45620256662368774414e-02) (1, 7.67857703431436333652e-01) (2, -5.02097092840264380698e-01) (3, -2.01857137524716812038e+00) (4, -1.87560641818161211170e+00) (5, -7.29493440709836571401e-01) (6, -6.47127774160543345339e-01) (7, -1.14419330840564925644e+00) (8, -1.02501866399671182073e+00) (9, -1.71971087496391117355e+00) (0, 6.51922896504402160645e-02) (1, -1.12760400992002751686e+00) (2, 7.81743889462159335935e-01) (3, 3.52145104778451567551e-01) (4, -1.08505535141570264024e+00) (5, -6.49951804179622838475e-01) (6, 5.45186249345107731834e-01) (7, -4.38903373883865577376e-01) (8, 4.95565937347056728601e-01) (9, 2.89912741436107124215e+00) (0, 5.48878386616706848145e-02) (1, 3.13168981166572157893e-01) (2, -2.41138067835267616568e-01) (3, -4.69116405330850472222e-01) (4, -7.70959745854687517053e-01) (5, -1.35729276953120892024e+00) (6, -1.12246386455055935372e+00) (7, -9.26445732262211850416e-03) (8, -5.24959551964767845433e-01) (9, -6.19314784784468996826e-01) (0, 3.36385145783424377441e-02) (1, -4.62766467315868568200e-01) (2, 2.98138419191088188676e-01) (3, 1.07398803674792175933e+00) (4, 7.32241131685084534197e-01) (5, -2.26629484015873239322e-01) (6, -2.86772124928134364286e-02) (7, -3.86249522419288338071e+00) (8, 7.83180530562901378033e-01) (9, 9.75667363736230974780e-01) (0, 4.26530614495277404785e-02) (1, -3.04181455530832367540e-01) (2, 2.31294281935430778852e-01) (3, 3.05982242949361227247e+00) (4, 2.35089405486594049677e+00) (5, 7.11190055301616719241e-01) (6, 2.38825698986458023754e+00) (7, 9.80280507202434314706e-01) (8, 2.09956843639204776553e-01) (9, 6.06294612606317007142e-01) (0, 6.21040090918540954590e-02) (1, 9.82712484771056972443e-03) (2, -1.40617517026904198518e-01) (3, 2.94941009462127215479e-03) (4, 7.47335354032386267598e-02) (5, 1.32351515353248700563e-02) (6, -1.31395237900660488695e-01) (7, 3.12197540729306000085e-01) (8, -7.38415764774986646546e-03) (9, -1.26214572597885321681e-01) (0, -7.05401375889778137207e-02) (1, -1.00961507659374816193e+00) (2, 7.71210635462590277101e-01) (3, 6.83723578922022956483e-01) (4, 1.00184923204061554491e-01) (5, -1.32118304862723801030e+00) (6, 4.77327980917641656045e-02) (7, -5.95621362806325826966e+00) (8, 1.63342412450458640549e+00) (9, 2.24010577304151059508e+00) (0, 1.63198336958885192871e-02) (1, 2.29626662308069662277e-01) (2, -1.33735000546144400246e-01) (3, 8.52639211287108289561e-01) (4, 1.36125772805118350206e+00) (5, -1.53391430357422309250e+00) (6, -1.52218243521996710044e+00) (7, 5.88017511341076648534e+00) (8, -5.86841400401224122518e-01) (9, -3.57907882019960044140e-01) (0, 3.54311540722846984863e-02) (1, -9.13967520343746286926e-01) (2, 7.65796264891924982621e-01) (3, -2.16959165584064611609e-01) (4, -9.86135179576835968485e-02) (5, -3.68223824246325937004e-01) (6, 1.83344724420764881856e-01) (7, -1.87150484465374455922e+00) (8, 8.46711054748275682158e-01) (9, 2.34573311817585850036e+00) (0, -8.42190831899642944336e-02) (1, 6.49766303623498742148e-01) (2, -3.25235258806131133369e-01) (3, 3.34309314293350090530e-01) (4, -1.13538569245174771755e-02) (5, 5.27606566872081739206e-01) (6, 3.54838056158499226544e-01) (7, 3.25352676115383410149e+00) (8, -1.06740242109355421007e+00) (9, -1.43127376592506738717e+00) (0, -3.50484997034072875977e-02) (1, 8.74302129749229717248e-01) (2, -7.37774158495209997355e-01) (3, -2.50966814461862286478e+00) (4, -2.21174871178134102578e+00) (5, -5.28948102357563065823e+00) (6, 8.05348608102056440217e-01) (7, 1.26117473602876817296e+01) (8, 1.07300954222971944851e+00) (9, -2.32476703153193042795e+00) (0, -8.29152762889862060547e-04) (1, -3.78985323363648873851e+00) (2, 2.79732378091173572443e+00) (3, -5.40794500915215858861e-01) (4, -8.44757573822239216099e+00) (5, -7.25806390618482666355e+00) (6, 5.11485947453098388493e-01) (7, 2.19019511866363508767e-01) (8, 2.30301140061980658125e-01) (9, 9.25618588314053170052e+00) (0, -7.67419263720512390137e-02) (1, 6.79458378763990178406e-02) (2, -2.44482065722842131783e-02) (3, -3.66423302930902661245e+00) (4, -7.94629629376918167338e+00) (5, -1.03602859915186105155e+01) (6, 4.06061055506279799943e+00) (7, -3.76930260839776387627e+00) (8, -1.16136187148349478981e+00) (9, -1.23903620735712205470e-01) (0, -6.54841959476470947266e-02) (1, -7.50441570163573046237e-01) (2, 5.88973743155133400151e-01) (3, -1.36609932107959224368e+01) (4, -1.34839919009735353939e+01) (5, -7.53535944215058162143e+00) (6, -9.37568428192477654193e+00) (7, 4.72677308688643726953e+00) (8, -5.28656907174395951365e-01) (9, 1.93082328036087802481e+00) (0, 8.37351903319358825684e-02) (1, -2.99509103393898849788e-02) (2, 7.49403543991457310458e-02) (3, -1.03066350127565417583e-01) (4, 3.90516904788676955107e-02) (5, 1.01036682108104264310e-01) (6, 1.92342905807547454033e-01) (7, -1.70743537366418507428e-01) (8, -6.74113460082784582417e-02) (9, 5.32210830095114981186e-02) (0, -5.67806437611579895020e-02) (1, 1.80719045686974361109e-01) (2, 1.29009854880565554697e-02) (3, 7.98666447207605212366e-02) (4, 1.10503114199076102331e-01) (5, -4.01285405877034817568e-01) (6, -5.27577825464057292848e-01) (7, 9.54397756690558596304e-01) (8, 8.01953353073106972593e-02) (9, -2.02707736165033541864e-01) (0, 2.24498137831687927246e-02) (1, 4.66575484988195135494e-02) (2, -1.65193517891542053511e-02) (3, -3.40826115671921279701e-04) (4, -6.74566558644808661471e-02) (5, 1.64285351383385347379e-01) (6, 9.29230760217025775205e-02) (7, 4.88772352060013390296e-02) (8, -3.28818206242448632382e-02) (9, -3.54613578610731630669e-02) (0, -9.35209468007087707520e-02) (1, -3.24264986023668488890e-01) (2, 1.36560883525591925114e-01) (3, -1.02703659221010723535e+00) (4, -1.59433161302547565796e+00) (5, 3.60545555628676780979e-02) (6, 8.10706636544919811982e-01) (7, 2.91823712703095772270e+00) (8, 1.14529444676270553138e+00) (9, 8.71478220337825515429e-01) (0, 9.06881764531135559082e-02) (1, 5.33151666590942041601e-01) (2, -2.85995761133168602264e-01) (3, 2.43843584704508398175e+00) (4, 1.09377822652752154653e+00) (5, -2.23796705075864110768e+00) (6, -1.06625440714254438035e+00) (7, 4.98603707755110470146e+00) (8, 1.33755983692642632654e-01) (9, -1.22476802708968302014e+00) (0, -5.55575191974639892578e-02) (1, 1.05547932028360019752e-01) (2, 4.07399629081421892768e-03) (3, -6.70358265724709384559e-02) (4, -2.69794712643690537401e-01) (5, -6.87711638320079643449e-01) (6, -7.81765823142899773934e-01) (7, 5.31057676887748852934e-01) (8, 1.06954328051949529299e-01) (9, -8.09962643676078036803e-02) (0, 6.36227056384086608887e-02) (1, -6.19457708593031922302e-04) (2, -6.83112281957207190253e-02) (3, 1.06180190289775211454e-01) (4, 2.30828061060532357951e-01) (5, -3.34366607142622340731e-01) (6, -3.65146268544289165359e-01) (7, 3.93867937154680880507e-01) (8, 8.86741597775675405302e-02) (9, -1.59439254435913974062e-01) (0, -6.51900768280029296875e-02) (1, 1.30428637925730206426e+00) (2, -9.41771616144568946005e-01) (3, -2.68831250487105766211e-01) (4, 9.74821225473416541618e-01) (5, 1.09741301339040697727e+00) (6, -9.98567477395921887506e-01) (7, 3.58586904201724621100e-01) (8, -6.99656051327101291548e-01) (9, -2.98331533158192785393e+00) (0, 2.45906859636306762695e-02) (1, -1.26060655702282253809e-02) (2, -1.63271456220228233791e-02) (3, -4.82667063160314643855e-02) (4, -3.81298487898147353548e-01) (5, -5.80919386084297717510e-01) (6, -5.74656382733001569463e-01) (7, 1.32390305403155467134e-01) (8, 2.32146304283688403869e-01) (9, -2.93077550854994074714e-02) (0, -5.38602471351623535156e-04) (1, 2.24076560609791537726e-02) (2, -6.11930724023510615867e-03) (3, 1.71662930658729118161e-01) (4, -5.45135987710416644592e-02) (5, -4.50412343573746043468e-01) (6, -5.24529007940947700206e-01) (7, 6.35728685852331110162e-01) (8, 6.72088958313964007774e-02) (9, -1.15029373882388596950e-01) (0, 1.72446146607398986816e-02) (1, -1.67834505966888694259e-03) (2, 3.67477160340224469001e-03) (3, -8.19366914669800855409e-02) (4, -1.49315017576739039740e-01) (5, -3.88997607154997537826e-01) (6, -1.56689988353919451569e-01) (7, 7.06039368118821925036e-02) (8, 9.28957363085894660681e-02) (9, 1.18762930123327753451e-01) (0, -4.45053353905677795410e-02) (1, 5.32690522797175436409e-01) (2, -4.41718290729806339900e-01) (3, 7.78669462192922989807e-02) (4, -1.55626081713206909640e+00) (5, 1.93585925464549807318e-01) (6, 5.17202549363390551296e-02) (7, 5.03847480921075430160e+00) (8, -1.00274167399522218247e+00) (9, -1.41603256011170985929e+00) (0, -5.22717274725437164307e-02) (1, -2.11862291071219699390e+00) (2, 1.54473639967443188148e+00) (3, 1.68611178606972451632e+01) (4, 8.21254697031573499544e+00) (5, 4.01616490796924541229e+00) (6, 1.15656372342719446777e+01) (7, -2.19288512314779779899e+01) (8, -1.37694930292827422136e-01) (9, 5.27682609417503378779e+00) (0, -9.99906212091445922852e-02) (1, -1.00350561824216685802e-01) (2, 1.26433656987958942253e-01) (3, -1.70436954608187390958e-01) (4, -5.07533469117395386050e-01) (5, 4.52799129094468177925e-01) (6, 7.78977418114130015780e-01) (7, -1.58504882604496333265e+00) (8, 8.82781067661925072931e-02) (9, 1.92404942802118006373e-01) (0, -9.81299057602882385254e-02) (1, 1.73036909247625075858e-01) (2, -1.64096119735564122122e-01) (3, -2.60387954123814713281e-01) (4, -5.43972287501535256560e-01) (5, -1.08321904582575201381e+00) (6, -9.17902549110051313441e-01) (7, 4.88813674839649880965e-02) (8, -4.55221896932172312433e-02) (9, -4.06375352653389254609e-01) (0, -8.15268084406852722168e-02) (1, 2.60425841392922415019e-02) (2, 1.18015772805710530968e-01) (3, 3.06887797592902931976e-02) (4, 3.82547875771419576552e-01) (5, 8.22660305573165384629e-01) (6, 8.44391461699456891132e-01) (7, -2.41582935460734310462e-01) (8, -1.43413341073201111575e-01) (9, 1.41579779341127226511e-01) (0, -6.80855885148048400879e-02) (1, -1.88870242336373000231e-04) (2, -3.98729830897748896423e-02) (3, 7.98337589728754654095e-02) (4, 1.81512498160921076362e-01) (5, 9.03931307130067807076e-02) (6, -6.20371750438951582995e-02) (7, 3.14848132069488473306e-01) (8, -4.49553149514542935150e-02) (9, -2.14926560692378115780e-01) (0, 1.70890912413597106934e-02) (1, 7.73209194549249606565e-02) (2, -1.19553162545717600596e-01) (3, 2.42844801016984329634e-01) (4, 3.00480915765203193679e-01) (5, 2.25165074298109613160e-01) (6, 1.83750580839949689826e-01) (7, 1.99839731011936416749e-01) (8, -1.22270631990706271641e-01) (9, -1.25827214421749128404e-01) (0, -9.28698480129241943359e-03) (1, -1.14157667295673315166e+00) (2, 8.82624829457914761299e-01) (3, 2.95004505512162951142e-01) (4, -1.02536469988483336380e+00) (5, -1.27718302173449083092e+00) (6, 9.40250946768544371146e-01) (7, -2.65536524485148972552e-01) (8, 5.88292179625491074013e-01) (9, 3.11431024934861300224e+00) (0, -3.37101072072982788086e-02) (1, -3.23673128959987899123e-01) (2, 2.96852663067831312738e-01) (3, 5.06304574118356165435e-01) (4, 9.36412980186267729366e-01) (5, 1.42716199371342900015e+00) (6, 9.22285262685487494672e-01) (7, 1.66336805043025587336e-01) (8, 4.56880873661540731767e-01) (9, 6.92043877833762088869e-01) (0, 6.97346404194831848145e-02) (1, -1.82220044371298045549e-02) (2, -9.56018602375234005653e-02) (3, -3.49824550473742112988e-01) (4, 1.21224003114009382109e+00) (5, -1.39920750003336635814e+00) (6, -1.78246835462362751556e+00) (7, 3.11126426501544761649e+00) (8, 3.15141082644427972248e-01) (9, -5.99815019391246803671e-02) (0, -5.45823983848094940186e-02) (1, 3.28352846518612129234e-01) (2, -2.80230853942216084906e-01) (3, -2.72670578681487640882e-01) (4, -6.96005381083880880766e-01) (5, -1.32628517031342685328e+00) (6, -7.96665023571933028634e-01) (7, -1.94468190250959266363e-01) (8, -2.52307945798122545966e-01) (9, -5.70007474014146420238e-01) (0, 2.02443450689315795898e-02) (1, -3.87313059735855003130e-01) (2, 2.23937564915833942081e-01) (3, -6.99346653960503994441e-01) (4, -1.23636828613389870846e+00) (5, 2.71786653234181097005e+00) (6, -1.53865010898009968443e+00) (7, -6.59054908294463626106e+00) (8, -1.05507522568282174902e+00) (9, 9.83857521833322201665e-01) (0, -2.44501978158950805664e-02) (1, 8.87244433144235289390e-02) (2, 9.82015941305848932830e-02) (3, 1.00510093205794223681e-01) (4, 4.24890389588745975846e-01) (5, 6.59301455519682999551e-01) (6, 6.30579753485248972744e-01) (7, -1.14807652995040962440e-01) (8, -2.32817458712904268303e-01) (9, 1.00137073551523361759e-01) (0, -3.81476990878582000732e-02) (1, -8.48075163925781083663e-01) (2, 6.75725782338662983584e-01) (3, 6.52373529706168353570e-01) (4, 1.70459024981288509437e+00) (5, 1.86260787546225770051e+00) (6, 4.23520460975629342570e-01) (7, -4.30361847020036147882e+00) (8, 6.84512579893138822795e-02) (9, 2.07180740824694442637e+00) (0, -3.93060110509395599365e-02) (1, 2.35384304748855743838e-01) (2, -2.27701220234425932842e-01) (3, -4.99071527346770404954e-01) (4, -8.91264213903150803731e-01) (5, -1.53535874130212657285e+00) (6, -8.93941450498235701261e-01) (7, -2.98877329763210963787e-01) (8, -4.48286902112982166280e-01) (9, -6.72219183114129981149e-01) (0, -6.08817711472511291504e-02) (1, 6.22159218086879461929e-01) (2, -5.87570654446836981855e-01) (3, -2.01275343499663295077e+00) (4, -2.05028947353255031061e+00) (5, -9.28780547488783581045e-01) (6, -8.76858107242996398512e-01) (7, -1.30354358733278319349e+00) (8, -9.75750983865559362584e-01) (9, -1.73878304857509213832e+00) (0, -8.63800868391990661621e-02) (1, 1.34356393158138964772e+00) (2, -9.59848774521192105169e-01) (3, 1.30290011985841003295e-01) (4, 1.50996836722302663070e+00) (5, 2.16596836915810309065e+00) (6, -8.11650649010949964968e-01) (7, -2.68304440973649360735e-01) (8, -3.53297757144473922875e-01) (9, -3.30644353329912243922e+00) (0, -5.85857182741165161133e-02) (1, -1.16326473082892145605e+00) (2, 8.03472775412384598859e-01) (3, 1.93680269973344615364e-01) (4, -5.88388575972444982654e-01) (5, -9.21561534540733640064e-01) (6, 9.38974089454816973621e-01) (7, -6.18397996452265230616e-01) (8, 8.62587837098051313234e-01) (9, 2.94386354897614488380e+00) (0, -7.05317184329032897949e-02) (1, -9.48941794541052208167e-02) (2, -7.48019712040373097039e-02) (3, 8.04536997768762196515e-03) (4, -2.46202805070849517488e-01) (5, -3.31906040227467558079e-01) (6, -4.24015761519116518574e-01) (7, 2.43195321943733083758e-01) (8, 9.34905604708357734767e-02) (9, -1.31689819030138743558e-03) (0, -9.11943987011909484863e-02) (1, 3.41562086366408890203e-01) (2, -1.13046371581184218469e-01) (3, -4.29225339603232669550e-01) (4, -8.39362269693319618113e-01) (5, -1.50901854096181198273e+00) (6, -9.61132203115263483717e-01) (7, -1.37896276732486888772e-01) (8, -4.64716244086724405982e-01) (9, -7.02488500681722194408e-01) (0, -5.71905076503753662109e-03) (1, 1.25872303039015465131e+00) (2, -8.79187708647815813201e-01) (3, -1.93292974517835847159e+00) (4, -6.17881491996458809268e-01) (5, -7.46449608431618782944e-01) (6, 3.83410058290735267228e-01) (7, 4.81218894027308596861e+00) (8, -1.83322857121001003833e+00) (9, -3.11577678323257289961e+00) (0, -7.43143558502197265625e-02) (1, -1.28369585854063716912e-01) (2, 1.90647094460084876033e-01) (3, 2.80583742776293276755e-01) (4, 5.88028178203797824430e-01) (5, 1.37043709385709777671e+00) (6, 6.53728180042214890300e-01) (7, 4.89550771942036277995e-01) (8, 1.51641632293499140083e-01) (9, 4.94756235883306527690e-01) (0, 7.76701048016548156738e-02) (1, -2.52277936393549839789e-01) (2, 1.99784123044369377187e-01) (3, 5.39603352353880572068e-01) (4, 9.15090727650242685698e-01) (5, 1.45084681918354929664e+00) (6, 1.08763618819928598036e+00) (7, -1.20776935174200577769e-03) (8, 5.80948204633350617776e-01) (9, 7.71874283390355131473e-01) (0, -5.10563924908638000488e-02) (1, -1.81025873233241862970e+00) (2, 1.32184311829151845963e+00) (3, -3.31349196146664137785e-01) (4, -2.92066493750006062058e+00) (5, -2.93656326449539761825e+00) (6, 5.37835827667860755241e-01) (7, 2.67815162693588848519e-01) (8, 1.00630619954229366675e-01) (9, 4.44193960997937509205e+00) (0, 4.25132289528846740723e-02) (1, -4.57346511941079447716e-01) (2, 3.08342274696621232444e-01) (3, 5.97304377123667906702e-01) (4, 1.87674419954253224319e+00) (5, 1.75170847582888609961e-02) (6, -2.90586545019046571525e-01) (7, -5.08108202852320722798e+00) (8, 9.92790556766974696679e-01) (9, 1.32401758323441054443e+00) (0, -2.21940129995346069336e-03) (1, -1.12331910617459431734e+01) (2, 8.45567368434849164771e+00) (3, 3.05537902988902843049e+01) (4, 2.44814863070256656385e+01) (5, 5.26531904110754389592e+00) (6, 3.41548903156977556872e-01) (7, -4.53840188935447415020e+01) (8, 3.24115799108282187646e+00) (9, 2.80364226009229611236e+01) (0, -8.22482332587242126465e-02) (1, -8.36957764131268378005e-02) (2, -2.28334910048886563505e-02) (3, 4.53167654326355057171e-02) (4, 1.92600978746189949176e-01) (5, 5.98974724687425963410e-01) (6, 6.52156099486254303699e-01) (7, -2.41104997668048326442e-01) (8, -1.43623191224565460722e-01) (9, -4.90993232773429821858e-02) (0, -3.79957631230354309082e-02) (1, -1.24555934606285290123e+00) (2, 8.08404171007071736810e-01) (3, 2.97248699519349113274e+00) (4, 2.68730305468255048496e+00) (5, 3.35497201260509525511e+00) (6, 1.73366270371153108343e+00) (7, -3.47240758701629514960e+00) (8, -2.28306851157701606869e-03) (9, 2.96742831017592667564e+00) (0, -7.73753449320793151855e-02) (1, 9.46141316292062306559e+00) (2, -7.20805617643270668538e+00) (3, -1.34090839114335267368e+01) (4, -2.80148439967774010029e+00) (5, 1.17911687823828135180e+01) (6, -9.70460293193065814954e-01) (7, 2.77105474462221543774e+01) (8, -7.39470783307311974042e-01) (9, -2.37485848739196363510e+01) (0, 8.46197456121444702148e-03) (1, 9.62711170036400054606e-01) (2, -6.90179804131515584054e-01) (3, 3.78281171195560483866e-01) (4, -3.90432108844169734052e-01) (5, -2.41957708401424970157e-01) (6, -8.28401889695607795971e-01) (7, 1.54176725561237626394e+00) (8, -1.23059015406618477151e+00) (9, -2.18792230193534731342e+00) (0, 1.36755704879760742188e-02) (1, 1.50451118201850264633e+00) (2, -1.14549812078973833884e+00) (3, 1.01721972186339049138e-01) (4, 2.03146650125513605900e+00) (5, 2.36899835965986937936e+00) (6, -6.75818901715541597852e-01) (7, -2.31197454405057262194e-01) (8, -2.78060571620631080680e-01) (9, -3.61986739935490797748e+00) (0, 1.94491147994995117188e-02) (1, -6.40278887860889628358e-02) (2, 5.46101616407871637282e-02) (3, 2.22690031489864437297e-01) (4, 4.93153823280585212885e-01) (5, 6.72681597152541499440e-01) (6, 7.36218572957372585641e-01) (7, -5.02346165604366845514e-01) (8, -8.38127939613749622927e-02) (9, 3.49286824744762802730e-02) (0, 9.72910895943641662598e-02) (1, -7.53273150106469474574e-02) (2, 1.57347530707142232997e-02) (3, -1.56944817240511590162e-02) (4, -4.68304970500683981349e-01) (5, -6.94197684544542226170e-01) (6, -9.15037353654955754045e-01) (7, 6.46699275319013722196e-01) (8, -3.89248943657910309590e-02) (9, 4.54847285628107601135e-03) (0, 1.83027610182762145996e-02) (1, 1.23691910593273154961e-02) (2, -4.18506603009464253629e-02) (3, 1.25275072246971735934e-01) (4, 2.45780101135511769295e-01) (5, 5.79829267930309644186e-01) (6, 6.12013061229579213851e-01) (7, -2.39112298393179045775e-01) (8, -1.70396920062400702989e-01) (9, 2.53491490857126328118e-02) (0, -2.77338996529579162598e-02) (1, 2.68354512180692776624e-02) (2, 8.82178754168441540962e-03) (3, 4.59814309224196166026e-02) (4, 2.21276003768850149100e-01) (5, -1.01664723149219607401e-01) (6, -3.14530343525685651684e-01) (7, 1.80163368851537247783e-01) (8, 3.74245651791399042141e-02) (9, -9.01349390361593505450e-02) (0, 9.94038209319114685059e-02) (1, -5.52814736020734165400e-01) (2, 4.57911149824337448955e-01) (3, -1.67533288220874587715e+00) (4, -5.12587130553112135800e+00) (5, -7.28507339601121994832e+00) (6, 2.33642168921119525171e-01) (7, -2.76849613219170276324e+00) (8, -1.03984194094835113997e-01) (9, 1.16916965830132113524e+00) (0, -6.81005120277404785156e-02) (1, -3.29913040679547298062e-01) (2, 3.00530761988391015294e-01) (3, -1.81985792241444599426e+00) (4, -1.17607316714809928548e+00) (5, 1.60912688726060615352e+00) (6, 1.03211669156160401606e+00) (7, -4.41773989110239373446e+00) (8, 2.66652808100431903959e-01) (9, 7.76305540606475830145e-01) (0, -1.19720250368118286133e-02) (1, -6.35337973724149795984e-01) (2, 3.68854539538534420551e-01) (3, -5.26003138500198019756e+00) (4, -2.42970585928503162165e+01) (5, -1.63540356830049304904e+01) (6, 8.94783900943349141954e-01) (7, 3.69092504544749075990e+01) (8, 4.28394212401149498959e+00) (9, 1.60715439814945293406e+00) (0, 3.97297218441963195801e-02) (1, 1.10108948677739637567e+00) (2, -9.48378772882612075534e-01) (3, -2.29099810478957749416e-01) (4, 6.82281545241451126138e-01) (5, 8.48026658250877085621e-01) (6, -1.00860893364626047486e+00) (7, 5.45897018154683499880e-01) (8, -9.03174447079350239953e-01) (9, -2.89839248805938520803e+00) (0, 1.37680545449256896973e-02) (1, 4.43684088020105740768e-02) (2, 2.43404767044556186173e-02) (3, 1.84468326474960808703e-01) (4, 4.50667443238540743611e-01) (5, 4.30348486881336478316e-01) (6, 1.57231166639925173945e-01) (7, 4.33907120794526035557e-01) (8, -3.18136885885119902184e-01) (9, -9.71857611907114837813e-02) (0, 6.00671246647834777832e-02) (1, -3.87244062684198919744e-01) (2, 3.15325095923079057325e-01) (3, 5.82728370536177653349e-01) (4, 9.44764969223842232537e-01) (5, 1.53074845469525411268e+00) (6, 1.27967353890743806843e+00) (7, -1.53454298822806450842e-02) (8, 8.30747448385617315303e-01) (9, 6.88470499123406409758e-01) (0, -7.04154670238494873047e-02) (1, 4.73829078592780325585e-02) (2, 7.06115417797509303810e-03) (3, -1.14044255423761231594e-01) (4, 1.83632647449944952367e-01) (5, 4.57031453826229672188e-01) (6, 6.05468074482596652075e-01) (7, -3.62445202092763874013e-01) (8, -1.15582398126305010977e-01) (9, 7.99321972037328465355e-02) (0, 9.72380712628364562988e-02) (1, 1.39779784122470551733e-01) (2, 7.83826385481489230911e-03) (3, -1.22669098200793733056e-01) (4, -3.75258698312344041170e-01) (5, -9.99064137582506561763e-01) (6, -9.80497736631955274511e-01) (7, 3.30321105450498864187e-01) (8, -1.37285291569198501099e-02) (9, -1.92544382907926442394e-01) (0, 1.64893642067909240723e-02) (1, 2.07147899954596370620e+00) (2, -1.56768604136172129415e+00) (3, 3.85582115114463785943e+00) (4, 3.34863708455552089305e+00) (5, 7.97707905517321180788e-01) (6, 5.44742734074212475726e-01) (7, -5.25279653590609374447e+00) (8, -1.97640239745146639727e+00) (9, -5.19912028533897974114e+00) (0, 5.53108751773834228516e-04) (1, 4.17582126308223333666e+00) (2, -3.25316028929255907087e+00) (3, 4.27505993448210941388e-01) (4, 9.52576703063544272254e+00) (5, 8.84789816111862315040e+00) (6, -7.09491377660566358010e-01) (7, -1.97052406952471614865e-01) (8, -3.99218734397166152839e-01) (9, -1.07184568767465542294e+01) (0, 3.20389866828918457031e-04) (1, -9.84728012298869415098e-02) (2, -4.37965704994398049958e-04) (3, 4.69378410458446304609e-01) (4, 1.52355060245709750255e+00) (5, 5.98375940960493513110e-01) (6, 3.71264422069668253990e-01) (7, -2.41951060943250295665e+00) (8, 1.28139490169185688018e-01) (9, 2.49659621171751056057e-01) (0, -6.83322548866271972656e-02) (1, 6.78150406183287590700e-01) (2, -6.00797979684208671713e-01) (3, -9.51432020044643445011e-01) (4, -8.52636222691521505901e-01) (5, -4.66701573664454916202e-01) (6, 1.87340750564028934999e-01) (7, 7.42804740452580869459e+00) (8, -5.61542173576728642637e-01) (9, -1.94407423884423735672e+00) (0, 8.43555405735969543457e-02) (1, -5.71137284659968894052e-02) (2, -1.33708741200083604944e-02) (3, 1.21603230455086155914e-01) (4, 2.70218356689198024867e-01) (5, 5.31032564897593983844e-01) (6, 4.14399424085759915393e-01) (7, -1.67498221122369828073e+00) (8, 2.40592826103316094477e-02) (9, 1.97202728545359418089e-01) (0, 4.77701649069786071777e-02) (1, 3.95493786849300948960e-02) (2, 5.37324277187325484439e-03) (3, 4.40421659953908140039e-01) (4, 4.32218286116752170578e-01) (5, -3.40721291431707207220e-01) (6, -4.28864297995775078931e-01) (7, 5.71001486871280383717e-01) (8, -3.23566454361752450786e-02) (9, -3.59485841373040182489e-01) (0, -6.73164278268814086914e-02) (1, 3.50192290432161434932e-01) (2, -3.69477882524681389143e-01) (3, -1.25685975124793358759e+00) (4, 9.73047418892630489040e+00) (5, 7.70190838537924271634e+00) (6, -1.86230149622144089960e+01) (7, 1.29852822768591309455e+01) (8, -9.20601083021104993342e-01) (9, -1.09796368302347646662e+00) (0, -8.51810202002525329590e-02) (1, -1.33371767006274205558e-01) (2, 1.73665526584610235838e-01) (3, 1.67641559302375869889e-01) (4, 1.12791754904509100577e+00) (5, 5.59294780457800455586e-01) (6, 4.29108737492965686133e-01) (7, -1.74135451626032877748e+00) (8, 9.87595996650011444251e-03) (9, 2.80967540049649688871e-01) (0, -3.93390432000160217285e-02) (1, 2.90588034124303784544e-01) (2, -2.31569914468445936517e-01) (3, -6.95144413998033505742e-01) (4, -1.37892947979037461259e+00) (5, -1.76510963974445900249e+00) (6, -7.10557477430048267664e-01) (7, -5.25354871023366087890e-01) (8, -4.85001546196769828256e-01) (9, -7.54781546521365642732e-01) (0, -9.24610719084739685059e-02) (1, 3.39081667781223561331e-01) (2, -2.66134742960777548326e-01) (3, -1.47691879565902262073e+00) (4, -1.01506798733695080550e+00) (5, 3.16923006636243731471e-01) (6, -8.73330286688876911150e-01) (7, -1.59214205222693028219e+00) (8, 3.99820352165518033694e-01) (9, -8.37170512528735089042e-01) (0, -2.55125835537910461426e-02) (1, 2.76057159053300615881e+00) (2, -2.17077885863927821930e+00) (3, 1.80017864835096602638e-01) (4, 6.10316601317051876663e+00) (5, 5.43408438901041357383e+00) (6, -3.39957748837529105668e-01) (7, -2.95700200538800028749e-01) (8, -8.53978228006177786380e-02) (9, -7.07906155032408612726e+00) (0, -2.86415964365005493164e-02) (1, 9.96816868374564568622e-02) (2, 6.19564846310851069511e-02) (3, 9.28019055697093864232e-01) (4, -9.75611387335907909168e-01) (5, 1.23309768176299350273e+00) (6, 2.37289088451209639885e+00) (7, -5.12087679987313659780e+00) (8, -1.59343170769473969472e-04) (9, 5.42888915061020271846e-02) (0, 8.47672596573829650879e-02) (1, -4.00676528212036697774e-02) (2, -3.86701813268460203865e-02) (3, -5.29253461523322213389e-02) (4, 2.73678855308741308949e-02) (5, 1.46152117345582061025e-01) (6, 2.12625004834102682150e-01) (7, -2.32076503542281181725e-01) (8, -3.85033791767385169535e-02) (9, 3.59740858515392170069e-02) (0, -6.46372139453887939453e-03) (1, 1.91918910994757863087e+00) (2, -1.32492833364526108042e+00) (3, -3.33288963858424169828e+00) (4, -2.16937943902235774729e+00) (5, -5.18753091429507584564e+00) (6, 1.80257686354536517115e+00) (7, 1.48498998296079403048e+01) (8, 1.77342184131856339668e+00) (9, -4.77120041362354729841e+00) (0, 7.17309042811393737793e-02) (1, -5.02380626788500928015e-01) (2, 3.52327823557478547745e-01) (3, 2.37014007950241589739e+00) (4, 2.19859854757719386242e+00) (5, 8.65418932121863604401e-01) (6, 1.51915015694320709727e+00) (7, 6.36867396783780792546e-01) (8, 9.54705759134127696086e-01) (9, 1.35148056817946904395e+00) (0, -7.57555216550827026367e-02) (1, -1.37915672617287343726e+00) (2, 1.08635070180287973685e+00) (3, 6.12482744390421204872e-02) (4, -2.29451716546676465214e+00) (5, -2.31554276925752766658e+00) (6, 6.39043821383464383246e-01) (7, 2.97509783502519165044e-01) (8, 1.99035361978903257985e-01) (9, 3.70803511408313202224e+00) (0, 2.03685611486434936523e-02) (1, 8.84201319541884855902e-01) (2, -6.74232110587280941694e-01) (3, 2.76849555349504228285e-01) (4, -1.73286445267661237679e-01) (5, -3.75685912774895003352e+00) (6, 8.97984372104908001866e-01) (7, 7.85245777402196498684e+00) (8, -6.03497418680043806738e-01) (9, -2.36161158054128206274e+00) (0, 4.16363552212715148926e-02) (1, -3.49508106083427361188e-01) (2, 2.57590075486894665158e-01) (3, 