FANN_FLO_2.1
num_layers=3
learning_rate=0.000100
connection_rate=1.000000
network_type=0
learning_momentum=0.000000
training_algorithm=2
train_error_function=1
train_stop_function=0
cascade_output_change_fraction=0.010000
quickprop_decay=-0.000100
quickprop_mu=1.750000
rprop_increase_factor=1.200000
rprop_decrease_factor=0.500000
rprop_delta_min=0.000000
rprop_delta_max=50.000000
rprop_delta_zero=0.100000
cascade_output_stagnation_epochs=12
cascade_candidate_change_fraction=0.010000
cascade_candidate_stagnation_epochs=12
cascade_max_out_epochs=150
cascade_max_cand_epochs=150
cascade_num_candidate_groups=2
bit_fail_limit=3.49999999999999977796e-01
cascade_candidate_limit=1.00000000000000000000e+03
cascade_weight_multiplier=4.00000000000000022204e-01
cascade_activation_functions_count=10
cascade_activation_functions=3 5 7 8 10 11 14 15 16 17 
cascade_activation_steepnesses_count=4
cascade_activation_steepnesses=2.50000000000000000000e-01 5.00000000000000000000e-01 7.50000000000000000000e-01 1.00000000000000000000e+00 
layer_sizes=10 501 7 
scale_included=0
neurons (num_inputs, activation_function, activation_steepness)=(0, 0, 0.00000000000000000000e+00) (0, 0, 0.00000000000000000000e+00) (0, 0, 0.00000000000000000000e+00) (0, 0, 0.00000000000000000000e+00) (0, 0, 0.00000000000000000000e+00) (0, 0, 0.00000000000000000000e+00) (0, 0, 0.00000000000000000000e+00) (0, 0, 0.00000000000000000000e+00) (0, 0, 0.00000000000000000000e+00) (0, 0, 0.00000000000000000000e+00) (10, 5, 5.00000000000000000000e-01) (10, 5, 5.00000000000000000000e-01) (10, 5, 5.00000000000000000000e-01) (10, 5, 5.00000000000000000000e-01) (10, 5, 5.00000000000000000000e-01) (10, 5, 5.00000000000000000000e-01) (10, 5, 5.00000000000000000000e-01) (10, 5, 5.00000000000000000000e-01) (10, 5, 5.00000000000000000000e-01) (10, 5, 5.00000000000000000000e-01) (10, 5, 5.00000000000000000000e-01) (10, 5, 5.00000000000000000000e-01) (10, 5, 5.00000000000000000000e-01) (10, 5, 5.00000000000000000000e-01) (10, 5, 5.00000000000000000000e-01) (10, 5, 5.00000000000000000000e-01) (10, 5, 5.00000000000000000000e-01) (10, 5, 5.00000000000000000000e-01) (10, 5, 5.00000000000000000000e-01) (10, 5, 5.00000000000000000000e-01) (10, 5, 5.00000000000000000000e-01) (10, 5, 5.00000000000000000000e-01) (10, 5, 5.00000000000000000000e-01) (10, 5, 5.00000000000000000000e-01) (10, 5, 5.00000000000000000000e-01) (10, 5, 5.00000000000000000000e-01) (10, 5, 5.00000000000000000000e-01) (10, 5, 5.00000000000000000000e-01) (10, 5, 5.00000000000000000000e-01) (10, 5, 5.00000000000000000000e-01) (10, 5, 5.00000000000000000000e-01) (10, 5, 5.00000000000000000000e-01) (10, 5, 5.00000000000000000000e-01) (10, 5, 5.00000000000000000000e-01) (10, 5, 5.00000000000000000000e-01) (10, 5, 5.00000000000000000000e-01) (10, 5, 5.00000000000000000000e-01) (10, 5, 5.00000000000000000000e-01) (10, 5, 5.00000000000000000000e-01) (10, 5, 5.00000000000000000000e-01) (10, 5, 5.00000000000000000000e-01) (10, 5, 5.00000000000000000000e-01) (10, 5, 5.00000000000000000000e-01) (10, 5, 5.00000000000000000000e-01) (10, 5, 5.00000000000000000000e-01) (10, 5, 5.00000000000000000000e-01) (10, 5, 5.00000000000000000000e-01) (10, 5, 5.00000000000000000000e-01) (10, 5, 5.00000000000000000000e-01) (10, 5, 5.00000000000000000000e-01) (10, 5, 5.00000000000000000000e-01) (10, 5, 5.00000000000000000000e-01) (10, 5, 5.00000000000000000000e-01) (10, 5, 5.00000000000000000000e-01) (10, 5, 5.00000000000000000000e-01) (10, 5, 5.00000000000000000000e-01) (10, 5, 5.00000000000000000000e-01) (10, 5, 5.00000000000000000000e-01) (10, 5, 5.00000000000000000000e-01) (10, 5, 5.00000000000000000000e-01) (10, 5, 5.00000000000000000000e-01) (10, 5, 5.00000000000000000000e-01) (10, 5, 5.00000000000000000000e-01) (10, 5, 5.00000000000000000000e-01) (10, 5, 5.00000000000000000000e-01) (10, 5, 5.00000000000000000000e-01) (10, 5, 5.00000000000000000000e-01) (10, 5, 5.00000000000000000000e-01) (10, 5, 5.00000000000000000000e-01) (10, 5, 5.00000000000000000000e-01) (10, 5, 5.00000000000000000000e-01) (10, 5, 5.00000000000000000000e-01) (10, 5, 5.00000000000000000000e-01) (10, 5, 5.00000000000000000000e-01) (10, 5, 5.00000000000000000000e-01) (10, 5, 5.00000000000000000000e-01) (10, 5, 5.00000000000000000000e-01) (10, 5, 5.00000000000000000000e-01) (10, 5, 5.00000000000000000000e-01) (10, 5, 5.00000000000000000000e-01) (10, 5, 5.00000000000000000000e-01) (10, 5, 5.00000000000000000000e-01) (10, 5, 5.00000000000000000000e-01) (10, 5, 5.00000000000000000000e-01) (10, 5, 5.00000000000000000000e-01) (10, 5, 5.00000000000000000000e-01) (10, 5, 5.00000000000000000000e-01) (10, 5, 5.00000000000000000000e-01) (10, 5, 5.00000000000000000000e-01) (10, 5, 5.00000000000000000000e-01) (10, 5, 5.00000000000000000000e-01) (10, 5, 5.00000000000000000000e-01) (10, 5, 5.00000000000000000000e-01) (10, 5, 5.00000000000000000000e-01) (10, 5, 5.00000000000000000000e-01) (10, 5, 5.00000000000000000000e-01) (10, 5, 5.00000000000000000000e-01) (10, 5, 5.00000000000000000000e-01) (10, 5, 5.00000000000000000000e-01) (10, 5, 5.00000000000000000000e-01) (10, 5, 5.00000000000000000000e-01) (10, 5, 5.00000000000000000000e-01) (10, 5, 5.00000000000000000000e-01) (10, 5, 5.00000000000000000000e-01) (10, 5, 5.00000000000000000000e-01) (10, 5, 5.00000000000000000000e-01) (10, 5, 5.00000000000000000000e-01) (10, 5, 5.00000000000000000000e-01) (10, 5, 5.00000000000000000000e-01) (10, 5, 5.00000000000000000000e-01) (10, 5, 5.00000000000000000000e-01) (10, 5, 5.00000000000000000000e-01) (10, 5, 5.00000000000000000000e-01) (10, 5, 5.00000000000000000000e-01) (10, 5, 5.00000000000000000000e-01) (10, 5, 5.00000000000000000000e-01) (10, 5, 5.00000000000000000000e-01) (10, 5, 5.00000000000000000000e-01) (10, 5, 5.00000000000000000000e-01) (10, 5, 5.00000000000000000000e-01) (10, 5, 5.00000000000000000000e-01) (10, 5, 5.00000000000000000000e-01) (10, 5, 5.00000000000000000000e-01) (10, 5, 5.00000000000000000000e-01) (10, 5, 5.00000000000000000000e-01) (10, 5, 5.00000000000000000000e-01) (10, 5, 5.00000000000000000000e-01) (10, 5, 5.00000000000000000000e-01) (10, 5, 5.00000000000000000000e-01) (10, 5, 5.00000000000000000000e-01) (10, 5, 5.00000000000000000000e-01) (10, 5, 5.00000000000000000000e-01) (10, 5, 5.00000000000000000000e-01) (10, 5, 5.00000000000000000000e-01) (10, 5, 5.00000000000000000000e-01) (10, 5, 5.00000000000000000000e-01) (10, 5, 5.00000000000000000000e-01) (10, 5, 5.00000000000000000000e-01) (10, 5, 5.00000000000000000000e-01) (10, 5, 5.00000000000000000000e-01) (10, 5, 5.00000000000000000000e-01) (10, 5, 5.00000000000000000000e-01) (10, 5, 5.00000000000000000000e-01) (10, 5, 5.00000000000000000000e-01) (10, 5, 5.00000000000000000000e-01) (10, 5, 5.00000000000000000000e-01) (10, 5, 5.00000000000000000000e-01) (10, 5, 5.00000000000000000000e-01) (10, 5, 5.00000000000000000000e-01) (10, 5, 5.00000000000000000000e-01) (10, 5, 5.00000000000000000000e-01) (10, 5, 5.00000000000000000000e-01) (10, 5, 5.00000000000000000000e-01) (10, 5, 5.00000000000000000000e-01) (10, 5, 5.00000000000000000000e-01) (10, 5, 5.00000000000000000000e-01) (10, 5, 5.00000000000000000000e-01) (10, 5, 5.00000000000000000000e-01) (10, 5, 5.00000000000000000000e-01) (10, 5, 5.00000000000000000000e-01) (10, 5, 5.00000000000000000000e-01) (10, 5, 5.00000000000000000000e-01) (10, 5, 5.00000000000000000000e-01) (10, 5, 5.00000000000000000000e-01) (10, 5, 5.00000000000000000000e-01) (10, 5, 5.00000000000000000000e-01) (10, 5, 5.00000000000000000000e-01) (10, 5, 5.00000000000000000000e-01) (10, 5, 5.00000000000000000000e-01) (10, 5, 5.00000000000000000000e-01) (10, 5, 5.00000000000000000000e-01) (10, 5, 5.00000000000000000000e-01) (10, 5, 5.00000000000000000000e-01) (10, 5, 5.00000000000000000000e-01) (10, 5, 5.00000000000000000000e-01) (10, 5, 5.00000000000000000000e-01) (10, 5, 5.00000000000000000000e-01) (10, 5, 5.00000000000000000000e-01) (10, 5, 5.00000000000000000000e-01) (10, 5, 5.00000000000000000000e-01) (10, 5, 5.00000000000000000000e-01) (10, 5, 5.00000000000000000000e-01) (10, 5, 5.00000000000000000000e-01) (10, 5, 5.00000000000000000000e-01) (10, 5, 5.00000000000000000000e-01) (10, 5, 5.00000000000000000000e-01) (10, 5, 5.00000000000000000000e-01) (10, 5, 5.00000000000000000000e-01) (10, 5, 5.00000000000000000000e-01) (10, 5, 5.00000000000000000000e-01) (10, 5, 5.00000000000000000000e-01) (10, 5, 5.00000000000000000000e-01) (10, 5, 5.00000000000000000000e-01) (10, 5, 5.00000000000000000000e-01) (10, 5, 5.00000000000000000000e-01) (10, 5, 5.00000000000000000000e-01) (10, 5, 5.00000000000000000000e-01) (10, 5, 5.00000000000000000000e-01) (10, 5, 5.00000000000000000000e-01) (10, 5, 5.00000000000000000000e-01) (10, 5, 5.00000000000000000000e-01) (10, 5, 5.00000000000000000000e-01) (10, 5, 5.00000000000000000000e-01) (10, 5, 5.00000000000000000000e-01) (10, 5, 5.00000000000000000000e-01) (10, 5, 5.00000000000000000000e-01) (10, 5, 5.00000000000000000000e-01) (10, 5, 5.00000000000000000000e-01) (10, 5, 5.00000000000000000000e-01) (10, 5, 5.00000000000000000000e-01) (10, 5, 5.00000000000000000000e-01) (10, 5, 5.00000000000000000000e-01) (10, 5, 5.00000000000000000000e-01) (10, 5, 5.00000000000000000000e-01) (10, 5, 5.00000000000000000000e-01) (10, 5, 5.00000000000000000000e-01) (10, 5, 5.00000000000000000000e-01) (10, 5, 5.00000000000000000000e-01) (10, 5, 5.00000000000000000000e-01) (10, 5, 5.00000000000000000000e-01) (10, 5, 5.00000000000000000000e-01) (10, 5, 5.00000000000000000000e-01) (10, 5, 5.00000000000000000000e-01) (10, 5, 5.00000000000000000000e-01) (10, 5, 5.00000000000000000000e-01) (10, 5, 5.00000000000000000000e-01) (10, 5, 5.00000000000000000000e-01) (10, 5, 5.00000000000000000000e-01) (10, 5, 5.00000000000000000000e-01) (10, 5, 5.00000000000000000000e-01) (10, 5, 5.00000000000000000000e-01) (10, 5, 5.00000000000000000000e-01) (10, 5, 5.00000000000000000000e-01) (10, 5, 5.00000000000000000000e-01) (10, 5, 5.00000000000000000000e-01) (10, 5, 5.00000000000000000000e-01) (10, 5, 5.00000000000000000000e-01) (10, 5, 5.00000000000000000000e-01) (10, 5, 5.00000000000000000000e-01) (10, 5, 5.00000000000000000000e-01) (10, 5, 5.00000000000000000000e-01) (10, 5, 5.00000000000000000000e-01) (10, 5, 5.00000000000000000000e-01) (10, 5, 5.00000000000000000000e-01) (10, 5, 5.00000000000000000000e-01) (10, 5, 5.00000000000000000000e-01) (10, 5, 5.00000000000000000000e-01) (10, 5, 5.00000000000000000000e-01) (10, 5, 5.00000000000000000000e-01) (10, 5, 5.00000000000000000000e-01) (10, 5, 5.00000000000000000000e-01) (10, 5, 5.00000000000000000000e-01) (10, 5, 5.00000000000000000000e-01) (10, 5, 5.00000000000000000000e-01) (10, 5, 5.00000000000000000000e-01) (10, 5, 5.00000000000000000000e-01) (10, 5, 5.00000000000000000000e-01) (10, 5, 5.00000000000000000000e-01) (10, 5, 5.00000000000000000000e-01) (10, 5, 5.00000000000000000000e-01) (10, 5, 5.00000000000000000000e-01) (10, 5, 5.00000000000000000000e-01) (10, 5, 5.00000000000000000000e-01) (10, 5, 5.00000000000000000000e-01) (10, 5, 5.00000000000000000000e-01) (10, 5, 5.00000000000000000000e-01) (10, 5, 5.00000000000000000000e-01) (10, 5, 5.00000000000000000000e-01) (10, 5, 5.00000000000000000000e-01) (10, 5, 5.00000000000000000000e-01) (10, 5, 5.00000000000000000000e-01) (10, 5, 5.00000000000000000000e-01) (10, 5, 5.00000000000000000000e-01) (10, 5, 5.00000000000000000000e-01) (10, 5, 5.00000000000000000000e-01) (10, 5, 5.00000000000000000000e-01) (10, 5, 5.00000000000000000000e-01) (10, 5, 5.00000000000000000000e-01) (10, 5, 5.00000000000000000000e-01) (10, 5, 5.00000000000000000000e-01) (10, 5, 5.00000000000000000000e-01) (10, 5, 5.00000000000000000000e-01) (10, 5, 5.00000000000000000000e-01) (10, 5, 5.00000000000000000000e-01) (10, 5, 5.00000000000000000000e-01) (10, 5, 5.00000000000000000000e-01) (10, 5, 5.00000000000000000000e-01) (10, 5, 5.00000000000000000000e-01) (10, 5, 5.00000000000000000000e-01) (10, 5, 5.00000000000000000000e-01) (10, 5, 5.00000000000000000000e-01) (10, 5, 5.00000000000000000000e-01) (10, 5, 5.00000000000000000000e-01) (10, 5, 5.00000000000000000000e-01) (10, 5, 5.00000000000000000000e-01) (10, 5, 5.00000000000000000000e-01) (10, 5, 5.00000000000000000000e-01) (10, 5, 5.00000000000000000000e-01) (10, 5, 5.00000000000000000000e-01) (10, 5, 5.00000000000000000000e-01) (10, 5, 5.00000000000000000000e-01) (10, 5, 5.00000000000000000000e-01) (10, 5, 5.00000000000000000000e-01) (10, 5, 5.00000000000000000000e-01) (10, 5, 5.00000000000000000000e-01) (10, 5, 5.00000000000000000000e-01) (10, 5, 5.00000000000000000000e-01) (10, 5, 5.00000000000000000000e-01) (10, 5, 5.00000000000000000000e-01) (10, 5, 5.00000000000000000000e-01) (10, 5, 5.00000000000000000000e-01) (10, 5, 5.00000000000000000000e-01) (10, 5, 5.00000000000000000000e-01) (10, 5, 5.00000000000000000000e-01) (10, 5, 5.00000000000000000000e-01) (10, 5, 5.00000000000000000000e-01) (10, 5, 5.00000000000000000000e-01) (10, 5, 5.00000000000000000000e-01) (10, 5, 5.00000000000000000000e-01) (10, 5, 5.00000000000000000000e-01) (10, 5, 5.00000000000000000000e-01) (10, 5, 5.00000000000000000000e-01) (10, 5, 5.00000000000000000000e-01) (10, 5, 5.00000000000000000000e-01) (10, 5, 5.00000000000000000000e-01) (10, 5, 5.00000000000000000000e-01) (10, 5, 5.00000000000000000000e-01) (10, 5, 5.00000000000000000000e-01) (10, 5, 5.00000000000000000000e-01) (10, 5, 5.00000000000000000000e-01) (10, 5, 5.00000000000000000000e-01) (10, 5, 5.00000000000000000000e-01) (10, 5, 5.00000000000000000000e-01) (10, 5, 5.00000000000000000000e-01) (10, 5, 5.00000000000000000000e-01) (10, 5, 5.00000000000000000000e-01) (10, 5, 5.00000000000000000000e-01) (10, 5, 5.00000000000000000000e-01) (10, 5, 5.00000000000000000000e-01) (10, 5, 5.00000000000000000000e-01) (10, 5, 5.00000000000000000000e-01) (10, 5, 5.00000000000000000000e-01) (10, 5, 5.00000000000000000000e-01) (10, 5, 5.00000000000000000000e-01) (10, 5, 5.00000000000000000000e-01) (10, 5, 5.00000000000000000000e-01) (10, 5, 5.00000000000000000000e-01) (10, 5, 5.00000000000000000000e-01) (10, 5, 5.00000000000000000000e-01) (10, 5, 5.00000000000000000000e-01) (10, 5, 5.00000000000000000000e-01) (10, 5, 5.00000000000000000000e-01) (10, 5, 5.00000000000000000000e-01) (10, 5, 5.00000000000000000000e-01) (10, 5, 5.00000000000000000000e-01) (10, 5, 5.00000000000000000000e-01) (10, 5, 5.00000000000000000000e-01) (10, 5, 5.00000000000000000000e-01) (10, 5, 5.00000000000000000000e-01) (10, 5, 5.00000000000000000000e-01) (10, 5, 5.00000000000000000000e-01) (10, 5, 5.00000000000000000000e-01) (10, 5, 5.00000000000000000000e-01) (10, 5, 5.00000000000000000000e-01) (10, 5, 5.00000000000000000000e-01) (10, 5, 5.00000000000000000000e-01) (10, 5, 5.00000000000000000000e-01) (10, 5, 5.00000000000000000000e-01) (10, 5, 5.00000000000000000000e-01) (10, 5, 5.00000000000000000000e-01) (10, 5, 5.00000000000000000000e-01) (10, 5, 5.00000000000000000000e-01) (10, 5, 5.00000000000000000000e-01) (10, 5, 5.00000000000000000000e-01) (10, 5, 5.00000000000000000000e-01) (10, 5, 5.00000000000000000000e-01) (10, 5, 5.00000000000000000000e-01) (10, 5, 5.00000000000000000000e-01) (10, 5, 5.00000000000000000000e-01) (10, 5, 5.00000000000000000000e-01) (10, 5, 5.00000000000000000000e-01) (10, 5, 5.00000000000000000000e-01) (10, 5, 5.00000000000000000000e-01) (10, 5, 5.00000000000000000000e-01) (10, 5, 5.00000000000000000000e-01) (10, 5, 5.00000000000000000000e-01) (10, 5, 5.00000000000000000000e-01) (10, 5, 5.00000000000000000000e-01) (10, 5, 5.00000000000000000000e-01) (10, 5, 5.00000000000000000000e-01) (10, 5, 5.00000000000000000000e-01) (10, 5, 5.00000000000000000000e-01) (10, 5, 5.00000000000000000000e-01) (10, 5, 5.00000000000000000000e-01) (10, 5, 5.00000000000000000000e-01) (10, 5, 5.00000000000000000000e-01) (10, 5, 5.00000000000000000000e-01) (10, 5, 5.00000000000000000000e-01) (10, 5, 5.00000000000000000000e-01) (10, 5, 5.00000000000000000000e-01) (10, 5, 5.00000000000000000000e-01) (10, 5, 5.00000000000000000000e-01) (10, 5, 5.00000000000000000000e-01) (10, 5, 5.00000000000000000000e-01) (10, 5, 5.00000000000000000000e-01) (10, 5, 5.00000000000000000000e-01) (10, 5, 5.00000000000000000000e-01) (10, 5, 5.00000000000000000000e-01) (10, 5, 5.00000000000000000000e-01) (10, 5, 5.00000000000000000000e-01) (10, 5, 5.00000000000000000000e-01) (10, 5, 5.00000000000000000000e-01) (10, 5, 5.00000000000000000000e-01) (10, 5, 5.00000000000000000000e-01) (10, 5, 5.00000000000000000000e-01) (10, 5, 5.00000000000000000000e-01) (10, 5, 5.00000000000000000000e-01) (10, 5, 5.00000000000000000000e-01) (10, 5, 5.00000000000000000000e-01) (10, 5, 5.00000000000000000000e-01) (10, 5, 5.00000000000000000000e-01) (10, 5, 5.00000000000000000000e-01) (10, 5, 5.00000000000000000000e-01) (10, 5, 5.00000000000000000000e-01) (10, 5, 5.00000000000000000000e-01) (10, 5, 5.00000000000000000000e-01) (10, 5, 5.00000000000000000000e-01) (10, 5, 5.00000000000000000000e-01) (10, 5, 5.00000000000000000000e-01) (10, 5, 5.00000000000000000000e-01) (10, 5, 5.00000000000000000000e-01) (10, 5, 5.00000000000000000000e-01) (10, 5, 5.00000000000000000000e-01) (10, 5, 5.00000000000000000000e-01) (10, 5, 5.00000000000000000000e-01) (10, 5, 5.00000000000000000000e-01) (10, 5, 5.00000000000000000000e-01) (10, 5, 5.00000000000000000000e-01) (10, 5, 5.00000000000000000000e-01) (10, 5, 5.00000000000000000000e-01) (10, 5, 5.00000000000000000000e-01) (10, 5, 5.00000000000000000000e-01) (10, 5, 5.00000000000000000000e-01) (10, 5, 5.00000000000000000000e-01) (10, 5, 5.00000000000000000000e-01) (10, 5, 5.00000000000000000000e-01) (10, 5, 5.00000000000000000000e-01) (10, 5, 5.00000000000000000000e-01) (10, 5, 5.00000000000000000000e-01) (10, 5, 5.00000000000000000000e-01) (10, 5, 5.00000000000000000000e-01) (10, 5, 5.00000000000000000000e-01) (10, 5, 5.00000000000000000000e-01) (10, 5, 5.00000000000000000000e-01) (10, 5, 5.00000000000000000000e-01) (10, 5, 5.00000000000000000000e-01) (10, 5, 5.00000000000000000000e-01) (10, 5, 5.00000000000000000000e-01) (10, 5, 5.00000000000000000000e-01) (10, 5, 5.00000000000000000000e-01) (10, 5, 5.00000000000000000000e-01) (10, 5, 5.00000000000000000000e-01) (10, 5, 5.00000000000000000000e-01) (10, 5, 5.00000000000000000000e-01) (10, 5, 5.00000000000000000000e-01) (10, 5, 5.00000000000000000000e-01) (10, 5, 5.00000000000000000000e-01) (10, 5, 5.00000000000000000000e-01) (10, 5, 5.00000000000000000000e-01) (10, 5, 5.00000000000000000000e-01) (10, 5, 5.00000000000000000000e-01) (10, 5, 5.00000000000000000000e-01) (10, 5, 5.00000000000000000000e-01) (10, 5, 5.00000000000000000000e-01) (10, 5, 5.00000000000000000000e-01) (10, 5, 5.00000000000000000000e-01) (10, 5, 5.00000000000000000000e-01) (10, 5, 5.00000000000000000000e-01) (10, 5, 5.00000000000000000000e-01) (10, 5, 5.00000000000000000000e-01) (10, 5, 5.00000000000000000000e-01) (10, 5, 5.00000000000000000000e-01) (10, 5, 5.00000000000000000000e-01) (10, 5, 5.00000000000000000000e-01) (10, 5, 5.00000000000000000000e-01) (10, 5, 5.00000000000000000000e-01) (10, 5, 5.00000000000000000000e-01) (10, 5, 5.00000000000000000000e-01) (10, 5, 5.00000000000000000000e-01) (10, 5, 5.00000000000000000000e-01) (10, 5, 5.00000000000000000000e-01) (10, 5, 5.00000000000000000000e-01) (10, 5, 5.00000000000000000000e-01) (10, 5, 5.00000000000000000000e-01) (10, 5, 5.00000000000000000000e-01) (10, 5, 5.00000000000000000000e-01) (10, 5, 5.00000000000000000000e-01) (10, 5, 5.00000000000000000000e-01) (10, 5, 5.00000000000000000000e-01) (10, 5, 5.00000000000000000000e-01) (0, 5, 0.00000000000000000000e+00) (501, 0, 5.00000000000000000000e-01) (501, 0, 5.00000000000000000000e-01) (501, 0, 5.00000000000000000000e-01) (501, 0, 5.00000000000000000000e-01) (501, 0, 5.00000000000000000000e-01) (501, 0, 5.00000000000000000000e-01) (0, 0, 0.00000000000000000000e+00) 
connections (connected_to_neuron, weight)=(0, 5.60754910111427307129e-02) (1, -3.92577435989628839574e-02) (2, 9.49934245213400751950e-02) (3, -1.32633021979867649076e-01) (4, -6.22645845849414403261e-01) (5, 3.49631098677501861438e-01) (6, -2.18363314282612658301e-01) (7, 4.18844119792409000369e-02) (8, -3.42777441403847304979e-02) (9, 1.63498933469131857432e-01) (0, 8.17807242274284362793e-02) (1, 1.16437344303309475713e+00) (2, -8.84969910983630536627e-01) (3, -1.33168431147144161741e+00) (4, 4.92390413755178801836e+00) (5, -7.14008609803395755122e-01) (6, -9.39190943116369192367e-01) (7, 3.11910346178809971818e+00) (8, -4.77690932672242496437e-01) (9, -2.97999372831424524932e+00) (0, 8.33787098526954650879e-02) (1, 5.95930284325361436792e-01) (2, -4.90406478616619012634e-01) (3, 1.70445236229867735922e+00) (4, 1.20798093114620076066e-02) (5, 1.49423454308745345953e-01) (6, -5.90924848748087816475e-01) (7, 2.02997731291103411522e+00) (8, -4.91229040702448216393e-01) (9, -1.43424903989851926234e+00) (0, -2.14271843433380126953e-02) (1, -3.32614405782548971935e-01) (2, 1.79133539148819243003e-01) (3, -1.18275363633550623099e+00) (4, 1.29332451033036655019e+00) (5, -1.56669364755690776470e+00) (6, 5.05729842390611139535e-01) (7, 1.99838512532401757493e-01) (8, 7.01401314382258250779e-02) (9, 5.57182942409175763210e-01) (0, -7.69547820091247558594e-02) (1, 5.72781186409782261393e-01) (2, -4.37705655476321897623e-01) (3, -3.57542915125631410866e-01) (4, 1.13514894522745501959e+00) (5, -3.93416334607151974012e+00) (6, 4.00901088371029723501e-01) (7, 5.53598235000012461882e+00) (8, -3.48034846080392423762e-01) (9, -1.37698025779907973210e+00) (0, -3.20311263203620910645e-02) (1, 9.29823748776280184503e-02) (2, -1.21724006348020219459e-01) (3, 1.75954151191130725440e-01) (4, 1.86467131429892629679e-01) (5, -1.81439424269970950299e-01) (6, -2.02993657826996160010e-01) (7, 3.12433629034878146413e-01) (8, 4.79842084495332929506e-02) (9, -8.06929189733963936337e-02) (0, -6.81982412934303283691e-02) (1, 1.59483718620650444242e-01) (2, -2.88356171897739127497e-02) (3, 4.65285037061710718409e-02) (4, 1.70905469663651277124e-01) (5, -1.14454113146695557468e+00) (6, 1.44500985935912512614e-01) (7, 1.25576497582619084348e+00) (8, 1.91196742695427489289e-02) (9, -3.53268820163823216163e-01) (0, 2.05988287925720214844e-02) (1, 1.26159855321284403162e-01) (2, -2.17073884570862206400e-02) (3, 2.36006009248335923978e-01) (4, 5.68894219973837336757e-02) (5, 7.26623287209349988380e-01) (6, -1.24198622164470168228e-01) (7, 9.96584566785751607698e-02) (8, -6.91723372580537176901e-02) (9, -3.67228514440967712673e-01) (0, 4.40853610634803771973e-02) (1, 3.59281828855411156098e-02) (2, -8.78912717741099358548e-02) (3, 1.65386684404268735626e-01) (4, -6.28505352118091803471e-02) (5, -2.25695146469178459236e-01) (6, -1.25928663271293761472e-01) (7, 5.70439952373027359123e-01) (8, 6.16215882875370130067e-02) (9, -1.57448364013204084033e-01) (0, -2.10591107606887817383e-02) (1, 2.50425892141431905014e-01) (2, -1.76400674184387845633e-01) (3, 6.32304474001583960430e-01) (4, 3.95621434296378304829e-01) (5, -2.44573615166297581025e-01) (6, -2.53567525922622827306e-01) (7, 1.36230643941093720883e+00) (8, 2.01672218143608278362e-02) (9, -8.66379593975772688275e-01) (0, 8.07045027613639831543e-02) (1, 3.45778774350454453333e-04) (2, -3.54842268759277511270e-03) (3, 1.16897639159123004071e-01) (4, -4.84051662166544882648e-01) (5, 8.42940406778856177183e-01) (6, -6.75219812654425322052e-01) (7, 1.43042759649146228318e-01) (8, 1.03651046037153801889e-03) (9, 5.55417455456176795137e-02) (0, 5.02538010478019714355e-02) (1, -6.39956467221227398579e-02) (2, -8.12341847491541285686e-03) (3, 1.03836819159141474644e-01) (4, -2.31473268259080189324e+00) (5, -8.34745626051136835333e-02) (6, -2.79986916812387298670e-01) (7, 1.86127290820003876703e+00) (8, 8.29306824762302552401e-02) (9, 1.78585251885271634187e-01) (0, -3.18302661180496215820e-02) (1, 1.50916535832784304283e-01) (2, -6.52994730907028725353e-02) (3, 3.26118099668578231842e+00) (4, 2.87953356243433056250e+00) (5, -9.59608509973235768165e-01) (6, 1.38210891077303510421e+00) (7, -6.67448732777249253978e-01) (8, 4.89944634419202329489e-01) (9, -4.24788507765450740195e-01) (0, -4.34099137783050537109e-03) (1, 1.99689150523506941948e-01) (2, -2.94404088088420667901e-01) (3, 2.35609240904520095272e-01) (4, 4.95733740499100183907e-01) (5, -1.05980457626574486873e+00) (6, -1.44406780322431427255e-01) (7, 1.66235320320571755559e+00) (8, -6.76610309152399398702e-03) (9, -7.36605038671281464602e-01) (0, -5.62641061842441558838e-02) (1, 2.36028152832141790984e-01) (2, -9.24467057948751697039e-02) (3, 1.64823667148604718902e-01) (4, 1.72870752095054491804e+00) (5, -1.09590844479260574040e+00) (6, 5.93514416872339967135e-01) (7, 5.70645367672589443053e-01) (8, -1.12163510703580326933e-01) (9, -4.67538617870954242850e-01) (0, 6.22604563832283020020e-02) (1, 1.26106706040649524381e-01) (2, -1.34069837091547933161e-01) (3, 5.06872572326585335567e-01) (4, -1.05929897720787424831e+00) (5, 1.35758976525908225952e+00) (6, -6.70574556285652101373e-01) (7, 4.17828567964388442046e-01) (8, 8.08765207017520665334e-03) (9, -2.39075365855062671461e-01) (0, -9.93702486157417297363e-02) (1, 2.18412478969022105790e-01) (2, -1.23327052373837758870e-01) (3, 4.85014068900848138721e-01) (4, 1.01552526783066010552e+00) (5, -1.64843891749882648368e-01) (6, 2.48075243718078701505e-02) (7, 1.89353394610733333225e-01) (8, 2.51986022502150410277e-03) (9, -4.35196639859519895932e-01) (0, 1.36943086981773376465e-02) (1, 2.26848810944749484930e-01) (2, -2.73300689670300800405e-01) (3, 6.77548255766018736601e-01) (4, 8.98774465568440206198e-01) (5, -2.61181920375709475390e-01) (6, -2.14871827821786987034e-01) (7, 7.76158970888108590280e-01) (8, -1.07101077732796468728e-02) (9, -6.46472318181992577912e-01) (0, -4.52171564102172851562e-02) (1, -1.55883062539038996785e-01) (2, 1.57318615285676560722e-01) (3, -3.66462972511927220776e-01) (4, 1.89388413634319430559e-03) (5, -1.09686462376253324180e+00) (6, 2.17279455318809794351e-01) (7, -3.99161404504828135065e-02) (8, 2.07094507917118322848e-02) (9, 5.11645091467931689699e-01) (0, -6.67568743228912353516e-02) (1, -6.55435902962947236627e-02) (2, 1.64519479937635104694e-02) (3, -2.87384578194026518716e-01) (4, -7.46866866295749054494e-01) (5, 8.06287967671307614914e-01) (6, -2.43365486270383582501e-02) (7, -4.47528345650539727263e-01) (8, 5.86205886246587426491e-02) (9, 2.25476990910840446869e-01) (0, -7.49965608119964599609e-02) (1, -2.22426592125601479966e-02) (2, 9.56631741033399374263e-03) (3, -1.93842935009490902054e-01) (4, 9.14444405621284261976e-01) (5, -3.71392778499928188918e-01) (6, 3.83184239251772529311e-01) (7, -6.73537153587123738063e-01) (8, -3.23479711086545607124e-02) (9, 4.87538397660481747503e-03) (0, -3.04341763257980346680e-02) (1, -3.27335040533636545401e-01) (2, 3.53240306127110104129e-01) (3, -1.06651860368033624127e+00) (4, 4.16381942695573770141e-01) (5, -9.15815373901197937734e-01) (6, 3.56321993245489576640e-01) (7, -1.21207728262449454526e+00) (8, 1.33481370592027970279e-01) (9, 1.05084672635783693551e+00) (0, 9.67933014035224914551e-02) (1, 1.26004344851304139058e-02) (2, -4.70069070630362573215e-02) (3, 4.05177957521399179086e+00) (4, 6.82550409897371057610e+00) (5, -3.30079748923325722032e+00) (6, 2.25769297356416182021e-01) (7, -1.48637357989043050743e+00) (8, 5.99942032240074474281e-01) (9, -1.61458143748540366991e-01) (0, -5.69578409194946289062e-02) (1, 5.90280981221889058941e-02) (2, -9.55542151897271763161e-02) (3, 3.27518532796024552933e-01) (4, 3.54487529126909173272e-01) (5, -8.02440380207262576873e-02) (6, -2.74622175388890832348e-02) (7, 4.43352342792623421719e-01) (8, 5.82287706598750218201e-02) (9, -3.85832839051625464677e-01) (0, 2.54622921347618103027e-02) (1, -2.30090212876812028053e-01) (2, 5.27159009540204906430e-02) (3, -1.43827782150645538950e-01) (4, -3.82577903877558078705e-01) (5, -5.97848022147298707729e-01) (6, 2.94844117353296575335e-01) (7, -4.15698772405543925945e-01) (8, 3.90206083423462746218e-02) (9, 5.03879200804329352437e-01) (0, -4.97382059693336486816e-02) (1, 8.56471892422487890428e-02) (2, -1.80532129564926264358e-04) (3, -2.28305176211787523577e-02) (4, -8.60700135672431282385e-02) (5, -4.98783346464046761781e-02) (6, -2.99710731849122002934e-01) (7, 6.69118063555100950346e-01) (8, -9.51573726649377338305e-02) (9, -9.79510201081909559484e-02) (0, 5.74745163321495056152e-02) (1, 1.26519432563241024381e-01) (2, -7.35982458283393758958e-02) (3, 2.08234413774084914373e-01) (4, 1.52935052996648362944e-01) (5, 3.34340379594777026284e-01) (6, -2.06076841035348706788e-01) (7, 1.49667626217190263826e-01) (8, -2.14124039254349508854e-02) (9, -1.95368539290296128197e-01) (0, -7.11135640740394592285e-02) (1, 5.70296527404712469411e-02) (2, -1.64905855913402815682e-01) (3, 4.90613807652896527500e-01) (4, 3.00664253333358832965e-01) (5, -1.97736854032261211156e-01) (6, 6.54356478350510972763e-02) (7, 2.80031890459596755072e-01) (8, 3.21473174809451922584e-01) (9, -3.51422902559003547118e-01) (0, 6.13640621304512023926e-02) (1, 3.39921821028244919294e-01) (2, -2.84709521658867426019e-01) (3, 5.53356819816016254343e-01) (4, 2.75073439269518382755e-02) (5, -6.24810013205558886784e-02) (6, -9.13065595425477660729e-02) (7, 1.37495090138833919724e+00) (8, 7.67021043336642283084e-02) (9, -6.89537534789026129722e-01) (0, 1.05411633849143981934e-02) (1, -6.75049502882534957493e-01) (2, 5.90496252650847486265e-01) (3, -2.82074126938092728523e+00) (4, 3.42433228984810877904e+00) (5, -1.58712639195640159429e+00) (6, 1.95284264012252684051e-01) (7, -3.93151274373678194518e-01) (8, 3.71558317837089535640e-01) (9, 1.75210326471209842936e+00) (0, -5.78512996435165405273e-03) (1, -7.09294461158932604272e-02) (2, 6.19306141844596022561e-02) (3, -1.19164247736171964587e-02) (4, -4.03249726926294904672e-01) (5, 3.76459112411196283876e-01) (6, -3.99633516521495993357e-02) (7, -1.27194943799223553205e-01) (8, -3.37439969429363106901e-02) (9, 3.61582172284954095343e-02) (0, -9.28766727447509765625e-02) (1, -5.39794496023041012189e-02) (2, 4.26717107238859041929e-02) (3, -1.96646221376914592804e-01) (4, -1.83193900858717832747e-02) (5, 6.67805268765194082192e-01) (6, -1.82558439545477096955e-01) (7, -6.38550389874582680072e-01) (8, -8.82202832338401243817e-02) (9, 1.86372155031376579570e-01) (0, 8.66720899939537048340e-02) (1, -7.38446284888657489276e-02) (2, -2.65165627331674681744e-02) (3, 2.46463838340958307782e-01) (4, -2.08331154671699353420e-01) (5, -2.05581377835937162413e-01) (6, -3.00631207554679757976e-01) (7, 2.07048587607359585450e-01) (8, 1.25841321279828478874e-02) (9, 5.97908470925207838342e-02) (0, 5.79619184136390686035e-02) (1, -1.25879871915506119651e-01) (2, 7.82450144793831771362e-03) (3, -3.38060354778258798092e-01) (4, -5.38507749559529069749e-01) (5, 6.16039479611735441011e-01) (6, 3.45223940835024334373e-01) (7, -7.71313367113489412041e-01) (8, -1.11506135454617245906e-02) (9, 3.20751227614138822997e-01) (0, 1.39585360884666442871e-02) (1, -1.34096808148094187585e-01) (2, -8.57536538489011776476e-03) (3, 1.41832399020272101331e-03) (4, 3.02384501592786536506e+00) (5, -1.19877493552436376056e+00) (6, 5.09614906954566460051e-01) (7, -9.75386704448815033963e-01) (8, 1.61121189947395493380e-01) (9, 3.15763658316730089215e-01) (0, -6.63577839732170104980e-02) (1, 4.37727440101572870534e-02) (2, -9.84480450825839514817e-02) (3, 4.91677417920650533523e-02) (4, -2.11579716326907973922e-01) (5, 2.40945061796926290887e-01) (6, -1.99406006472434893517e-01) (7, 1.25908393611217528374e-01) (8, -6.15757917934771220603e-02) (9, 3.88137092931473554058e-02) (0, -4.79102134704589843750e-02) (1, 8.97671249777371033085e-02) (2, -1.55121771042829897924e-01) (3, 2.27332290501672473759e-01) (4, 4.19950346266288909725e-01) (5, -5.41438254545962061037e-01) (6, 3.84737989814406655675e-01) (7, 7.73753466451386762159e-01) (8, 1.00069981656399367709e-01) (9, -4.76827024735499094277e-01) (0, -2.35693007707595825195e-02) (1, -3.01372846378812793422e-02) (2, 4.48176946799211037287e-02) (3, -2.24986521312519199833e-01) (4, -2.91115317505614007443e-02) (5, -7.02566300339806715236e-01) (6, 2.39018407323018683419e-01) (7, 1.06847584477246668189e-01) (8, 2.86163682653539086509e-02) (9, 2.21420695487145408054e-01) (0, -1.74226388335227966309e-02) (1, 1.57376706762664820942e-03) (2, 3.03035055833957081561e-02) (3, 2.03526297084392626680e-01) (4, 5.02205271811622000477e-01) (5, -6.78232012394258010346e-01) (6, -2.88302023108641183868e-02) (7, 5.51625102583832793712e-01) (8, -1.44836792755359405893e-02) (9, -2.57283382866838106207e-01) (0, -6.86000287532806396484e-03) (1, 5.30015268059279343049e-01) (2, -3.84715486788477611935e-01) (3, 5.56713482593887665217e+00) (4, -2.29623863633718716670e+00) (5, 2.82268862774705153740e+00) (6, 1.99234618930157703076e+00) (7, -3.72670085329751810121e+00) (8, -5.24835287479638923358e-01) (9, -1.11413891025323286144e+00) (0, -6.77382498979568481445e-02) (1, -2.59278457123129191242e-01) (2, 1.01785079209501541642e-01) (3, -3.72315723806309395449e-01) (4, 1.54043364538888644111e-01) (5, -3.79634010616008210626e-01) (6, 2.06188733548159974784e-01) (7, -7.27339430840717282578e-01) (8, 2.20389290658087877439e-02) (9, 3.73807568743883877893e-01) (0, -2.43822634220123291016e-02) (1, -1.73240613343904031884e-01) (2, 4.30888246019251811014e-02) (3, -7.01801780630669558292e-01) (4, 9.74226937875304010994e-01) (5, -1.65187800598655876172e+00) (6, 4.97258081091075665459e-01) (7, 5.55159492638599205705e-01) (8, -8.68863014064333860631e-02) (9, 2.36323824531301185381e-01) (0, -2.61233970522880554199e-02) (1, -1.06454722873256260596e-01) (2, -2.42440325827228200795e-02) (3, -5.20384450870131631817e-02) (4, 2.53425591609049205566e-01) (5, -1.12671015066937130200e+00) (6, -1.84927805274694517790e-01) (7, 7.36838648520471872772e-01) (8, -5.59782603471418310770e-02) (9, 4.13273691929516573396e-02) (0, -6.82277977466583251953e-03) (1, -3.32073588708133249359e-01) (2, 2.79817564069518021075e-01) (3, -2.04368707046215236645e+00) (4, 6.76006164328735309477e-02) (5, -3.76712444628441389671e-01) (6, -5.53514039870368623752e-02) (7, -9.20960592383930909399e-01) (8, 3.09474630700670050309e-01) (9, 1.08142399797603405709e+00) (0, 1.63365155458450317383e-02) (1, 2.05426405022277103196e-01) (2, -2.35494990013337235357e-01) (3, 3.72383424824832331979e-01) (4, -2.46339461432788814355e-01) (5, 8.25136873589377262128e-01) (6, -1.84085428364184511274e-01) (7, 5.89456659488054479645e-01) (8, -1.83724190426275552079e-02) (9, -4.87153503173942958870e-01) (0, 4.72813770174980163574e-02) (1, 1.20174601563541294524e+00) (2, -8.67326024090683600498e-01) (3, 1.91689142901514060213e+01) (4, -9.61938059425539826464e+00) (5, -4.83805448528005133113e+00) (6, -3.45749389642408755385e-01) (7, -2.97153013790580189379e+00) (8, 4.70219508014371068150e-01) (9, -3.09819230533533351846e+00) (0, 8.02965536713600158691e-02) (1, 1.23900347605796892769e-01) (2, -2.34495217841409753223e-01) (3, -2.07461524302844946277e+00) (4, 2.31230859592170645556e+00) (5, -2.34632168622728709551e+00) (6, 2.16689246856519857065e-01) (7, 2.41895979181587161833e+00) (8, -1.94226333818978691426e-01) (9, -5.13394980766847530695e-01) (0, 9.16495546698570251465e-02) (1, 2.36799224486935161460e-01) (2, -9.85416783176727151261e-02) (3, 7.75077711785941869671e-01) (4, -6.29332819796075249030e-01) (5, 1.19968415205295131365e+00) (6, -3.74037456133613555043e-01) (7, 2.73377922222267311092e-01) (8, -4.45876687425331916237e-02) (9, -5.63460188038873210914e-01) (0, 7.04616978764533996582e-02) (1, -1.83608600957996387359e-01) (2, 1.46205706122392864454e-01) (3, -1.03484679165423121283e+00) (4, 1.52996831848710135304e+00) (5, -1.16126788946903758415e+00) (6, 3.90944793153683411990e-01) (7, -7.19773348529203382817e-01) (8, 7.75838855270041122258e-02) (9, 7.34084052254190821962e-01) (0, 3.80803421139717102051e-02) (1, 3.00328050093765674955e-01) (2, -8.89970597154718656707e-02) (3, 6.66030740766502371564e-01) (4, -5.92929751296722074017e+00) (5, 2.96096950242259460140e+00) (6, -3.26086721471684881646e-01) (7, 4.75214825781714866881e-01) (8, -5.79822057959610615008e-01) (9, -7.17493063551433496450e-01) (0, 6.00411519408226013184e-02) (1, 1.62725995458241651237e-01) (2, -7.05998301335735850559e-02) (3, -5.39324830152483059020e-02) (4, -3.39658269894024200664e-01) (5, -4.78526715595507967649e-01) (6, -1.28135513570974940434e-01) (7, 1.19003555112640779790e+00) (8, 2.88869169175957285489e-01) (9, -1.64247609618169143619e-01) (0, 1.20651125907897949219e-02) (1, -9.00913238497203228139e-02) (2, 1.33985108507553352108e-01) (3, -3.36716006115154453671e-01) (4, -8.02660558667774304276e-01) (5, 3.70469253751821270271e-01) (6, -3.05965391012235576884e-01) (7, -4.14334970310793249126e-01) (8, -4.26424697869213290002e-02) (9, 4.88452736281242083649e-01) (0, 5.14874607324600219727e-03) (1, 1.21888089563762486156e-01) (2, -4.00603084909371826017e-02) (3, 1.09930464110195386107e-01) (4, -1.16771827065350539132e-02) (5, 1.02254239413530845226e+00) (6, -2.68824455447916943474e-01) (7, -1.37964878352804243278e-01) (8, 2.10743881252433351223e-03) (9, -2.77128067827127178013e-01) (0, 1.03740319609642028809e-02) (1, -4.16607227730731097259e-02) (2, 5.23052768266302481326e-02) (3, -2.61952537344025515598e-01) (4, -2.61119775596840797416e-01) (5, -3.08021278667017617270e-01) (6, -1.20265200499915181354e-01) (7, -6.28128062998799530092e-02) (8, -1.46265001164422592250e-02) (9, 3.57144075584399867118e-01) (0, 6.10962137579917907715e-02) (1, -3.06392837109966287290e-01) (2, 2.62312373923331676462e-01) (3, -6.97665671633911466110e-01) (4, 1.72262822582152017037e-02) (5, -8.85111599949261251830e-01) (6, 5.46997775560732590883e-01) (7, -9.30601609720242528567e-01) (8, 4.07071308657963176758e-02) (9, 8.45784315324784374823e-01) (0, -3.17921787500381469727e-02) (1, 2.37072203426796523917e-01) (2, -2.48013403355508782466e-01) (3, 9.86351480255869184077e+00) (4, 7.91870351631438396112e+00) (5, -3.86985040807917224370e+00) (6, -1.27179414995217321405e+00) (7, -2.55556209612814333454e+00) (8, -1.19481738916389634841e-01) (9, -6.48676768241582046848e-01) (0, 1.04936137795448303223e-02) (1, -2.73960764548222879267e-01) (2, 3.04825322956600308633e-01) (3, -8.46144670866263104436e-01) (4, -3.92631921811018025359e-01) (5, -4.20923320751350138469e-01) (6, 1.40702169374962521298e-01) (7, -7.05404000953531284956e-01) (8, 1.20759277788510033247e-01) (9, 7.62059650920447362310e-01) (0, -3.95356900990009307861e-02) (1, -1.48409497408041851640e-01) (2, 1.29816961786141826796e-01) (3, -7.66041750885099181900e-01) (4, 3.61364009569994926174e-01) (5, -1.55595460834207965917e+00) (6, -1.53055759916089443445e-02) (7, 8.01755983459199739194e-01) (8, -1.51674797205847006198e-01) (9, 3.45764233837355383638e-01) (0, -3.83932851254940032959e-02) (1, 3.07836286534786340852e-01) (2, -9.67730431332465279581e-02) (3, 5.43768315087804432473e-01) (4, 9.74086338451924521609e-02) (5, 2.71556039336648014082e-01) (6, -3.62926240955340595473e-01) (7, 9.57524381664216717169e-01) (8, -1.96056845520507123937e-02) (9, -5.88253139977476635636e-01) (0, -7.56678730249404907227e-03) (1, -2.59193979170536450973e-02) (2, -9.58732310930990143383e-03) (3, 1.33633115143721059592e-01) (4, 6.46316891171517804437e-02) (5, -3.70960319937009452840e-01) (6, 9.75461666105734287457e-02) (7, 1.38850975135166532226e-01) (8, 1.93184990040642969034e-02) (9, -3.60524002545405466980e-02) (0, 2.07722187042236328125e-03) (1, 1.71778209173495885476e-02) (2, -5.91467065486147858255e-02) (3, 1.13202539294324763808e-01) (4, 9.26717737475270308956e-01) (5, -9.36086047867923931598e-01) (6, 2.90760384645419756033e-01) (7, 3.47516468763141850307e-01) (8, -8.45671740430131366195e-03) (9, -2.13592620482982081809e-01) (0, 3.04698571562767028809e-02) (1, 1.02062950312927461227e-01) (2, -1.11916595905932989008e-01) (3, 4.93205544119946326376e-01) (4, 1.42700554522060558266e-02) (5, -3.30215615286699848419e-01) (6, -4.12137094815496041189e-01) (7, 1.18668463839728777209e+00) (8, -9.71608100472067144626e-03) (9, -4.74083526133944554992e-01) (0, 6.83693960309028625488e-02) (1, 1.24549621335126245447e-01) (2, -9.45230267878187646602e-02) (3, 1.87227378110350145546e-01) (4, 7.59315186293748944912e-01) (5, -7.52750470719312891887e-01) (6, 4.66425602309308948590e-04) (7, 7.86491663086762438084e-01) (8, 2.51250814234894835619e-02) (9, -3.92823267706717993430e-01) (0, 7.76349008083343505859e-03) (1, -5.03614132411458678695e-02) (2, 3.20381529485480875952e-02) (3, -2.29307177598959133213e-01) (4, 6.28799962790548949698e-01) (5, -9.78684828607157331071e-01) (6, 2.01303512533888062652e-01) (7, -3.86790379553374960575e-02) (8, 4.78768168633722599609e-03) (9, 2.00988692494068310612e-01) (0, 7.54926577210426330566e-02) (1, -8.28270794494392614826e-02) (2, 1.39890783022593556684e-01) (3, -3.34216875688098657982e-01) (4, -5.83732512654880977832e-02) (5, -4.20104266026698869307e-01) (6, 2.17925205083510237225e-01) (7, -5.67590921681585980352e-01) (8, -3.22464661089411977479e-02) (9, 4.69938327010370693326e-01) (0, 8.14760997891426086426e-02) (1, 2.27531368829361341222e-01) (2, -2.28732567502257372327e-01) (3, 5.40241005945678032241e-01) (4, 5.61131796722260378640e-02) (5, 1.41797810155777437302e+00) (6, -3.74516811558884554767e-01) (7, -1.97144393555346908453e-01) (8, -2.14079112613856439862e-02) (9, -5.77795598153162504040e-01) (0, -1.24573707580566406250e-04) (1, -2.20064687727428320851e-01) (2, 1.30766034497739158660e-01) (3, -6.52623795981358001406e-01) (4, -2.14697191453986607756e-01) (5, -9.64594578719649486942e-01) (6, 5.32546509329502107399e-02) (7, -3.38493131196219709800e-02) (8, 9.45019308019401371723e-02) (9, 6.44522685553987728646e-01) (0, 3.90204265713691711426e-02) (1, 2.10195555035894932061e-01) (2, -2.58930784646154765749e-01) (3, 1.46764546536603268656e+00) (4, 5.02615525709952493116e-01) (5, 7.86985825468911465164e-02) (6, 1.61865434064628360700e-01) (7, 6.16825669126301434630e-01) (8, -3.62370350321797735083e-02) (9, -7.59494811904089184296e-01) (0, -8.60337466001510620117e-02) (1, 1.51133180682741480316e-01) (2, -4.06622614897075851381e-02) (3, 1.95394578361132564837e+00) (4, 1.92852644287583996352e+00) (5, -4.85726557523749047363e-01) (6, 4.52656854180138346067e-01) (7, -2.25850893516828882257e-01) (8, 2.93239403256511654838e-01) (9, -4.12194273185917559044e-01) (0, 2.92992815375328063965e-02) (1, 1.32685710992251282292e+00) (2, -1.09608347345764101100e+00) (3, 8.13895698102688491815e+00) (4, -7.89179752589714134103e+00) (5, 3.29618037600677427079e+00) (6, 7.80157122423338761363e-02) (7, 1.88394333107738454203e+00) (8, 2.52525072914273673863e-01) (9, -3.46240377937331222924e+00) (0, 4.23466041684150695801e-02) (1, 4.51145619822365895324e-01) (2, -3.38152064511856365048e-01) (3, 1.46336779136388162037e+00) (4, -9.50278967549949449278e-01) (5, 1.36828265467144638556e+00) (6, -2.73798178697098382184e-01) (7, 1.80375800504213312792e-01) (8, -1.47175340595401937804e-01) (9, -9.10500919254628060528e-01) (0, -3.68562564253807067871e-02) (1, -9.26099020053210431058e-02) (2, 7.77530482269232908754e-02) (3, -1.75201830772800826175e-01) (4, 3.13985579447704499234e-01) (5, 2.39098880669166929946e-01) (6, 1.19095763425588446749e-01) (7, -5.53950999239187891199e-01) (8, -7.44838060776436688970e-02) (9, 3.27526375177835324393e-02) (0, 5.98473474383354187012e-02) (1, 1.97838025317503690692e-01) (2, -2.02485203389719259359e-01) (3, 2.37318902193929648359e-01) (4, -2.62443956157085885039e-02) (5, -6.95793848443615914334e-01) (6, 1.68717322434312533286e-01) (7, 1.33062590523655610575e+00) (8, 1.64294887812290790752e-01) (9, -4.80897368306666572746e-01) (0, -1.93565636873245239258e-02) (1, -2.47369573065082171137e-01) (2, 7.47956227871996170986e-02) (3, -4.03496300052913925427e-01) (4, -2.87183245148228571964e-01) (5, 3.86111069622023128645e-01) (6, 1.10950311244988775172e-01) (7, -9.72540307727158603868e-01) (8, -1.07085580857337794164e-02) (9, 4.63233360520148906847e-01) (0, 1.58181190490722656250e-02) (1, -1.17548669427862267911e-01) (2, 3.48709896581246153735e-02) (3, 5.28985247116363743736e-01) (4, -9.60758547689681607906e-01) (5, 1.66855965365701552905e+00) (6, -3.96061564779009889214e-01) (7, -1.40761662525771136245e+00) (8, 2.77822608909894297469e-01) (9, 3.06805367395875605574e-01) (0, -4.14965823292732238770e-02) (1, 1.48477931429870507740e-01) (2, -1.68636852584723051507e-01) (3, 4.38260670878493241442e-01) (4, -7.87535411871785218096e-01) (5, 9.45093051903159397931e-01) (6, -2.71526261865097873205e-01) (7, 4.75877220853723692517e-01) (8, -4.76184991909914224432e-04) (9, -3.02349236135424859206e-01) (0, 6.82024657726287841797e-03) (1, 1.72168433202147974637e-01) (2, -1.38454591507319368926e-01) (3, 2.79412340639878464810e-01) (4, 5.95038443429437347021e-01) (5, 1.36758865958242770144e-01) (6, -2.27058053781648144787e-02) (7, 5.83848418148372183545e-01) (8, 3.27229376100761359947e-02) (9, -6.03593020470906793662e-01) (0, -6.33911788463592529297e-02) (1, -1.24865118172177904515e-02) (2, 9.59408334274759466709e-02) (3, -1.92429333353215548108e-01) (4, 1.39781303711658838607e-01) (5, -7.69087260198652478138e-01) (6, 5.88144637182663521102e-01) (7, -2.79135260216922864718e-01) (8, 7.13122539989009297801e-04) (9, 1.88021798557638758487e-01) (0, 7.59134367108345031738e-02) (1, -2.50660795213661524716e-01) (2, 1.69470444874379316813e-01) (3, -3.74751905409616181686e+00) (4, -3.19794423850402909082e+00) (5, 7.55132669910864584573e-01) (6, -1.82619123726649901229e+00) (7, 1.15009716077790402622e+00) (8, -5.48384933685020725669e-01) (9, 5.52471306775782711185e-01) (0, 5.34275397658348083496e-02) (1, -2.05196277381545139074e-01) (2, 1.06664349199533825541e-01) (3, -2.93133520689467796938e-01) (4, 3.93453787193724591198e-01) (5, -7.52275174381585975958e-01) (6, 2.31839188145788910322e-01) (7, -4.09408619179678689992e-01) (8, -2.43989025064095879647e-02) (9, 2.78449210230525712184e-01) (0, 5.22864833474159240723e-02) (1, -6.98459173292285961931e-02) (2, 1.59998983182323070706e-02) (3, 6.35584736575520309332e-02) (4, -1.47550397127472754377e+00) (5, 1.01150059038745232520e+00) (6, -1.92650776929479627952e-01) (7, -3.09540495356506295543e-01) (8, 3.48514069225007369623e-02) (9, 1.90960808359107808707e-01) (0, 1.68651193380355834961e-02) (1, -1.53989238363716779423e-01) (2, 1.82607077302203435476e-01) (3, -4.85805414728313567085e-01) (4, 1.21323739721772391742e-01) (5, -3.45211015497660755891e-01) (6, 3.20323489682898976394e-01) (7, -1.01838948174409260616e+00) (8, 2.69112390399776704730e-02) (9, 5.57472957477467834231e-01) (0, 3.56171280145645141602e-03) (1, 1.31573302594499341733e-01) (2, -4.27075926569586775128e-02) (3, 3.76685548295582650624e-01) (4, -1.77082507987392029358e-01) (5, 3.76799893950276187926e-01) (6, -2.65712644513624515752e-02) (7, 3.93229596494429067821e-01) (8, 4.64787468142452489528e-02) (9, -3.42002278933169590047e-01) (0, 7.72738531231880187988e-02) (1, -5.28508861446438243936e-02) (2, 9.93768471914534684553e-02) (3, -3.85186785292530697866e-01) (4, 1.08950079226541474142e+00) (5, -9.39259739963095197091e-01) (6, 5.93316693302476161342e-01) (7, -1.03710117337513962887e+00) (8, -2.09123477780896530054e-02) (9, 1.81505472606329154583e-01) (0, -1.18715316057205200195e-02) (1, -6.88077882957878195214e-02) (2, -6.54263178980248050198e-02) (3, -2.80273021583155000636e-02) (4, -2.76635065832630089311e-01) (5, 8.69362023274812822926e-01) (6, -2.50026440128317206657e-01) (7, -2.47078985527308864212e-01) (8, -1.96994452365497826896e-02) (9, -4.32560553073277065383e-02) (0, 8.59278663992881774902e-02) (1, -1.73247381436697905910e-01) (2, 5.13166575788570819561e-02) (3, -5.41508199651460353508e-01) (4, 4.81158372509282616925e-01) (5, -1.15072292678599863436e+00) (6, 2.30820139119289502450e-01) (7, -2.39009799784250354104e-01) (8, 8.38082224196537287943e-04) (9, 5.47337787568284883655e-01) (0, -2.79915779829025268555e-02) (1, 2.78444039107391648480e-02) (2, -6.12182242632873310773e-02) (3, 5.24724655797182526484e-01) (4, -1.13894365537190633830e+00) (5, 1.50604645412903126456e+00) (6, 4.31675431146069821242e-01) (7, -7.46381374493626070787e-01) (8, 2.59252005351194358962e-01) (9, -1.85788989633594414652e-01) (0, -3.51450964808464050293e-02) (1, -8.19349194481634596210e-02) (2, 1.19645906548665557217e-02) (3, -8.03108052185030896197e-02) (4, 5.01699159431386654262e-01) (5, -3.49670579292724825748e-01) (6, 3.50301292483555903878e-01) (7, -6.91703228084378340945e-01) (8, 2.23136179779892356023e-02) (9, 9.70212338900938581210e-02) (0, -6.89930394291877746582e-02) (1, 2.39929087676523183914e-01) (2, -1.97803154750119281058e-01) (3, 3.34839380708373712814e-01) (4, -3.56966211936639993274e-02) (5, 1.08147074751567573436e+00) (6, -5.55594122656053179821e-02) (7, -1.39220139387743774284e-01) (8, 3.32227346841116738529e-02) (9, -3.91603179817193225443e-01) (0, -7.96776264905929565430e-02) (1, 1.05492331120366530928e-01) (2, -1.57527158061409239265e-01) (3, 1.71198256866415682298e-01) (4, -2.69346878611309613685e-03) (5, 2.36524598480327752359e-01) (6, -3.29071668471551115331e-01) (7, 3.94430792869445434601e-01) (8, 6.95780791904985172758e-03) (9, -1.35837379924921786145e-01) (0, 4.01167050004005432129e-02) (1, 9.20317101400167092429e-02) (2, -9.56602583021502056448e-02) (3, 1.37234358170508247143e-01) (4, 2.45220623697058576207e-01) (5, -7.64707553676917672902e-01) (6, 7.58196266011420261233e-02) (7, 5.78565874057844542477e-01) (8, 8.49516323474502899060e-03) (9, -8.83466310602464138801e-02) (0, -5.50096556544303894043e-02) (1, 3.69964417814942145291e-02) (2, -3.69294790178400292313e-02) (3, -7.89249237094912792223e-02) (4, -8.36889715009923040867e-02) (5, 8.63644424370215380016e-01) (6, 7.55658114677509734625e-02) (7, -4.06627942885036841592e-01) (8, -3.44338994632597183640e-03) (9, -1.05013727396693415383e-01) (0, 1.50962024927139282227e-02) (1, -1.11220484765180444714e-02) (2, -9.68234646475394783449e-02) (3, -3.65948328305232412072e-02) (4, 6.48223485943424659883e-02) (5, -1.72818987481398594896e-01) (6, -8.50560593385858987325e-02) (7, 3.49691082069824521472e-01) (8, -6.06591367386113793081e-03) (9, -5.41140199224496437624e-02) (0, 7.50317201018333435059e-02) (1, 5.41609960738205220565e-01) (2, -4.09064401271487354528e-01) (3, -3.01916883221388498981e+00) (4, 4.25854620725309018781e+00) (5, -2.23788807357844676815e+00) (6, 4.94233725740485185796e-01) (7, 2.32347095190384411723e+00) (8, -5.35533227439527678704e-02) (9, -1.10351176918398485860e+00) (0, -3.28863263130187988281e-02) (1, 4.69425674519382760130e-03) (2, -4.48131625074204911763e-02) (3, -1.12719919482192620919e-01) (4, 1.12814896657181501505e-01) (5, -1.17209668394750488041e+00) (6, -1.30082717890243337866e-01) (7, 8.96447257715878853546e-01) (8, 8.56577976841966237664e-02) (9, 2.39064157942399067858e-02) (0, 1.49729028344154357910e-02) (1, -2.23344698973449662383e-01) (2, 1.20535306951381440688e-01) (3, -3.60021732534049343499e-01) (4, -4.46853045453914632379e-01) (5, -9.22540665091187150892e-01) (6, 7.34520410950974950159e-02) (7, 9.67093616291325591794e-02) (8, 1.75947952897451860566e-02) (9, 5.54335476030821894255e-01) (0, 3.92482653260231018066e-02) (1, -1.45132967214807839795e+00) (2, 1.13484764196742515807e+00) (3, -1.86977612114407287791e+00) (4, -2.60380078384390190038e+00) (5, 1.92634713562063053516e+00) (6, 1.13501459379967406527e+00) (7, 3.61212579025760982532e+00) (8, 9.34011025670594574599e-01) (9, 3.87209639278565642684e+00) (0, 5.28953969478607177734e-03) (1, 7.15501531773809762438e-02) (2, 2.19543147970893692822e-02) (3, 1.44724006683540601381e-01) (4, -5.42544192573584035943e-02) (5, 4.01242024822340614953e-01) (6, 1.23071414127358669255e-01) (7, -9.66230219539567503073e-02) (8, 1.36841474343286917392e-02) (9, -1.72883745236665886669e-01) (0, 7.35089257359504699707e-02) (1, 1.74418644347841961251e-01) (2, -1.91973225205409547822e-01) (3, 8.33558697174807017305e-01) (4, -7.73582561158978387894e-01) (5, 1.53485841695520064398e+00) (6, -7.69962379900799159804e-02) (7, -3.52548221439927644827e-01) (8, -1.17117115321512497983e-02) (9, -5.24884189762202968410e-01) (0, -9.84893143177032470703e-02) (1, 2.99180319031298547205e-01) (2, -2.93015941135792934436e-01) (3, 1.35194912482550888555e+00) (4, -5.36314723593075082242e-01) (5, 1.13289842565178444644e+00) (6, -2.45234164998239079214e-01) (7, 2.67256439277146429223e-01) (8, -1.83648027467155056103e-01) (9, -8.03495376979838193954e-01) (0, -6.43167644739151000977e-02) (1, 1.03876606284533254398e-01) (2, -1.40191242589730646895e-01) (3, 1.07075310685370878039e-01) (4, 4.29766227179770310407e-01) (5, -9.14396206850468740157e-01) (6, -2.89627196630981957604e-02) (7, 8.91164380034646597117e-01) (8, -4.17350955891476957382e-02) (9, -2.20903614309873097543e-01) (0, -7.10185617208480834961e-02) (1, -1.67807646728863918417e-01) (2, -1.38744204213601379089e-02) (3, -2.00508315928803831918e-01) (4, 3.86833014257456475615e-01) (5, -1.10781201605986034942e+00) (6, 2.82952701098525882806e-01) (7, 5.80705350303557937819e-02) (8, 3.91812489000476910084e-02) (9, 2.29786684456686457478e-01) (0, 9.58185270428657531738e-02) (1, 4.35166853529234398668e-01) (2, -2.85196373508907641270e-01) (3, 6.98440039861020323109e-01) (4, 4.28266276261658640490e-01) (5, 3.77094680969135911952e-02) (6, -1.58500857036429909641e-01) (7, 1.44223986888399791084e+00) (8, 2.51634883985067912826e-02) (9, -1.02600559557967407898e+00) (0, 1.62967294454574584961e-03) (1, 1.60026164422112371355e-01) (2, -1.68549235217054393932e-01) (3, 7.71013677632098826109e-01) (4, -9.52792485867259064669e-01) (5, 1.47187511197702036725e+00) (6, -4.33393651030771320798e-01) (7, -2.46015361736900944889e-01) (8, 7.17404892700579249754e-02) (9, -3.56673047119612562916e-01) (0, -3.21810692548751831055e-02) (1, 2.47836823310661931441e-02) (2, -8.09461150352687452969e-02) (3, 2.62092376917208935705e-01) (4, 7.60780348514681903360e-02) (5, 3.05703205810946232468e-01) (6, -3.82442739460712166633e-02) (7, 3.59415621720389266702e-01) (8, 3.77939277223382705251e-02) (9, -3.84974098465394432012e-01) (0, 3.42651978135108947754e-02) (1, -1.73579404345658855346e-01) (2, 1.44066573747599929733e-01) (3, -5.29870139839457965358e-01) (4, 5.72670464569846882075e-02) (5, 4.29285661237761712039e-02) (6, 2.05576643888176313624e-01) (7, -9.28369602897358259241e-01) (8, 5.26954520141534234895e-03) (9, 4.33837977775670069480e-01) (0, -8.65929573774337768555e-02) (1, -1.18031562779163018417e-01) (2, 8.83309684051462734589e-02) (3, -2.84101848731344919230e-01) (4, -1.56043232845351098614e-01) (5, -4.19094116033196073534e-01) (6, 2.07771758324486133240e-01) (7, -5.31158578963122018912e-01) (8, 4.25172664657728557880e-03) (9, 4.74855124736291545062e-01) (0, 8.56295004487037658691e-02) (1, 1.26810315823441405181e-01) (2, -1.19403415229798998132e-01) (3, 1.86997519258471800452e-01) (4, 1.22243773666574351289e+00) (5, -4.26204961356993594634e-01) (6, 1.05119069426396016809e+00) (7, -8.24861574121031559947e-01) (8, -6.83079773334358125725e-02) (9, -4.79410131960757879277e-01) (0, 9.82022210955619812012e-02) (1, 1.04317021090046452292e-01) (2, -1.88150427653099638903e-01) (3, 4.17218192444796964757e-01) (4, -3.68683477763106004499e-01) (5, 1.26192407237064019299e+00) (6, -3.51247180045351714561e-01) (7, 7.45669942593835122224e-02) (8, 1.02338283451987484274e-03) (9, -4.53546944306034816030e-01) (0, -4.28010411560535430908e-02) (1, 1.25286142312374559893e-01) (2, -1.49346074300165720938e-01) (3, 2.75206833927162275444e-01) (4, -2.92910088151073944029e-01) (5, 9.90180227212603014664e-01) (6, -4.45300004516343439498e-01) (7, 4.18512354659057728146e-01) (8, -5.28103092354203218495e-02) (9, -3.60432572123576211442e-01) (0, -7.17788040637969970703e-02) (1, -2.88968903316095981904e-01) (2, 1.56735550606948270680e-01) (3, -5.50812489726593690342e-01) (4, -7.74619665539435842128e-01) (5, -2.36135578721402311642e-01) (6, -4.40449183747880945727e-01) (7, -1.44208451228039463698e-01) (8, 1.75600556722588452274e-01) (9, 5.77597757163058611596e-01) (0, 5.75129464268684387207e-02) (1, 1.96700027647509434470e-01) (2, -7.94798199556325524195e-02) (3, 2.96124462965961066097e-01) (4, 1.66868941588499158923e-01) (5, 6.96370519219097428021e-01) (6, 3.25444024129590558925e-01) (7, -2.20826789962487363139e-01) (8, 2.37291140963513530471e-02) (9, -3.63608148105235950975e-01) (0, -9.23177674412727355957e-02) (1, -3.56162325711112559556e-01) (2, 2.64025454350659660729e-01) (3, -6.62367094605644912697e-01) (4, -7.31834415672914517792e-02) (5, -2.72093636265363890414e-02) (6, 1.87705820183761751263e-01) (7, -1.14640942974766746332e+00) (8, 3.05994368293761413724e-02) (9, 6.04027061837838608049e-01) (0, 1.02754980325698852539e-02) (1, -2.85044429654259745543e-01) (2, 1.66504109616843393171e-01) (3, -4.13735144351117301031e-01) (4, -2.44745192847452969209e-01) (5, -8.44932732059900382104e-01) (6, -1.56679764843440177957e-01) (7, -6.63829017957430350672e-02) (8, -1.02312894006297318283e-02) (9, 5.66219265148871664373e-01) (0, 1.97005271911621093750e-03) (1, 9.12239027802459051530e-02) (2, -6.32465241732836722793e-03) (3, 4.21937299693642964282e-02) (4, -1.06200773729117348143e-01) (5, 2.29688084492447902596e-01) (6, -7.15269537679477374059e-02) (7, -2.09518998937552575201e-01) (8, -3.50218574859268924615e-02) (9, 1.04053259446096404983e-01) (0, -2.07039341330528259277e-02) (1, 3.95223721704363317730e-02) (2, 4.86981123803910745385e-02) (3, 1.32194401265315231164e-01) (4, 2.01921526412532664763e-01) (5, -4.50808802995707136319e-01) (6, -3.00745565684253472749e-02) (7, 2.75610600354599111217e-01) (8, -1.88572882238407756039e-02) (9, -5.80313279830925662917e-02) (0, -8.51076990365982055664e-02) (1, -2.71653873011185181818e-02) (2, 7.37763292927125918785e-02) (3, 2.63185544455887210358e-01) (4, -5.53261436190636488042e-02) (5, -1.69517837182669439677e-01) (6, -2.41267766736038752340e-01) (7, 3.95733499563705737323e-01) (8, 4.98217017031270456573e-02) (9, -1.56590486619664931434e-01) (0, 3.53179350495338439941e-02) (1, 2.28995899993349211199e-01) (2, -2.70317340745135858970e-01) (3, 6.40010117665672395582e-01) (4, 1.06496773552441958977e+00) (5, -9.04253951468382555223e-02) (6, 6.82509958022898155505e-01) (7, 9.24048775431472457775e-02) (8, -1.45914184408946073779e-01) (9, -6.00273333833031497164e-01) (0, 4.76090386509895324707e-02) (1, 1.26610499960616684767e-01) (2, -3.92106602657039393645e-02) (3, 1.61068465565913976345e-01) (4, -2.88843175487510595012e-01) (5, 1.06023425261013737320e+00) (6, -2.30043642455320884732e-01) (7, 1.80005914000781717943e-02) (8, -6.61697944853505137797e-02) (9, -2.84576401964906078312e-01) (0, -4.41257134079933166504e-02) (1, -1.58720730529093412287e-01) (2, 2.60165659977882081366e-02) (3, -3.21527490641977775621e-01) (4, -5.21736230043141693824e-02) (5, -1.25919653601144404531e-01) (6, 4.64148301882603864232e-01) (7, -6.99263449733383168905e-01) (8, -2.02079742133538060520e-03) (9, 2.94279728794673789416e-01) (0, 6.84159621596336364746e-02) (1, -1.78551854086794498100e-01) (2, 9.63592316157282913203e-02) (3, -3.83524157445142149792e-02) (4, 7.62257467642871860969e-02) (5, -7.62700892652609097055e-01) (6, 2.95389366897534436096e-02) (7, -1.71955674461408941633e-01) (8, 4.17177942178040793431e-03) (9, 2.85931523623252303867e-01) (0, -7.42728263139724731445e-03) (1, 1.66308512311324735444e-01) (2, -1.05976948530348058508e-01) (3, 2.04797104411248126477e-01) (4, 4.78425679347262711172e-01) (5, -1.40950500474387369065e-01) (6, 5.63169813841468580584e-01) (7, -6.54169552253139330311e-02) (8, -2.08682454682539630583e-03) (9, -2.94382931096310640484e-01) (0, 2.74105370044708251953e-03) (1, 9.78385273726351117896e-02) (2, -4.12242778477585770230e-03) (3, 1.04817476782525592638e-01) (4, -2.14657401924883112221e-01) (5, 2.65302516766895202238e-01) (6, -2.53988341766433256552e-01) (7, 5.05263588682987263567e-01) (8, 6.41933271301974115591e-03) (9, -1.64610386915950951403e-01) (0, -2.50276029109954833984e-02) (1, -3.53161789367302872411e-02) (2, -4.40356342204155995490e-02) (3, 2.57510678265271131249e-02) (4, -5.28658463162199401819e-02) (5, 1.95639532378163422122e-01) (6, 1.46585286717645264798e-02) (7, -1.57902736792969677904e-01) (8, 3.73571331110005445258e-03) (9, 6.98907273424392958168e-04) (0, 9.56475958228111267090e-02) (1, 1.82140542931082116684e-01) (2, -1.07962795620217252845e-01) (3, 3.46642793349574651618e-01) (4, -5.95683213173160863718e-01) (5, 1.16070953059347070635e+00) (6, -1.45560068358248084763e-01) (7, -2.64031480894306724849e-01) (8, 7.03025026348000348086e-02) (9, -1.72476858811470845634e-01) (0, -2.94300466775894165039e-02) (1, 2.16146668527320950925e-01) (2, -7.55743780984031998660e-02) (3, 2.81560700107712391649e-01) (4, 6.30480222239245824412e-01) (5, -7.29875743273022514757e-01) (6, 4.41975118070989825281e-01) (7, 5.50724712139141314715e-01) (8, 1.54764398084486082263e-02) (9, -3.55155336940810584245e-01) (0, 5.26949539780616760254e-02) (1, 1.36725670562617557247e-01) (2, -1.55010693867814547398e-01) (3, 6.31599587571459397672e-01) (4, 1.24823515879083069002e+00) (5, 9.42539837970120947253e-02) (6, 4.04717939886754141110e-01) (7, -4.52478367758656685460e-01) (8, -1.07724879481932808711e-01) (9, -4.47198943461985354286e-01) (0, 9.48512032628059387207e-02) (1, -4.80666088452782802598e-01) (2, 4.71794426359836871487e-01) (3, -2.96995811191796699191e+00) (4, 1.03874461991944677663e+00) (5, -1.05584731098471462651e+00) (6, 3.72908861543088387958e-01) (7, -2.38164500093867248509e-01) (8, 5.31038030271093974832e-01) (9, 1.35229906661057386330e+00) (0, -6.24058954417705535889e-02) (1, -1.35373089586483225100e-01) (2, 1.31088846456069191282e-01) (3, -2.90351101652243981377e-01) (4, -1.49754332725694772055e-01) (5, 2.87644236743570258508e-02) (6, 6.02760270898041530807e-02) (7, -5.40171558384429317812e-01) (8, 4.53834410381552741387e-02) (9, 2.88513450261954185194e-01) (0, -1.27203464508056640625e-02) (1, -9.05810015608799340425e-02) (2, -7.42374568456309331770e-04) (3, -5.77584772606775376236e-02) (4, -1.39866040402978497603e+00) (5, 5.55725406337967298143e-01) (6, -1.63307901021142926057e-01) (7, 2.21321424899328045299e-01) (8, 2.90671929514716258225e-02) (9, 2.04318527681115663652e-01) (0, 6.77172020077705383301e-02) (1, 1.84670288964589396352e-01) (2, -1.42295216846816174883e-01) (3, 7.19205152104651079803e-01) (4, -1.36360882912437886283e+00) (5, 1.25256725959956094485e+00) (6, -5.04137851564383954184e-01) (7, 4.45469638162383885227e-01) (8, -1.86982620308970316769e-02) (9, -3.85139897725124469297e-01) (0, 6.33589848875999450684e-02) (1, -7.15089957550815308318e-02) (2, 1.30749515863949311578e-01) (3, -1.55614959628629367927e+00) (4, 1.51589317231229592231e+00) (5, -1.87187397439310498903e+00) (6, 7.18680410395438618032e-01) (7, 9.62902753530211374944e-01) (8, 2.25392986959516011813e-02) (9, 3.28652757067431522398e-01) (0, 9.51494500041007995605e-02) (1, -2.17991038456180374894e+00) (2, 1.74864463913903755987e+00) (3, -1.01422786136434126547e+01) (4, 4.10295967527913951756e+00) (5, -5.41500143337243322605e+00) (6, -1.23152288841313239942e+01) (7, -1.84787958992434542260e+00) (8, -6.28030015070006331079e-02) (9, 5.61585142574186324538e+00) (0, 9.30959805846214294434e-02) (1, -9.64052597637845565259e-02) (2, -5.17354797604804780842e-02) (3, -5.65627841466315728347e-02) (4, 6.37797188925124824976e-01) (5, -6.35344938827104521728e-01) (6, 4.30698274373365330714e-01) (7, -2.61275208795756219704e-01) (8, 7.31694768536455750207e-03) (9, -4.88404346118491566875e-02) (0, 1.35125517845153808594e-02) (1, 3.50103965704003594617e-01) (2, -3.69161243591025256539e-01) (3, 7.68101993335628341342e-01) (4, 4.38600530070060334875e-01) (5, 1.17137899495264097283e+00) (6, -4.13367524980157385883e-01) (7, 2.57646135218405458733e-01) (8, -1.22550498310152675141e-01) (9, -8.70503482233392356093e-01) (0, 4.02894541621208190918e-02) (1, 1.10279935164957570981e-01) (2, -3.44878901270896584541e-02) (3, 7.93930078631896879449e-02) (4, 6.81228756148310354845e-01) (5, -9.98104562560712782471e-01) (6, 9.67982658846262833396e-02) (7, 6.19396196985674829527e-01) (8, -9.97454856776530951468e-02) (9, -1.43714769591118840530e-01) (0, 2.07030400633811950684e-02) (1, -2.90448372653521080800e-01) (2, 1.98227403753585523782e-01) (3, 5.49051901066509806526e+00) (4, -3.95930898983035683969e+00) (5, 4.24011055170207384890e+00) (6, 4.90188694301488883664e-02) (7, -4.70986279121037298978e+00) (8, -3.40369287599205594397e-01) (9, 1.02199798969277289018e+00) (0, 6.96671828627586364746e-02) (1, 4.89723002079183955537e-01) (2, -3.84935839223234266271e-01) (3, 1.61610111716933757542e+00) (4, -2.61977656018666094084e+00) (5, 1.53275743658907903644e+00) (6, -3.23470290691588613363e-01) (7, 2.39872761399521516879e-01) (8, -3.12359168081302707165e-01) (9, -1.09758903995906220707e+00) (0, -5.63961528241634368896e-02) (1, -2.50846810671884079547e-01) (2, 1.63038602123541875866e-01) (3, -3.49119214356608864591e-01) (4, -2.02850363624256430084e-01) (5, -1.23545940399409381882e+00) (6, 1.59062750723651002982e-01) (7, 3.94640936833263178407e-01) (8, 8.42493506509472273036e-02) (9, 3.74264773063799682795e-01) (0, -5.25499396026134490967e-02) (1, -3.91148407526593244743e-01) (2, 2.55441638095468881442e-01) (3, -4.28639272189111464328e-01) (4, 1.16690250467609457630e+00) (5, 1.75974144967963130881e+00) (6, 2.99147823225862419250e-01) (7, -2.89808330094962007806e+00) (8, 1.05093538742755829296e-01) (9, 8.50156766717006573408e-01) (0, -9.60299372673034667969e-02) (1, -9.99981596071093659095e-02) (2, -2.59946447612077052858e-02) (3, -5.45876232693765367499e-02) (4, 2.39980767383420168226e-01) (5, -1.89586307803062154020e-01) (6, 5.28197050640461962523e-01) (7, -6.33946392603555231027e-01) (8, -2.21304572148849978963e-02) (9, 5.72965179876549352000e-02) (0, 6.19479194283485412598e-02) (1, -9.01381655888399413445e-02) (2, 1.07692573916681952340e-01) (3, -4.85687968540382375426e-01) (4, -5.32017785469008130939e-01) (5, 3.08694461511126339026e-01) (6, -3.12549860853885697054e-01) (7, -4.60958138286755081392e-01) (8, -1.10448558287660238142e-02) (9, 4.85203213830037616283e-01) (0, 4.56040725111961364746e-02) (1, -1.37271765124321789425e-02) (2, -1.06223666425702051308e-01) (3, -3.39566449739340109337e-02) (4, -1.34174832840629781883e-01) (5, -1.00619926984846716489e-01) (6, 4.55149039090853413381e-01) (7, 1.28014108539130533337e-01) (8, 2.01418618071859331642e-02) (9, -1.02530955460786180056e-01) (0, -9.41418558359146118164e-02) (1, -1.50177464968224955166e-01) (2, 6.88150067525102604460e-02) (3, -2.64962651549210781443e-01) (4, -6.55787367562960299416e-01) (5, 8.62398180254366986119e-01) (6, 2.33505802702540288251e-01) (7, -8.65564504409186530332e-01) (8, 3.01744843824789353570e-02) (9, 3.05957375929345742893e-01) (0, -9.75339412689208984375e-02) (1, -8.68591696119269396359e-02) (2, 6.02532666248232276485e-02) (3, -3.54628086386341523362e-01) (4, -4.62961129226047096719e-01) (5, 2.19647184452405025423e-01) (6, 2.52665293961406578482e-01) (7, -5.51143129186589586510e-01) (8, -1.41600904793013800120e-02) (9, 3.63603364700118225628e-01) (0, -7.43062123656272888184e-02) (1, -2.56199072584891662796e-01) (2, 1.74953213546802321954e-01) (3, -5.03384188835003909546e-01) (4, 2.01273779914742240171e-01) (5, -2.09222528255934625552e-01) (6, 2.55814855800795215579e-01) (7, -1.01633983585940446126e+00) (8, -5.62054342839936951770e-02) (9, 4.59695719891375531585e-01) (0, -5.44279552996158599854e-02) (1, 1.73755396982691823204e-01) (2, -2.61453397259546083120e-01) (3, 4.66057553466991625335e-01) (4, -1.84364823025839008608e-01) (5, 1.04197032163939562466e+00) (6, 7.67699370758281318672e-02) (7, 1.57688795075365872922e-01) (8, -7.53280624300564083384e-02) (9, -5.50668146661366431083e-01) (0, -5.68634681403636932373e-02) (1, 8.94424283404414988130e-02) (2, -1.97669352516182360302e-02) (3, 1.48459681370813806334e-01) (4, 9.88521864292917551431e-01) (5, -6.52029603824850645388e-01) (6, 1.85865146082459326005e-01) (7, 6.70740490630471614120e-02) (8, 6.17857103935408047413e-02) (9, -2.06707796429461743148e-01) (0, -1.29749923944473266602e-02) (1, -2.38763485791072399556e-01) (2, 2.89416586564396227654e-01) (3, -8.73078058558371727926e-01) (4, -3.55270579078951972973e-02) (5, -7.95395879623547630288e-01) (6, 2.46796886175611851488e-01) (7, -5.43885378076844672179e-01) (8, 9.77790680406045026318e-02) (9, 7.38900251541971253566e-01) (0, 7.72869661450386047363e-02) (1, 6.60856731161078014836e-02) (2, -2.30985445845601072845e-02) (3, 1.04960836473872012875e-01) (4, 7.19659185601025236378e-02) (5, 3.96976158105787624297e-01) (6, 1.89389947601932229215e-01) (7, 4.51304269298960850088e-02) (8, -3.41649383998044592348e-02) (9, -2.70014816876433638715e-01) (0, 7.44827911257743835449e-02) (1, -9.00695392884238443809e-02) (2, 3.96819185016566502999e-02) (3, -1.71289446473976730845e-01) (4, 7.80263100838975542928e-01) (5, -1.39516040036486743681e+00) (6, 1.04742405970693605588e-01) (7, 5.74707580616843571875e-01) (8, -1.59199502909130735651e-01) (9, 6.85484693440966408318e-02) (0, 8.88519361615180969238e-02) (1, 1.18096492243614445417e-01) (2, -8.77232134735513591206e-02) (3, 2.09111408165535944681e-01) (4, -3.29819253886481089655e-01) (5, 2.60347383769922668950e-01) (6, -9.05197273153274944990e-02) (7, 5.01094304349758323802e-01) (8, 2.52067247719597146982e-02) (9, -1.85553734632356776002e-01) (0, -5.28788715600967407227e-02) (1, 5.53004961366412792212e-02) (2, -8.39214191701017214742e-02) (3, 3.90542850876135383409e-01) (4, 2.51092597269814254979e-01) (5, -4.78309271128842083964e-01) (6, -4.29274805676107984453e-01) (7, 7.33366633945113921556e-01) (8, -3.79695976397349740927e-02) (9, -2.12107497243750137139e-01) (0, -6.10657446086406707764e-02) (1, 1.22444064808377398035e-01) (2, -1.95720007749228930294e-01) (3, 4.34190406074733581399e-01) (4, -2.03266918026812556941e-02) (5, 8.11880387624062449525e-01) (6, -6.39647711193558010656e-01) (7, 4.87667681577978240348e-01) (8, 1.05890218075491183980e-02) (9, -3.95641678677139341236e-01) (0, -3.54017093777656555176e-02) (1, -1.73859821140842051024e-02) (2, 6.07708544567227837430e-02) (3, -2.42235514445898081348e-01) (4, 1.01560085708470998478e-02) (5, -5.28570648628835182414e-01) (6, 1.72703872910584005362e-01) (7, -1.58712101413118977788e-01) (8, -2.59036753800176537677e-02) (9, 3.04138340398661499719e-01) (0, 4.25093397498130798340e-02) (1, -8.73267036978953442583e-02) (2, -2.81034181039908868838e-02) (3, -2.04094745527637816407e-01) (4, 2.99739766574878774286e-01) (5, -8.41432118681927909698e-02) (6, 3.79385431431188024920e-01) (7, -6.08631597612006358666e-01) (8, 4.63073043280055815507e-02) (9, 9.52728756529057640989e-02) (0, -4.81804087758064270020e-02) (1, -7.44877306911072123441e-01) (2, 5.49562253648665066663e-01) (3, 1.60465796552729034197e+00) (4, -3.08990401877420461929e+00) (5, 2.23637028687025374296e+00) (6, 2.89397638310898042135e-01) (7, -3.57765104051911153604e+00) (8, 3.14928042591382406634e-01) (9, 1.79441627063554554056e+00) (0, -8.01825821399688720703e-02) (1, -9.50461446918729468969e-02) (2, 1.63650791695521963254e-01) (3, -1.00128192470558749494e-01) (4, -8.39618515859214403774e-02) (5, -4.59880433440781777321e-01) (6, -1.00794259004044505813e-03) (7, -8.63203929174570366856e-02) (8, -2.77676836725071225082e-03) (9, 2.15437363753146510215e-01) (0, 3.93725112080574035645e-02) (1, 7.15663553324774603936e-02) (2, 3.85759960079499752972e-02) (3, 2.31553512279675777208e+00) (4, -2.36358927992724332512e+00) (5, 2.22697205139381981809e+00) (6, -3.55315845577146460776e-01) (7, -1.75870833420571304195e+00) (8, 3.76214536612637512336e-02) (9, 1.32260282715527463515e-02) (0, -9.10906121134757995605e-02) (1, 2.05021996340147755200e-01) (2, -2.44920003444652867319e-01) (3, 2.07274660811759409151e-02) (4, 1.62629129554213847086e+00) (5, -1.33642864473635447631e+00) (6, 4.21783441449366580667e-01) (7, 1.13476591614210309267e+00) (8, -1.69486479916102855681e-01) (9, -5.69507005415748834842e-01) (0, -5.53558245301246643066e-02) (1, 2.65296191771952905025e-01) (2, -1.10280020758595831420e-01) (3, 1.00014860065292321423e+00) (4, 1.67996178202102841581e+00) (5, -2.75752618635773161238e-01) (6, 5.97611455521028900328e-01) (7, -3.18418977356003496393e-01) (8, -1.40275258020672088932e-01) (9, -3.72516555836129026336e-01) (0, 7.63080045580863952637e-02) (1, 7.09068354687896473809e-02) (2, -3.81352846862597627542e-02) (3, 2.69558404544785801260e-01) (4, 2.20278766405411818852e+00) (5, -6.69839844202828604836e-01) (6, 2.72201485837075402019e-02) (7, -2.91460106842621524681e-01) (8, 1.51370273119962456265e-02) (9, -2.71839737078071463916e-01) (0, 2.02814713120460510254e-02) (1, 7.66087237957938649302e-02) (2, -2.26373813274182954236e-02) (3, 8.24333218837511039201e-02) (4, 9.44580661009570415887e-02) (5, -4.40201757917359715044e-01) (6, 1.24967020705518960799e-01) (7, 9.90551440237395219857e-02) (8, 1.02903458552260525238e-02) (9, 5.41165274968570045311e-02) (0, -3.60596030950546264648e-02) (1, -4.73536819752870055678e-02) (2, 9.72204316807113860799e-02) (3, -1.49675015054334836773e-01) (4, 1.74080458260565063000e-01) (5, -1.12605816083434961961e+00) (6, 1.78714692103907224485e-01) (7, 4.32894350716745757168e-01) (8, 1.93112607408031829170e-02) (9, 1.51705686136273998343e-01) (0, 2.16375291347503662109e-03) (1, -1.67994536993178317230e-01) (2, 1.16026509953476422710e-01) (3, -3.27981199140678858495e-01) (4, -2.00976203599055214255e-01) (5, -3.36140927418144164207e-01) (6, 2.93935357742674208126e-01) (7, -5.51048490972462778892e-01) (8, 2.87803506814676528236e-02) (9, 4.16948781751676766927e-01) (0, 1.02724805474281311035e-02) (1, -3.49014072270671993348e-01) (2, 1.01307951771799603646e-01) (3, -5.94386571883533276761e-01) (4, -3.09228520125184203060e-01) (5, 1.00568715350463411262e-01) (6, 2.23649063711153367473e-01) (7, -1.17735609704182775381e+00) (8, 5.12145965631653973804e-02) (9, 7.02587306875646855353e-01) (0, -3.09520438313484191895e-02) (1, 1.66789320262118734295e-01) (2, -6.88881275443902485467e-02) (3, 1.39603257044127321285e-01) (4, 2.12175946679247040549e+00) (5, -7.09831449650836332488e-01) (6, 5.51693099737497028023e-01) (7, -1.20226120543866121793e+00) (8, 2.75633183279700468005e-02) (9, -1.10746991266389149811e-01) (0, 4.94908168911933898926e-02) (1, -1.34895681935685740616e-01) (2, 9.65307538197441722394e-02) (3, -3.71345408664852105751e-01) (4, 6.88768993208622393176e-01) (5, -7.48481206040812252489e-01) (6, 1.84023357268436910106e-01) (7, -7.50149575936061241421e-01) (8, -1.14261626185970920772e-02) (9, 3.63138123348790642364e-01) (0, -7.19275325536727905273e-02) (1, 2.11527927759143754075e-03) (2, 1.56103839424180830531e-02) (3, 1.04395888380438506271e-01) (4, 6.31446149892695429706e-01) (5, -7.38548700555712311910e-01) (6, 1.35150071669774107797e-01) (7, 5.82901867547384489043e-01) (8, -1.79529065848562478791e-02) (9, -3.09270768961329545199e-01) (0, 9.18539986014366149902e-02) (1, -2.55310121180060516088e-02) (2, -4.40793981402133813741e-02) (3, -2.33135846549021730212e+00) (4, 6.44178558206441653766e-01) (5, -2.53003784681645971233e+00) (6, 6.66667302667963590501e-01) (7, 2.80877555699459824368e+00) (8, 1.21771246141136844920e-02) (9, 1.13158427924180002289e-01) (0, 2.67524793744087219238e-02) (1, 1.14820441547959381512e-01) (2, -9.10428609245320617782e-03) (3, 2.27663555363238540030e-01) (4, -7.28440570228158640331e-02) (5, 9.06253895787485053148e-01) (6, 1.58279665786758338974e-01) (7, -1.89228851576196288597e-01) (8, 2.95270243615986908992e-02) (9, -3.74775789538907277976e-01) (0, 5.42235746979713439941e-02) (1, -3.15342485933291991063e-02) (2, 5.92551466098771711932e-02) (3, 6.30046663840603676787e-02) (4, -1.74531273057208569099e+00) (5, 1.22685834703172336191e+00) (6, -3.19221413811846987940e-01) (7, -5.13217327515159693618e-01) (8, 6.06362357754114331132e-02) (9, 2.68208730973014786159e-01) (0, 5.46514466404914855957e-02) (1, -9.13983747143816971370e-02) (2, -2.81744712743735390564e-03) (3, -1.94962049143419413610e-01) (4, -5.66675837867554155203e-01) (5, -2.64436361929147933925e-01) (6, -2.99872964790608653729e-01) (7, 4.13103667262040730179e-01) (8, 4.78313771639799281687e-03) (9, 2.57280614172245958304e-01) (0, -5.49276396632194519043e-02) (1, 3.11202835733305704924e-01) (2, -2.15794605534246092260e-01) (3, -3.45972257805544802789e-01) (4, 1.12426428738957695508e+00) (5, -2.28181083951052654513e+00) (6, 3.76886123018528140793e-01) (7, 2.82834078767459207171e+00) (8, -4.80650735583882771085e-01) (9, -9.80634450153989090104e-01) (0, 1.04333758354187011719e-02) (1, -1.79509542189248111344e-01) (2, 6.48637893067366133604e-02) (3, -4.57162984643678937946e-01) (4, 3.45621732283402816055e-01) (5, -1.29280935581866240902e+00) (6, -1.67894873845682052194e-01) (7, 5.34808226050103141525e-01) (8, -2.40963361965179853619e-02) (9, 3.00784168894550119067e-01) (0, 3.21153476834297180176e-02) (1, 1.73652199209502894339e-01) (2, -8.97260753816361417146e-02) (3, 2.08995084138787562411e-01) (4, 4.06192050284950534333e-01) (5, -1.62173810220240188773e-01) (6, 1.01797492311342469007e-01) (7, 1.56395427723827473709e-01) (8, 1.01284184140402050422e-02) (9, -1.73716735841751096503e-01) (0, -4.14946042001247406006e-02) (1, -2.15907849582301220037e-01) (2, 2.03363494174384373814e-01) (3, -6.14992321437251465710e-01) (4, 8.24189267206237530239e-01) (5, -9.46682942212128564208e-01) (6, 3.98915191425281701054e-01) (7, -9.40523709208150315852e-01) (8, -1.66245678209184406804e-02) (9, 4.79792809641104711638e-01) (0, 9.73947718739509582520e-02) (1, 1.28952595747518050651e-01) (2, 4.40352256171410785801e-02) (3, 2.36785292345907616429e-01) (4, -9.31766309673240887557e-03) (5, -6.23285137774322262061e-01) (6, -3.60969069784088492092e-01) (7, 1.01241697477566239272e+00) (8, 4.27718685563352116197e-02) (9, -2.27818120660862571958e-01) (0, -9.40778702497482299805e-02) (1, 1.54124077117558655470e-01) (2, -2.77972470641853486306e-02) (3, 9.11873494715572552316e-01) (4, -8.16478197523063720098e-01) (5, 1.62540934961406469128e+00) (6, -2.12950171972946411536e-01) (7, -7.25786709942879859625e-01) (8, 5.97975331939087830641e-03) (9, -3.37636695444798184962e-01) (0, 1.82664021849632263184e-02) (1, 1.71313343394557171528e-01) (2, -1.82247735894229601072e-01) (3, 4.12768528796624512012e-01) (4, 2.13250631660339262652e+00) (5, -6.99718472245887457284e-01) (6, 4.57095610134670315983e-01) (7, -4.77621793583225484614e-01) (8, -9.44003054446762059071e-03) (9, -2.07573159160008485769e-01) (0, -1.15985423326492309570e-03) (1, 2.13651677988712568323e-01) (2, -5.33111307939580503223e-02) (3, 3.50968585661078469329e-01) (4, 1.26949516752820262822e-01) (5, 1.14915343096074185070e+00) (6, -2.50295292846487382743e-01) (7, -3.93896218030597655702e-01) (8, -1.06230712090473577991e-01) (9, -2.90369931664977876107e-01) (0, -2.64998823404312133789e-02) (1, 3.69174962603258327576e-01) (2, -2.50124598192534353114e-01) (3, 1.06360505857446185907e+00) (4, -3.23733730826559540361e-01) (5, 1.58711133573125184881e+00) (6, -5.26446325073122500804e-01) (7, -7.11500004471132124761e-02) (8, -1.54622721987493910722e-01) (9, -7.72004390416470398506e-01) (0, 7.31757655739784240723e-02) (1, -1.02008381512664614288e-01) (2, 1.08400845175158327960e-01) (3, -3.25793705357284801849e-01) (4, -2.26760637019356003918e-01) (5, -1.46463921795888102340e-01) (6, 1.31051319345000666372e-01) (7, -5.85106438839191556056e-01) (8, 4.15895184614272842016e-02) (9, 4.32614848084403369466e-01) (0, -8.31168219447135925293e-02) (1, -1.40423824158525667460e-01) (2, 1.87608411362214760887e-01) (3, -2.21217486295588017242e-01) (4, -4.40028448255199988726e-01) (5, -1.18714312844752908904e-01) (6, -1.47089731130687767502e-01) (7, -3.72015439804831635207e-02) (8, -4.38177279144137850342e-03) (9, 2.45467153110107305647e-01) (0, 8.06405469775199890137e-02) (1, 7.86292982862097089569e-02) (2, -8.42942265991494243949e-02) (3, -3.90687286596146359646e-03) (4, -1.80271693305195900014e-02) (5, -1.86664655819648549195e-02) (6, 2.58919060203919915164e-01) (7, -2.50466514884376267869e-02) (8, -1.44526972602062493689e-02) (9, -5.41873220743608989547e-03) (0, 7.36889615654945373535e-02) (1, -9.85856734884377541861e-03) (2, -6.43692332642398917786e-02) (3, 1.86896177696313947614e-01) (4, 2.72061115281091281393e-01) (5, 2.41893743645027192724e-02) (6, -4.91234532339800897272e-02) (7, 1.13038149597651810946e-02) (8, -4.23741334699770388645e-04) (9, -1.51340294426357990787e-01) (0, 3.44728752970695495605e-02) (1, -5.84248248391985580685e-02) (2, 2.35581449161159015016e-02) (3, 9.46120266869460990744e-02) (4, 3.31506749425762359262e-01) (5, -8.86148396712190811186e-01) (6, 7.11989816548848908351e-02) (7, 4.54406024381633300013e-01) (8, -1.49029690691559295324e-02) (9, -6.91355196998673510178e-02) (0, 4.43600639700889587402e-02) (1, 3.50772088027934067500e-02) (2, -5.10926988167259149565e-02) (3, -1.09894518434679719365e-01) (4, 2.47532227948412592022e-01) (5, 3.70017309888556911179e-01) (6, -2.78187943787889489788e-02) (7, -2.65339171338400568387e-03) (8, -5.63926276504314247240e-02) (9, -1.55562245661210324377e-01) (0, -8.08799415826797485352e-02) (1, -2.77344702949286307792e-02) (2, 1.05341426601286772269e-01) (3, -1.38990795161351682330e-01) (4, -6.17622072324274462574e-01) (5, 8.79536368196726203728e-01) (6, -9.31154126402009563179e-02) (7, -6.33737418098022531332e-01) (8, 6.41166130473346841667e-03) (9, 2.27681279001161529507e-01) (0, 7.50792101025581359863e-02) (1, -6.26117796153007888371e-02) (2, 7.16409895904569771208e-02) (3, -3.27506037088528156875e-01) (4, -2.54572950687694116167e-02) (5, 2.37838040541202111466e-01) (6, 7.88179575889203475059e-03) (7, -7.79058315673301859938e-01) (8, -3.44484672758264276471e-02) (9, 3.76749549172968767330e-01) (0, -9.38999205827713012695e-02) (1, -1.28083272104013018433e-01) (2, 2.61279378461813222543e-05) (3, -2.12658060457895370376e-01) (4, -3.27863100249572658740e-01) (5, 5.44789517385145805051e-01) (6, -1.55278351581119966607e-01) (7, -5.16897953785564356899e-01) (8, -5.83124481716518483498e-02) (9, 2.48507041048333543465e-01) (0, 4.15772274136543273926e-02) (1, -1.72256575526344053728e-02) (2, -4.79723217709808816278e-02) (3, 3.37784688374750619033e-01) (4, -1.53621805191740556928e+00) (5, 1.40736538315627734974e+00) (6, -4.39340644984549999474e-01) (7, -4.48311772976041911232e-01) (8, 1.52820066740030680030e-01) (9, 3.64944342527212042815e-02) (0, 2.13953405618667602539e-02) (1, -1.27414026588171719334e-01) (2, 4.25952384099067410395e-02) (3, -3.21951815232765226060e-01) (4, -1.69573238335466808246e-01) (5, 6.20320839472346466370e-02) (6, -2.12832744829041992096e-01) (7, -6.38504998828126058008e-01) (8, -5.69916478644593230141e-02) (9, 4.71650938764093696776e-01) (0, -9.79103446006774902344e-02) (1, 6.30393212803793817622e-02) (2, -9.81271284273894095485e-02) (3, 2.45173587827107519743e-01) (4, 4.33626333401790423072e-02) (5, 9.48059862138493358863e-02) (6, 1.85620606664680443121e-01) (7, 3.73822575552159863665e-01) (8, 1.82286906991842648229e-02) (9, -3.23900892900627179749e-01) (0, -7.17678740620613098145e-02) (1, 1.16649670391532456204e-01) (2, 1.86229158272970610200e-02) (3, 5.13827383587487140915e-01) (4, -6.33425109726379664821e-01) (5, 1.54784330796908742300e+00) (6, -3.64820146751059004586e-01) (7, -5.59696015987611983356e-01) (8, 2.98606255636714688906e-02) (9, -2.53621524794045705153e-01) (0, -3.41077521443367004395e-02) (1, -1.04560240804123547276e-05) (2, 1.23960202841825434250e-01) (3, -9.24965913479453977208e-02) (4, 1.72146110329778584402e-01) (5, -6.42324037842106343454e-01) (6, 1.24824729620986771272e-01) (7, -1.27320343768586499017e-02) (8, 1.03958842498522632120e-02) (9, 1.61366663571419127754e-01) (0, -9.75393578410148620605e-02) (1, -3.39938996768288717587e-02) (2, 4.34880534959083339674e-02) (3, 8.18788475760448414276e-02) (4, -6.87100193692637306597e-01) (5, 1.26692263358812207130e+00) (6, -1.34145652669154236136e-01) (7, -5.89535127560209093467e-01) (8, 5.78492346551983532832e-02) (9, -2.35696252344997844719e-02) (0, 2.68356874585151672363e-02) (1, 1.35405653411148185761e-01) (2, -5.70188099101080758668e-02) (3, 3.09477138356376746398e-01) (4, 4.48418114767845599200e-01) (5, 1.76238945466940188922e-01) (6, -3.02554133655870194364e-01) (7, 3.01245140602272198915e-01) (8, 9.32495145972164025602e-05) (9, -3.40092952534528036868e-01) (0, -1.95187106728553771973e-02) (1, 7.86098621547112047514e-02) (2, -8.92392877310542176339e-02) (3, 1.03464111826718996312e-01) (4, 3.10347869482671345764e-01) (5, 4.21767316496609812049e-01) (6, 1.71958708417117384082e-01) (7, -6.74924736449769996360e-02) (8, 7.36485124160393255649e-03) (9, -3.01312092631990435798e-01) (0, -5.20815998315811157227e-02) (1, -2.80472705769285624022e-01) (2, 1.38214908545993608868e-01) (3, -1.00752687943337937426e+00) (4, 8.79492943827452910988e-01) (5, -1.30358363194245296945e+00) (6, 7.18040842214217739370e-02) (7, -8.39843879036218932121e-02) (8, 3.81126611207221882571e-02) (9, 6.71478117524862860854e-01) (0, -7.56445378065109252930e-02) (1, 1.29892082186187446391e-01) (2, 6.21362502007730219816e-03) (3, 5.13270208749735723508e-01) (4, -2.04847084537805645965e+00) (5, 1.28359205105591778207e+00) (6, -4.61878914747509916605e-01) (7, 2.22465970181296213148e-01) (8, -4.09447550290793910177e-02) (9, -2.40440114516952935242e-01) (0, -3.38074713945388793945e-02) (1, -4.01182456498483830387e-01) (2, 3.05927219752318901858e-01) (3, -1.08318282701323642669e+00) (4, 7.56356855202037908770e-02) (5, -6.68532998049646387528e-01) (6, 2.41078584475620583127e-01) (7, -9.18225944091505152933e-01) (8, 4.88839621130385815206e-02) (9, 8.87232628179491444875e-01) (0, -3.76707315444946289062e-03) (1, -1.10751864988372250576e-01) (2, 1.98613052656934872819e-02) (3, -2.99333811783509096127e-01) (4, 2.49082958881969879217e-01) (5, -7.14195361718180432575e-01) (6, 1.38098130284067033280e-01) (7, -8.99742717032218641826e-02) (8, 2.49513777091313129763e-02) (9, 2.59756395416349428196e-01) (0, -7.37439468502998352051e-02) (1, 2.77356466653111664866e-02) (2, 3.19204424692450250411e-02) (3, 1.44950420943998903311e-01) (4, -2.14991909944455800163e-01) (5, 8.58936871767662424304e-01) (6, -5.11703014381373194608e-02) (7, -1.68256460959957970802e-01) (8, -1.38978258965643565459e-02) (9, -2.37001921609622467901e-01) (0, -2.21819877624511718750e-02) (1, -5.48720307854371869283e-01) (2, 3.72712470745750201750e-01) (3, -1.20548907219866707763e+00) (4, -1.48954056317378152885e-02) (5, -7.98956565929670681214e-01) (6, 4.84327432266583701725e-01) (7, -1.32015221599945742348e+00) (8, 1.30029845310082436960e-01) (9, 1.25062409839916099941e+00) (0, -9.19886603951454162598e-02) (1, 2.40861216194726529549e-01) (2, -2.38390257773798158736e-01) (3, 7.24218031169868603492e-01) (4, -2.81778166894337545045e-01) (5, 1.34064008970838122181e+00) (6, -4.34596521026884619054e-01) (7, 3.22670347781058353132e-01) (8, -1.92823040643177665010e-02) (9, -7.62156048807674846302e-01) (0, 2.22865194082260131836e-02) (1, 1.04307096547510743528e-02) (2, 7.56570612291885408185e-03) (3, -1.26558033185794976960e-01) (4, -9.59199628915392704664e-02) (5, 2.60742732484712635976e-01) (6, 1.99913852428598104449e-01) (7, -2.20013279403082101515e-01) (8, 1.73168307684186360829e-02) (9, 1.16737382246472377878e-02) (0, 3.50008383393287658691e-02) (1, 2.15959109992333336825e-01) (2, -8.19987361360540872868e-02) (3, 3.24413565064406494987e-01) (4, -1.68553317393827117865e-01) (5, 7.55633487977544371361e-01) (6, -3.24569109972063007952e-01) (7, 5.80082787691104218020e-01) (8, 4.02520388945045298756e-02) (9, -4.55328093544995260444e-01) (0, -6.55629485845565795898e-03) (1, 8.07663486494431155649e-03) (2, -1.16398980364895779371e-01) (3, 2.45636400279161226656e-01) (4, -1.34206512866190563749e-01) (5, 4.82960870039380762986e-01) (6, -2.19519590253221472120e-02) (7, 2.83274991044115853622e-01) (8, 6.77184954298614832924e-02) (9, -3.43351035964838846581e-01) (0, 6.33416697382926940918e-02) (1, 4.99708435838239206639e-02) (2, -6.63054609227849700570e-02) (3, -2.09840236457736112330e-01) (4, 1.34898150150075624154e+00) (5, -1.40063536122036280673e+00) (6, 8.50430846222487324404e-01) (7, 5.22592239082935394734e-01) (8, -1.81593831544565764702e-01) (9, -3.40000396446600794409e-01) (0, 9.89109203219413757324e-02) (1, -3.55916460970684828125e-02) (2, -6.30758234769291659116e-02) (3, 4.64845296127660359553e-02) (4, 3.59726227085583161180e-01) (5, -1.46044512610490201387e-01) (6, 1.12343760816600232721e-01) (7, -1.80478117811065756626e-02) (8, -1.78912104205790414846e-02) (9, -1.10011529644395408822e-01) (0, 6.77401944994926452637e-02) (1, 2.45096755133854329878e-02) (2, -8.59283560594290146684e-02) (3, 1.25867451451256162631e-01) (4, -3.90557784133245489144e-01) (5, 1.11461486741911230958e+00) (6, 7.67213146274100393773e-02) (7, -5.78718973635402367250e-01) (8, 3.21469583217749155235e-02) (9, -7.15155184534143895103e-02) (0, 9.47539284825325012207e-02) (1, -9.32703098313497624972e-03) (2, 1.42977095623723154949e-01) (3, -2.09455896390591984890e-02) (4, -1.23238372307710153386e+00) (5, 7.11079577585472244472e-01) (6, -5.69650771111462672636e-01) (7, 6.22311737709096757243e-01) (8, -3.30901542182921587498e-02) (9, 1.58311290806818882881e-01) (0, 1.49131417274475097656e-02) (1, -1.72466950790922002312e-01) (2, 9.22538002408285207068e-02) (3, -2.19948428703810421048e-02) (4, 2.81640708754032798034e-01) (5, -9.15001329360577209115e-01) (6, -7.34473463695216599589e-02) (7, 1.97263596405896607378e-01) (8, 1.08477707911697751619e-02) (9, 1.33528629136285742485e-01) (0, -3.81274409592151641846e-02) (1, -7.97497551860249995204e-03) (2, 2.62652763144923320771e-03) (3, -2.02853193616845728364e-01) (4, 9.82378815234020819069e-01) (5, -1.08287877613162319967e+00) (6, 2.51553585181919059366e-01) (7, 1.85222192265716595339e-01) (8, 2.23671572383322900257e-02) (9, 3.28532549545929863921e-02) (0, -8.45338925719261169434e-02) (1, -4.01843326701930569911e-01) (2, 3.62917143787716500736e-01) (3, -1.68636999746073823481e+00) (4, 1.53683230035963602766e+00) (5, -1.49927368119610116004e+00) (6, 4.73221125936275410773e-01) (7, -7.17458886360235192914e-02) (8, 2.25684119813820055489e-01) (9, 1.00911533314528911731e+00) (0, -3.09547036886215209961e-02) (1, -2.20024178035484629934e-01) (2, 2.80976129403280427965e-01) (3, -2.70135633360513605083e-01) (4, -1.46253185464830992579e+00) (5, 1.08390636529444672753e+00) (6, -8.41354527876073565729e-01) (7, -9.67426745243570529453e-01) (8, 2.22898891655367747955e-01) (9, 7.52812837827760428233e-01) (0, 4.84356209635734558105e-02) (1, 9.90517341926424876863e-02) (2, 1.46368049953523714918e-02) (3, 1.14195725052895644125e-01) (4, -4.31873040626497339822e-01) (5, 1.03042825668871196321e+00) (6, 4.23153814248692569655e-02) (7, -4.31957373385411014244e-01) (8, 8.10852876580049064525e-02) (9, -9.76306594497576146763e-02) (0, 5.21630123257637023926e-02) (1, 1.38908819016998544282e-02) (2, 1.07265248405050851038e-02) (3, -1.11534117929028800398e-01) (4, 6.65555266928663930015e-02) (5, -1.66106244930135371618e-01) (6, -7.70014254729219690260e-03) (7, -1.30849305275010652228e-01) (8, -8.64554964168574684169e-03) (9, 1.48862667218574856731e-01) (0, -5.52906133234500885010e-02) (1, 2.58872895429637595033e-01) (2, -1.36450586088056768919e-01) (3, 4.85864762659330262640e-01) (4, 1.17451497937239066061e-01) (5, 5.49135300907282797311e-01) (6, 1.89126758128924793434e-01) (7, 3.83655356741246733598e-01) (8, -4.39137924866764908782e-02) (9, -5.43666878069580583599e-01) (0, 2.50049754977226257324e-02) (1, 2.32682816481797560826e-01) (2, -1.64161432382624400406e-01) (3, 4.23062838076304237322e-01) (4, 2.06466439053344941179e-01) (5, 2.83952287911115042185e-01) (6, -1.51822442181397815331e-01) (7, 6.72629221548839750788e-01) (8, 6.46714897312646030958e-02) (9, -5.27828234673111462705e-01) (0, -1.01651996374130249023e-02) (1, -9.38215096470541437546e-02) (2, -4.14124250652282144269e-02) (3, -3.62007902222071198395e+00) (4, -4.38048034268845132289e+00) (5, 2.34012231710094509296e+00) (6, -9.80942094318543733600e-01) (7, 5.44897035045153521615e-01) (8, -5.76055866698070628829e-01) (9, 2.42634278952404386365e-01) (0, 2.29472070932388305664e-02) (1, -2.09399096537351801783e-02) (2, -5.60191842253902720639e-04) (3, 4.60976139163612741445e-02) (4, -3.64608881702251919066e-01) (5, 9.18360961489753990783e-01) (6, -9.09853150912179886589e-02) (7, -4.34466024014619700555e-01) (8, -4.24388854609463253564e-02) (9, -1.24806706188278319913e-02) (0, 4.07739058136940002441e-02) (1, 3.79982353841329889566e-01) (2, -3.61637962307808757956e-01) (3, 5.43210716184488129343e-01) (4, 7.15077503444487394546e-01) (5, 1.28737975129272919084e+00) (6, -3.43936899733660927936e-01) (7, 6.23776015523915400296e-02) (8, -1.66037895489339587529e-01) (9, -8.81912950662464112384e-01) (0, 3.21304872632026672363e-02) (1, -8.18566906369922325792e-02) (2, 2.71658974079139678426e-02) (3, -1.05213790950071148234e-01) (4, -7.04801615404844067347e-02) (5, -9.75971870244346728640e-01) (6, 2.35487114075220188569e-01) (7, 1.09064336851444426690e-01) (8, 6.21951556754930193899e-03) (9, 3.35794613489818871699e-01) (0, 4.12890687584877014160e-02) (1, 5.60539631166650023641e-02) (2, -1.22780639165517804767e-01) (3, 1.21546947691722986851e-01) (4, -3.24450544558959053099e-01) (5, 5.02756033059758689063e-01) (6, -2.92981620551437449418e-01) (7, 3.93892179862626867770e-01) (8, 1.88786031045724764232e-02) (9, -1.34241442660083143412e-01) (0, 3.13847884535789489746e-02) (1, -2.42952272279378829467e-02) (2, 8.73584460454717437461e-02) (3, 3.43921559897712933451e-02) (4, 8.35819390287946273332e-02) (5, -5.65151251222097750215e-01) (6, -4.43692241422841554543e-02) (7, 3.46533672358650610135e-02) (8, -5.84853186470770877725e-03) (9, 1.55087064947544178706e-01) (0, -3.56137752532958984375e-03) (1, -3.01803303556828383947e-01) (2, 2.62195287493744433327e-01) (3, -8.27993686090062963601e-01) (4, -1.04462808419997540965e-01) (5, -9.72890102092273223455e-01) (6, 1.36603543748113315237e-01) (7, -4.72871738838759991808e-01) (8, 2.15357754563996126040e-02) (9, 8.79690202070417148761e-01) (0, -4.06464822590351104736e-02) (1, 5.75749992799749199524e-02) (2, 5.24897542060010630083e-03) (3, -8.30993305160922846042e-01) (4, 1.79910311982827364474e+00) (5, -1.69534963535707250415e+00) (6, 7.45881725988536525840e-01) (7, 6.33357372852878075520e-01) (8, -1.03570150614433753589e-01) (9, 8.34217929662059987095e-02) (0, 4.28835079073905944824e-02) (1, -2.11976168179603907671e-01) (2, 6.27333830104472855993e-02) (3, -2.83053871025789549609e-01) (4, -6.21755392535849216173e-01) (5, 4.95703488460441432650e-01) (6, -7.38591813024391030673e-01) (7, 1.85375284019764580146e-01) (8, 2.69262148575806561923e-02) (9, 2.91723098293328986230e-01) (0, -1.08492150902748107910e-02) (1, -7.01099743920664819630e-03) (2, -2.51592799240401530925e-02) (3, -3.22322744704590657960e-02) (4, 3.32261035769786772232e-01) (5, 3.55951355328809226908e-01) (6, 4.50456588300712848505e-02) (7, -1.26296971376400668508e-01) (8, -4.28800256226831988382e-02) (9, -1.97953020272699065085e-01) (0, -2.27618217468261718750e-03) (1, -1.05932408754998444445e-01) (2, 9.83428930379540156004e-02) (3, -2.62216192303403150543e-01) (4, -7.58804885358147052088e-01) (5, 6.75712622172014443223e-01) (6, -4.82700152338131405205e-01) (7, -6.70919660242838000741e-01) (8, 2.50892179700497111594e-02) (9, 5.22501986933135986746e-01) (0, 5.84299489855766296387e-02) (1, 1.45621935555597131762e-01) (2, -9.74777715601242433774e-03) (3, 3.29843666838238569472e-01) (4, 4.03224455065121611952e-01) (5, 1.73762214535556264172e-01) (6, 2.13362511822865363875e-01) (7, 1.34052403499877546139e-02) (8, 1.70845885597598994010e-02) (9, -3.54704874330017627670e-01) (0, -6.45006224513053894043e-02) (1, -3.46864932784035906455e-01) (2, 3.55365433922898044106e-01) (3, -1.39077121680152293592e+00) (4, -4.81703344070457450954e-01) (5, -8.77221858929172704222e-01) (6, 4.08521410513913940665e-01) (7, -5.14155850577434736515e-01) (8, 2.40062555673172334236e-01) (9, 1.06404423343296383742e+00) (0, 3.49963083863258361816e-02) (1, -3.04227289315377180667e-03) (2, -4.91277019176017196167e-02) (3, 1.55017083224003676678e-01) (4, -9.17464125373794958662e-01) (5, 8.77245081622671118993e-01) (6, -4.25942298309261557776e-01) (7, 4.41897704269187618920e-01) (8, -3.33570430180988404187e-03) (9, -7.04792150170655412600e-02) (0, -5.95583766698837280273e-03) (1, 4.33969242162315915756e-02) (2, -3.09161147316367561355e-02) (3, 2.00381585559993052881e-01) (4, 7.88246703851851020228e-03) (5, 3.73766342606825285877e-01) (6, -2.92781105476045744318e-01) (7, 7.47612637036571166249e-03) (8, 1.80476770617635819127e-02) (9, -1.01307540582328964307e-01) (0, 6.49993345141410827637e-02) (1, 6.31884705628044773817e-01) (2, -3.27626585293643080021e-01) (3, 1.63292862114285530772e+00) (4, -1.34017986876743711022e-01) (5, 1.00383974419303978465e+00) (6, -5.89014500015221487139e-01) (7, 1.03100410691125232709e+00) (8, -4.28578736846248087300e-01) (9, -1.27246003872421331593e+00) (0, 7.69574418663978576660e-02) (1, 4.18191645438325931838e-01) (2, -2.98383538719085739110e-01) (3, 8.04151729826524608313e-01) (4, 2.18427851833314617958e-01) (5, 1.96332249471177500144e-01) (6, -2.48866416326128547798e-01) (7, 1.40338570170148901894e+00) (8, -5.80297914078185816944e-02) (9, -9.62084880458423885585e-01) (0, -5.59043847024440765381e-02) (1, 1.73706092485152091554e-01) (2, -6.39898930105660124212e-02) (3, 1.73267439107076454130e-01) (4, -7.86098531271536560272e-02) (5, 1.02635733752020577580e-01) (6, -2.24369985869523960731e-02) (7, 5.55660254499776407044e-01) (8, 4.78019408509287035969e-02) (9, -2.50130535534014930565e-01) (0, 4.78977635502815246582e-02) (1, 5.70982968135768792495e-02) (2, -1.38149671497971547607e-02) (3, -7.80814769725575036352e-02) (4, -2.07598522975183052974e-01) (5, 1.08345691017634901399e-01) (6, 1.52540097699930071729e-01) (7, -1.75794526295485281642e-01) (8, -2.43094585808582737407e-02) (9, 1.27180474419365918681e-01) (0, -7.20132365822792053223e-02) (1, -9.16958939636771698523e-03) (2, -6.63540071543495656864e-03) (3, -1.02053183623598692220e-01) (4, 1.65984274837208178877e-01) (5, 2.18728851881702490711e-01) (6, -1.79957200616116891334e-01) (7, -2.30047816515939168580e-01) (8, -6.79948387251209512838e-02) (9, 7.50466558239169245770e-02) (0, -2.47169137001037597656e-02) (1, 2.28189249056702549157e-02) (2, 2.80998595641501966447e-02) (3, 1.07455378144114863104e-01) (4, -4.36579749811738471177e-01) (5, 2.94761951200200877921e-01) (6, -1.15403634361198811908e-01) (7, 1.71035300648811235125e-02) (8, -2.37787097006318774717e-02) (9, 4.02518761113076981029e-02) (0, -6.36352151632308959961e-02) (1, 2.25867358218320851693e-01) (2, -6.30922726323329824405e-02) (3, 5.22707727096625718310e-01) (4, -1.10754585134734073737e-01) (5, 7.18446145296569471661e-01) (6, -1.71809096980436476487e-01) (7, 4.59992090088965188688e-01) (8, 4.50245305858292671486e-02) (9, -5.47221590754221498543e-01) (0, -1.90568417310714721680e-02) (1, -1.02300505733263075170e-01) (2, 1.49858942922755783433e-01) (3, -1.52120771024083167866e+00) (4, -2.04223047251330891427e+00) (5, 7.85712044436399636993e-01) (6, -5.40461299397974603842e-01) (7, -8.52255899175177397686e-03) (8, -9.52054536936685763537e-02) (9, 3.66848737984342754270e-01) (0, -3.94814275205135345459e-02) (1, -9.72141348602083288366e-02) (2, 2.07972179970286163986e-01) (3, -4.77115021002534278605e-01) (4, -1.70861846668706685026e-01) (5, -1.26181397308985976391e-01) (6, 2.15052717944377858039e-01) (7, -4.72522430232555967766e-01) (8, -1.10836657071635251437e-02) (9, 3.48980480999160957989e-01) (0, -1.60988122224807739258e-02) (1, 5.13453475976479056797e-01) (2, -3.66833871114634835209e-01) (3, -2.18656925480389618954e+00) (4, 3.40648457997507669859e+00) (5, -2.39219673991019332604e+00) (6, -3.71789210223266164412e-02) (7, 3.03505237311850217807e+00) (8, -2.09433711974610942130e-01) (9, -1.41229556834812330912e+00) (0, -6.82057440280914306641e-03) (1, -1.25610826288054450162e-01) (2, -3.17317570564379508591e-02) (3, -5.06988341092117988929e-01) (4, 1.58855161659877497371e+00) (5, -1.15897644431881885474e+00) (6, 5.39208049261078348202e-01) (7,