FANN_FLO_2.1
num_layers=3
learning_rate=0.000050
connection_rate=1.000000
network_type=0
learning_momentum=0.000000
training_algorithm=2
train_error_function=1
train_stop_function=0
cascade_output_change_fraction=0.010000
quickprop_decay=-0.000100
quickprop_mu=1.750000
rprop_increase_factor=1.200000
rprop_decrease_factor=0.500000
rprop_delta_min=0.000000
rprop_delta_max=50.000000
rprop_delta_zero=0.100000
cascade_output_stagnation_epochs=12
cascade_candidate_change_fraction=0.010000
cascade_candidate_stagnation_epochs=12
cascade_max_out_epochs=150
cascade_max_cand_epochs=150
cascade_num_candidate_groups=2
bit_fail_limit=3.49999999999999977796e-01
cascade_candidate_limit=1.00000000000000000000e+03
cascade_weight_multiplier=4.00000000000000022204e-01
cascade_activation_functions_count=10
cascade_activation_functions=3 5 7 8 10 11 14 15 16 17 
cascade_activation_steepnesses_count=4
cascade_activation_steepnesses=2.50000000000000000000e-01 5.00000000000000000000e-01 7.50000000000000000000e-01 1.00000000000000000000e+00 
layer_sizes=10 501 2 
scale_included=0
neurons (num_inputs, activation_function, activation_steepness)=(0, 0, 0.00000000000000000000e+00) (0, 0, 0.00000000000000000000e+00) (0, 0, 0.00000000000000000000e+00) (0, 0, 0.00000000000000000000e+00) (0, 0, 0.00000000000000000000e+00) (0, 0, 0.00000000000000000000e+00) (0, 0, 0.00000000000000000000e+00) (0, 0, 0.00000000000000000000e+00) (0, 0, 0.00000000000000000000e+00) (0, 0, 0.00000000000000000000e+00) (10, 5, 5.00000000000000000000e-01) (10, 5, 5.00000000000000000000e-01) (10, 5, 5.00000000000000000000e-01) (10, 5, 5.00000000000000000000e-01) (10, 5, 5.00000000000000000000e-01) (10, 5, 5.00000000000000000000e-01) (10, 5, 5.00000000000000000000e-01) (10, 5, 5.00000000000000000000e-01) (10, 5, 5.00000000000000000000e-01) (10, 5, 5.00000000000000000000e-01) (10, 5, 5.00000000000000000000e-01) (10, 5, 5.00000000000000000000e-01) (10, 5, 5.00000000000000000000e-01) (10, 5, 5.00000000000000000000e-01) (10, 5, 5.00000000000000000000e-01) (10, 5, 5.00000000000000000000e-01) (10, 5, 5.00000000000000000000e-01) (10, 5, 5.00000000000000000000e-01) (10, 5, 5.00000000000000000000e-01) (10, 5, 5.00000000000000000000e-01) (10, 5, 5.00000000000000000000e-01) (10, 5, 5.00000000000000000000e-01) (10, 5, 5.00000000000000000000e-01) (10, 5, 5.00000000000000000000e-01) (10, 5, 5.00000000000000000000e-01) (10, 5, 5.00000000000000000000e-01) (10, 5, 5.00000000000000000000e-01) (10, 5, 5.00000000000000000000e-01) (10, 5, 5.00000000000000000000e-01) (10, 5, 5.00000000000000000000e-01) (10, 5, 5.00000000000000000000e-01) (10, 5, 5.00000000000000000000e-01) (10, 5, 5.00000000000000000000e-01) (10, 5, 5.00000000000000000000e-01) (10, 5, 5.00000000000000000000e-01) (10, 5, 5.00000000000000000000e-01) (10, 5, 5.00000000000000000000e-01) (10, 5, 5.00000000000000000000e-01) (10, 5, 5.00000000000000000000e-01) (10, 5, 5.00000000000000000000e-01) (10, 5, 5.00000000000000000000e-01) (10, 5, 5.00000000000000000000e-01) (10, 5, 5.00000000000000000000e-01) (10, 5, 5.00000000000000000000e-01) (10, 5, 5.00000000000000000000e-01) (10, 5, 5.00000000000000000000e-01) (10, 5, 5.00000000000000000000e-01) (10, 5, 5.00000000000000000000e-01) (10, 5, 5.00000000000000000000e-01) (10, 5, 5.00000000000000000000e-01) (10, 5, 5.00000000000000000000e-01) (10, 5, 5.00000000000000000000e-01) (10, 5, 5.00000000000000000000e-01) (10, 5, 5.00000000000000000000e-01) (10, 5, 5.00000000000000000000e-01) (10, 5, 5.00000000000000000000e-01) (10, 5, 5.00000000000000000000e-01) (10, 5, 5.00000000000000000000e-01) (10, 5, 5.00000000000000000000e-01) (10, 5, 5.00000000000000000000e-01) (10, 5, 5.00000000000000000000e-01) (10, 5, 5.00000000000000000000e-01) (10, 5, 5.00000000000000000000e-01) (10, 5, 5.00000000000000000000e-01) (10, 5, 5.00000000000000000000e-01) (10, 5, 5.00000000000000000000e-01) (10, 5, 5.00000000000000000000e-01) (10, 5, 5.00000000000000000000e-01) (10, 5, 5.00000000000000000000e-01) (10, 5, 5.00000000000000000000e-01) (10, 5, 5.00000000000000000000e-01) (10, 5, 5.00000000000000000000e-01) (10, 5, 5.00000000000000000000e-01) (10, 5, 5.00000000000000000000e-01) (10, 5, 5.00000000000000000000e-01) (10, 5, 5.00000000000000000000e-01) (10, 5, 5.00000000000000000000e-01) (10, 5, 5.00000000000000000000e-01) (10, 5, 5.00000000000000000000e-01) (10, 5, 5.00000000000000000000e-01) (10, 5, 5.00000000000000000000e-01) (10, 5, 5.00000000000000000000e-01) (10, 5, 5.00000000000000000000e-01) (10, 5, 5.00000000000000000000e-01) (10, 5, 5.00000000000000000000e-01) (10, 5, 5.00000000000000000000e-01) (10, 5, 5.00000000000000000000e-01) (10, 5, 5.00000000000000000000e-01) (10, 5, 5.00000000000000000000e-01) (10, 5, 5.00000000000000000000e-01) (10, 5, 5.00000000000000000000e-01) (10, 5, 5.00000000000000000000e-01) (10, 5, 5.00000000000000000000e-01) (10, 5, 5.00000000000000000000e-01) (10, 5, 5.00000000000000000000e-01) (10, 5, 5.00000000000000000000e-01) (10, 5, 5.00000000000000000000e-01) (10, 5, 5.00000000000000000000e-01) (10, 5, 5.00000000000000000000e-01) (10, 5, 5.00000000000000000000e-01) (10, 5, 5.00000000000000000000e-01) (10, 5, 5.00000000000000000000e-01) (10, 5, 5.00000000000000000000e-01) (10, 5, 5.00000000000000000000e-01) (10, 5, 5.00000000000000000000e-01) (10, 5, 5.00000000000000000000e-01) (10, 5, 5.00000000000000000000e-01) (10, 5, 5.00000000000000000000e-01) (10, 5, 5.00000000000000000000e-01) (10, 5, 5.00000000000000000000e-01) (10, 5, 5.00000000000000000000e-01) (10, 5, 5.00000000000000000000e-01) (10, 5, 5.00000000000000000000e-01) (10, 5, 5.00000000000000000000e-01) (10, 5, 5.00000000000000000000e-01) (10, 5, 5.00000000000000000000e-01) (10, 5, 5.00000000000000000000e-01) (10, 5, 5.00000000000000000000e-01) (10, 5, 5.00000000000000000000e-01) (10, 5, 5.00000000000000000000e-01) (10, 5, 5.00000000000000000000e-01) (10, 5, 5.00000000000000000000e-01) (10, 5, 5.00000000000000000000e-01) (10, 5, 5.00000000000000000000e-01) (10, 5, 5.00000000000000000000e-01) (10, 5, 5.00000000000000000000e-01) (10, 5, 5.00000000000000000000e-01) (10, 5, 5.00000000000000000000e-01) (10, 5, 5.00000000000000000000e-01) (10, 5, 5.00000000000000000000e-01) (10, 5, 5.00000000000000000000e-01) (10, 5, 5.00000000000000000000e-01) (10, 5, 5.00000000000000000000e-01) (10, 5, 5.00000000000000000000e-01) (10, 5, 5.00000000000000000000e-01) (10, 5, 5.00000000000000000000e-01) (10, 5, 5.00000000000000000000e-01) (10, 5, 5.00000000000000000000e-01) (10, 5, 5.00000000000000000000e-01) (10, 5, 5.00000000000000000000e-01) (10, 5, 5.00000000000000000000e-01) (10, 5, 5.00000000000000000000e-01) (10, 5, 5.00000000000000000000e-01) (10, 5, 5.00000000000000000000e-01) (10, 5, 5.00000000000000000000e-01) (10, 5, 5.00000000000000000000e-01) (10, 5, 5.00000000000000000000e-01) (10, 5, 5.00000000000000000000e-01) (10, 5, 5.00000000000000000000e-01) (10, 5, 5.00000000000000000000e-01) (10, 5, 5.00000000000000000000e-01) (10, 5, 5.00000000000000000000e-01) (10, 5, 5.00000000000000000000e-01) (10, 5, 5.00000000000000000000e-01) (10, 5, 5.00000000000000000000e-01) (10, 5, 5.00000000000000000000e-01) (10, 5, 5.00000000000000000000e-01) (10, 5, 5.00000000000000000000e-01) (10, 5, 5.00000000000000000000e-01) (10, 5, 5.00000000000000000000e-01) (10, 5, 5.00000000000000000000e-01) (10, 5, 5.00000000000000000000e-01) (10, 5, 5.00000000000000000000e-01) (10, 5, 5.00000000000000000000e-01) (10, 5, 5.00000000000000000000e-01) (10, 5, 5.00000000000000000000e-01) (10, 5, 5.00000000000000000000e-01) (10, 5, 5.00000000000000000000e-01) (10, 5, 5.00000000000000000000e-01) (10, 5, 5.00000000000000000000e-01) (10, 5, 5.00000000000000000000e-01) (10, 5, 5.00000000000000000000e-01) (10, 5, 5.00000000000000000000e-01) (10, 5, 5.00000000000000000000e-01) (10, 5, 5.00000000000000000000e-01) (10, 5, 5.00000000000000000000e-01) (10, 5, 5.00000000000000000000e-01) (10, 5, 5.00000000000000000000e-01) (10, 5, 5.00000000000000000000e-01) (10, 5, 5.00000000000000000000e-01) (10, 5, 5.00000000000000000000e-01) (10, 5, 5.00000000000000000000e-01) (10, 5, 5.00000000000000000000e-01) (10, 5, 5.00000000000000000000e-01) (10, 5, 5.00000000000000000000e-01) (10, 5, 5.00000000000000000000e-01) (10, 5, 5.00000000000000000000e-01) (10, 5, 5.00000000000000000000e-01) (10, 5, 5.00000000000000000000e-01) (10, 5, 5.00000000000000000000e-01) (10, 5, 5.00000000000000000000e-01) (10, 5, 5.00000000000000000000e-01) (10, 5, 5.00000000000000000000e-01) (10, 5, 5.00000000000000000000e-01) (10, 5, 5.00000000000000000000e-01) (10, 5, 5.00000000000000000000e-01) (10, 5, 5.00000000000000000000e-01) (10, 5, 5.00000000000000000000e-01) (10, 5, 5.00000000000000000000e-01) (10, 5, 5.00000000000000000000e-01) (10, 5, 5.00000000000000000000e-01) (10, 5, 5.00000000000000000000e-01) (10, 5, 5.00000000000000000000e-01) (10, 5, 5.00000000000000000000e-01) (10, 5, 5.00000000000000000000e-01) (10, 5, 5.00000000000000000000e-01) (10, 5, 5.00000000000000000000e-01) (10, 5, 5.00000000000000000000e-01) (10, 5, 5.00000000000000000000e-01) (10, 5, 5.00000000000000000000e-01) (10, 5, 5.00000000000000000000e-01) (10, 5, 5.00000000000000000000e-01) (10, 5, 5.00000000000000000000e-01) (10, 5, 5.00000000000000000000e-01) (10, 5, 5.00000000000000000000e-01) (10, 5, 5.00000000000000000000e-01) (10, 5, 5.00000000000000000000e-01) (10, 5, 5.00000000000000000000e-01) (10, 5, 5.00000000000000000000e-01) (10, 5, 5.00000000000000000000e-01) (10, 5, 5.00000000000000000000e-01) (10, 5, 5.00000000000000000000e-01) (10, 5, 5.00000000000000000000e-01) (10, 5, 5.00000000000000000000e-01) (10, 5, 5.00000000000000000000e-01) (10, 5, 5.00000000000000000000e-01) (10, 5, 5.00000000000000000000e-01) (10, 5, 5.00000000000000000000e-01) (10, 5, 5.00000000000000000000e-01) (10, 5, 5.00000000000000000000e-01) (10, 5, 5.00000000000000000000e-01) (10, 5, 5.00000000000000000000e-01) (10, 5, 5.00000000000000000000e-01) (10, 5, 5.00000000000000000000e-01) (10, 5, 5.00000000000000000000e-01) (10, 5, 5.00000000000000000000e-01) (10, 5, 5.00000000000000000000e-01) (10, 5, 5.00000000000000000000e-01) (10, 5, 5.00000000000000000000e-01) (10, 5, 5.00000000000000000000e-01) (10, 5, 5.00000000000000000000e-01) (10, 5, 5.00000000000000000000e-01) (10, 5, 5.00000000000000000000e-01) (10, 5, 5.00000000000000000000e-01) (10, 5, 5.00000000000000000000e-01) (10, 5, 5.00000000000000000000e-01) (10, 5, 5.00000000000000000000e-01) (10, 5, 5.00000000000000000000e-01) (10, 5, 5.00000000000000000000e-01) (10, 5, 5.00000000000000000000e-01) (10, 5, 5.00000000000000000000e-01) (10, 5, 5.00000000000000000000e-01) (10, 5, 5.00000000000000000000e-01) (10, 5, 5.00000000000000000000e-01) (10, 5, 5.00000000000000000000e-01) (10, 5, 5.00000000000000000000e-01) (10, 5, 5.00000000000000000000e-01) (10, 5, 5.00000000000000000000e-01) (10, 5, 5.00000000000000000000e-01) (10, 5, 5.00000000000000000000e-01) (10, 5, 5.00000000000000000000e-01) (10, 5, 5.00000000000000000000e-01) (10, 5, 5.00000000000000000000e-01) (10, 5, 5.00000000000000000000e-01) (10, 5, 5.00000000000000000000e-01) (10, 5, 5.00000000000000000000e-01) (10, 5, 5.00000000000000000000e-01) (10, 5, 5.00000000000000000000e-01) (10, 5, 5.00000000000000000000e-01) (10, 5, 5.00000000000000000000e-01) (10, 5, 5.00000000000000000000e-01) (10, 5, 5.00000000000000000000e-01) (10, 5, 5.00000000000000000000e-01) (10, 5, 5.00000000000000000000e-01) (10, 5, 5.00000000000000000000e-01) (10, 5, 5.00000000000000000000e-01) (10, 5, 5.00000000000000000000e-01) (10, 5, 5.00000000000000000000e-01) (10, 5, 5.00000000000000000000e-01) (10, 5, 5.00000000000000000000e-01) (10, 5, 5.00000000000000000000e-01) (10, 5, 5.00000000000000000000e-01) (10, 5, 5.00000000000000000000e-01) (10, 5, 5.00000000000000000000e-01) (10, 5, 5.00000000000000000000e-01) (10, 5, 5.00000000000000000000e-01) (10, 5, 5.00000000000000000000e-01) (10, 5, 5.00000000000000000000e-01) (10, 5, 5.00000000000000000000e-01) (10, 5, 5.00000000000000000000e-01) (10, 5, 5.00000000000000000000e-01) (10, 5, 5.00000000000000000000e-01) (10, 5, 5.00000000000000000000e-01) (10, 5, 5.00000000000000000000e-01) (10, 5, 5.00000000000000000000e-01) (10, 5, 5.00000000000000000000e-01) (10, 5, 5.00000000000000000000e-01) (10, 5, 5.00000000000000000000e-01) (10, 5, 5.00000000000000000000e-01) (10, 5, 5.00000000000000000000e-01) (10, 5, 5.00000000000000000000e-01) (10, 5, 5.00000000000000000000e-01) (10, 5, 5.00000000000000000000e-01) (10, 5, 5.00000000000000000000e-01) (10, 5, 5.00000000000000000000e-01) (10, 5, 5.00000000000000000000e-01) (10, 5, 5.00000000000000000000e-01) (10, 5, 5.00000000000000000000e-01) (10, 5, 5.00000000000000000000e-01) (10, 5, 5.00000000000000000000e-01) (10, 5, 5.00000000000000000000e-01) (10, 5, 5.00000000000000000000e-01) (10, 5, 5.00000000000000000000e-01) (10, 5, 5.00000000000000000000e-01) (10, 5, 5.00000000000000000000e-01) (10, 5, 5.00000000000000000000e-01) (10, 5, 5.00000000000000000000e-01) (10, 5, 5.00000000000000000000e-01) (10, 5, 5.00000000000000000000e-01) (10, 5, 5.00000000000000000000e-01) (10, 5, 5.00000000000000000000e-01) (10, 5, 5.00000000000000000000e-01) (10, 5, 5.00000000000000000000e-01) (10, 5, 5.00000000000000000000e-01) (10, 5, 5.00000000000000000000e-01) (10, 5, 5.00000000000000000000e-01) (10, 5, 5.00000000000000000000e-01) (10, 5, 5.00000000000000000000e-01) (10, 5, 5.00000000000000000000e-01) (10, 5, 5.00000000000000000000e-01) (10, 5, 5.00000000000000000000e-01) (10, 5, 5.00000000000000000000e-01) (10, 5, 5.00000000000000000000e-01) (10, 5, 5.00000000000000000000e-01) (10, 5, 5.00000000000000000000e-01) (10, 5, 5.00000000000000000000e-01) (10, 5, 5.00000000000000000000e-01) (10, 5, 5.00000000000000000000e-01) (10, 5, 5.00000000000000000000e-01) (10, 5, 5.00000000000000000000e-01) (10, 5, 5.00000000000000000000e-01) (10, 5, 5.00000000000000000000e-01) (10, 5, 5.00000000000000000000e-01) (10, 5, 5.00000000000000000000e-01) (10, 5, 5.00000000000000000000e-01) (10, 5, 5.00000000000000000000e-01) (10, 5, 5.00000000000000000000e-01) (10, 5, 5.00000000000000000000e-01) (10, 5, 5.00000000000000000000e-01) (10, 5, 5.00000000000000000000e-01) (10, 5, 5.00000000000000000000e-01) (10, 5, 5.00000000000000000000e-01) (10, 5, 5.00000000000000000000e-01) (10, 5, 5.00000000000000000000e-01) (10, 5, 5.00000000000000000000e-01) (10, 5, 5.00000000000000000000e-01) (10, 5, 5.00000000000000000000e-01) (10, 5, 5.00000000000000000000e-01) (10, 5, 5.00000000000000000000e-01) (10, 5, 5.00000000000000000000e-01) (10, 5, 5.00000000000000000000e-01) (10, 5, 5.00000000000000000000e-01) (10, 5, 5.00000000000000000000e-01) (10, 5, 5.00000000000000000000e-01) (10, 5, 5.00000000000000000000e-01) (10, 5, 5.00000000000000000000e-01) (10, 5, 5.00000000000000000000e-01) (10, 5, 5.00000000000000000000e-01) (10, 5, 5.00000000000000000000e-01) (10, 5, 5.00000000000000000000e-01) (10, 5, 5.00000000000000000000e-01) (10, 5, 5.00000000000000000000e-01) (10, 5, 5.00000000000000000000e-01) (10, 5, 5.00000000000000000000e-01) (10, 5, 5.00000000000000000000e-01) (10, 5, 5.00000000000000000000e-01) (10, 5, 5.00000000000000000000e-01) (10, 5, 5.00000000000000000000e-01) (10, 5, 5.00000000000000000000e-01) (10, 5, 5.00000000000000000000e-01) (10, 5, 5.00000000000000000000e-01) (10, 5, 5.00000000000000000000e-01) (10, 5, 5.00000000000000000000e-01) (10, 5, 5.00000000000000000000e-01) (10, 5, 5.00000000000000000000e-01) (10, 5, 5.00000000000000000000e-01) (10, 5, 5.00000000000000000000e-01) (10, 5, 5.00000000000000000000e-01) (10, 5, 5.00000000000000000000e-01) (10, 5, 5.00000000000000000000e-01) (10, 5, 5.00000000000000000000e-01) (10, 5, 5.00000000000000000000e-01) (10, 5, 5.00000000000000000000e-01) (10, 5, 5.00000000000000000000e-01) (10, 5, 5.00000000000000000000e-01) (10, 5, 5.00000000000000000000e-01) (10, 5, 5.00000000000000000000e-01) (10, 5, 5.00000000000000000000e-01) (10, 5, 5.00000000000000000000e-01) (10, 5, 5.00000000000000000000e-01) (10, 5, 5.00000000000000000000e-01) (10, 5, 5.00000000000000000000e-01) (10, 5, 5.00000000000000000000e-01) (10, 5, 5.00000000000000000000e-01) (10, 5, 5.00000000000000000000e-01) (10, 5, 5.00000000000000000000e-01) (10, 5, 5.00000000000000000000e-01) (10, 5, 5.00000000000000000000e-01) (10, 5, 5.00000000000000000000e-01) (10, 5, 5.00000000000000000000e-01) (10, 5, 5.00000000000000000000e-01) (10, 5, 5.00000000000000000000e-01) (10, 5, 5.00000000000000000000e-01) (10, 5, 5.00000000000000000000e-01) (10, 5, 5.00000000000000000000e-01) (10, 5, 5.00000000000000000000e-01) (10, 5, 5.00000000000000000000e-01) (10, 5, 5.00000000000000000000e-01) (10, 5, 5.00000000000000000000e-01) (10, 5, 5.00000000000000000000e-01) (10, 5, 5.00000000000000000000e-01) (10, 5, 5.00000000000000000000e-01) (10, 5, 5.00000000000000000000e-01) (10, 5, 5.00000000000000000000e-01) (10, 5, 5.00000000000000000000e-01) (10, 5, 5.00000000000000000000e-01) (10, 5, 5.00000000000000000000e-01) (10, 5, 5.00000000000000000000e-01) (10, 5, 5.00000000000000000000e-01) (10, 5, 5.00000000000000000000e-01) (10, 5, 5.00000000000000000000e-01) (10, 5, 5.00000000000000000000e-01) (10, 5, 5.00000000000000000000e-01) (10, 5, 5.00000000000000000000e-01) (10, 5, 5.00000000000000000000e-01) (10, 5, 5.00000000000000000000e-01) (10, 5, 5.00000000000000000000e-01) (10, 5, 5.00000000000000000000e-01) (10, 5, 5.00000000000000000000e-01) (10, 5, 5.00000000000000000000e-01) (10, 5, 5.00000000000000000000e-01) (10, 5, 5.00000000000000000000e-01) (10, 5, 5.00000000000000000000e-01) (10, 5, 5.00000000000000000000e-01) (10, 5, 5.00000000000000000000e-01) (10, 5, 5.00000000000000000000e-01) (10, 5, 5.00000000000000000000e-01) (10, 5, 5.00000000000000000000e-01) (10, 5, 5.00000000000000000000e-01) (10, 5, 5.00000000000000000000e-01) (10, 5, 5.00000000000000000000e-01) (10, 5, 5.00000000000000000000e-01) (10, 5, 5.00000000000000000000e-01) (10, 5, 5.00000000000000000000e-01) (10, 5, 5.00000000000000000000e-01) (10, 5, 5.00000000000000000000e-01) (10, 5, 5.00000000000000000000e-01) (10, 5, 5.00000000000000000000e-01) (10, 5, 5.00000000000000000000e-01) (10, 5, 5.00000000000000000000e-01) (10, 5, 5.00000000000000000000e-01) (10, 5, 5.00000000000000000000e-01) (10, 5, 5.00000000000000000000e-01) (10, 5, 5.00000000000000000000e-01) (10, 5, 5.00000000000000000000e-01) (10, 5, 5.00000000000000000000e-01) (10, 5, 5.00000000000000000000e-01) (10, 5, 5.00000000000000000000e-01) (10, 5, 5.00000000000000000000e-01) (10, 5, 5.00000000000000000000e-01) (10, 5, 5.00000000000000000000e-01) (10, 5, 5.00000000000000000000e-01) (10, 5, 5.00000000000000000000e-01) (10, 5, 5.00000000000000000000e-01) (10, 5, 5.00000000000000000000e-01) (10, 5, 5.00000000000000000000e-01) (10, 5, 5.00000000000000000000e-01) (10, 5, 5.00000000000000000000e-01) (10, 5, 5.00000000000000000000e-01) (10, 5, 5.00000000000000000000e-01) (10, 5, 5.00000000000000000000e-01) (10, 5, 5.00000000000000000000e-01) (10, 5, 5.00000000000000000000e-01) (10, 5, 5.00000000000000000000e-01) (10, 5, 5.00000000000000000000e-01) (10, 5, 5.00000000000000000000e-01) (10, 5, 5.00000000000000000000e-01) (10, 5, 5.00000000000000000000e-01) (10, 5, 5.00000000000000000000e-01) (10, 5, 5.00000000000000000000e-01) (10, 5, 5.00000000000000000000e-01) (10, 5, 5.00000000000000000000e-01) (10, 5, 5.00000000000000000000e-01) (10, 5, 5.00000000000000000000e-01) (10, 5, 5.00000000000000000000e-01) (10, 5, 5.00000000000000000000e-01) (10, 5, 5.00000000000000000000e-01) (10, 5, 5.00000000000000000000e-01) (10, 5, 5.00000000000000000000e-01) (10, 5, 5.00000000000000000000e-01) (0, 5, 0.00000000000000000000e+00) (501, 0, 5.00000000000000000000e-01) (0, 0, 0.00000000000000000000e+00) 
connections (connected_to_neuron, weight)=(0, -9.88973081111907958984e-02) (1, 9.09431767156232707202e+06) (2, -6.82073816928297467530e+06) (3, -6.58825530078255850822e+06) (4, -1.03066580218227468431e+07) (5, -1.73050155720504969358e+07) (6, -5.16269993615100346506e+06) (7, -1.90890063211866766214e+07) (8, -1.17532350845960788429e+07) (9, -2.27357939260092414916e+07) (0, -7.23386779427528381348e-02) (1, 9.09261638631661608815e+06) (2, -6.81946232820288278162e+06) (3, -6.58701637561948876828e+06) (4, -1.03047302313253786415e+07) (5, -1.73017826145789176226e+07) (6, -5.16179592540484014899e+06) (7, -1.90854441390105858445e+07) (8, -1.17513618459602054209e+07) (9, -2.27315409901380836964e+07) (0, 1.70512199401855468750e-02) (1, -9.09292746338448859751e+06) (2, 6.81969567367644235492e+06) (3, 6.58724279651178233325e+06) (4, 1.03050831104973386973e+07) (5, 1.73023749037247486413e+07) (6, 5.16196023844113852829e+06) (7, 1.90860962375364080071e+07) (8, 1.17517059823899492621e+07) (9, 2.27323188086381070316e+07) (0, -7.05468282103538513184e-02) (1, 9.09376046785488910973e+06) (2, -6.82032036557089444250e+06) (3, -6.58784903824819251895e+06) (4, -1.03060265548161678016e+07) (5, -1.73039562903016656637e+07) (6, -5.16240311033651605248e+06) (7, -1.90878408864360786974e+07) (8, -1.17526213644106891006e+07) (9, -2.27344012006242536008e+07) (0, 4.57260385155677795410e-02) (1, 9.09142876133371144533e+06) (2, -6.81857162208391632885e+06) (3, -6.58615133526017237455e+06) (4, -1.03033852648518308997e+07) (5, -1.72995276664722710848e+07) (6, -5.16116377740865014493e+06) (7, -1.90829605485037118196e+07) (8, -1.17500531903139874339e+07) (9, -2.27285719199557565153e+07) (0, -1.15838274359703063965e-02) (1, 9.09852971217459067702e+06) (2, -6.82389725141950137913e+06) (3, -6.59133274089203123003e+06) (4, -1.03114295644497703761e+07) (5, -1.73130188002575933933e+07) (6, -5.16495096941595990211e+06) (7, -1.90977989730838052928e+07) (8, -1.17579076419288404286e+07) (9, -2.27463242514008693397e+07) (0, 4.89084646105766296387e-02) (1, 9.09227535640270821750e+06) (2, -6.81920645060018450022e+06) (3, -6.58676790670299995691e+06) (4, -1.03043441024056021124e+07) (5, -1.73011349962474666536e+07) (6, -5.16161427822062280029e+06) (7, -1.90847314122083820403e+07) (8, -1.17509855836814232171e+07) (9, -2.27306883274587020278e+07) (0, 9.99642685055732727051e-02) (1, 9.09391515757514350116e+06) (2, -6.82043633783766906708e+06) (3, -6.58796796844949200749e+06) (4, -1.03062052637021262199e+07) (5, -1.73042602682942450047e+07) (6, -5.16249318521995190531e+06) (7, -1.90881602398953139782e+07) (8, -1.17528115073311030865e+07) (9, -2.27347880006207004189e+07) (0, -3.12194973230361938477e-02) (1, -9.09262464135169982910e+06) (2, 6.81946838827829621732e+06) (3, 6.58702247863312158734e+06) (4, 1.03047396275405976921e+07) (5, 1.73017982478170059621e+07) (6, 5.16180042024249117821e+06) (7, 1.90854613319548517466e+07) (8, 1.17513710360155850649e+07) (9, 2.27315615601477324963e+07) (0, 6.66824504733085632324e-02) (1, -9.09460232293612137437e+06) (2, 6.82095169871844537556e+06) (3, 6.58846257307973597199e+06) (4, 1.03069803693115524948e+07) (5, 1.73055561397811472416e+07) (6, 5.16285123904151841998e+06) (7, 1.90896016254280135036e+07) (8, 1.17535480669148918241e+07) (9, 2.27365056740762256086e+07) (0, -3.52205336093902587891e-02) (1, -9.09252732618906907737e+06) (2, 6.81939549512069486082e+06) (3, 6.58695137839232478291e+06) (4, 1.03046293712136987597e+07) (5, 1.73016134795952588320e+07) (6, 5.16174861872549634427e+06) (7, 1.90852575779248178005e+07) (8, 1.17512637007280569524e+07) (9, 2.27313181096552833915e+07) (0, 4.10635098814964294434e-02) (1, 9.09262870594477653503e+06) (2, -6.81947145196373015642e+06) (3, -6.58702475700513925403e+06) (4, -1.03047443764016330242e+07) (5, -1.73018067522105425596e+07) (6, -5.16180115155669581145e+06) (7, -1.90854717262796610594e+07) (8, -1.17513752066490370780e+07) (9, -2.27315715660965517163e+07) (0, -9.92541462182998657227e-02) (1, 9.09451989110857434571e+06) (2, -6.82088985671446751803e+06) (3, -6.58840899245223682374e+06) (4, -1.03068875707379989326e+07) (5, -1.73054025351969785988e+07) (6, -5.16281554294506646693e+06) (7, -1.90894195856994204223e+07) (8, -1.17534789517203550786e+07) (9, -2.27362998190320841968e+07) (0, -8.84485244750976562500e-03) (1, 9.09573579652005434036e+06) (2, -6.82180181151779647917e+06) (3, -6.58929044662360474467e+06) (4, -1.03082657655233852565e+07) (5, -1.73077137343378253281e+07) (6, -5.16346100356279034168e+06) (7, -1.90919688860582038760e+07) (8, -1.17548118821183089167e+07) (9, -2.27393394204507581890e+07) (0, 4.16597947478294372559e-02) (1, 9.09421987091312184930e+06) (2, -6.82066484943124838173e+06) (3, -6.58818406907646264881e+06) (4, -1.03065471969673372805e+07) (5, -1.73048297993176989257e+07) (6, -5.16264792811298742890e+06) (7, -1.90888018251277133822e+07) (8, -1.17531275825732070953e+07) (9, -2.27355493883214741945e+07) (0, 6.04437813162803649902e-02) (1, -9.09368365348228812218e+06) (2, 6.82026266052886936814e+06) (3, 6.58779931065103411674e+06) (4, 1.03059408826021868736e+07) (5, 1.73038151051473878324e+07) (6, 5.16236949299782328308e+06) (7, 1.90876723284253925085e+07) (8, 1.17525541834973599762e+07) (9, 2.27342090400280244648e+07) (0, 3.37280109524726867676e-02) (1, 9.09610497296847589314e+06) (2, -6.82207882405884191394e+06) (3, -6.58956045912430249155e+06) (4, -1.03086796458751112223e+07) (5, -1.73084052988726980984e+07) (6, -5.16365789611904695630e+06) (7, -1.90927306326344385743e+07) (8, -1.17552163582166507840e+07) (9, -2.27402624096367135644e+07) (0, 1.25897973775863647461e-02) (1, 9.09879322275372035801e+06) (2, -6.82409486482757516205e+06) (3, -6.59152481694970373064e+06) (4, -1.03117280483341310173e+07) (5, -1.73135192383430190384e+07) (6, -5.16509181375215575099e+06) (7, -1.90983499340314492583e+07) (8, -1.17581992732044402510e+07) (9, -2.27469828942448012531e+07) (0, -2.76567041873931884766e-03) (1, -9.09897711438620463014e+06) (2, 6.82423287422978691757e+06) (3, 6.59165906215246766806e+06) (4, 1.03119365769981499761e+07) (5, 1.73138688984333351254e+07) (6, 5.16519011037707235664e+06) (7, 1.90987347189814634621e+07) (8, 1.17584025200363248587e+07) (9, 2.27474427363522276282e+07) (0, 2.47024521231651306152e-02) (1, 9.09257252368221804500e+06) (2, -6.81942940698848199099e+06) (3, -6.58698916164662223309e+06) (4, -1.03046835245360061526e+07) (5, -1.73017081920460164547e+07) (6, -5.16177866760766692460e+06) (7, -1.90853524479014910758e+07) (8, -1.17513314316887222230e+07) (9, -2.27314312708238586783e+07) (0, 7.35233351588249206543e-02) (1, -9.09342544916636310518e+06) (2, 6.82006906827378086746e+06) (3, 6.58760517151218093932e+06) (4, 1.03056472515648938715e+07) (5, 1.73033203330905698240e+07) (6, 5.16222509878845419735e+06) (7, 1.90871397072784490883e+07) (8, 1.17522525848250743002e+07) (9, 2.27335636114882901311e+07) (0, -2.51467451453208923340e-02) (1, 9.09379634013546444476e+06) (2, -6.82034725167170912027e+06) (3, -6.58787525385227799416e+06) (4, -1.03060672373570222408e+07) (5, -1.73040242939479351044e+07) (6, -5.16242218380961101502e+06) (7, -1.90879157874008975923e+07) (8, -1.17526607768656536937e+07) (9, -2.27344907389313727617e+07) (0, -9.85523611307144165039e-02) (1, 9.09247688565264269710e+06) (2, -6.81935771597236581147e+06) (3, -6.58691464621893037111e+06) (4, -1.03045723212795760483e+07) (5, -1.73015180583955831826e+07) (6, -5.16172112261568568647e+06) (7, -1.90851535300351195037e+07) (8, -1.17512079091762602329e+07) (9, -2.27311923319675698876e+07) (0, 7.32519850134849548340e-02) (1, -9.09152093510569445789e+06) (2, 6.81864061115684080869e+06) (3, 6.58621835619547497481e+06) (4, 1.03034896485444083810e+07) (5, 1.72997024772864915431e+07) (6, 5.16121277757383137941e+06) (7, 1.90831532498764954507e+07) (8, 1.17501542860003691167e+07) (9, 2.27288023478356376290e+07) (0, 5.44736757874488830566e-02) (1, -9.09878240814606659114e+06) (2, 6.82408684806722216308e+06) (3, 6.59151685010767448694e+06) (4, 1.03117157426409404725e+07) (5, 1.73134988893979638815e+07) (6, 5.16508570480738021433e+06) (7, 1.90983272667817622423e+07) (8, 1.17581867542279530317e+07) (9, 2.27469562018155455589e+07) (0, -9.50913876295089721680e-02) (1, -9.09233773702566511929e+06) (2, 6.81925336063937656581e+06) (3, 6.58681346662163920701e+06) (4, 1.03044147720896247774e+07) (5, 1.73012536623993813992e+07) (6, 5.16164765763233229518e+06) (7, 1.90848618568817600608e+07) (8, 1.17510547360497824848e+07) (9, 2.27308444470736049116e+07) (0, -5.48166707158088684082e-02) (1, -9.09252452602695301175e+06) (2, 6.81939345163362380117e+06) (3, 6.58694890497012156993e+06) (4, 1.03046265319044459611e+07) (5, 1.73016087218162529171e+07) (6, 5.16174557392533030361e+06) (7, 1.90852538987730741501e+07) (8, 1.17512598253120128065e+07) (9, 2.27313114288760572672e+07) (0, -2.30917558073997497559e-02) (1, -9.09268890874795243144e+06) (2, 6.81951674380206968635e+06) (3, 6.58707414819195959717e+06) (4, 1.03048153344381023198e+07) (5, 1.73019292164265252650e+07) (6, 5.16184057266670931131e+06) (7, 1.90855957532263398170e+07) (8, 1.17514599187520947307e+07) (9, 2.27317223647309355438e+07) (0, -9.69882011413574218750e-02) (1, 9.09388446674318239093e+06) (2, -6.82041337188717722893e+06) (3, -6.58793953714044298977e+06) (4, -1.03061671502262018621e+07) (5, -1.73041922203551493585e+07) (6, -5.16246929970667697489e+06) (7, -1.90880999907168261707e+07) (8, -1.17527580785467922688e+07) (9, -2.27347108627335242927e+07) (0, -1.67976245284080505371e-02) (1, 9.09347292107171379030e+06) (2, -6.82010474193341657519e+06) (3, -6.58764611177946440876e+06) (4, -1.03057041926997452974e+07) (5, -1.73034202045849449933e+07) (6, -5.16225758317876327783e+06) (7, -1.90872353891385272145e+07) (8, -1.17523231596593670547e+07) (9, -2.27336824671430550516e+07) (0, -5.19651360809803009033e-02) (1, -9.09223300382294505835e+06) (2, 6.81917469905739463866e+06) (3, 6.58673709780097194016e+06) (4, 1.03042960153595954180e+07) (5, 1.73010544863457381725e+07) (6, 5.16159176306535210460e+06) (7, 1.90846427086241319776e+07) (8, 1.17509387914112191647e+07) (9, 2.27305824445182792842e+07) (0, 5.54193928837776184082e-02) (1, -9.09434114485555700958e+06) (2, 6.82075580490047018975e+06) (3, 6.58827210483444482088e+06) (4, 1.03066843587277438492e+07) (5, 1.73050594148299619555e+07) (6, 5.16271199075937550515e+06) (7, 1.90890552380216717720e+07) (8, 1.17532605215482898057e+07) (9, 2.27358527516676262021e+07) (0, 1.01201683282852172852e-02) (1, 9.09461053852932713926e+06) (2, -6.82095797619748767465e+06) (3, -6.58847470023600105196e+06) (4, -1.03069921307286284864e+07) (5, -1.73055790134815573692e+07) (6, -5.16286296198576409370e+06) (7, -1.90896170253640897572e+07) (8, -1.17535646751500777900e+07) (9, -2.27365263516297303140e+07) (0, 3.96550372242927551270e-02) (1, 9.09247173186858184636e+06) (2, -6.81935375965712405741e+06) (3, -6.58691118597258720547e+06) (4, -1.03045665459739770740e+07) (5, -1.73015078374373242259e+07) (6, -5.16171921491519175470e+06) (7, -1.90851413159427382052e+07) (8, -1.17512027149852234870e+07) (9, -2.27311793592242673039e+07) (0, -8.55921208858489990234e-03) (1, -9.09633418123450502753e+06) (2, 6.82225060409104730934e+06) (3, 6.58973260022761020809e+06) (4, 1.03089449730341751128e+07) (5, 1.73088540426180437207e+07) (6, 5.16378144717291463166e+06) (7, 1.90932151680330038071e+07) (8, 1.17554857568950913846e+07) (9, 2.27408352020133174956e+07) (0, 9.86276939511299133301e-02) (1, 9.09453275069686397910e+06) (2, -6.82089954014260321856e+06) (3, -6.58841215061140805483e+06) (4, -1.03069017812093812972e+07) (5, -1.73054244538784436882e+07) (6, -5.16281455321692675352e+06) (7, -1.90894564518248774111e+07) (8, -1.17534719123650528491e+07) (9, -2.27363317829827331007e+07) (0, -1.86017304658889770508e-02) (1, 9.09364219994463026524e+06) (2, -6.82023174379505869001e+06) (3, -6.58776911879007052630e+06) (4, -1.03058954236194472760e+07) (5, -1.73037404209142513573e+07) (6, -5.16234786223107483238e+06) (7, -1.90875886826708354056e+07) (8, -1.17525121528730932623e+07) (9, -2.27341057471766583622e+07) (0, -9.78097096085548400879e-02) (1, -9.09254369721622392535e+06) (2, 6.81940785808568634093e+06) (3, 6.58696347746177390218e+06) (4, 1.03046482327032126486e+07) (5, 1.73016449541120566428e+07) (6, 5.16175708200506214052e+06) (7, 1.90852930881757773459e+07) (8, 1.17512817776505257934e+07) (9, 2.27313595536108985543e+07) (0, -9.78211611509323120117e-02) (1, -9.09427395842631347477e+06) (2, 6.82070544613021239638e+06) (3, 6.58822941592994611710e+06) (4, 1.03066116853412073106e+07) (5, 1.73049422815695069730e+07) (6, 5.16268516537745483220e+06) (7, 1.90889111661713607609e+07) (8, 1.17532085927841570228e+07) (9, 2.27356848613442666829e+07) (0, -3.64586040377616882324e-02) (1, -9.09256255029064416885e+06) (2, 6.81942183280795440078e+06) (3, 6.58697720631367154419e+06) (4, 1.03046693368050046265e+07) (5, 1.73016803522686958313e+07) (6, 5.16176737271125707775e+06) (7, 1.90853315118989944458e+07) (8, 1.17513026791775897145e+07) (9, 2.27314063657390251756e+07) (0, 7.26063326001167297363e-02) (1, -9.09578255146652646363e+06) (2, 6.82183703653686866164e+06) (3, 6.58932557160219457000e+06) (4, 1.03083151626547947526e+07) (5, 1.73077945165527015924e+07) (6, 5.16348633871873840690e+06) (7, 1.90920577211262285709e+07) (8, 1.17548617463383041322e+07) (9, 2.27394565579588301480e+07) (0, -7.46973007917404174805e-02) (1, 9.09243629254753328860e+06) (2, -6.81932725763474311680e+06) (3, -6.58688516539615951478e+06) (4, -1.03045263404850661755e+07) (5, -1.73014405264847204089e+07) (6, -5.16170009643651265651e+06) (7, -1.90850676971626989543e+07) (8, -1.17511632982936799526e+07) (9, -2.27310906230987049639e+07) (0, -2.01085060834884643555e-02) (1, -9.09222886844739317894e+06) (2, 6.81917167603552434593e+06) (3, 6.58673415553418174386e+06) (4, 1.03042913558199517429e+07) (5, 1.73010466087950691581e+07) (6, 5.16158982613415550441e+06) (7, 1.90846337164377309382e+07) (8, 1.17509346875011622906e+07) (9, 2.27305722118781469762e+07) (0, -3.08784842491149902344e-02) (1, 9.09898290123176760972e+06) (2, -6.82423715537136327475e+06) (3, -6.59166298040496185422e+06) (4, -1.03119427785796616226e+07) (5, -1.73138795932374149561e+07) (6, -5.16519245609933603555e+06) (7, -1.90987463889324627817e+07) (8, -1.17584079644696358591e+07) (9, -2.27474572054911144078e+07) (0, -2.46751084923744201660e-02) (1, 9.09413349690029397607e+06) (2, -6.82060009946958348155e+06) (3, -6.58812669773887284100e+06) (4, -1.03064525439342968166e+07) (5, -1.73046755782664269209e+07) (6, -5.16260951116271596402e+06) (7, -1.90886176405174694955e+07) (8, -1.17530526255474146456e+07) (9, -2.27353337648708596826e+07) (0, 3.32715287804603576660e-02) (1, 9.09402041743257082999e+06) (2, -6.82051522238736413419e+06) (3, -6.58804443443860299885e+06) (4, -1.03063248705629017204e+07) (5, -1.73044613533904738724e+07) (6, -5.16254949154387041926e+06) (7, -1.90883815721259191632e+07) (8, -1.17529277805771213025e+07) (9, -2.27350510634509772062e+07) (0, 9.83148291707038879395e-02) (1, -9.09898828466916643083e+06) (2, 6.82424126522401906550e+06) (3, 6.59166700158862303942e+06) (4, 1.03119488335159420967e+07) (5, 1.73138896568814627826e+07) (6, 5.16519535918751265854e+06) (7, 1.90987574865392595530e+07) (8, 1.17584139105295967311e+07) (9, 2.27474707908626794815e+07) (0, 7.83226117491722106934e-02) (1, 9.09248844202624447644e+06) (2, -6.81936629825818631798e+06) (3, -6.58692276873509958386e+06) (4, -1.03045856063712928444e+07) (5, -1.73015401494161114097e+07) (6, -5.16172657000012323260e+06) (7, -1.90851779892261698842e+07) (8, -1.17512205429668296129e+07) (9, -2.27312209909546822309e+07) (0, 3.83795574307441711426e-02) (1, -9.09608430166887119412e+06) (2, 6.82206321780822332948e+06) (3, 6.58955094996079988778e+06) (4, 1.03086623951696231961e+07) (5, 1.73083815736314505339e+07) (6, 5.16364708174439147115e+06) (7, 1.90926948015493899584e+07) (8, 1.17552092608732618392e+07) (9, 2.27402106924861148000e+07) (0, -2.69964784383773803711e-02) (1, -9.09411151266508549452e+06) (2, 6.82058376180811226368e+06) (3, 6.58811096504201181233e+06) (4, 1.03064280768423397094e+07) (5, 1.73046341184688396752e+07) (6, 5.16259814717124216259e+06) (7, 1.90885719433605596423e+07) (8, 1.17530283913647308946e+07) (9, 2.27352789736575521529e+07) (0, -4.80137430131435394287e-02) (1, -9.09349983816392719746e+06) (2, 6.82012485891162790358e+06) (3, 6.58765953839107137173e+06) (4, 1.03057315504434760660e+07) (5, 1.73034617855200357735e+07) (6, 5.16226471861566323787e+06) (7, 1.90872954498423114419e+07) (8, 1.17523349346780776978e+07) (9, 2.27337497248032130301e+07) (0, 2.76826098561286926270e-02) (1, -9.09260348846092075109e+06) (2, 6.81945264643116947263e+06) (3, 6.58700685770913772285e+06) (4, 1.03047157309797890484e+07) (5, 1.73017582201448194683e+07) (6, 5.16178905975760705769e+06) (7, 1.90854171880671270192e+07) (8, 1.17513474639202058315e+07) (9, 2.27315086104671098292e+07) (0, -3.20820286870002746582e-02) (1, -9.09448054128946922719e+06) (2, 6.82086038908542878926e+06) (3, 6.58837369225510023534e+06) (4, 1.03068423387293908745e+07) (5, 1.73053245705135427415e+07) (6, 5.16278625365252885967e+06) (7, 1.90893469440758600831e+07) (8, 1.17534139817148707807e+07) (9, 2.27362012164904624224e+07) (0, -8.34547355771064758301e-02) (1, 9.09428035363647900522e+06) (2, -6.82071020051272585988e+06) (3, -6.58823408790228143334e+06) (4, -1.03066189058828633279e+07) (5, -1.73049543087464161217e+07) (6, -5.16268815671618841588e+06) (7, -1.90889242344254627824e+07) (8, -1.17532151000904962420e+07) (9, -2.27357008215515837073e+07) (0, 8.42246785759925842285e-02) (1, 9.09261479485774971545e+06) (2, -6.81946111245266813785e+06) (3, -6.58701506015736702830e+06) (4, -1.03047284145534634590e+07) (5, -1.73017798277356550097e+07) (6, -5.16179474878226686269e+06) (7, -1.90854413622273094952e+07) (8, -1.17513601138918735087e+07) (9, -2.27315368569151461124e+07) (0, -7.74260312318801879883e-02) (1, 9.09138876195899769664e+06) (2, -6.81854145487232785672e+06) (3, -6.58612219469501171261e+06) (4, -1.03033398023609183729e+07) (5, -1.72994515103268101811e+07) (6, -5.16114240487739723176e+06) (7, -1.90828766217633560300e+07) (8, -1.17500087548186089844e+07) (9, -2.27284717745667658746e+07) (0, 9.44687351584434509277e-02) (1, 9.09210767734876647592e+06) (2, -6.81908076697541307658e+06) (3, -6.58664565065167192370e+06) (4, -1.03041541410375069827e+07) (5, -1.73008164077659398317e+07) (6, -5.16152520808868203312e+06) (7, -1.90843801224458627403e+07) (8, -1.17508010071899071336e+07) (9, -2.27302690593148842454e+07) (0, 1.44197195768356323242e-02) (1, -9.09403214639026299119e+06) (2, 6.82052426790877245367e+06) (3, 6.58805344913254305720e+06) (4, 1.03063369011700116098e+07) (5, 1.73044805535958409309e+07) (6, 5.16255348550989665091e+06) (7, 1.90884076325531341136e+07) (8, 1.17529367085014842451e+07) (9, 2.27350805361589603126e+07) (0, 5.83113506436347961426e-02) (1, -9.09401019379433616996e+06) (2, 6.82050768410196248442e+06) (3, 6.58803706112791225314e+06) (4, 1.03063132228177413344e+07) (5, 1.73044412723302990198e+07) (6, 5.16254440899260714650e+06) (7, 1.90883599414654113352e+07) (8, 1.17529174282216876745e+07) (9, 2.27350254656927287579e+07) (0, -5.24627454578876495361e-02) (1, 9.09224342116188444197e+06) (2, -6.81918251277645304799e+06) (3, -6.58674466872614435852e+06) (4, -1.03043079337401054800e+07) (5, -1.73010743182759247720e+07) (6, -5.16159722241674270481e+06) (7, -1.90846645351461060345e+07) (8, -1.17509504240261204541e+07) (9, -2.27306084341328330338e+07) (0, 4.16364744305610656738e-02) (1, -9.09393372889451123774e+06) (2, 6.82045043800758756697e+06) (3, 6.58798093075374979526e+06) (4, 1.03062255882100369781e+07) (5, 1.73042937654775790870e+07) (6, 5.16250167787597421557e+06) (7, 1.90882042942692562938e+07) (8, 1.17528228370472118258e+07) (9, 2.27348345701979510486e+07) (0, 4.79173734784126281738e-02) (1, -9.09265214525533653796e+06) (2, 6.81948921553699206561e+06) (3, 6.58704208783714473248e+06) (4, 1.03047709710241202265e+07) (5, 1.73018512924904376268e+07) (6, 5.16181381309239007533e+06) (7, 1.90855202606960833073e+07) (8, 1.17514016651422102004e+07) (9, 2.27316305057166665792e+07) (0, -5.96055798232555389404e-02) (1, -9.11522666714886203408e+06) (2, 6.83642000042545050383e+06) (3, 6.60349119939550571144e+06) (4, 1.03303322316640447825e+07) (5, 1.73447043984264656901e+07) (6, 5.17377734175082389265e+06) (7, 1.91326922524157799780e+07) (8, 1.17762799233908765018e+07) (9, 2.27880666378873698413e+07) (0, 3.78326848149299621582e-02) (1, -9.09618945895903930068e+06) (2, 6.82214194868899416178e+06) (3, 6.58962751332448050380e+06) (4, 1.03087813043105266988e+07) (5, 1.73085811199689805508e+07) (6, 5.16370377524931635708e+06) (7, 1.90929141131978482008e+07) (8, 1.17553254920156691223e+07) (9, 2.27404733486648164690e+07) (0, 3.45318242907524108887e-02) (1, 9.09217775640874356031e+06) (2, -6.81913333297287020832e+06) (3, -6.58669685033916030079e+06) (4, -1.03042335560821369290e+07) (5, -1.73009498319477774203e+07) (6, -5.16156249525383673608e+06) (7, -1.90845269419151656330e+07) (8, -1.17508782676479183137e+07) (9, -2.27304444905615858734e+07) (0, 6.06367662549018859863e-02) (1, 9.09865561327011696994e+06) (2, -6.82399170592976175249e+06) (3, -6.59142458297282177955e+06) (4, -1.03115718691409770399e+07) (5, -1.73132574412161670625e+07) (6, -5.16501807420509401709e+06) (7, -1.90980616812147460878e+07) (8, -1.17580464287650510669e+07) (9, -2.27466389570367336273e+07) (0, -2.13780105113983154297e-02) (1, 9.09863485625539720058e+06) (2, -6.82397606602224148810e+06) (3, -6.59140927141402289271e+06) (4, -1.03115484481973070651e+07) (5, -1.73132182628723718226e+07) (6, -5.16500696791549585760e+06) (7, -1.90980184004780501127e+07) (8, -1.17580235739555433393e+07) (9, -2.27465868922612294555e+07) (0, 2.35027298331260681152e-02) (1, 9.09339780447191372514e+06) (2, -6.82004832990230619907e+06) (3, -6.58758522308916691691e+06) (4, -1.03056160147075857967e+07) (5, -1.73032681275613941252e+07) (6, -5.16221048632126674056e+06) (7, -1.90870819603649526834e+07) (8, -1.17522225805101301521e+07) (9, -2.27334946611863821745e+07) (0, 8.64608064293861389160e-02) (1, 9.09572499160470254719e+06) (2, -6.82179376391194015741e+06) (3, -6.58928246814083773643e+06) (4, -1.03082536727537941188e+07) (5, -1.73076935697390772402e+07) (6, -5.16345521240581292659e+06) (7, -1.90919465901960209012e+07) (8, -1.17547999645882137120e+07) (9, -2.27393124283131621778e+07) (0, -5.08117750287055969238e-02) (1, 9.09291255350407771766e+06) (2, -6.81968432059925608337e+06) (3, -6.58723211425834894180e+06) (4, -1.03050662523843292147e+07) (5, -1.73023467763118632138e+07) (6, -5.16195282921001873910e+06) (7, -1.90860648442232646048e+07) (8, -1.17516908709102217108e+07) (9, -2.27322812783149778843e+07) (0, -5.52729777991771697998e-02) (1, 9.09269178687985427678e+06) (2, -6.81951881302120815963e+06) (3, -6.58707074743628595024e+06) (4, -1.03048158958837129176e+07) (5, -1.73019264471816644073e+07) (6, -5.16183457579925283790e+06) (7, -1.90856041010271608829e+07) (8, -1.17514442336902823299e+07) (9, -2.27317294808867834508e+07) (0, 8.28722044825553894043e-02) (1, 9.09249851828815974295e+06) (2, -6.81937383412929531187e+06) (3, -6.58693063391437474638e+06) (4, -1.03045968539195209742e+07) (5, -1.73015589471392109990e+07) (6, -5.16173331759205646813e+06) (7, -1.90851978189973644912e+07) (8, -1.17512321255321372300e+07) (9, -2.27312463242257870734e+07) (0, -2.54363268613815307617e-02) (1, 9.09374211270958930254e+06) (2, -6.82030660682014375925e+06) (3, -6.58784270828838646412e+06) (4, -1.03060075901164971292e+07) (5, -1.73039284110303446651e+07) (6, -5.16240108487428445369e+06) (7, -1.90877954943878315389e+07) (8, -1.17526203675080835819e+07) (9, -2.27343552940566614270e+07) (0, -8.63752290606498718262e-02) (1, -9.09562001900435239077e+06) (2, 6.82171504240923002362e+06) (3, 6.58920907120517641306e+06) (4, 1.03081359196997396648e+07) (5, 1.73074958626051098108e+07) (6, 5.16339514063678402454e+06) (7, 1.90917279472738765180e+07) (8, 1.17546731362070683390e+07) (9, 2.27390498972115367651e+07) (0, 2.58878394961357116699e-02) (1, -9.09223528232526220381e+06) (2, 6.81917655302427150309e+06) (3, 6.58673871299515292048e+06) (4, 1.03042986586507093161e+07) (5, 1.73010590146765895188e+07) (6, 5.16159286070350464433e+06) (7, 1.90846476376163847744e+07) (8, 1.17509416033751238137e+07) (9, 2.27305882498630993068e+07) (0, -8.19946005940437316895e-02) (1, 9.09459281222801655531e+06) (2, -6.82094456289716251194e+06) (3, -6.58845560580697562546e+06) (4, -1.03069696283277701586e+07) (5, -1.73055379434959851205e+07) (6, -5.16284604400533996522e+06) (7, -1.90895819467272609472e+07) (8, -1.17535376138146072626e+07) (9, -2.27364820122115835547e+07) (0, -2.12406143546104431152e-02) (1, -9.09831376718299277127e+06) (2, 6.82373530432582646608e+06) (3, 6.59117543254692479968e+06) (4, 1.03111848395390193909e+07) (5, 1.73126084552901983261e+07) (6, 5.16483602106442488730e+06) (7, 1.90973472854743152857e+07) (8, 1.17576693875437080860e+07) (9, 2.27457845860474146903e+07) (0, 9.49351266026496887207e-02) (1, 9.09218679546345397830e+06) (2, -6.81914015799619443715e+06) (3, -6.58670337691127974540e+06) (4, -1.03042437200079485774e+07) (5, -1.73009668693375550210e+07) (6, -5.16156730979859177023e+06) (7, -1.90845457908612899482e+07) (8, -1.17508881152213141322e+07) (9, -2.27304670893759094179e+07) (0, -5.92576004564762115479e-02) (1, 9.09395729945115186274e+06) (2, -6.82046789019773621112e+06) (3, -6.58799850120270159096e+06) (4, -1.03062533356413729489e+07) (5, -1.73043411286972723901e+07) (6, -5.16251589331652782857e+06) (7, -1.90882493299315087497e+07) (8, -1.17528580318735502660e+07) (9, -2.27348929911862686276e+07) (0, -5.53542114794254302979e-02) (1, -9.09185623986303247511e+06) (2, 6.81889225484626553953e+06) (3, 6.58646266905920580029e+06) (4, 1.03038695104601308703e+07) (5, 1.73003391500307954848e+07) (6, 5.16139136935199424624e+06) (7, 1.90838546593018099666e+07) (8, 1.17505238633790090680e+07) (9, 2.27296407185203656554e+07) (0, -1.65755674242973327637e-02) (1, -9.09448896431121416390e+06) (2, 6.82086667064645607024e+06) (3, 6.58838022571686189622e+06) (4, 1.03068522665880750865e+07) (5, 1.73053414110970497131e+07) (6, 5.16279127804912440479e+06) (7, 1.90893649831594265997e+07) (8, 1.17534238610369507223e+07) (9, 2.27362225816735439003e+07) (0, -5.63351623713970184326e-02) (1, -9.09385065197671018541e+06) (2, 6.82038793679595831782e+06) (3, 6.58791521560825314373e+06) (4, 1.03061290141497757286e+07) (5, 1.73041289149611033499e+07) (6, 5.16245165062265656888e+06) (7, 1.90880291248262897134e+07) (8, 1.17527212153961360455e+07) (9, 2.27346263701710402966e+07) (0, -4.12211008369922637939e-02) (1, -9.09425471133199147880e+06) (2, 6.82069092287810612470e+06) (3, 6.58820915557911898941e+06) (4, 1.03065866632688641548e+07) (5, 1.73048956137180961668e+07) (6, 5.16266619853722024709e+06) (7, 1.90888746812405474484e+07) (8, 1.17531656228845585138e+07) (9, 2.27356366182220540941e+07) (0, -1.76873058080673217773e-02) (1, 9.09585041809425130486e+06) (2, -6.82188780589573923498e+06) (3, -6.58937494220949616283e+06) (4, -1.03083915874649416655e+07) (5, -1.73079225666584558785e+07) (6, -5.16352226010311581194e+06) (7, -1.90921990782630667090e+07) (8, -1.17549358594300076365e+07) (9, -2.27396262674054913223e+07) (0, 3.58182117342948913574e-02) (1, -9.09123157815733738244e+06) (2, 6.81842362340501509607e+06) (3, 6.58600774835794791579e+06) (4, 1.03031618923401013017e+07) (5, 1.72991531404294669628e+07) (6, 5.16105869213639479131e+06) (7, 1.90825481414387226105e+07) (8, 1.17498358199028503150e+07) (9, 2.27280788733183667064e+07) (0, 7.09654167294502258301e-02) (1, -9.09604876974616013467e+06) (2, 6.82203667160034459084e+06) (3, 6.58951961882634833455e+06) (4, 1.03086164441212024540e+07) (5, 1.73082992819664068520e+07) (6, 5.16362810355175193399e+06) (7, 1.90926136362324804068e+07) (8, 1.17551546319115106016e+07) (9, 2.27401221646268665791e+07) (0, -3.41464132070541381836e-02) (1, 9.09397641408071666956e+06) (2, -6.82048224710964038968e+06) (3, -6.58801215472114365548e+06) (4, -1.03062737325824350119e+07) (5, -1.73043742044647745788e+07) (6, -5.16252416482365969568e+06) (7, -1.90882934813169352710e+07) (8, -1.17528697351370938122e+07) (9, -2.27349409817351028323e+07) (0, 2.67446860671043395996e-02) (1, 9.09245329179606027901e+06) (2, -6.81934008398929424584e+06) (3, -6.58689759063992649317e+06) (4, -1.03045456758591812104e+07) (5, -1.73014731015383265913e+07) (6, -5.16170925183321163058e+06) (7, -1.90851032021035440266e+07) (8, -1.17511820158581361175e+07) (9, -2.27311332869016490877e+07) (0, 9.42999944090843200684e-02) (1, -9.09451794385878369212e+06) (2, 6.82088854968952760100e+06) (3, 6.58840120147296693176e+06) (4, 1.03068849592408817261e+07) (5, 1.73053960401314347982e+07) (6, 5.16280639676383230835e+06) (7, 1.90894253280396983027e+07) (8, 1.17534553360765781254e+07) (9, 2.27362949216725155711e+07) (0, -6.80142864584922790527e-02) (1, -9.09309197365763969719e+06) (2, 6.81981899656810238957e+06) (3, 6.58736221488717384636e+06) (4, 1.03052693361680507660e+07) (5, 1.73026865840081833303e+07) (6, 5.16204751647322252393e+06) (7, 1.90864417498468346894e+07) (8, 1.17518850295124109834e+07) (9, 2.27327297955462485552e+07) (0, 1.63702368736267089844e-02) (1, -9.09455065841303393245e+06) (2, 6.82091301987216621637e+06) (3, 6.58842508350774087012e+06) (4, 1.03069221014160588384e+07) (5, 1.73054584111946113408e+07) (6, 5.16282398345933947712e+06) (7, 1.90894939433806054294e+07) (8, 1.17534915266694314778e+07) (9, 2.27363766820446103811e+07) (0, 3.09109017252922058105e-02) (1, 9.09217547298120707273e+06) (2, -6.81913152550860121846e+06) (3, -6.58669514775334484875e+06) (4, -1.03042309902753010392e+07) (5, -1.73009452724991366267e+07) (6, -5.16156127442491147667e+06) (7, -1.90845222526920698583e+07) (8, -1.17508757306867670268e+07) (9, -2.27304386854392774403e+07) (0, -1.49443596601486206055e-02) (1, 9.09266725477934442461e+06) (2, -6.81950048434872645885e+06) (3, -6.58705367277531046420e+06) (4, -1.03047881333108488470e+07) (5, -1.73018794522676542401e+07) (6, -5.16182308462816290557e+06) (7, -1.90855506908922865987e+07) (8, -1.17514180576923992485e+07) (9, -2.27316682101544737816e+07) (0, 8.39921459555625915527e-02) (1, 9.09439462571739964187e+06) (2, -6.82079593018968869001e+06) (3, -6.58831751130607351661e+06) (4, -1.03067483493393640965e+07) (5, -1.73051713347991146147e+07) (6, -5.16274915550502296537e+06) (7, -1.90891630554802566767e+07) (8, -1.17533413456667512655e+07) (9, -2.27359864746824279428e+07) (0, -2.82298400998115539551e-02) (1, 9.09243910928362235427e+06) (2, -6.81932926474109105766e+06) (3, -6.58688728145090397447e+06) (4, -1.03045295625314656645e+07) (5, -1.73014458407004587352e+07) (6, -5.16170158590196352452e+06) (7, -1.90850734871550537646e+07) (8, -1.17511664381977170706e+07) (9, -2.27310975852388069034e+07) (0, 1.47310867905616760254e-02) (1, -9.09191180045862868428e+06) (2, 6.81893392061347048730e+06) (3, 6.58650292226667515934e+06) (4, 1.03039323670200221241e+07) (5, 1.73004447787926346064e+07) (6, 5.16142055360044725239e+06) (7, 1.90839710919672138989e+07) (8, 1.17505847490706611425e+07) (9, 2.27297794189084246755e+07) (0, -1.33273527026176452637e-02) (1, -9.09235762979297712445e+06) (2, 6.81926823547698371112e+06) (3, 6.58682780142545979470e+06) (4, 1.03044373828114755452e+07) (5, 1.73012913196455650032e+07) (6, 5.16165827577624563128e+06) (7, 1.90849030495303124189e+07) (8, 1.17510767017994355410e+07) (9, 2.27308941517890281975e+07) (0, -4.71139624714851379395e-02) (1, -9.09369587425540573895e+06) (2, 6.82027187244360521436e+06) (3, 6.58780843272895272821e+06) (4, 1.03059569962323233485e+07) (5, 1.73038449378215931356e+07) (6, 5.16237813407402392477e+06) (7, 1.90877027353121787310e+07) (8, 1.17525722198159191757e+07) (9, 2.27342396706226132810e+07) (0, 5.94406798481941223145e-02) (1, 9.09424526311869919300e+06) (2, -6.82068395508963894099e+06) (3, -6.58820861042698007077e+06) (4, -1.03065766427267324179e+07) (5, -1.73048815005109906197e+07) (6, -5.16266885153677687049e+06) (7, -1.90888458601775132120e+07) (8, -1.17531754506962280720e+07) (9, -2.27356131326176412404e+07) (0, 7.00295343995094299316e-02) (1, -9.09317551667628996074e+06) (2, 6.81988177076843660325e+06) (3, 6.58742295604991819710e+06) (4, 1.03053639148103296757e+07) (5, 1.73028452699103914201e+07) (6, 5.16209185530080739409e+06) (7, 1.90866167247352264822e+07) (8, 1.17519769687998723239e+07) (9, 2.27329391013485863805e+07) (0, -6.63673505187034606934e-02) (1, -9.09401157622957974672e+06) (2, 6.82050862945040967315e+06) (3, 6.58803800598637666553e+06) (4, 1.03063147628954462707e+07) (5, 1.73044445356329157948e+07) (6, 5.16254474484374746680e+06) (7, 1.90883631667529828846e+07) (8, 1.17529180218417476863e+07) (9, 2.27350288470279723406e+07) (0, 4.87400516867637634277e-02) (1, 9.09637213757578469813e+06) (2, -6.82227915378027223051e+06) (3, -6.58975516826299577951e+06) (4, -1.03089822512348145247e+07) (5, -1.73089125653600059450e+07) (6, -5.16380029504976794124e+06) (7, -1.90932888584878183901e+07) (8, -1.17555109739330131561e+07) (9, -2.27409301817027814686e+07) (0, -5.34259080886840820312e-02) (1, 9.09409777825270034373e+06) (2, -6.82057333585189003497e+06) (3, -6.58810092639039549977e+06) (4, -1.03064124188800137490e+07) (5, -1.73046079259986206889e+07) (6, -5.16259087872191984206e+06) (7, -1.90885432655199132860e+07) (8, -1.17530131902009509504e+07) (9, -2.27352443577785976231e+07) (0, 6.51368573307991027832e-02) (1, 9.09887794616109505296e+06) (2, -6.82415852444762177765e+06) (3, -6.59158661048168037087e+06) (4, -1.03118239373148996383e+07) (5, -1.73136803254336006939e+07) (6, -5.16513658238595165312e+06) (7, -1.90985271129677221179e+07) (8, -1.17582922079909481108e+07) (9, -2.27471950815122798085e+07) (0, 1.26523599028587341309e-02) (1, 9.09465048867797292769e+06) (2, -6.82098784398974943906e+06) (3, -6.58850411563446093351e+06) (4, -1.03070368108789417893e+07) (5, -1.73056543051014952362e+07) (6, -5.16288215172510314733e+06) (7, -1.90896985813792943954e+07) (8, -1.17536179557790551335e+07) (9, -2.27366264454094506800e+07) (0, -9.53100621700286865234e-02) (1, -9.09242518334931135178e+06) (2, 6.81931887308453675359e+06) (3, 6.58687691723681055009e+06) (4, 1.03045137714361548424e+07) (5, 1.73014196335916221142e+07) (6, 5.16169347481152042747e+06) (7, 1.90850452226135246456e+07) (8, 1.17511505859318431467e+07) (9, 2.27310628600582927465e+07) (0, -2.07698121666908264160e-02) (1, 9.09224684276883117855e+06) (2, -6.81918507299302332103e+06) (3, -6.58674692288425844163e+06) (4, -1.03043117686011977494e+07) (5, -1.73010808219069316983e+07) (6, -5.16159874547651689500e+06) (7, -1.90846720511479340494e+07) (8, -1.17509539151576682925e+07) (9, -2.27306168114908114076e+07) (0, -7.10140466690063476562e-02) (1, -9.09448638962666876614e+06) (2, 6.82086464702955167741e+06) (3, 6.58838449768687970936e+06) (4, 1.03068496839072760195e+07) (5, 1.73053386792519800365e+07) (6, 5.16279756140252668411e+06) (7, 1.90893494406966865063e+07) (8, 1.17534419089552294463e+07) (9, 2.27362157363518513739e+07) (0, -8.97063761949539184570e-02) (1, 9.09438664046259596944e+06) (2, -6.82078986543867643923e+06) (3, -6.58830571552958060056e+06) (4, -1.03067362539663501084e+07) (5, -1.73051470520465485752e+07) (6, -5.16273695693283621222e+06) (7, -1.90891504097025506198e+07) (8, -1.17533108122959751636e+07) (9, -2.27359663113824874163e+07) (0, 4.01454791426658630371e-02) (1, 9.09323935336611419916e+06) (2, -6.81992949147916771472e+06) (3, -6.58746968480205163360e+06) (4, -1.03054363898080680519e+07) (5, -1.73029670531487762928e+07) (6, -5.16212607098167110234e+06) (7, -1.90867502611809149384e+07) (8, -1.17520481794264204800e+07) (9, -2.27330986850591190159e+07) (0, -9.95425134897232055664e-02) (1, 9.09567695518630929291e+06) (2, -6.82175782340641133487e+06) (3, -6.58925230531472433358e+06) (4, -1.03081984675473608077e+07) (5, -1.73076006263920255005e+07) (6, -5.16342910208001546562e+06) (7, -1.90918427526444382966e+07) (8, -1.17547511987201496959e+07) (9, -2.27391924963191598654e+07) (0, 5.59392049908638000488e-02) (1, -9.09872502087918855250e+06) (2, 6.82404377741704974324e+06) (3, 6.59147506324511393905e+06) (4, 1.03116509159243144095e+07) (5, 1.73133902637442536652e+07) (6, 5.16505501397245191038e+06) (7, 1.90982076143086999655e+07) (8, 1.17581233856427539140e+07) (9, 2.27468127468446306884e+07) (0, -5.91360852122306823730e-02) (1, 9.09618956383762881160e+06) (2, -6.82214208250146917999e+06) (3, -6.58962417528061475605e+06) (4, -1.03087805104928817600e+07) (5, -1.73085761351969130337e+07) (6, -5.16370077518219780177e+06) (7, -1.90929167883420735598e+07) (8, -1.17553023026596643031e+07) (9, -2.27404737303664982319e+07) (0, 1.36126652359962463379e-02) (1, -9.09568147433095984161e+06) (2, 6.82176116546896565706e+06) (3, 6.58925092209927272052e+06) (4, 1.03082044220147207379e+07) (5, 1.73076107812212407589e+07) (6, 5.16343213837416656315e+06) (7, 1.90918552738436274230e+07) (8, 1.17547520244489666075e+07) (9, 2.27392037116992026567e+07) (0, 2.92037799954414367676e-02) (1, -9.09251829917433112860e+06) (2, 6.81938859828055463731e+06) (3, 6.58694495254409499466e+06) (4, 1.03046192252632118762e+07) (5, 1.73015962468582168221e+07) (6, 5.16174383941094484180e+06) (7, 1.90852389424756206572e+07) (8, 1.17512537971530146897e+07) (9, 2.27312956491768024862e+07) (0, -7.55599513649940490723e-02) (1, -9.09273593816618621349e+06) (2, 6.81955207568156719208e+06) (3, 6.58710836784253921360e+06) (4, 1.03048687333909533918e+07) (5, 1.73020188192187398672e+07) (6, 5.16186572489751596004e+06) (7, 1.90856943053888678551e+07) (8, 1.17515114218706544489e+07) (9, 2.27318401575288660824e+07) (0, 2.49950662255287170410e-02) (1, 9.09402911806337721646e+06) (2, -6.82052176135556399822e+06) (3, -6.58804504007316101342e+06) (4, -1.03063310554682798684e+07) (5, -1.73044671822685375810e+07) (6, -5.16254632406313437968e+06) (7, -1.90884026962428838015e+07) (8, -1.17529175860927924514e+07) (9, -2.27350725371088162065e+07) (0, -4.01129722595214843750e-02) (1, 9.09825953795757517219e+06) (2, -6.82369463685805164278e+06) (3, -6.59113581875761225820e+06) (4, -1.03111239132335446775e+07) (5, -1.73125063734713792801e+07) (6, -5.16480682000177353621e+06) (7, -1.90972348476310670376e+07) (8, -1.17576095828267931938e+07) (9, -2.27456489591367281973e+07) (0, 1.78151577711105346680e-02) (1, 9.09347857594369538128e+06) (2, -6.82010893634412158281e+06) (3, -6.58764990389821678400e+06) (4, -1.03057086145690102130e+07) (5, -1.73034254896895438433e+07) (6, -5.16226044631582591683e+06) (7, -1.90872438515177629888e+07) (8, -1.17523289594679288566e+07) (9, -2.27336965578114800155e+07) (0, -7.26291537284851074219e-02) (1, 9.09433857207945361733e+06) (2, -6.82075390057179518044e+06) (3, -6.58827034928411524743e+06) (4, -1.03066815118686035275e+07) (5, -1.73050549464571475983e+07) (6, -5.16271080420845001936e+06) (7, -1.90890501190226376057e+07) (8, -1.17532581238180845976e+07) (9, -2.27358463474397398531e+07) (0, 7.81939849257469177246e-02) (1, -9.09425515664229728281e+06) (2, 6.82069140473876055330e+06) (3, 6.58820961843216698617e+06) (4, 1.03065872108224201947e+07) (5, 1.73048964369815587997e+07) (6, 5.16266643563772179186e+06) (7, 1.90888756708732135594e+07) (8, 1.17531662085642442107e+07) (9, 2.27356378575869016349e+07) (0, 1.18063539266586303711e-02) (1, -9.09237176356439292431e+06) (2, 6.81927879000836052001e+06) (3, 6.58683770513570588082e+06) (4, 1.03044532882443871349e+07) (5, 1.73013184328858032823e+07) (6, 5.16166451980043854564e+06) (7, 1.90849337883096300066e+07) (8, 1.17510920138448849320e+07) (9, 2.27309291399224139750e+07) (0, -5.22798337042331695557e-02) (1, -9.09400964226277358830e+06) (2, 6.82050734464958775789e+06) (3, 6.58803678318671975285e+06) (4, 1.03063126383218057454e+07) (5, 1.73044403620149977505e+07) (6, 5.16254362032990157604e+06) (7, 1.90883586035536900163e+07) (8, 1.17529158879027459770e+07) (9, 2.27350242640793509781e+07) (0, -7.23445340991020202637e-02) (1, -9.09366436398023553193e+06) (2, 6.82024833274532947689e+06) (3, 6.58778539554847124964e+06) (4, 1.03059212945912405849e+07) (5, 1.73037842802341356874e+07) (6, 5.16235985730721056461e+06) (7, 1.90876360733265355229e+07) (8, 1.17525346525023058057e+07) (9, 2.27341610030275844038e+07) (0, -7.49947354197502136230e-02) (1, -9.09875996175204031169e+06) (2, 6.82406999940894823521e+06) (3, 6.59150242712464928627e+06) (4, 1.03116925364818200469e+07) (5, 1.73134629508285671473e+07) (6, 5.16506664351592678577e+06) (7, 1.90982841818781197071e+07) (8, 1.17581668083691094071e+07) (9, 2.27469000333097912371e+07) (0, -6.71976730227470397949e-02) (1, -9.09343124596037715673e+06) (2, 6.82007340481879748404e+06) (3, 6.58761552548428438604e+06) (4, 1.03056555272975116968e+07) (5, 1.73033378316690884531e+07) (6, 5.16223565225098002702e+06) (7, 1.90871460352083891630e+07) (8, 1.17522784867492970079e+07) (9, 2.27335782341845817864e+07) (0, -5.08017838001251220703e-04) (1, 9.09355410349001549184e+06) (2, -6.82016561196286696941e+06) (3, -6.58769905232692323625e+06) (4, -1.03057930032135657966e+07) (5, -1.73035648065539747477e+07) (6, -5.16229359516303241253e+06) (7, -1.90874088169615529478e+07) (8, -1.17523946809645537287e+07) (9, -2.27338851380100622773e+07) (0, -4.44214940071105957031e-02) (1, -9.09358434898280724883e+06) (2, 6.82018833745691925287e+06) (3, 6.58772081900434754789e+06) (4, 1.03058270631708893925e+07) (5, 1.73036218103735633194e+07) (6, 5.16230947269708011299e+06) (7, 1.90874722105835378170e+07) (8, 1.17524273971744980663e+07) (9, 2.27339610492343977094e+07) (0, 7.80128464102745056152e-02) (1, 9.09340956425318494439e+06) (2, -6.82005717321352567524e+06) (3, -6.58759368254395015538e+06) (4, -1.03056293652794677764e+07) (5, -1.73032903447105921805e+07) (6, -5.16221662442477419972e+06) (7, -1.90871063201990723610e+07) (8, -1.17522353518323376775e+07) (9, -2.27335241104034073651e+07) (0, -9.36753749847412109375e-02) (1, 9.09585304720005579293e+06) (2, -6.82188975043679866940e+06) (3, -6.58937703444153908640e+06) (4, -1.03083950927636008710e+07) (5, -1.73079283603650368750e+07) (6, -5.16352397868641093373e+06) (7, -1.90922050108714699745e+07) (8, -1.17549396353468634188e+07) (9, -2.27396327618796192110e+07) (0, 3.20625677704811096191e-02) (1, 9.09610059812732413411e+06) (2, -6.82207546859555970877e+06) (3, -6.58955720792905334383e+06) (4, -1.03086747653546333313e+07) (5, -1.73083970724792405963e+07) (6, -5.16365556969516444951e+06) (7, -1.90927214753621779382e+07) (8, -1.17552115246219467372e+07) (9, -2.27402514346878156066e+07) (0, 5.78399077057838439941e-02) (1, -9.09903319823879376054e+06) (2, 6.82427485535434074700e+06) (3, 6.59169964233771897852e+06) (4, 1.03119995682184342295e+07) (5, 1.73139746227069385350e+07) (6, 5.16521932375409547240e+06) (7, 1.90988509910059943795e+07) (8, 1.17584633597650099546e+07) (9, 2.27475828611801639199e+07) (0, -2.15969234704971313477e-03) (1, -9.09162066530586220324e+06) (2, 6.81871547282535675913e+06) (3, 6.58629099308473244309e+06) (4, 1.03036024613097663969e+07) (5, 1.72998917492019534111e+07) (6, 5.16126584622798208147e+06) (7, 1.90833616710145734251e+07) (8, 1.17502641630837526172e+07) (9, 2.27290514095930978656e+07) (0, -8.59201997518539428711e-02) (1, 9.09432108711319416761e+06) (2, -6.82074076468961220235e+06) (3, -6.58825748032196331769e+06) (4, -1.03066616158999018371e+07) (5, -1.73050212475144676864e+07) (6, -5.16270125829688459635e+06) (7, -1.90890135435690209270e+07) (8, -1.17532383063791319728e+07) (9, -2.27358028353154100478e+07) (0, -2.52050608396530151367e-02) (1, -9.11519198346292041242e+06) (2, 6.83639404003240726888e+06) (3, 6.60346590163383167237e+06) (4, 1.03302928364237826318e+07) (5, 1.73446387031368687749e+07) (6, 5.17375879675920121372e+06) (7, 1.91326197681803144515e+07) (8, 1.17762415914166122675e+07) (9, 2.27879800928201973438e+07) (0, 1.99753046035766601562e-02) (1, -9.09209901395336538553e+06) (2, 6.81907427505977824330e+06) (3, 6.58663917124596424401e+06) (4, 1.03041444265009500086e+07) (5, 1.73008002680224478245e+07) (6, 5.16151995111995097250e+06) (7, 1.90843630730438940227e+07) (8, 1.17507908962514940649e+07) (9, 2.27302475950450077653e+07) (0, 6.51462599635124206543e-02) (1, -9.09767665057531185448e+06) (2, 6.82325742793791275471e+06) (3, 6.59071076822623424232e+06) (4, 1.03104638898304756731e+07) (5, 1.73113995321896895766e+07) (6, 5.16449656813000421971e+06) (7, 1.90960171698176525533e+07) (8, 1.17569668209930993617e+07) (9, 2.27441917252784445882e+07) (0, -7.41260200738906860352e-02) (1, -9.09392279468986950815e+06) (2, 6.82044211198272649199e+06) (3, 6.58796745749782677740e+06) (4, 1.03062104774676449597e+07) (5, 1.73042649418876990676e+07) (6, 5.16248959656402654946e+06) (7, 1.90881802491192966700e+07) (8, 1.17528002762896772474e+07) (9, 2.27348069254654422402e+07) (0, -9.04061719775199890137e-02) (1, -9.09397420242276787758e+06) (2, 6.82048058588997833431e+06) (3, 6.58801075603170786053e+06) (4, 1.03062726170273423195e+07) (5, 1.73043734521023817360e+07) (6, 5.16252495675490237772e+06) (7, 1.90882847849110960960e+07) (8, 1.17528767732469681650e+07) (9, 2.27349355352547839284e+07) (0, 8.92045572400093078613e-02) (1, 9.09632408309282548726e+06) (2, -6.82224305321726296097e+06) (3, -6.58972525437920913100e+06) (4, -1.03089336452183201909e+07) (5, -1.73088350474509596825e+07) (6, -5.16377605070387106389e+06) (7, -1.90931940114851295948e+07) (8, -1.17554746845967806876e+07) (9, -2.27408103589951694012e+07) (0, 7.28026703000068664551e-02) (1, 9.09432598063160479069e+06) (2, -6.82074450995672028512e+06) (3, -6.58826760191843193024e+06) (4, -1.03066681822010278702e+07) (5, -1.73050344178471155465e+07) (6, -5.16271209127075318247e+06) (7, -1.90890144302028417587e+07) (8, -1.17532648169406596571e+07) (9, -2.27358149449586085975e+07) (0, -6.83657899498939514160e-02) (1, 9.09421857482459023595e+06) (2, -6.82066398856400325894e+06) (3, -6.58818925689848419279e+06) (4, -1.03065480160306859761e+07) (5, -1.73048348687417246401e+07) (6, -5.16265262483436521143e+06) (7, -1.90887972496651895344e+07) (8, -1.17531428689539656043e+07) (9, -2.27355465246806517243e+07) (0, 2.48180255293846130371e-02) (1, 9.09398821910830028355e+06) (2, -6.82049107690430060029e+06) (3, -6.58802097760462667793e+06) (4, -1.03062860606655087322e+07) (5, -1.73043950150687657297e+07) (6, -5.16253169572306238115e+06) (7, -1.90883102122265025973e+07) (8, -1.17528941951628662646e+07) (9, -2.27349706734854280949e+07) (0, 2.46942639350891113281e-02) (1, 9.09898523611352965236e+06) (2, -6.82423885941632091999e+06) (3, -6.59166503778549749404e+06) (4, -1.03119454403361845762e+07) (5, -1.73138837488065548241e+07) (6, -5.16519411690632347018e+06) (7, -1.90987509551288187504e+07) (8, -1.17584113529558051378e+07) (9, -2.27474628021156452596e+07) (0, 3.04360464215278625488e-02) (1, 9.09563940938184782863e+06) (2, -6.82172962685561273247e+06) (3, -6.58922024218437634408e+06) (4, -1.03081567119856961071e+07) (5, -1.73075309335114099085e+07) (6, -5.16340961889002751559e+06) (7, -1.90917674678476899862e+07) (8, -1.17547055746785718948e+07) (9, -2.27390984742560945451e+07) (0, -3.91577370464801788330e-02) (1, -9.09502368140600994229e+06) (2, 6.82126767714660614729e+06) (3, 6.58877121747263148427e+06) (4, 1.03074587893941961229e+07) (5, 1.73063594689546339214e+07) (6, 5.16307980861082393676e+06) (7, 1.90904783244954124093e+07) (8, 1.17540256786984633654e+07) (9, 2.27375590611998178065e+07) (0, -3.18959206342697143555e-02) (1, -9.09402128191542811692e+06) (2, 6.82051585630613472313e+06) (3, 6.58804514501320850104e+06) (4, 1.03063256556196752936e+07) (5, 1.73044626316947042942e+07) (6, 5.16255006780022662133e+06) (7, 1.90883831067232191563e+07) (8, 1.17529286729178559035e+07) (9, 2.27350530230900980532e+07) (0, 2.63275578618049621582e-02) (1, -9.09395697623631730676e+06) (2, 6.82046767912231013179e+06) (3, 6.58799830517359729856e+06) (4, 1.03062528650537393987e+07) (5, 1.73043404452142156661e+07) (6, 5.16251555699779652059e+06) (7, 1.90882484878243133426e+07) (8, 1.17528576876966170967e+07) (9, 2.27348924166677929461e+07) (0, 4.30319532752037048340e-02) (1, -9.09247563502451591194e+06) (2, 6.81935683775828126818e+06) (3, 6.58691410658622719347e+06) (4, 1.03045709702946040779e+07) (5, 1.73015154984128512442e+07) (6, 5.16172127354050148278e+06) (7, 1.90851499405536353588e+07) (8, 1.17512069846958946437e+07) (9, 2.27311892160824947059e+07) (0, 9.99508574604988098145e-02) (1, 9.09393638496635481715e+06) (2, -6.82045229561973363161e+06) (3, -6.58798413071242161095e+06) (4, -1.03062295332341864705e+07) (5, -1.73043019078223556280e+07) (6, -5.16250544108589645475e+06) (7, -1.90882062782259136438e+07) (8, -1.17528358058628551662e+07) (9, -2.27348406895188204944e+07) (0, -8.23936313390731811523e-02) (1, -9.09286668610161729157e+06) (2, 6.81965000250465050340e+06) (3, 6.58719877587988507003e+06) (4, 1.03050138554163221270e+07) (5, 1.73022586120729520917e+07) (6, 5.16192896693790983409e+06) (7, 1.90859679969370663166e+07) (8, 1.17516386534286979586e+07) (9, 2.27321668285499736667e+07) (0, 6.67694285511970520020e-02) (1, -9.09432912655073590577e+06) (2, 6.82074687943782098591e+06) (3, 6.58826956352827325463e+06) (4, 1.03066740232363771647e+07) (5, 1.73050469062133766711e+07) (6, 5.16271423920064233243e+06) (7, 1.90890261899482980371e+07) (8, 1.17532690207230281085e+07) (9, 2.27358227586845234036e+07) (0, -2.37737894058227539062e-02) (1, 9.09275873055535182357e+06) (2, -6.81956909354372974485e+06) (3, -6.58712020595825556666e+06) (4, -1.03048914917964115739e+07) (5, -1.73020533022246994078e+07) (6, -5.16187188057519681752e+06) (7, -1.90857414302479475737e+07) (8, -1.17515194894609786570e+07) (9, -2.27318967801948376000e+07) (0, 8.09593275189399719238e-02) (1, 9.09823887820396758616e+06) (2, -6.82367920842775702477e+06) (3, -6.59112080619117151946e+06) (4, -1.03111001855597104877e+07) (5, -1.73124665441982708871e+07) (6, -5.16479597862417623401e+06) (7, -1.90971913700261153281e+07) (8, -1.17575866641820631921e+07) (9, -2.27455971911262050271e+07) (0, 6.99337348341941833496e-02) (1, -9.09882060276567935944e+06) (2, 6.82411546185106690973e+06) (3, 6.59154482975644990802e+06) (4, 1.03117589231007117778e+07) (5, 1.73135711557759083807e+07) (6, 5.16510610897839162499e+06) (7, 1.90984068128411173820e+07) (8, 1.17582287935576941818e+07) (9, 2.27470518010217584670e+07) (0, 5.44485077261924743652e-02) (1, 9.09423000297014042735e+06) (2, -6.82067254341842047870e+06) (3, -6.58819839957843162119e+06) (4, -1.03065604057773258537e+07) (5, -1.73048545746034495533e+07) (6, -5.16266201807739119977e+06) (7, -1.90888154788657687604e+07) (8, -1.17531591296679079533e+07) (9, -2.27355751602336429060e+07) (0, -2.57403850555419921875e-02) (1, 9.09262100177905708551e+06) (2, -6.81946575006193760782e+06) (3, -6.58701983704161178321e+06) (4, -1.03047356634845379740e+07) (5, -1.73017917027220688760e+07) (6, -5.16179854227560665458e+06) (7, -1.90854538838995508850e+07) (8, -1.17513672459740824997e+07) (9, -2.27315526532934904099e+07) (0, -1.39844566583633422852e-02) (1, -9.09615474141324870288e+06) (2, 6.82211601364152133465e+06) (3, 6.58960225260792858899e+06) (4, 1.03087419153711441904e+07) (5, 1.73085150426229089499e+07) (6, 5.16368549212673120201e+06) (7, 1.90928414955838061869e+07) (8, 1.17552869951318837702e+07) (9, 2.27403867136128060520e+07) (0, -1.89436525106430053711e-02) (1, 9.09267414125199243426e+06) (2, -6.81950568010421469808e+06) (3, -6.58705791368095669895e+06) (4, -1.03047961692832335830e+07) (5, -1.73018932849589660764e+07) (6, -5.16182535015099309385e+06) (7, -1.90855672304016426206e+07) (8, -1.17514249515018686652e+07) (9, -2.27316855822069942951e+07) (0, 6.19404017925262451172e-03) (1, 9.09432505049374513328e+06) (2, -6.82074378513650689274e+06) (3, -6.58826667237348854542e+06) (4, -1.03066693161748833954e+07) (5, -1.73050390422724932432e+07) (6, -5.16271172491273749620e+06) (7, -1.90890172552716247737e+07) (8, -1.17532639551228024065e+07) (9, -2.27358127940253280103e+07) (0, 9.50589999556541442871e-02) (1, -9.09238810076015628874e+06) (2, 6.81929103992568049580e+06) (3, 6.58684998623942211270e+06) (4, 1.03044717795681171119e+07) (5, 1.73013489621884450316e+07) (6, 5.16167444862793758512e+06) (7, 1.90849665674935542047e+07) (8, 1.17511101877125594765e+07) (9, 2.27309701070551238954e+07) (0, -1.23990029096603393555e-02) (1, -9.09369491656916961074e+06) (2, 6.82027117932777199894e+06) (3, 6.58780828791276644915e+06) (4, 1.03059539483492840081e+07) (5, 1.73038388969815708697e+07) (6, 5.16237528032770194113e+06) (7, 1.90876966073448508978e+07) (8, 1.17525674326464366168e+07) (9, 2.27342371067231148481e+07) (0, 7.40737095475196838379e-02) (1, 9.09398907650291360915e+06) (2, -6.82049184629673790187e+06) (3, -6.58801579613475874066e+06) (4, -1.03062856543211117387e+07) (5, -1.73043909584719836712e+07) (6, -5.16252488514430727810e+06) (7, -1.90883189936106391251e+07) (8, -1.17528733683876097202e+07) (9, -2.27349727418786101043e+07) (0, 3.08215692639350891113e-02) (1, 9.09232716294815763831e+06) (2, -6.81924530031579826027e+06) (3, -6.58680557149239070714e+06) (4, -1.03044027689063698053e+07) (5, -1.73012333021427243948e+07) (6, -5.16164162649301160127e+06) (7, -1.90848398478924930096e+07) (8, -1.17510425011778995395e+07) (9, -2.27308177489459849894e+07) (0, -9.15525555610656738281e-02) (1, 9.09249331862388364971e+06) (2, -6.81936996565339714289e+06) (3, -6.58692641438946593553e+06) (4, -1.03045911850440427661e+07) (5, -1.73015495978190004826e+07) (6, -5.16172951223742403090e+06) (7, -1.90851881798569224775e+07) (8, -1.17512262363812327385e+07) (9, -2.27312335118733346462e+07) (0, -2.66926214098930358887e-02) (1, 9.09342045753892138600e+06) (2, -6.82006534032839629799e+06) (3, -6.58760733746626693755e+06) (4, -1.03056439568419195712e+07) (5, -1.73033189313117340207e+07) (6, -5.16222972179592866451e+06) (7, -1.90871247465921491385e+07) (8, -1.17522672730044182390e+07) (9, -2.27335511649030596018e+07) (0, -9.60661768913269042969e-02) (1, -9.09254087403311207891e+06) (2, 6.81940568392376136035e+06) (3, 6.58696117266020551324e+06) (4, 1.03046447951304968446e+07) (5, 1.73016393463441543281e+07) (6, 5.16175521374135743827e+06) (7, 1.90852870137916728854e+07) (8, 1.17512782431474849582e+07) (9, 2.27313522309910170734e+07) (0, 8.08773860335350036621e-02) (1, -9.09586275437344610691e+06) (2, 6.82189696323818899691e+06) (3, 6.58938402510194666684e+06) (4, 1.03084055616045817733e+07) (5, 1.73079459999308399856e+07) (6, 5.16352888601823430508e+06) (7, 1.90922248882646225393e+07) (8, 1.17549494966548774391e+07) (9, 2.27396567766562253237e+07) (0, 3.35630849003791809082e-02) (1, 9.09329415136261656880e+06) (2, -6.81997056391600426286e+06) (3, -6.58750958415934722871e+06) (4, -1.03054984144714847207e+07) (5, -1.73030710623211599886e+07) (6, -5.16215516313570644706e+06) (7, -1.90868643825289532542e+07) (8, -1.17521083861299660057e+07) (9, -2.27332352436320781708e+07) (0, 4.80493158102035522461e-03) (1, 9.09602586183599568903e+06) (2, -6.82201924915458820760e+06) (3, -6.58950274672129843384e+06) (4, -1.03085900505139492452e+07) (5, -1.73082551625216677785e+07) (6, -5.16361575403211824596e+06) (7, -1.90925652254819609225e+07) (8, -1.17551290311367139220e+07) (9, -2.27400644374835863709e+07) (0, 4.09412607550621032715e-02) (1, -9.09851052199949696660e+06) (2, 6.82388299573514610529e+06) (3, 6.59131892767006997019e+06) (4, 1.03114076853594034910e+07) (5, 1.73129821263187080622e+07) (6, 5.16494081787616759539e+06) (7, 1.90977584458038359880e+07) (8, 1.17578863090697377920e+07) (9, 2.27462764087257757783e+07) (0, 1.86006799340248107910e-02) (1, 9.09574479974521137774e+06) (2, -6.82180860705861542374e+06) (3, -6.58929792203120607883e+06) (4, -1.03082720455695018172e+07) (5, -1.73077217869875431061e+07) (6, -5.16346594947611726820e+06) (7, -1.90919781777269430459e+07) (8, -1.17548192086086366326e+07) (9, -2.27393617868232056499e+07) (0, -1.48298889398574829102e-02) (1, 9.09399904660942032933e+06) (2, -6.82049925859516486526e+06) (3, -6.58802277626602444798e+06) (4, -1.03062968568615913391e+07) (5, -1.73044092812034375966e+07) (6, -5.16252996665420476347e+06) (7, -1.90883397492721304297e+07) (8, -1.17528837027535345405e+07) (9, -2.27349974270219020545e+07) (0, 6.88648223876953125000e-03) (1, 9.09298995204858668149e+06) (2, -6.81974246085730195045e+06) (3, -6.58728813449743017554e+06) (4, -1.03051539075427725911e+07) (5, -1.73024935115889981389e+07) (6, -5.16199350621676445007e+06) (7, -1.90862277477690801024e+07) (8, -1.17517742114452160895e+07) (9, -2.27324748609810695052e+07) (0, 1.80182009935379028320e-02) (1, -9.09240595639359392226e+06) (2, 6.81930452550546266139e+06) (3, 6.58686310101865604520e+06) (4, 1.03044920384889710695e+07) (5, 1.73013833114596344531e+07) (6, 5.16168367466691229492e+06) (7, 1.90850049663598015904e+07) (8, 1.17511297897389419377e+07) (9, 2.27310151549445390701e+07) (0, -8.79991948604583740234e-02) (1, 9.09331972652486711740e+06) (2, -6.81998986680490709841e+06) (3, -6.58752825228647049516e+06) (4, -1.03055275649458281696e+07) (5, -1.73031198034977130592e+07) (6, -5.16216887910732626915e+06) (7, -1.90869184159294888377e+07) (8, -1.17521366423867624253e+07) (9, -2.27332995428593568504e+07) (0, 9.82481911778450012207e-02) (1, 9.09279483758493140340e+06) (2, -6.81959611375081725419e+06) (3, -6.58714666981327813119e+06) (4, -1.03049326145063303411e+07) (5, -1.73021222793988287449e+07) (6, -5.16189107948942575604e+06) (7, -1.90858174411821998656e+07) (8, -1.17515596956380791962e+07) (9, -2.27319872276561930776e+07) (0, -7.12976530194282531738e-02) (1, -9.09389188097194395959e+06) (2, 6.82041891194592975080e+06) (3, 6.58795059332765825093e+06) (4, 1.03061789276175145060e+07) (5, 1.73042166925438940525e+07) (6, 5.16248178405001014471e+06) (7, 1.90881126826492324471e+07) (8, 1.17527872613050770015e+07) (9, 2.27347295689439363778e+07) (0, 5.48739507794380187988e-02) (1, 9.09228043473618105054e+06) (2, -6.81921039029866084456e+06) (3, -6.58677156446369271725e+06) (4, -1.03043498936931826174e+07) (5, -1.73011445537520423532e+07) (6, -5.16161696096721105278e+06) (7, -1.90847418963577449322e+07) (8, -1.17509910654968041927e+07) (9, -2.27307010878532454371e+07) (0, 8.89264419674873352051e-02) (1, -9.09260704185672476888e+06) (2, 6.81945527990054711699e+06) (3, 6.58700903337900154293e+06) (4, 1.03047199630955569446e+07) (5, 1.73017655461851060390e+07) (6, 5.16178945975082647055e+06) (7, 1.90854269299024529755e+07) (8, 1.17513506735777165741e+07) (9, 2.27315177430831938982e+07) (0, 2.77245715260505676270e-02) (1, 9.09395292968616262078e+06) (2, -6.82046469041603058577e+06) (3, -6.58799526598726585507e+06) (4, -1.03062484217363949865e+07) (5, -1.73043329148639701307e+07) (6, -5.16251351790341548622e+06) (7, -1.90882401846513301134e+07) (8, -1.17528532458992209285e+07) (9, -2.27348822201556637883e+07) (0, -2.58811041712760925293e-02) (1, 9.09151909536901675165e+06) (2, -6.81863934425595495850e+06) (3, -6.58621710563005134463e+06) (4, -1.03034876635849513113e+07) (5, -1.72996991142779737711e+07) (6, -5.16121161357829067856e+06) (7, -1.90831498859192207456e+07) (8, -1.17501521251227725297e+07) (9, -2.27287978371805064380e+07) (0, -4.85095791518688201904e-02) (1, -9.09406720931701362133e+06) (2, 6.82055037916334997863e+06) (3, 6.58807885823626723140e+06) (4, 1.03063765250130258501e+07) (5, 1.73045475687785148621e+07) (6, 5.16257179558770731091e+06) (7, 1.90884808844672106206e+07) (8, 1.17529759319220781326e+07) (9, 2.27351679215708300471e+07) (0, 2.06121355295181274414e-02) (1, 9.09303359494212269783e+06) (2, -6.81977531453183200210e+06) (3, -6.58731978158945217729e+06) (4, -1.03052032969856224954e+07) (5, -1.73025760172298140824e+07) (6, -5.16201654172068368644e+06) (7, -1.90863196919958963990e+07) (8, -1.17518210755213219672e+07) (9, -2.27325840665772594512e+07) (0, -7.38898515701293945312e-02) (1, -9.09269104168452881277e+06) (2, 6.81951826014886517078e+06) (3, 6.58707100138127431273e+06) (4, 1.03048150081187412143e+07) (5, 1.73019247518419846892e+07) (6, 5.16183590501087531447e+06) (7, 1.90856003109667636454e+07) (8, 1.17514446452515814453e+07) (9, 2.27317278945888988674e+07) (0, -6.33274763822555541992e-02) (1, 9.09269473917186632752e+06) (2, -6.81952111573052871972e+06) (3, -6.58707335156071744859e+06) (4, -1.03048190785306729376e+07) (5, -1.73019315985679626465e+07) (6, -5.16183760654289927334e+06) (7, -1.90856080491535067558e+07) (8, -1.17514483969908542931e+07) (9, -2.27317367994644604623e+07) (0, -6.68978989124298095703e-02) (1, 9.09474782229487970471e+06) (2, -6.82106085872044134885e+06) (3, -6.58857017735985387117e+06) (4, -1.03071458477625753731e+07) (5, -1.73058346356068179011e+07) (6, -5.16293277930035162717e+06) (7, -1.90899011539694778621e+07) (8, -1.17537214593436755240e+07) (9, -2.27368694801856689155e+07) (0, -6.19943514466285705566e-02) (1, 9.09238576269588433206e+06) (2, -6.81928943574127275497e+06) (3, -6.58684828073549736291e+06) (4, -1.03044692714980617166e+07) (5, -1.73013447732658833265e+07) (6, -5.16167274289715848863e+06) (7, -1.90849627791405245662e+07) (8, -1.17511071073801703751e+07) (9, -2.27309645881231911480e+07) (0, -5.55192753672599792480e-02) (1, 9.09397462860714644194e+06) (2, -6.82048094239932298660e+06) (3, -6.58801122931721806526e+06) (4, -1.03062728999269101769e+07) (5, -1.73043742185110189021e+07) (6, -5.16252512178714293987e+06) (7, -1.90882856061820089817e+07) (8, -1.17528772558745797724e+07) (9, -2.27349367495189346373e+07) (0, 4.41894680261611938477e-03) (1, -9.09263910929439775646e+06) (2, 6.81947935649080201983e+06) (3, 6.58703323726432118565e+06) (4, 1.03047561306725516915e+07) (5, 1.73018260216844268143e+07) (6, 5.16180839683105703443e+06) (7, 1.90854916983660496771e+07) (8, 1.17513875307090561837e+07) (9, 2.27315980795587152243e+07) (0, 6.98269531130790710449e-02) (1, -9.09414930114175006747e+06) (2, 6.82061197008020337671e+06) (3, 6.58813930538313928992e+06) (4, 1.03064688814252801239e+07) (5, 1.73047012437429353595e+07) (6, 5.16261853909766115248e+06) (7, 1.90886467499236837029e+07) (8, 1.17530700670504570007e+07) (9, 2.27353733838953077793e+07) (0, 6.63485750555992126465e-02) (1, -9.09353665034120157361e+06) (2, 6.82015257631786912680e+06) (3, 6.58769249285714887083e+06) (4, 1.03057765079360846430e+07) (5, 1.73035411502326801419e+07) (6, 5.16229181158820725977e+06) (7, 1.90873692784786447883e+07) (8, 1.17523938500660732388e+07) (9, 2.27338419011490345001e+07) (0, -9.82499569654464721680e-02) (1, 9.09276237317910976708e+06) (2, -6.81957176996326539665e+06) (3, -6.58712246456208918244e+06) (4, -1.03048959955690465868e+07) (5, -1.73020607521747723222e+07) (6, -5.16187244375963322818e+06) (7, -1.90857512687055729330e+07) (8, -1.17515233943021725863e+07) (9, -2.27319060517793968320e+07) (0, -8.63802284002304077148e-02) (1, -9.09413076435766555369e+06) (2, 6.82059814664008282125e+06) (3, 6.58811896910318825394e+06) (4, 1.03064461906605865806e+07) (5, 1.73046602010935395956e+07) (6, 5.16260030190889537334e+06) (7, 1.90886154692468233407e+07) (8, 1.17530294040624815971e+07) (9, 2.27353268369906283915e+07) (0, -3.90137024223804473877e-02) (1, -9.09418943834986910224e+06) (2, 6.82064203429444972426e+06) (3, 6.58816731265912391245e+06) (4, 1.03065149741382747889e+07) (5, 1.73047791696335114539e+07) (6, 5.16263744899221416563e+06) (7, 1.90887394577778205276e+07) (8, 1.17531044872328471392e+07) (9, 2.27354735158163532615e+07) (0, 6.94717243313789367676e-02) (1, -9.09373277379319258034e+06) (2, 6.82029953766844794154e+06) (3, 6.58782889272258803248e+06) (4, 1.03059951129828635603e+07) (5, 1.73039037587677277625e+07) (6, 5.16238845759524777532e+06) (7, 1.90877825933506675065e+07) (8, 1.17525912314541675150e+07) (9, 2.27343317704480439425e+07) (0, -8.94453451037406921387e-02) (1, -9.09421172166103869677e+06) (2, 6.82065867684304341674e+06) (3, 6.58818377943339664489e+06) (4, 1.03065410163998547941e+07) (5, 1.73048235707082860172e+07) (6, 5.16265123287104908377e+06) (7, 1.90887807806595787406e+07) (8, 1.17531389470480345190e+07) (9, 2.27355290768693424761e+07) (0, -3.69554981589317321777e-02) (1, -9.09269049782111495733e+06) (2, 6.81951801493449322879e+06) (3, 6.58707058687208965421e+06) (4, 1.03048143829121831805e+07) (5, 1.73019235538817830384e+07) (6, 5.16183562208208814263e+06) (7, 1.90855988486164808273e+07) (8, 1.17514439881701450795e+07) (9, 2.27317263286606371403e+07) (0, -3.96592728793621063232e-02) (1, -9.09495476259834505618e+06) (2, 6.82121595885770674795e+06) (3, 6.58872103841971792281e+06) (4, 1.03073797408761978149e+07) (5, 1.73062263805596940219e+07) (6, 5.16304293904917221516e+06) (7, 1.90903324405703693628e+07) (8, 1.17539501676060222089e+07) (9, 2.27373867941271662712e+07) (0, 6.11632242798805236816e-02) (1, 9.09625119835265912116e+06) (2, -6.82218833723025023937e+06) (3, -6.58967284887467604131e+06) (4, -1.03088511413916442543e+07) (5, -1.73086984503435865045e+07) (6, -5.16373588742511998862e+06) (7, -1.90930436258498318493e+07) (8, -1.17553933846860397607e+07) (9, -2.27406280576641261578e+07) (0, 8.72503146529197692871e-02) (1, -9.09418823718548193574e+06) (2, 6.82064107675430644304e+06) (3, 6.58816733296305779368e+06) (4, 1.03065123009350299835e+07) (5, 1.73047741712822951376e+07) (6, 5.16263798926610779017e+06) (7, 1.90887275004127845168e+07) (8, 1.17531124068815037608e+07) (9, 2.27354705505837090313e+07) (0, -1.90668180584907531738e-02) (1, 9.09867019482611492276e+06) (2, -6.82400269563066866249e+06) (3, -6.59143515609143674374e+06) (4, -1.03115888065113220364e+07) (5, -1.73132856445549465716e+07) (6, -5.16502641082097403705e+06) (7, -1.90980927056086808443e+07) (8, -1.17580635120253600180e+07) (9, -2.27466756809047944844e+07) (0, 2.94411852955818176270e-02) (1, -9.09261364247351884842e+06) (2, 6.81946020606911741197e+06) (3, 6.58701456677255779505e+06) (4, 1.03047272660927958786e+07) (5, 1.73017778150007203221e+07) (6, 5.16179464304168242961e+06) (7, 1.90854387653155736625e+07) (8, 1.17513594121139347553e+07) (9, 2.27315343796755447984e+07) (0, 9.50438603758811950684e-02) (1, 9.09572531186727248132e+06) (2, -6.82179398391134571284e+06) (3, -6.58928292403000686318e+06) (4, -1.03082535751733761281e+07) (5, -1.73076931829421706498e+07) (6, -5.16345528253644704819e+06) (7, -1.90919462758169211447e+07) (8, -1.17548002882725242525e+07) (9, -2.27393131003397814929e+07) (0, -4.83670942485332489014e-02) (1, -9.09426882942927256227e+06) (2, 6.82070171381551027298e+06) (3, 6.58821969137717317790e+06) (4, 1.03066027304784636945e+07) (5, 1.73049225331883728504e+07) (6, 5.16267372230805829167e+06) (7, 1.90889044259209670126e+07) (8, 1.17531813199977762997e+07) (9, 2.27356722368074283004e+07) (0, -5.00425361096858978271e-02) (1, 9.09325395906839333475e+06) (2, -6.81994060762037523091e+06) (3, -6.58748014889858383685e+06) (4, -1.03054528486616238952e+07) (5, -1.73029942272346392274e+07) (6, -5.16213364116414356977e+06) (7, -1.90867810126164853573e+07) (8, -1.17520632932771462947e+07) (9, -2.27331350291477814317e+07) (0, -9.32207256555557250977e-02) (1, 9.09579301654880866408e+06) (2, -6.82184469862270634621e+06) (3, -6.58933534493718855083e+06) (4, -1.03083310603545196354e+07) (5, -1.73078229956664554775e+07) (6, -5.16348980724259093404e+06) (7, -1.90920877882269695401e+07) (8, -1.17548651398701723665e+07) (9, -2.27394824493611752987e+07) (0, -8.60918611288070678711e-02) (1, -9.09240668041911534965e+06) (2, 6.81930493158897385001e+06) (3, 6.58686356357588805258e+06) (4, 1.03044927751455586404e+07) (5, 1.73013844125442542136e+07) (6, 5.16168420292443782091e+06) (7, 1.90850058704087510705e+07) (8, 1.17511304326103609055e+07) (9, 2.27310167459296472371e+07) (0, -1.32549032568931579590e-02) (1, -9.09453740469119325280e+06) (2, 6.82090316611783672124e+06) (3, 6.58842207589328847826e+06) (4, 1.03069084270700328052e+07) (5, 1.73054384047348611057e+07) (6, 5.16282476089463476092e+06) (7, 1.90894583268437385559e+07) (8, 1.17534990660504102707e+07) (9, 2.27363435701060816646e+07) (0, -5.34684211015701293945e-03) (1, 9.09674454996022395790e+06) (2, -6.82255840585737489164e+06) (3, -6.59002863652632106096e+06) (4, -1.03094084945238977671e+07) (5, -1.73096291993601843715e+07) (6, -5.16399786274001840502e+06) (7, -1.90940761859315410256e+07) (8, -1.17559150857853572816e+07) (9, -2.27418611746982745826e+07) (0, 7.71690085530281066895e-02) (1, 9.09423925705429352820e+06) (2, -6.82067949683794192970e+06) (3, -6.58820427325095143169e+06) (4, -1.03065720291101876646e+07) (5, -1.73048753116805478930e+07) (6, -5.16266602565409243107e+06) (7, -1.90888375794797576964e+07) (8, -1.17531697837730068713e+07) (9, -2.27355981167450658977e+07) (0, 2.57326662540435791016e-03) (1, -9.09869949364357069135e+06) (2, 6.82402460655740182847e+06) (3, 6.59145636450234148651e+06) (4, 1.03116218431754484773e+07) (5, 1.73133416398580670357e+07) (6, 5.16504111230145674199e+06) (7, 1.90981539529748670757e+07) (8, 1.17580949535061419010e+07) (9, 2.27467485993287116289e+07) (0, 2.80229225754737854004e-02) (1, -9.09425716426523402333e+06) (2, 6.82069297716336138546e+06) (3, 6.58821718359123636037e+06) (4, 1.03065926100199799985e+07) (5, 1.73049096025244817138e+07) (6, 5.16267532044646888971e+06) (7, 1.90888754066606760025e+07) (8, 1.17531890543186403811e+07) (9, 2.27356431350716352463e+07) (0, 9.16821286082267761230e-02) (1, 9.09888265374362468719e+06) (2, -6.82416202782997023314e+06) (3, -6.59159005595949757844e+06) (4, -1.03118293007755074650e+07) (5, -1.73136891872180439532e+07) (6, -5.16513905724815838039e+06) (7, -1.90985368300021812320e+07) (8, -1.17582973199327606708e+07) (9, -2.27472067471086680889e+07) (0, -3.98947000503540039062e-02) (1, -9.09820488706029206514e+06) (2, 6.82365365556696429849e+06) (3, 6.59109588813394773751e+06) (4, 1.03110618360321726650e+07) (5, 1.73124024204490780830e+07) (6, 5.16477783231459837407e+06) (7, 1.90971204658208191395e+07) (8, 1.17575492940121125430e+07) (9, 2.27455123663142845035e+07) (0, -3.58477681875228881836e-02) (1, -9.09281028423259779811e+06) (2, 6.81960762803956121206e+06) (3, 6.58715766740602813661e+06) (4, 1.03049499887637682259e+07) (5, 1.73021515948599651456e+07) (6, 5.16189899329929985106e+06) (7, 1.90858500192689634860e+07) (8, 1.17515763466325141490e+07) (9, 2.27320257277637645602e+07) (0, -8.43065008521080017090e-02) (1, 9.09551712856380641460e+06) (2, -6.82163779150701034814e+06) (3, -6.58913209429852943867e+06) (4, -1.03080145648439098150e+07) (5, -1.73072902787007167935e+07) (6, -5.16334479760748706758e+06) (7, -1.90915029575104489923e+07) (8, -1.17545686268389299512e+07) (9, -2.27387929081483371556e+07) (0, 5.02716675400733947754e-02) (1, -9.09438319777106866241e+06) (2, 6.82078746177056990564e+06) (3, 6.58830915747884847224e+06) (4, 1.03067354761913288385e+07) (5, 1.73051498930367082357e+07) (6, 5.16274303248437773436e+06) (7, 1.90891393361677527428e+07) (8, 1.17533286801240835339e+07) (9, 2.27359581938721574843e+07) (0, 6.20253607630729675293e-02) (1, -9.09494564996572956443e+06) (2, 6.82120917604385688901e+06) (3, 6.58871975977800507098e+06) (4, 1.03073706436864063144e+07) (5, 1.73062128888379111886e+07) (6, 5.16304283053055498749e+06) (7, 1.90903109340088292956e+07) (8, 1.17539488976185210049e+07) (9, 2.27373641615695096552e+07) (0, -7.80930742621421813965e-02) (1, -9.09268851809565909207e+06) (2, 6.81951631012671999633e+06) (3, 6.58706836390705034137e+06) (4, 1.03048121245809067041e+07) (5, 1.73019203457903563976e+07) (6, 5.16183296603916864842e+06) (7, 1.90855965542982965708e+07) (8, 1.17514414722856730223e+07) (9, 2.27317209623402655125e+07) (0, -6.75197169184684753418e-02) (1, -9.09252116522585786879e+06) (2, 6.81939092752555944026e+06) (3, 6.58694687112746760249e+06) (4, 1.03046223505572713912e+07) (5, 1.73016018613124713302e+07) (6, 5.16174490871918480843e+06) (7, 1.90852457049420736730e+07) (8, 1.17512566495619211346e+07) (9, 2.27313028923439197242e+07) (0, -5.71374408900737762451e-02) (1, 9.09391363226881437004e+06) (2, -6.82043520533210597932e+06) (3, -6.58796135958573035896e+06) (4, -1.03062008070631101727e+07) (5, -1.73042492217950522900e+07) (6, -5.16248564937498793006e+06) (7, -1.90881613790213316679e+07) (8, -1.17527905414678603411e+07) (9, -2.27347841093104854226e+07) (0, -5.43232746422290802002e-02) (1, -9.09226591824269294739e+06) (2, 6.81919943275314848870e+06) (3, 6.58676109402914717793e+06) (4, 1.03043333019140809774e+07) (5, 1.73011169532568976283e+07) (6, 5.16160929996906127781e+06) (7, 1.90847114508050642908e+07) (8, 1.17509753182700574398e+07) (9, 2.27306645429254546762e+07) (0, 4.31318357586860656738e-02) (1, 9.09219586690221540630e+06) (2, -6.81914688781321886927e+06) (3, -6.58670983551093842834e+06) (4, -1.03042539676371328533e+07) (5, -1.73009839612373933196e+07) (6, -5.16157181691202241927e+06) (7, -1.90845651928039230406e+07) (8, -1.17508979115761052817e+07) (9, -2.27304895507487729192e+07) (0, -6.75577595829963684082e-02) (1, -9.09576997711296379566e+06) (2, 6.82182745520789176226e+06) (3, 6.58931543328162468970e+06) (4, 1.03083044177167620510e+07) (5, 1.73077783543178401887e+07) (6, 5.16347919492060691118e+06) (7, 1.90920399704964645207e+07) (8, 1.17548495625248569995e+07) (9, 2.27394248392122611403e+07) (0, -9.42846164107322692871e-02) (1, -9.09403212255016714334e+06) (2, 6.82052417781458329409e+06) (3, 6.58805219380358234048e+06) (4, 1.03063361951620131731e+07) (5, 1.73044786456499136984e+07) (6, 5.16255210749099962413e+06) (7, 1.90884097027778252959e+07) (8, 1.17529338053450938314e+07) (9, 2.27350805658438913524e+07) (0, -6.33209645748138427734e-02) (1, 9.09272814157377742231e+06) (2, -6.81954615669963974506e+06) (3, -6.58709728053920436651e+06) (4, -1.03048571549695245922e+07) (5, -1.73019958215466029942e+07) (6, -5.16185399516013637185e+06) (7, -1.90856801389059387147e+07) (8, -1.17514847260590549558e+07) (9, -2.27318204140382558107e+07) (0, 2.25663185119628906250e-03) (1, -9.09905066351500898600e+06) (2, 6.82428794641647953540e+06) (3, 6.59171435494405031204e+06) (4, 1.03120218784421887249e+07) (5, 1.73140154086871892214e+07) (6, 5.16522104863800294697e+06) (7, 1.90988916572551876307e+07) (8, 1.17584868527299501002e+07) (9, 2.27476265900714807212e+07) (0, 8.27229991555213928223e-02) (1, 9.11518576035889238119e+06) (2, -6.83638936599368322641e+06) (3, -6.60346122587275132537e+06) (4, -1.03302857015120573342e+07) (5, -1.73446263380982242525e+07) (6, -5.17375592920486256480e+06) (7, -1.91326062656658366323e+07) (8, -1.17762349198122620583e+07) (9, -2.27879644520882442594e+07) (0, -1.29999220371246337891e-03) (1, -9.09458384814498759806e+06) (2, 6.82093796709605772048e+06) (3, 6.58844943433128483593e+06) (4, 1.03069597383380308747e+07) (5, 1.73055216603072695434e+07) (6, 5.16284188572410866618e+06) (7, 1.90895630868339911103e+07) (8, 1.17535279049509558827e+07) (9, 2.27364595513527169824e+07) (0, 5.26662543416023254395e-02) (1, -9.09427502519271150231e+06) (2, 6.82070632493367977440e+06) (3, 6.58822404872751329094e+06) (4, 1.03066097373603377491e+07) (5, 1.73049344075095951557e+07) (6, 5.16267704657029733062e+06) (7, 1.90889171980733387172e+07) (8, 1.17531880678333230317e+07) (9, 2.27356876160759702325e+07) (0, 6.29379823803901672363e-02) (1, 9.09283884766239300370e+06) (2, -6.81962914435836579651e+06) (3, -6.58717834785694163293e+06) (4, -1.03049826438166424632e+07) (5, -1.73022064220026843250e+07) (6, -5.16191332461150735617e+06) (7, -1.90859113518098443747e+07) (8, -1.17516085101033356041e+07) (9, -2.27320971817565523088e+07) (0, 6.78972378373146057129e-02) (1, -9.09404217489934526384e+06) (2, 6.82053147295083571225e+06) (3, 6.58805986286293715239e+06) (4, 1.03063481311312727630e+07) (5, 1.73044989539697691798e+07) (6, 5.16256039150363858789e+06) (7, 1.90884300391015484929e+07) (8, 1.17529427171623967588e+07) (9, 2.27351052368007302284e+07) (0, -4.74965162575244903564e-02) (1, -9.09873326832775771618e+06) (2, 6.82404994109441619366e+06) (3, 6.59148137070474773645e+06) (4, 1.03116598948221448809e+07) (5, 1.73134048795495927334e+07) (6, 5.16505949580894690007e+06) (7, 1.90982238945611752570e+07) (8, 1.17581320850077774376e+07) (9, 2.27468331259916350245e+07) (0, 8.67952480912208557129e-02) (1, 9.09880783190021291375e+06) (2, -6.82410590108580514789e+06) (3, -6.59153559202649910003e+06) (4, -1.03117446551834624261e+07) (5, -1.73135472942592464387e+07) (6, -5.16509968549390044063e+06) (7, -1.90983806815941818058e+07) (8, -1.17582156885163877159e+07) (9, -2.27470196534952446818e+07) (0, -2.14926153421401977539e-03) (1, -9.09275897442664764822e+06) (2, 6.81956922526154201478e+06) (3, 6.58712039657549280673e+06) (4, 1.03048917222759667784e+07) (5, 1.73020537254881896079e+07) (6, 5.16187189053413365036e+06) (7, 1.90857423528339006007e+07) (8, 1.17515196860310528427e+07) (9, 2.27318972823543213308e+07) (0, -3.62485870718955993652e-02) (1, -9.09491476729729585350e+06) (2, 6.82118621053811442107e+06) (3, 6.58869728055638074875e+06) (4, 1.03073356593189500272e+07) (5, 1.73061544309909120202e+07) (6, 5.16302613626611139625e+06) (7, 1.90902465370828881860e+07) (8, 1.17539147833034601063e+07) (9, 2.27372870888462662697e+07) (0, 5.56481555104255676270e-02) (1, 9.09749534309225715697e+06) (2, -6.82312154682030249387e+06) (3, -6.59057470445894077420e+06) (4, -1.03102581436971016228e+07) (5, -1.73110530620126165450e+07) (6, -5.16439730366999190301e+06) (7, -1.90956459269534461200e+07) (8, -1.17567404100328069180e+07) (9, -2.27437386614329926670e+07) (0, -2.47376114130020141602e-02) (1, 9.09325228607762791216e+06) (2, -6.81993925157550070435e+06) (3, -6.58748480571625474840e+06) (4, -1.03054535715200118721e+07) (5, -1.73029993609224222600e+07) (6, -5.16214028435599338263e+06) (7, -1.90867731262188442051e+07) (8, -1.17520813594583105296e+07) (9, -2.27331307458178810775e+07) (0, 9.59801748394966125488e-02) (1, 9.09208406793175451458e+06) (2, -6.81906314512327872217e+06) (3, -6.58662852980752196163e+06) (4, -1.03041273752732779831e+07) (5, -1.73007719073973260820e+07) (6, -5.16151257619963958859e+06) (7, -1.90843310864786654711e+07) (8, -1.17507748630223311484e+07) (9, -2.27302103025226145983e+07) (0, -6.77101984620094299316e-02) (1, 9.09078191404019668698e+06) (2, -6.81808643949393555522e+06) (3, -6.58568038035389035940e+06) (4, -1.03026527147953771055e+07) (5, -1.72982996952949501574e+07) (6, -5.16081952026618830860e+06) (7, -1.90816078559298515320e+07) (8, -1.17493410117492694408e+07) (9, -2.27269547441724538803e+07) (0, -2.66109034419059753418e-02) (1, 9.09890453378644771874e+06) (2, -6.82417844196369871497e+06) (3, -6.59160618785203061998e+06) (4, -1.03118543330486770719e+07) (5, -1.73137310363061800599e+07) (6, -5.16515135653669014573e+06) (7, -1.90985828807694911957e+07) (8, -1.17583225193503592163e+07) (9, -2.27472613696649149060e+07) (0, -4.70175221562385559082e-02) (1, 9.09326268572088703513e+06) (2, -6.81994712735869456083e+06) (3, -6.58748650147309899330e+06) (4, -1.03054628862858768553e+07) (5, -1.73030109988080151379e+07) (6, -5.16213837086087185889e+06) (7, -1.90867990822663642466e+07) (8, -1.17520730964228492230e+07) (9, -2.27331569452815093100e+07) (0, 7.09930285811424255371e-02) (1, 9.09251313339151442051e+06) (2, -6.81938489476210903376e+06) (3, -6.58694124241048190743e+06) (4, -1.03046133819484487176e+07) (5, -1.73015867529913224280e+07) (6, -5.16174111141787935048e+06) (7, -1.90852282644453272223e+07) (8, -1.17512481863184589893e+07) (9, -2.27312830186506658792e+07) (0, 6.64282068610191345215e-02) (1, -9.09237142605469375849e+06) (2, 6.81927867280047293752e+06) (3, 6.58683796015327889472e+06) (4, 1.03044530255676079541e+07) (5, 1.73013177894786298275e+07) (6, 5.16166563592947740108e+06) (7, 1.90849322656243406236e+07) (8, 1.17510919835507310927e+07) (9, 2.27309286882667466998e+07) (0, 6.45186752080917358398e-03) (1, -9.09189166787745244801e+06) (2, 6.81891865594087727368e+06) (3, 6.58648846036128327250e+06) (4, 1.03039094613847788423e+07) (5, 1.73004061760754920542e+07) (6, 5.16141021833000704646e+06) (7, 1.90839283003511019051e+07) (8, 1.17505629088038075715e+07) (9, 2.27297290924113839865e+07) (0, -2.95561701059341430664e-02) (1, -9.09613142825857736170e+06) (2, 6.82209847285453975201e+06) (3, 6.58958532251849491149e+06) (4, 1.03087157947240378708e+07) (5, 1.73084711441914476454e+07) (6, 5.16367219318689219654e+06) (7, 1.90927933165101185441e+07) (8, 1.17552612702090814710e+07) (9, 2.27403286077644936740e+07) (0, 8.47169682383537292480e-02) (1, -9.09205403736213035882e+06) (2, 