FANN_FLO_2.1
num_layers=3
learning_rate=0.000100
connection_rate=1.000000
network_type=0
learning_momentum=0.000000
training_algorithm=2
train_error_function=1
train_stop_function=0
cascade_output_change_fraction=0.010000
quickprop_decay=-0.000100
quickprop_mu=1.750000
rprop_increase_factor=1.200000
rprop_decrease_factor=0.500000
rprop_delta_min=0.000000
rprop_delta_max=50.000000
rprop_delta_zero=0.100000
cascade_output_stagnation_epochs=12
cascade_candidate_change_fraction=0.010000
cascade_candidate_stagnation_epochs=12
cascade_max_out_epochs=150
cascade_max_cand_epochs=150
cascade_num_candidate_groups=2
bit_fail_limit=3.49999999999999977796e-01
cascade_candidate_limit=1.00000000000000000000e+03
cascade_weight_multiplier=4.00000000000000022204e-01
cascade_activation_functions_count=10
cascade_activation_functions=3 5 7 8 10 11 14 15 16 17 
cascade_activation_steepnesses_count=4
cascade_activation_steepnesses=2.50000000000000000000e-01 5.00000000000000000000e-01 7.50000000000000000000e-01 1.00000000000000000000e+00 
layer_sizes=10 301 7 
scale_included=0
neurons (num_inputs, activation_function, activation_steepness)=(0, 0, 0.00000000000000000000e+00) (0, 0, 0.00000000000000000000e+00) (0, 0, 0.00000000000000000000e+00) (0, 0, 0.00000000000000000000e+00) (0, 0, 0.00000000000000000000e+00) (0, 0, 0.00000000000000000000e+00) (0, 0, 0.00000000000000000000e+00) (0, 0, 0.00000000000000000000e+00) (0, 0, 0.00000000000000000000e+00) (0, 0, 0.00000000000000000000e+00) (10, 5, 5.00000000000000000000e-01) (10, 5, 5.00000000000000000000e-01) (10, 5, 5.00000000000000000000e-01) (10, 5, 5.00000000000000000000e-01) (10, 5, 5.00000000000000000000e-01) (10, 5, 5.00000000000000000000e-01) (10, 5, 5.00000000000000000000e-01) (10, 5, 5.00000000000000000000e-01) (10, 5, 5.00000000000000000000e-01) (10, 5, 5.00000000000000000000e-01) (10, 5, 5.00000000000000000000e-01) (10, 5, 5.00000000000000000000e-01) (10, 5, 5.00000000000000000000e-01) (10, 5, 5.00000000000000000000e-01) (10, 5, 5.00000000000000000000e-01) (10, 5, 5.00000000000000000000e-01) (10, 5, 5.00000000000000000000e-01) (10, 5, 5.00000000000000000000e-01) (10, 5, 5.00000000000000000000e-01) (10, 5, 5.00000000000000000000e-01) (10, 5, 5.00000000000000000000e-01) (10, 5, 5.00000000000000000000e-01) (10, 5, 5.00000000000000000000e-01) (10, 5, 5.00000000000000000000e-01) (10, 5, 5.00000000000000000000e-01) (10, 5, 5.00000000000000000000e-01) (10, 5, 5.00000000000000000000e-01) (10, 5, 5.00000000000000000000e-01) (10, 5, 5.00000000000000000000e-01) (10, 5, 5.00000000000000000000e-01) (10, 5, 5.00000000000000000000e-01) (10, 5, 5.00000000000000000000e-01) (10, 5, 5.00000000000000000000e-01) (10, 5, 5.00000000000000000000e-01) (10, 5, 5.00000000000000000000e-01) (10, 5, 5.00000000000000000000e-01) (10, 5, 5.00000000000000000000e-01) (10, 5, 5.00000000000000000000e-01) (10, 5, 5.00000000000000000000e-01) (10, 5, 5.00000000000000000000e-01) (10, 5, 5.00000000000000000000e-01) (10, 5, 5.00000000000000000000e-01) (10, 5, 5.00000000000000000000e-01) (10, 5, 5.00000000000000000000e-01) (10, 5, 5.00000000000000000000e-01) (10, 5, 5.00000000000000000000e-01) (10, 5, 5.00000000000000000000e-01) (10, 5, 5.00000000000000000000e-01) (10, 5, 5.00000000000000000000e-01) (10, 5, 5.00000000000000000000e-01) (10, 5, 5.00000000000000000000e-01) (10, 5, 5.00000000000000000000e-01) (10, 5, 5.00000000000000000000e-01) (10, 5, 5.00000000000000000000e-01) (10, 5, 5.00000000000000000000e-01) (10, 5, 5.00000000000000000000e-01) (10, 5, 5.00000000000000000000e-01) (10, 5, 5.00000000000000000000e-01) (10, 5, 5.00000000000000000000e-01) (10, 5, 5.00000000000000000000e-01) (10, 5, 5.00000000000000000000e-01) (10, 5, 5.00000000000000000000e-01) (10, 5, 5.00000000000000000000e-01) (10, 5, 5.00000000000000000000e-01) (10, 5, 5.00000000000000000000e-01) (10, 5, 5.00000000000000000000e-01) (10, 5, 5.00000000000000000000e-01) (10, 5, 5.00000000000000000000e-01) (10, 5, 5.00000000000000000000e-01) (10, 5, 5.00000000000000000000e-01) (10, 5, 5.00000000000000000000e-01) (10, 5, 5.00000000000000000000e-01) (10, 5, 5.00000000000000000000e-01) (10, 5, 5.00000000000000000000e-01) (10, 5, 5.00000000000000000000e-01) (10, 5, 5.00000000000000000000e-01) (10, 5, 5.00000000000000000000e-01) (10, 5, 5.00000000000000000000e-01) (10, 5, 5.00000000000000000000e-01) (10, 5, 5.00000000000000000000e-01) (10, 5, 5.00000000000000000000e-01) (10, 5, 5.00000000000000000000e-01) (10, 5, 5.00000000000000000000e-01) (10, 5, 5.00000000000000000000e-01) (10, 5, 5.00000000000000000000e-01) (10, 5, 5.00000000000000000000e-01) (10, 5, 5.00000000000000000000e-01) (10, 5, 5.00000000000000000000e-01) (10, 5, 5.00000000000000000000e-01) (10, 5, 5.00000000000000000000e-01) (10, 5, 5.00000000000000000000e-01) (10, 5, 5.00000000000000000000e-01) (10, 5, 5.00000000000000000000e-01) (10, 5, 5.00000000000000000000e-01) (10, 5, 5.00000000000000000000e-01) (10, 5, 5.00000000000000000000e-01) (10, 5, 5.00000000000000000000e-01) (10, 5, 5.00000000000000000000e-01) (10, 5, 5.00000000000000000000e-01) (10, 5, 5.00000000000000000000e-01) (10, 5, 5.00000000000000000000e-01) (10, 5, 5.00000000000000000000e-01) (10, 5, 5.00000000000000000000e-01) (10, 5, 5.00000000000000000000e-01) (10, 5, 5.00000000000000000000e-01) (10, 5, 5.00000000000000000000e-01) (10, 5, 5.00000000000000000000e-01) (10, 5, 5.00000000000000000000e-01) (10, 5, 5.00000000000000000000e-01) (10, 5, 5.00000000000000000000e-01) (10, 5, 5.00000000000000000000e-01) (10, 5, 5.00000000000000000000e-01) (10, 5, 5.00000000000000000000e-01) (10, 5, 5.00000000000000000000e-01) (10, 5, 5.00000000000000000000e-01) (10, 5, 5.00000000000000000000e-01) (10, 5, 5.00000000000000000000e-01) (10, 5, 5.00000000000000000000e-01) (10, 5, 5.00000000000000000000e-01) (10, 5, 5.00000000000000000000e-01) (10, 5, 5.00000000000000000000e-01) (10, 5, 5.00000000000000000000e-01) (10, 5, 5.00000000000000000000e-01) (10, 5, 5.00000000000000000000e-01) (10, 5, 5.00000000000000000000e-01) (10, 5, 5.00000000000000000000e-01) (10, 5, 5.00000000000000000000e-01) (10, 5, 5.00000000000000000000e-01) (10, 5, 5.00000000000000000000e-01) (10, 5, 5.00000000000000000000e-01) (10, 5, 5.00000000000000000000e-01) (10, 5, 5.00000000000000000000e-01) (10, 5, 5.00000000000000000000e-01) (10, 5, 5.00000000000000000000e-01) (10, 5, 5.00000000000000000000e-01) (10, 5, 5.00000000000000000000e-01) (10, 5, 5.00000000000000000000e-01) (10, 5, 5.00000000000000000000e-01) (10, 5, 5.00000000000000000000e-01) (10, 5, 5.00000000000000000000e-01) (10, 5, 5.00000000000000000000e-01) (10, 5, 5.00000000000000000000e-01) (10, 5, 5.00000000000000000000e-01) (10, 5, 5.00000000000000000000e-01) (10, 5, 5.00000000000000000000e-01) (10, 5, 5.00000000000000000000e-01) (10, 5, 5.00000000000000000000e-01) (10, 5, 5.00000000000000000000e-01) (10, 5, 5.00000000000000000000e-01) (10, 5, 5.00000000000000000000e-01) (10, 5, 5.00000000000000000000e-01) (10, 5, 5.00000000000000000000e-01) (10, 5, 5.00000000000000000000e-01) (10, 5, 5.00000000000000000000e-01) (10, 5, 5.00000000000000000000e-01) (10, 5, 5.00000000000000000000e-01) (10, 5, 5.00000000000000000000e-01) (10, 5, 5.00000000000000000000e-01) (10, 5, 5.00000000000000000000e-01) (10, 5, 5.00000000000000000000e-01) (10, 5, 5.00000000000000000000e-01) (10, 5, 5.00000000000000000000e-01) (10, 5, 5.00000000000000000000e-01) (10, 5, 5.00000000000000000000e-01) (10, 5, 5.00000000000000000000e-01) (10, 5, 5.00000000000000000000e-01) (10, 5, 5.00000000000000000000e-01) (10, 5, 5.00000000000000000000e-01) (10, 5, 5.00000000000000000000e-01) (10, 5, 5.00000000000000000000e-01) (10, 5, 5.00000000000000000000e-01) (10, 5, 5.00000000000000000000e-01) (10, 5, 5.00000000000000000000e-01) (10, 5, 5.00000000000000000000e-01) (10, 5, 5.00000000000000000000e-01) (10, 5, 5.00000000000000000000e-01) (10, 5, 5.00000000000000000000e-01) (10, 5, 5.00000000000000000000e-01) (10, 5, 5.00000000000000000000e-01) (10, 5, 5.00000000000000000000e-01) (10, 5, 5.00000000000000000000e-01) (10, 5, 5.00000000000000000000e-01) (10, 5, 5.00000000000000000000e-01) (10, 5, 5.00000000000000000000e-01) (10, 5, 5.00000000000000000000e-01) (10, 5, 5.00000000000000000000e-01) (10, 5, 5.00000000000000000000e-01) (10, 5, 5.00000000000000000000e-01) (10, 5, 5.00000000000000000000e-01) (10, 5, 5.00000000000000000000e-01) (10, 5, 5.00000000000000000000e-01) (10, 5, 5.00000000000000000000e-01) (10, 5, 5.00000000000000000000e-01) (10, 5, 5.00000000000000000000e-01) (10, 5, 5.00000000000000000000e-01) (10, 5, 5.00000000000000000000e-01) (10, 5, 5.00000000000000000000e-01) (10, 5, 5.00000000000000000000e-01) (10, 5, 5.00000000000000000000e-01) (10, 5, 5.00000000000000000000e-01) (10, 5, 5.00000000000000000000e-01) (10, 5, 5.00000000000000000000e-01) (10, 5, 5.00000000000000000000e-01) (10, 5, 5.00000000000000000000e-01) (10, 5, 5.00000000000000000000e-01) (10, 5, 5.00000000000000000000e-01) (10, 5, 5.00000000000000000000e-01) (10, 5, 5.00000000000000000000e-01) (10, 5, 5.00000000000000000000e-01) (10, 5, 5.00000000000000000000e-01) (10, 5, 5.00000000000000000000e-01) (10, 5, 5.00000000000000000000e-01) (10, 5, 5.00000000000000000000e-01) (10, 5, 5.00000000000000000000e-01) (10, 5, 5.00000000000000000000e-01) (10, 5, 5.00000000000000000000e-01) (10, 5, 5.00000000000000000000e-01) (10, 5, 5.00000000000000000000e-01) (10, 5, 5.00000000000000000000e-01) (10, 5, 5.00000000000000000000e-01) (10, 5, 5.00000000000000000000e-01) (10, 5, 5.00000000000000000000e-01) (10, 5, 5.00000000000000000000e-01) (10, 5, 5.00000000000000000000e-01) (10, 5, 5.00000000000000000000e-01) (10, 5, 5.00000000000000000000e-01) (10, 5, 5.00000000000000000000e-01) (10, 5, 5.00000000000000000000e-01) (10, 5, 5.00000000000000000000e-01) (10, 5, 5.00000000000000000000e-01) (10, 5, 5.00000000000000000000e-01) (10, 5, 5.00000000000000000000e-01) (10, 5, 5.00000000000000000000e-01) (10, 5, 5.00000000000000000000e-01) (10, 5, 5.00000000000000000000e-01) (10, 5, 5.00000000000000000000e-01) (10, 5, 5.00000000000000000000e-01) (10, 5, 5.00000000000000000000e-01) (10, 5, 5.00000000000000000000e-01) (10, 5, 5.00000000000000000000e-01) (10, 5, 5.00000000000000000000e-01) (10, 5, 5.00000000000000000000e-01) (10, 5, 5.00000000000000000000e-01) (10, 5, 5.00000000000000000000e-01) (10, 5, 5.00000000000000000000e-01) (10, 5, 5.00000000000000000000e-01) (10, 5, 5.00000000000000000000e-01) (10, 5, 5.00000000000000000000e-01) (10, 5, 5.00000000000000000000e-01) (10, 5, 5.00000000000000000000e-01) (10, 5, 5.00000000000000000000e-01) (10, 5, 5.00000000000000000000e-01) (10, 5, 5.00000000000000000000e-01) (10, 5, 5.00000000000000000000e-01) (10, 5, 5.00000000000000000000e-01) (10, 5, 5.00000000000000000000e-01) (10, 5, 5.00000000000000000000e-01) (10, 5, 5.00000000000000000000e-01) (10, 5, 5.00000000000000000000e-01) (10, 5, 5.00000000000000000000e-01) (10, 5, 5.00000000000000000000e-01) (10, 5, 5.00000000000000000000e-01) (10, 5, 5.00000000000000000000e-01) (10, 5, 5.00000000000000000000e-01) (10, 5, 5.00000000000000000000e-01) (10, 5, 5.00000000000000000000e-01) (10, 5, 5.00000000000000000000e-01) (10, 5, 5.00000000000000000000e-01) (10, 5, 5.00000000000000000000e-01) (10, 5, 5.00000000000000000000e-01) (10, 5, 5.00000000000000000000e-01) (10, 5, 5.00000000000000000000e-01) (10, 5, 5.00000000000000000000e-01) (10, 5, 5.00000000000000000000e-01) (10, 5, 5.00000000000000000000e-01) (10, 5, 5.00000000000000000000e-01) (10, 5, 5.00000000000000000000e-01) (10, 5, 5.00000000000000000000e-01) (10, 5, 5.00000000000000000000e-01) (10, 5, 5.00000000000000000000e-01) (10, 5, 5.00000000000000000000e-01) (10, 5, 5.00000000000000000000e-01) (10, 5, 5.00000000000000000000e-01) (10, 5, 5.00000000000000000000e-01) (10, 5, 5.00000000000000000000e-01) (10, 5, 5.00000000000000000000e-01) (10, 5, 5.00000000000000000000e-01) (10, 5, 5.00000000000000000000e-01) (10, 5, 5.00000000000000000000e-01) (10, 5, 5.00000000000000000000e-01) (10, 5, 5.00000000000000000000e-01) (10, 5, 5.00000000000000000000e-01) (10, 5, 5.00000000000000000000e-01) (10, 5, 5.00000000000000000000e-01) (10, 5, 5.00000000000000000000e-01) (10, 5, 5.00000000000000000000e-01) (10, 5, 5.00000000000000000000e-01) (10, 5, 5.00000000000000000000e-01) (10, 5, 5.00000000000000000000e-01) (10, 5, 5.00000000000000000000e-01) (0, 5, 0.00000000000000000000e+00) (301, 0, 5.00000000000000000000e-01) (301, 0, 5.00000000000000000000e-01) (301, 0, 5.00000000000000000000e-01) (301, 0, 5.00000000000000000000e-01) (301, 0, 5.00000000000000000000e-01) (301, 0, 5.00000000000000000000e-01) (0, 0, 0.00000000000000000000e+00) 
connections (connected_to_neuron, weight)=(0, -2.67868638038635253906e-02) (1, 5.35217735263187055494e-02) (2, -8.89177797804114045110e-02) (3, 3.68114947445934759251e-01) (4, -7.80871244430560773608e-01) (5, 1.41203901287570987577e+00) (6, -3.27597109803161201658e-01) (7, 5.31559906206868881817e-01) (8, 6.61430911747998284689e-02) (9, -1.14706654869678029152e-01) (0, 2.91006937623023986816e-02) (1, -1.70543310066839481909e-01) (2, 1.11181857638653500131e-01) (3, -4.87857576984077168092e-01) (4, -7.20530299150039299505e-01) (5, -1.44057773351923462668e-01) (6, 1.66017319472257174340e-01) (7, -4.62838269269723101562e-01) (8, 4.94336277379731157261e-03) (9, 3.60587453521425460590e-01) (0, -6.92197829484939575195e-02) (1, 1.83125903921705440736e-01) (2, -6.60376311968607354608e-02) (3, 1.29123296466570502972e-01) (4, 1.84804044180541283959e-02) (5, 4.36615158996841834504e-01) (6, 2.67639668442173295215e-01) (7, 5.52477552154952533670e-01) (8, 6.27777945117439090117e-02) (9, -1.74655604405735159768e-01) (0, 5.62701895833015441895e-02) (1, -9.81417190862206023638e-02) (2, 3.01774212593318783004e-02) (3, -1.82295133261096448107e-01) (4, -1.22454131419642342493e+00) (5, 1.22636004002198806262e+00) (6, 1.36028320158551568886e-01) (7, -2.68256383205302817441e-01) (8, -4.37479435964130969339e-02) (9, 1.73384199994994603333e-01) (0, -9.55677181482315063477e-02) (1, -1.63825995611332209112e-01) (2, 1.99336437051836595780e-01) (3, -5.01113024549065144697e-01) (4, -1.74294254237546297759e+00) (5, 1.62476312945100720420e+00) (6, -8.50170887787630585875e-02) (7, -3.18326508703282218260e-01) (8, -6.52949799549233794727e-02) (9, 2.74398522792242582913e-01) (0, 7.57773891091346740723e-02) (1, -3.53127696389231304774e-02) (2, -1.05219127366379353039e-01) (3, -9.07986720642125821890e-01) (4, 9.90068572340908170659e-01) (5, -1.25304136267375221259e+00) (6, 7.93113574694150114119e-01) (7, -3.16447264016255502828e-01) (8, 3.48727151218490849516e-01) (9, -1.03250784607167148121e-01) (0, -1.08875706791877746582e-02) (1, -2.06400886335277000683e+00) (2, 1.52136747191312582395e+00) (3, -1.84522021311007389244e+00) (4, -4.33246924548684297918e+00) (5, 7.95536914692932306536e+00) (6, -1.02871691974594643426e+01) (7, -7.56674933595860466085e+00) (8, 5.89124743992363475442e-01) (9, 5.00208316950181153260e+00) (0, -3.24794948101043701172e-02) (1, 1.52272197440747131258e-01) (2, -4.60819120224744416259e-02) (3, 1.93730908675885549197e-01) (4, 1.57003309831073556424e+00) (5, -1.29395554730984430059e+00) (6, 1.28074172980853523418e-01) (7, 1.88782561773272711259e-01) (8, -6.53452917436500718695e-02) (9, -2.26662870088014528624e-01) (0, 7.79683068394660949707e-02) (1, -7.40163303708819275695e-02) (2, 7.52141272496881091447e-02) (3, -2.01147584661039963150e-01) (4, -1.12003483271512060959e+00) (5, 1.41168647593392759809e+00) (6, 3.30365367761742412256e-01) (7, 7.64823599119264924129e-02) (8, -1.10772742654082642644e-01) (9, -3.89671866357848978302e-02) (0, -6.37769997119903564453e-02) (1, 1.75062071800692914403e-01) (2, -5.62459670159287591917e-02) (3, 9.67245572985560471413e-03) (4, -1.83104898600970067424e-01) (5, 1.01666951895747592616e+00) (6, 1.82822421770563098287e-01) (7, 7.16837214788237586660e-01) (8, 1.13440239748162877143e-01) (9, -2.43648762555070397262e-01) (0, 3.19552049040794372559e-02) (1, 1.86336659688953604208e-01) (2, -2.01933909803001798711e-01) (3, 6.72687153919517055733e-01) (4, 1.18135601928257005788e+00) (5, -1.18287734159924196042e+00) (6, -2.48536413657884008854e-01) (7, 7.75228864087228908275e-01) (8, 2.74827119719800840383e-03) (9, -3.23888214427182130617e-01) (0, -5.66510632634162902832e-02) (1, 1.58550923686091194131e-01) (2, -8.88771493888603214550e-02) (3, -2.45181003078137949025e-01) (4, 1.44828618473116277343e+00) (5, -1.19250513812020275672e+00) (6, 1.38263612983702710579e+00) (7, -9.30575674532190255661e-01) (8, 2.46614071324395334184e-01) (9, -5.99550216448594741614e-01) (0, -8.60882848501205444336e-02) (1, 8.70773584823867630167e-02) (2, -6.99979078904416490703e-02) (3, -1.59594117685198572110e-01) (4, 5.43701574784660301987e-01) (5, -3.35386058317678037444e-01) (6, 4.42443526309660550844e-01) (7, -3.09569676622838130253e-02) (8, 5.56636077260998299310e-02) (9, -1.46899622226971504624e-01) (0, -5.94481937587261199951e-02) (1, -1.72242637208687932038e-01) (2, 6.62873355534347313833e-02) (3, 9.45988412384284327317e-02) (4, 3.38188214295658651221e-01) (5, -1.50011994881777122046e+00) (6, -3.39544784726532267172e-01) (7, -3.18272676152039524222e-01) (8, -7.37445295519674609563e-02) (9, 4.31800556012705838427e-01) (0, 9.01372358202934265137e-02) (1, -1.10059038802883679686e+00) (2, 6.69390931761979834924e-01) (3, 5.19487665162463674307e+00) (4, -4.74768943060042047932e+00) (5, 5.22403426449869012771e+00) (6, -5.94386204051747579769e+00) (7, -8.51678670977823060184e+00) (8, 2.82539878506050945450e-01) (9, 2.59266831241317685652e+00) (0, 6.57105445861816406250e-03) (1, 9.29372957053659298765e-01) (2, -6.50007421674461127736e-01) (3, 4.64241200963065114848e+00) (4, -2.00738114267083078701e+00) (5, 3.68235677011332240838e+00) (6, -6.25381993458203194747e-02) (7, -5.14333036139859611779e+00) (8, -7.23641565919412088626e-01) (9, -1.99830141217214607430e+00) (0, 9.63026285171508789062e-03) (1, 1.18993890674549449016e-01) (2, -1.05517510244013304477e-01) (3, -5.27377738279272922917e-01) (4, -7.80608731056840587925e-01) (5, 1.80205809674075467797e+00) (6, 4.50190610745080099786e-01) (7, 4.42839573881939202460e-02) (8, -3.20620902656625517135e-01) (9, -6.96382569561867642571e-02) (0, 3.15553322434425354004e-02) (1, 1.34775052843893072829e-01) (2, -1.14776836990150302165e-01) (3, 2.33064915026450741875e-01) (4, 4.79826421555338833436e-01) (5, -2.86345195661999785131e-01) (6, -1.54964279454809006342e-01) (7, 2.91839231441419655333e-01) (8, -1.66296963466021741063e-01) (9, -4.96334132512212047872e-02) (0, -9.26053151488304138184e-02) (1, 1.02879999479198208645e-01) (2, 1.59791962053537801858e-02) (3, -4.15345531230021269842e-01) (4, 6.63579381495264630786e-01) (5, -3.06013990393410206803e-01) (6, 1.68644568206960554502e-01) (7, -1.97187292073643327672e-01) (8, 5.63706689200065211298e-02) (9, -6.83416274699510800650e-02) (0, 7.94126763939857482910e-02) (1, 1.73977345266298349946e-01) (2, -1.15803563995970762446e-01) (3, 3.96033647519136666748e-01) (4, 1.33014089441480232168e+00) (5, -1.05310463556821387598e+00) (6, 1.42523766587427269670e-01) (7, 4.67535723060486019254e-01) (8, 1.64275179938400489599e-01) (9, -3.98825649267359916283e-01) (0, 5.35184368491172790527e-02) (1, 3.93012114572713511240e-01) (2, -3.49559765836680524931e-01) (3, 2.94837928596486331667e-01) (4, -6.31721730519874791199e-01) (5, 2.55288324363935981154e+00) (6, 6.46018912859298799489e-01) (7, 3.64761290470943577713e-01) (8, -2.84002209216869139219e-01) (9, -8.70435485512150441956e-01) (0, -9.64634418487548828125e-02) (1, -1.75272159943266087057e-01) (2, 1.85003751287326802244e-02) (3, 1.34481330972194634832e+00) (4, -2.80827554374190935249e+00) (5, 2.07377230650153565605e+00) (6, -3.33872991858090661932e-01) (7, -1.40166924005690596289e+00) (8, -5.13077471229740275649e-02) (9, 2.29081211411127555477e-01) (0, -4.56143803894519805908e-02) (1, 1.16060953233769012516e-01) (2, -1.30700352336540537301e-01) (3, 3.02639803788795729023e-02) (4, -1.51986020585752612533e-01) (5, 7.62432428416053964426e-01) (6, 1.67209079549996419978e-01) (7, 6.18981517241335654766e-01) (8, 2.05564068246403136575e-01) (9, -1.79893129552669894800e-01) (0, 9.94368270039558410645e-02) (1, -3.54921909649489990268e-03) (2, 4.65330711936849661381e-02) (3, 1.16693008791427590976e-01) (4, 1.95932420691518904832e+00) (5, -1.84014553592750074174e+00) (6, -9.35257708312485364077e-02) (7, 5.01286610427230439058e-01) (8, -9.37633719826084649496e-02) (9, -2.45157708911176192013e-01) (0, -1.76543965935707092285e-02) (1, 1.52276886460321808636e-01) (2, -1.32637635213956939229e-01) (3, 1.87500041023364628912e-02) (4, 3.61662423719370962338e-01) (5, 5.92615439881574945780e-01) (6, 4.11027326161236758462e-02) (7, 4.58712311245228598899e-01) (8, 1.03780341847906520947e-01) (9, -2.54284104846772385233e-01) (0, 5.92425838112831115723e-02) (1, 1.89972414040567361138e-01) (2, -1.40917421105473172904e-01) (3, 1.81528277781564717497e-01) (4, -1.25325175496131313579e+00) (5, 2.21397558049860387897e+00) (6, 2.85005134873235921322e-01) (7, 2.65174362808548225168e-01) (8, -4.66347683155413861300e-01) (9, -2.91819214731335485613e-01) (0, 1.90019235014915466309e-02) (1, -1.38018199240484862322e-01) (2, -2.05747943853059715724e-02) (3, -1.37935876632623299898e+00) (4, 2.56477829188147010697e+00) (5, -5.43035054222570590099e-01) (6, 1.01806742268680250341e+00) (7, -2.30999379729867637678e+00) (8, -1.97054363773251167702e-01) (9, 2.84751816181845140985e-01) (0, -5.48666045069694519043e-02) (1, 1.87649720594719904287e-01) (2, -1.36412723873184676959e-01) (3, 3.31567697285707252419e+00) (4, -6.22771161351868274281e-01) (5, 3.61841390439909638133e+00) (6, 9.04407353188884544082e-01) (7, -3.03755193964007252916e+00) (8, 5.33481933781486464263e-02) (9, -4.15668009930450554901e-01) (0, -6.94039985537528991699e-02) (1, 6.23456844051167413667e-01) (2, -5.12485625862744154091e-01) (3, -5.55880877588477595452e-01) (4, 3.78521485601676310750e+00) (5, -8.90016088241537661752e-01) (6, -4.28320794504906843247e-01) (7, 5.22609703258712432472e+00) (8, 7.56416744793603212926e-02) (9, -1.72707181264814213506e+00) (0, -7.65451043844223022461e-03) (1, -5.06726908531378791856e-02) (2, 5.76703461145344348227e-02) (3, 1.02139450174580037611e+00) (4, -1.32386555938357131090e+00) (5, 7.68481947000419829408e-01) (6, -1.58194434546840945188e+00) (7, 1.25481414729006357511e+00) (8, -4.92463769543559984343e-02) (9, 3.08057852796446152155e-01) (0, -8.12954604625701904297e-02) (1, -2.93858766137946481045e-01) (2, 1.00705694093785325105e-01) (3, -1.63486172180159899936e-01) (4, -3.72697375281368148414e-01) (5, -8.43184913004393021829e-01) (6, -2.97534258832691911323e-01) (7, -7.23984673080335650042e-01) (8, 2.35817664198892079641e-01) (9, 4.49381424932125905780e-01) (0, -9.03792679309844970703e-03) (1, -1.40736673043852206222e-01) (2, 3.89433493961829912955e-02) (3, 4.28308342334587199840e-01) (4, 2.86949807786749111482e-01) (5, -1.41193969543600594818e+00) (6, -2.01646210141060461263e-01) (7, 1.46626681441220114294e-02) (8, -2.91416869108096165952e-01) (9, 2.41441810544957780049e-01) (0, 1.02330893278121948242e-02) (1, 1.27547902187270956881e-02) (2, 3.51102428644046657413e-02) (3, 9.03586211978397724209e-01) (4, -7.96368109899509901695e-01) (5, 6.20795164717645509000e-01) (6, -6.30857971339535694710e-01) (7, 9.08983946482122329158e-01) (8, -6.44773738345979785525e-02) (9, 2.60381556249935849912e-02) (0, -2.49882191419601440430e-02) (1, 3.39041985798946576836e+00) (2, -2.54516719824797954530e+00) (3, 2.27222682928721404494e+01) (4, -9.80156450202868256838e+00) (5, 4.19422137031504860261e+00) (6, -1.01898051891442564809e+00) (7, 6.47122386001205018857e+00) (8, -1.86537610399368725123e-01) (9, -8.43473803075770334203e+00) (0, 3.98906096816062927246e-02) (1, -2.15701926645118571835e-02) (2, -1.02551012754717923992e-01) (3, -1.16027815302029968514e+00) (4, 2.07681262157218471387e+00) (5, -1.58345599221326804873e+00) (6, 6.71438598914615103475e-01) (7, -6.49201931735828408065e-01) (8, 2.81407628090723394010e-01) (9, 2.83726444831683584369e-02) (0, 2.72331461310386657715e-02) (1, 8.11636468421225165670e-02) (2, -2.97232378759092440157e-02) (3, -1.01686618154852759233e+00) (4, 1.47068986630898090873e+00) (5, -1.11934927482225932138e+00) (6, 8.05593116378215068352e-01) (7, -1.17105359458933810934e+00) (8, 5.01276900384928433829e-02) (9, -8.98560076085455072814e-02) (0, 4.02985885739326477051e-02) (1, 2.03237368891744485389e-01) (2, -2.57065569833587817539e-02) (3, 3.36678553055267060223e-01) (4, -5.31146125401798729904e-01) (5, 1.65189852105144052707e+00) (6, 6.47336987253738921355e-02) (7, 6.76138335408341228927e-01) (8, 1.40084784708548765186e-01) (9, -4.69227733041049865914e-01) (0, -7.46738761663436889648e-02) (1, 1.97520743958768847659e-02) (2, -5.38200496623327598322e-02) (3, 8.02564875432968172220e-01) (4, 1.26767342584925812865e+00) (5, -1.09126198307149580025e+00) (6, -4.91232556745995141423e-01) (7, 7.06707192076367479716e-02) (8, 2.00830363082770024796e-01) (9, -2.54695777757123431595e-01) (0, 9.75320413708686828613e-02) (1, -1.63756243529099843048e-01) (2, 1.05546802015695745380e-01) (3, -4.50052924283370625602e-01) (4, -7.19089881467512515023e-01) (5, 7.19294407715458716801e-01) (6, 1.07841317832990626902e-01) (7, -3.89675883393547139999e-01) (8, -1.00714399190105663440e-01) (9, 1.87976925676515776997e-01) (0, -7.44601339101791381836e-02) (1, 1.49178958967014097664e-02) (2, -1.05608564394333998004e-01) (3, -4.02688018457287300045e-01) (4, 1.75916010659874544331e+00) (5, -1.78323023621023812879e+00) (6, 1.68880864194732999151e-01) (7, 7.79851726217132001917e-02) (8, 2.39733375464995263071e-01) (9, -9.96891426630659716057e-02) (0, -8.78060683608055114746e-02) (1, 1.57243984683355791931e-02) (2, 1.23569112066614902878e-01) (3, -2.93658915285593180577e-01) (4, -1.11470573431952235666e+00) (5, 1.05949626304966471046e+00) (6, 2.67333746992310772317e-01) (7, 3.42844673070620414856e-02) (8, -7.16821841288155514604e-02) (9, 1.36088720772694293792e-01) (0, 8.12898054718971252441e-02) (1, -1.42271665873819036507e-01) (2, 1.35086367385618105752e-01) (3, -6.74295043491965007121e-01) (4, -1.12849278798709296012e+00) (5, 4.78689506084800597829e-01) (6, -4.74163476722568921762e-01) (7, 2.42112542257399754320e-01) (8, -3.24950972562574491587e-01) (9, 3.56639507270565869756e-01) (0, 8.15691798925399780273e-03) (1, 9.31403208004383809104e-02) (2, 4.57494450191337151401e-02) (3, -8.02707877796642210733e-01) (4, 6.41121159082292724207e-01) (5, -3.81485141907731084565e-01) (6, 8.82898968015377039187e-01) (7, -4.69576629483601626358e-01) (8, -1.82303513956784651873e-01) (9, -5.76872163084569886116e-02) (0, 1.39900818467140197754e-02) (1, 9.06185770318927719114e-02) (2, -4.36592149947527680132e-02) (3, 2.53638504948043741472e-01) (4, 6.52999201737959555913e-01) (5, -1.72795360880432613548e+00) (6, -2.86201352294644884022e-01) (7, 6.18110384006165580750e-01) (8, 5.72868276048494884378e-01) (9, -2.93310171436759248298e-01) (0, 4.74773123860359191895e-02) (1, 7.44054618423432012619e-02) (2, -5.63989787885674481033e-03) (3, -5.87039190015100964537e-01) (4, 5.59742237130793629518e-01) (5, -8.18969505348268733691e-01) (6, -7.78177889885634854750e-01) (7, -8.10168118973975448505e-01) (8, -3.56670491414982415712e-01) (9, -1.13339130566782936294e-01) (0, 4.26879450678825378418e-02) (1, -1.80714039390419065056e-02) (2, 3.28565525550491357998e-02) (3, -1.17331844112983502137e-01) (4, -2.21705011699528248270e-01) (5, 5.26091069539600164617e-01) (6, 1.28571637690767431872e-01) (7, 5.01982139278443970087e-02) (8, -8.36248289594806321068e-02) (9, -2.81670656340739754275e-02) (0, -7.74086713790893554688e-02) (1, 4.19170986746386503574e-02) (2, 1.26216373880620319481e-01) (3, 1.81362852724410217320e-01) (4, -1.45653900732544272500e+00) (5, 1.25930393390798611719e+00) (6, -2.44869682064309590608e-01) (7, 1.25982673690893942631e-01) (8, -1.87610488960360116684e-01) (9, 2.36039252049164954839e-01) (0, 4.10104319453239440918e-02) (1, 1.58485463086693340040e-01) (2, -9.25970884590769371947e-02) (3, 4.58344143670182738171e-02) (4, -1.20268066860144151597e+00) (5, 2.03598670632901468380e+00) (6, 2.58877554195637071821e-01) (7, 3.58544138188612859786e-01) (8, -1.80557690189986935758e-01) (9, -3.55647723684641314801e-01) (0, 1.88794583082199096680e-02) (1, 2.37295413806935640011e+00) (2, -1.82326754961043158154e+00) (3, 8.08757539775979950036e+00) (4, -1.70519179810730925340e+01) (5, -2.26430162302992421530e+00) (6, 3.81704583520063728264e-02) (7, 2.00732159773871039476e+01) (8, 2.02176020024758262839e-01) (9, -6.07008610032157136516e+00) (0, 1.67828798294067382812e-02) (1, 3.07825219290363216729e-01) (2, -2.37150124577347021226e-01) (3, 7.24939915266342271849e-01) (4, 1.23307676878427585621e+00) (5, 1.03015932479226746121e-01) (6, -1.18178704206411591682e-01) (7, 9.90609145476200936287e-01) (8, 8.54907820431055343047e-02) (9, -6.15678611290605415363e-01) (0, -8.68805646896362304688e-02) (1, -1.70173539546090470120e-02) (2, -7.60304415024626659148e-03) (3, -4.48711936154943424881e-01) (4, -2.51060453016758444722e-01) (5, 2.41609422230701142986e-01) (6, -1.75811586536746278231e-01) (7, -3.86497358713566330213e-01) (8, -7.85720311832501933091e-02) (9, 2.15529948181568203891e-01) (0, 1.41880139708518981934e-02) (1, 1.07598976861246059533e-01) (2, 2.14888516285940411876e-02) (3, 3.59976303020034638092e-01) (4, 7.50463713632004814080e-01) (5, -4.04092733711586604706e-01) (6, 8.74960362728158941303e-02) (7, 3.62667195199070979683e-01) (8, 3.64673448204273255302e-03) (9, -3.10174513784012395590e-01) (0, 7.69628062844276428223e-02) (1, -1.21786899397394385303e-02) (2, -6.81718768902364324891e-02) (3, 6.20934719664896994651e-01) (4, -1.89531687941497384298e-01) (5, -4.20331870910477523040e-01) (6, -6.82471824207554700337e-01) (7, -2.49882907299306747384e-02) (8, -5.41740736757424182907e-03) (9, 1.71697469311340195075e-01) (0, 9.00811776518821716309e-02) (1, 9.86679632887042246114e-02) (2, 6.03305813488322090904e-03) (3, -7.48294923985834969926e-02) (4, -2.67064662343256042920e-01) (5, 1.00027818739150453631e+00) (6, -1.86445306381175218008e-03) (7, 1.81296505379172578909e-01) (8, 4.95727637921744151983e-02) (9, -1.15670547988139152396e-01) (0, 9.11774858832359313965e-02) (1, -2.10048020039901341127e-02) (2, 4.66563355293127743351e-02) (3, 2.42087299732823835186e-01) (4, -1.94293267442346095919e-01) (5, 6.32538844702355884664e-01) (6, -5.20472766011790474727e-02) (7, 1.65384598049407277598e-01) (8, -3.15234460036736774402e-01) (9, -8.26814658554785864020e-02) (0, 3.51369902491569519043e-02) (1, 2.94523930535196785951e-02) (2, -3.28959707904909956500e-02) (3, -3.49396457819179773185e-01) (4, 1.49159890216486151759e-01) (5, 7.76043066559061855969e-01) (6, 2.54280859399907022134e-01) (7, 3.00063232999809248458e-01) (8, 4.14382269317960655330e-02) (9, -2.26853513714074250807e-01) (0, -6.45022839307785034180e-02) (1, 6.24363612912835819202e-01) (2, -4.49965716736534182552e-01) (3, 2.68052322032674350538e+00) (4, -3.15215814562116847242e+00) (5, 6.84320033343445821572e-01) (6, -1.33074541213139840856e+00) (7, 3.41970744530679349182e+00) (8, -4.64468934215933437759e-01) (9, -1.76818971281998327250e+00) (0, -5.70999719202518463135e-02) (1, 8.17913073067156326523e-02) (2, -9.86461887332908682335e-02) (3, -6.25277682896807629476e-02) (4, -6.99024755295307942404e-01) (5, 1.98325788159819871304e+00) (6, -2.14521934326072118149e-02) (7, 6.30277683573308294962e-03) (8, 1.09885651156591629407e-01) (9, -2.50045002193341858732e-01) (0, -7.19826221466064453125e-02) (1, -8.50003731101200560305e-02) (2, 1.53340942922891743105e-01) (3, 1.90966890260515081978e-01) (4, -3.49937364464065592262e-01) (5, -7.47394172195543049497e-01) (6, -1.90659883926639683871e-01) (7, -5.00780457808357115645e-01) (8, 2.68775068358783272848e-02) (9, 2.72939301244616738806e-01) (0, 3.90017703175544738770e-02) (1, -4.75312950657262242582e-02) (2, 1.25678901184078595232e-01) (3, 5.84462672589665666045e-01) (4, -1.02074329711735489745e+00) (5, -2.72970830136116185405e-02) (6, -6.17800023376568585576e-01) (7, 4.22313948631533542244e-01) (8, 1.46080009756745538008e-01) (9, 1.96519610148182283238e-01) (0, 6.43418207764625549316e-02) (1, -1.38066749761716012213e-01) (2, 3.61520804391764830066e-02) (3, 6.15327326063399904221e-01) (4, 1.14146430328239767427e+00) (5, -1.90009301926721563269e+00) (6, -5.46420578678846080578e-01) (7, 1.21597286607278268211e-01) (8, 7.94897688580951805593e-02) (9, 1.05892193789706934304e-01) (0, 4.68443259596824645996e-02) (1, -9.72674828678821712380e-02) (2, -3.83561362020279628116e-02) (3, 3.00348939849769160093e-02) (4, 1.06203193707957610492e+00) (5, -1.75716628533395424760e+00) (6, -2.89143659369155460459e-02) (7, -1.07995140388340935683e-02) (8, -6.28066642219563125993e-02) (9, 1.26570322714833150002e-01) (0, 6.93626776337623596191e-02) (1, -1.43611315236279679652e-01) (2, 1.23695392791773980945e-01) (3, -4.64636168312992425822e-01) (4, -7.01569227975139653175e-01) (5, -3.40744834685005715258e-01) (6, 8.05527088887691561370e-02) (7, -9.01483618730697711108e-01) (8, -6.56531320987564261105e-03) (9, 4.63022564465238983811e-01) (0, -7.63955786824226379395e-02) (1, -7.82423092242645473737e-02) (2, 1.33478304979882719111e-02) (3, 4.58448569182008991429e-01) (4, -6.78511194410971296698e-01) (5, 3.57877857705162560897e-01) (6, -6.04086035131438658929e-01) (7, 2.08611107274437101999e-01) (8, -4.63214943692205893822e-02) (9, 1.55439309357856797478e-01) (0, 5.10988906025886535645e-02) (1, 6.95833067398453491981e-02) (2, 2.38518826439195683053e-02) (3, 3.74234225234302830820e-01) (4, 2.42327415677474261591e-01) (5, 3.29005386910567243497e-01) (6, -2.52194765556907396498e-01) (7, 4.35187409543928260813e-01) (8, -2.12850595832807409913e-01) (9, -1.79440724427764070059e-01) (0, 3.59258130192756652832e-02) (1, 1.40653886087913015945e-01) (2, -1.13463297626511527838e-01) (3, -2.90447423978499041919e-01) (4, 2.10546303056306083334e+00) (5, -1.86523111200627189632e+00) (6, -2.98689879719482367926e-02) (7, 4.86043925921748998231e-01) (8, 4.38031105001634099572e-02) (9, -1.17446758320433025657e-01) (0, -1.54281705617904663086e-02) (1, 4.79778005878218782865e-01) (2, -4.43079098463018627996e-01) (3, 6.05471921339852325872e+00) (4, -3.50237120263376366935e+00) (5, 1.91939936018855816791e+00) (6, -4.59050464377131650640e-01) (7, -1.01939079275788002654e+00) (8, -1.95710003089740292026e-01) (9, -1.23369389573746324196e+00) (0, -2.50296145677566528320e-02) (1, 2.03230951731240699898e-01) (2, -1.03591607514613159857e-01) (3, -8.26951754497889601758e-01) (4, 1.28208485560051987928e-01) (5, 1.66114117887662260387e+00) (6, 6.74409986287476281852e-01) (7, 8.62069644773609208323e-04) (8, 3.18984598566513510853e-01) (9, -5.59048570704667180387e-01) (0, -6.01723454892635345459e-02) (1, -3.43065708835506091856e-02) (2, 1.35865492743343974080e-01) (3, -6.48448206417244488176e-03) (4, 1.31140493058180829244e+00) (5, -1.94316104900950725742e+00) (6, -1.99741675609008656478e-01) (7, 1.57371877091330936160e-01) (8, 2.28198461792380492830e-02) (9, 9.43365096946622572194e-02) (0, -9.83019173145294189453e-03) (1, 3.25812989556823195958e-02) (2, 1.05653273382509044209e-01) (3, -2.61844248408720114973e-01) (4, 4.98471140962039205302e-01) (5, -1.01686205706473220545e+00) (6, -2.21883032896508292087e-01) (7, -6.13728409948704367594e-01) (8, -9.91192677917749204175e-02) (9, 2.09882935115650454128e-01) (0, -5.27539663016796112061e-02) (1, -4.70555993550427154037e-01) (2, 3.02049888397239119087e-01) (3, 1.03036902713989264591e+00) (4, -2.89010146545894697212e+00) (5, 2.39221823362578644989e+00) (6, -3.08877035731963456300e-01) (7, -2.42389918992704256340e+00) (8, -2.49544531714525411048e-02) (9, 1.05644475577611807182e+00) (0, -1.72261148691177368164e-03) (1, 1.44679389495914773045e-01) (2, -8.09268091613645906834e-02) (3, 4.22745123739208805702e-01) (4, 1.21127026667726608866e-01) (5, 1.04193603271028473189e-01) (6, -4.50414413925452825072e-02) (7, 3.59088784386145165595e-01) (8, 1.92483328994945995793e-01) (9, -1.55526718992211848702e-01) (0, -2.02345699071884155273e-02) (1, -1.27756252941282649749e-01) (2, 1.55410459687843754972e-02) (3, -1.27512124849061470044e+00) (4, 1.47675800783019339768e+00) (5, -1.54990056776802953564e+00) (6, 6.31870113009309952723e-01) (7, -4.54951749115285963843e-01) (8, 1.81189675168854702481e-01) (9, 9.53295995959001496445e-02) (0, 3.96349504590034484863e-02) (1, -1.06339773973432374921e-02) (2, -5.82560359357833651428e-02) (3, -7.72554637197306881546e-01) (4, -9.68952375488570522011e-02) (5, 1.60608353777022361264e+00) (6, 1.75933519430944901307e-01) (7, -2.78596079324386014520e-01) (8, -9.83943273123228517862e-02) (9, 2.41466441355304879679e-02) (0, 4.26865741610527038574e-02) (1, -1.26258992686992949084e-01) (2, 1.81261517878726297059e-01) (3, 2.82802014126998513266e-01) (4, 3.38050305829422415016e+00) (5, -1.66524363848718026659e+00) (6, 3.13170244170129924433e-02) (7, -8.15614390976340475348e-01) (8, 1.86000621005301125521e-01) (9, 4.25750623234027847364e-01) (0, -2.36257091164588928223e-02) (1, 5.59551322643813409119e-02) (2, 7.54690185796856594092e-02) (3, 3.89773523887798289955e-01) (4, 8.28318819467538103307e-02) (5, -1.90171448423406830308e-01) (6, -3.32062819273329756786e-01) (7, 1.87825610327410047473e-01) (8, -2.18860909068537029531e-01) (9, 1.57376653987317746686e-02) (0, -3.75488176941871643066e-02) (1, -2.81795229204052817551e-02) (2, -9.98482524836369206289e-02) (3, 4.33051327521420836852e-01) (4, 1.78857432216831840899e-01) (5, -2.08121940441466618532e-01) (6, 2.28999198387414282241e-02) (7, 2.74085858894667300234e-01) (8, -6.62376366592857257487e-02) (9, -1.25210438994708794791e-01) (0, -3.33938673138618469238e-02) (1, -8.18137775708944331443e-02) (2, -7.49509073161143957176e-02) (3, -4.44997118090568466453e-01) (4, 1.97571127780802280327e+00) (5, -2.11050870378105415170e+00) (6, -1.43197138373191978911e-01) (7, 4.74861854057192389611e-01) (8, -6.04844488702210511533e-02) (9, 6.32072639588554530121e-02) (0, 8.23708847165107727051e-02) (1, -1.45471627337804082503e-01) (2, 6.76198619031756764652e-02) (3, -7.72657087957449251192e-01) (4, -4.18621181915779683180e-01) (5, -9.61117547982466291501e-01) (6, 8.19528581001594425004e-01) (7, -9.07570124074800976821e-01) (8, -2.72025448576095452147e-01) (9, 4.58775578248328874675e-01) (0, 5.29340282082557678223e-02) (1, -4.76129174087907669488e-01) (2, 3.05981611724462976287e-01) (3, 1.20393649279795305063e+01) (4, -3.67601501430668786696e+00) (5, 8.42314153015523814361e+00) (6, 2.34361774050772186939e+00) (7, -8.93398328835241350987e+00) (8, -6.47440808813207535621e-01) (9, 1.36674104222295667022e+00) (0, -8.69383513927459716797e-02) (1, -1.45690567587678371231e-01) (2, -3.79823317417301714594e-02) (3, -3.91804777514835389507e-01) (4, 6.56940550544641621578e-01) (5, -1.30888396833424480725e+00) (6, 1.59803253559538088746e-01) (7, -4.14793053219642660068e-01) (8, 3.94681669964950729290e-02) (9, 1.80877770719214875372e-01) (0, -4.50655817985534667969e-02) (1, 7.25364483185313435598e-02) (2, -5.11973792967363762474e-03) (3, 7.15848396853182689092e-01) (4, 1.48743260097441432066e+00) (5, -1.14063239186073173137e+00) (6, -1.30040002779371721697e-01) (7, 4.27813925695789742942e-01) (8, -1.37600225658355224123e-01) (9, -3.59754383386926890331e-01) (0, 2.00473070144653320312e-02) (1, -9.38756401549539071238e-02) (2, 1.95437294260601662765e-01) (3, -6.32465102022809477766e-01) (4, 5.51578791893534911561e-02) (5, -1.02244479265152432568e+00) (6, -1.40928128971306965145e-01) (7, -6.44135597355294686750e-01) (8, -2.34434614939120739008e-01) (9, 4.78381725701441107290e-01) (0, 9.24879834055900573730e-02) (1, 4.65727018686010602044e-02) (2, -5.84052124896627389283e-02) (3, -4.50288444033995427507e-01) (4, -5.78999111529525434250e-01) (5, 1.31348397619851531282e+00) (6, 7.35930506397907968630e-02) (7, 4.75506247306168861044e-02) (8, -1.63657710732651034968e-01) (9, 8.81565728853840463453e-02) (0, 3.93665656447410583496e-02) (1, -4.38919481066537831015e-02) (2, 7.65770648738497289321e-02) (3, -2.41029287855323605394e-02) (4, 2.10853153718757929669e-01) (5, -6.32123589084748416234e-01) (6, -9.05965322079085866314e-02) (7, 3.66168452134241137474e-02) (8, -2.25386689018331448642e-01) (9, 1.06012656397460047764e-01) (0, 7.13121667504310607910e-02) (1, -6.72078448030827696469e-02) (2, 2.88625093172042192224e-02) (3, 5.27028497738538770356e-01) (4, -2.15966808930690312707e-01) (5, -8.88722924595206742460e-01) (6, -7.41106151833507004190e-02) (7, 2.08521083654271341401e-02) (8, 1.11318631568427528489e-02) (9, 7.62438556783844728626e-02) (0, 7.47369006276130676270e-02) (1, 3.80520398976824547610e-01) (2, -2.57324940012695624336e-01) (3, 1.05422470279245157343e+01) (4, 6.09438372349791146476e-01) (5, -6.41598578863191892907e+00) (6, 2.83283581185102273370e-01) (7, -7.61380264701712405895e+00) (8, 1.23003891914246032968e+00) (9, -9.72566597319080017314e-01) (0, -7.33517855405807495117e-02) (1, -1.80393305043981044822e-01) (2, 2.36951182872460891504e-01) (3, 9.19907634060004752996e-01) (4, -1.61586866722816546726e+00) (5, 2.53137137146433177648e+00) (6, -7.28821559425157309425e-03) (7, -1.95450536912624150965e+00) (8, 8.88497080654869486604e-02) (9, 5.44164682727477422297e-01) (0, 6.35836049914360046387e-02) (1, -1.07058917050023381240e-02) (2, 2.81117845002256221132e-02) (3, 9.13333214992968267509e-01) (4, 3.13433559313694987125e-01) (5, -8.66467461754330314783e-01) (6, -4.64206630681315512987e-01) (7, 2.44805173829780925443e-01) (8, -9.71550047149702389326e-03) (9, -8.70285805154551866947e-02) (0, 6.23739287257194519043e-02) (1, -3.12376616566814813147e-01) (2, 2.75457134969073036412e-01) (3, -1.02505265705373438401e+00) (4, -8.06239014509465778957e-01) (5, 1.38479643447725520033e+00) (6, 2.98113127403725308717e-01) (7, -1.07722408296979077491e+00) (8, -5.63595935317816154608e-01) (9, 6.79240162594760499282e-01) (0, -4.49908971786499023438e-02) (1, -1.39868626593344036468e-01) (2, 2.37894622310177439317e-01) (3, -2.16082025289103279997e-01) (4, 2.72285181076996674054e-01) (5, -2.94285483648769563558e+00) (6, -5.03852227304528943463e-01) (7, 5.38925592807283138086e-01) (8, 4.19427321755672724568e-02) (9, 5.50143820789249615721e-01) (0, -4.65685538947582244873e-02) (1, 7.05444415487980869273e-01) (2, -3.95771035982839025635e-01) (3, 8.32979090680944977976e+00) (4, -3.79884493140393697530e+00) (5, 1.46318397735185312669e+00) (6, 4.92165203811532170342e-01) (7, -1.57100750583192083631e+00) (8, 4.10058958319932179148e-02) (9, -1.59270842516975474901e+00) (0, 3.11517715454101562500e-03) (1, 2.59327490778860254850e-02) (2, 2.96884682288701476360e-02) (3, -3.57867293875049174989e-01) (4, -6.09736818624784349119e-01) (5, 9.79821392200345031576e-01) (6, 8.68273827016410454371e-02) (7, 4.34002651768204961158e-02) (8, 1.95907809381359793166e-01) (9, 6.94414485197475134931e-03) (0, 1.26459747552871704102e-02) (1, -2.62474312667331510784e-01) (2, 5.83383938552403877309e-02) (3, -6.89586635256505875446e-01) (4, 3.78019086529347639325e-02) (5, -1.39620637829092864024e+00) (6, 1.06387270021089316852e-01) (7, -7.69538395064815472502e-01) (8, -4.04900047610682101151e-01) (9, 4.56958005289676338911e-01) (0, 1.03004798293113708496e-02) (1, -1.38736615895199200121e-01) (2, 8.26633556328296714710e-02) (3, -8.27412744871693250914e-01) (4, -4.44540678725651505765e-01) (5, 1.14346754582134169098e+00) (6, 3.20773635680912050372e-01) (7, -4.85171524320639702132e-01) (8, 9.49151482759429468428e-03) (9, 6.76884348665151985847e-02) (0, 5.10793551802635192871e-02) (1, 5.76546013936258053278e-02) (2, 9.56975485693687955013e-02) (3, -1.79553017972361034227e-01) (4, -5.96389444381356881308e-01) (5, 1.05619584596933502318e+00) (6, 1.96494273728067686546e-01) (7, 3.20662781642523653236e-01) (8, -1.05939054148429787072e-01) (9, -5.84124365412564891531e-02) (0, 7.09029957652091979980e-02) (1, -1.16881438291737624335e-01) (2, -6.71345977510190983217e-02) (3, -2.15713438346620461905e-01) (4, 6.15554450876647951674e-01) (5, -1.14565350200449356244e+00) (6, -4.84108041731551447251e-02) (7, -3.63003412315082596429e-01) (8, -6.08833855005597082005e-03) (9, 1.70398173721227508270e-01) (0, 5.97536042332649230957e-02) (1, 1.29362892197785905868e-01) (2, 4.18553288376576973495e-02) (3, -9.17872911220887072181e-02) (4, 5.26585852919523103588e-02) (5, 5.31091694692769844544e-01) (6, 5.90765004762409048911e-02) (7, 1.44345949076145979584e-01) (8, -1.92815501590233528972e-01) (9, -5.69388061443216603186e-02) (0, 2.11029276251792907715e-02) (1, -3.90390960393542207907e-01) (2, 3.46926896287719388479e-01) (3, -1.40826795851661823455e+00) (4, 7.53069893900549236498e-01) (5, -2.75229446455810622396e+00) (6, -4.33203035842448069825e-01) (7, 2.55731549638243571554e-01) (8, 3.33089788776615880472e-01) (9, 8.54302718039343877976e-01) (0, 9.46309044957160949707e-02) (1, -1.44162460909262279962e+00) (2, 1.03984164257315625512e+00) (3, 4.30637197022889850473e+00) (4, -4.38370120335523072441e+00) (5, 3.69656173529957721158e+00) (6, 1.06691771860736417388e+00) (7, -2.05873294471762696700e-01) (8, 9.92976027234886093886e-01) (9, 3.57700101400338787982e+00) (0, -1.28841027617454528809e-02) (1, 2.86688065056515083151e-02) (2, -3.29469576868474944842e-02) (3, -7.99575968997179753472e-01) (4, 7.38366440262080842016e-02) (5, 8.94120650351877599427e-01) (6, 4.21151761343646735547e-01) (7, -1.29088387942777638173e+00) (8, -4.14635151937928325694e-01) (9, 1.31115334599160193729e-01) (0, 7.38586112856864929199e-02) (1, -1.47147867938184295777e-01) (2, 8.33854592295994179185e-02) (3, -3.47678425478227581813e-01) (4, -5.39290941713806315505e-01) (5, -1.35902771863084470549e-01) (6, 8.64159146266199607034e-02) (7, -6.01551034710375076564e-01) (8, -2.65104235435542123778e-01) (9, 3.41264510801251030880e-01) (0, 8.20193067193031311035e-02) (1, -7.74293983041771383125e-02) (2, 1.95229084719700712869e-01) (3, -1.11738174099019227370e+00) (4, -6.14176755170507421983e-03) (5, -8.24560194801430057510e-01) (6, -1.36770023916390148777e-01) (7, -6.00945390511760435537e-01) (8, 5.51889200479280667144e-02) (9, 5.33662172421730418570e-01) (0, 2.10456997156143188477e-02) (1, -4.58865926077340335887e-02) (2, 4.36334574900784019635e-02) (3, 2.41528594562187004513e-01) (4, -4.36165525632477402151e-01) (5, 6.26871047192436581241e-01) (6, -2.64586557250359066806e-01) (7, 3.71019782290121169499e-01) (8, -4.62795091291074434103e-02) (9, -2.78804580593105880149e-02) (0, -8.93366113305091857910e-02) (1, -3.94769243062428262792e-02) (2, 1.05307296414747383895e-01) (3, -1.47237244039116060845e-01) (4, -7.58232481016128390117e-01) (5, 7.82013848462019711683e-01) (6, -9.80428841737041589788e-02) (7, -1.05234935053755390699e-01) (8, -1.08501041452559468525e-01) (9, 1.70457990631672495763e-01) (0, -3.08538228273391723633e-03) (1, 2.34920348675772931724e-02) (2, -3.79531600290380702334e-02) (3, 4.90919326284416979167e-01) (4, 6.52532880207786103455e-01) (5, -8.31452591367703219838e-01) (6, -1.87140235708290081362e-01) (7, -7.28657431721203008301e-02) (8, 2.09192099992070376646e-02) (9, -1.08919466771597209243e-01) (0, 3.56319323182106018066e-02) (1, -1.22289041838221576586e-01) (2, 1.08932791397849074166e-01) (3, -7.26454768565065522878e-01) (4, -9.44021430154768803611e-01) (5, 1.28448112021257920823e+00) (6, 4.26198194215198888912e-01) (7, -3.13905106678390277697e-01) (8, -2.35776249446495791973e-02) (9, 7.34889126350169868962e-02) (0, 4.47599813342094421387e-02) (1, -1.51820986448653272305e-01) (2, 1.72244445591364980785e-01) (3, -7.86363533955350857418e-01) (4, -8.63930999263227028528e-01) (5, 4.07135037131180432812e-01) (6, 1.54216167026747535962e-01) (7, -9.03294762592732891626e-01) (8, -4.35986486008185014640e-01) (9, 4.89956350323985212469e-01) (0, 9.46320369839668273926e-02) (1, 1.00090150843075084697e-01) (2, -1.07296151898780445233e-01) (3, 1.74396939498600622720e+00) (4, 2.43213756756229360079e+00) (5, -1.51389615403900523738e+00) (6, 1.61754528485274530480e-02) (7, -2.85124269886629679027e-02) (8, -1.45634142351249662450e-01) (9, -1.43644981856083681082e-01) (0, -7.54428729414939880371e-02) (1, -1.06803409361933443478e+00) (2, 7.97993950389999096018e-01) (3, 7.37864504600704185222e-01) (4, -3.89399440658886453193e+00) (5, 6.64255163367784895456e-01) (6, 8.55897473069718972560e-01) (7, -7.34858694460205796872e+00) (8, 1.40939504734701070987e-01) (9, 2.61036188103531063831e+00) (0, 7.86915197968482971191e-02) (1, -1.00877135504478451788e-01) (2, 1.84523440965782305201e-02) (3, -1.49536122092984891108e-01) (4, 6.73323882756639791047e-01) (5, -1.08077130072679605810e+00) (6, 4.55500517640644864148e-02) (7, -5.49729667446720693391e-01) (8, -2.89375327597401532653e-01) (9, 9.06692991881693499678e-02) (0, 1.15213766694068908691e-02) (1, 4.43461889329446537489e-02) (2, -6.99187278228123321178e-02) (3, 5.44850796788091229494e-01) (4, 2.21438431785695805099e-01) (5, 5.00645645767895386413e-01) (6, 3.19217181561072260720e-02) (7, 6.51652516130172942965e-01) (8, 3.51927515151108788460e-02) (9, -4.11827827320114470133e-01) (0, 8.38836506009101867676e-02) (1, 3.49766515901137678424e-02) (2, -8.93726109124851619825e-02) (3, 1.29005633069126685042e-01) (4, -7.08176861109709454567e-01) (5, 1.10680945678544673250e+00) (6, 1.16916598473471911035e-01) (7, 2.47808121216907040196e-01) (8, 9.30898815027430409641e-02) (9, -8.66009911424041045613e-02) (0, 4.46086749434471130371e-02) (1, -4.11166474021169431330e-02) (2, 8.57559125719362658202e-02) (3, 4.99903601615834303207e-01) (4, 2.93893095790120628674e-01) (5, -7.74152833925049077557e-01) (6, -2.12488915349423601597e-01) (7, -1.23085198067389156584e-01) (8, -1.79042495871429341303e-01) (9, 2.56669930608569678288e-02) (0, 5.35698905587196350098e-02) (1, 2.24221051519049363598e-01) (2, -2.38846408788037867232e-01) (3, 1.17637488822509850284e-01) (4, 3.16373615221817103271e-02) (5, 1.94282585620518455372e+00) (6, 5.87553210654587210193e-01) (7, 1.88467112988917578908e-01) (8, -2.08822966601088566563e-01) (9, -5.53088737738238300778e-01) (0, 8.62124338746070861816e-02) (1, 7.84415329213864753743e-02) (2, 5.64351566347445765537e-02) (3, 1.01319201241460832286e+00) (4, -2.57111992115545084925e-01) (5, -1.01447672137171296392e+00) (6, -1.03127226723119869156e+00) (7, 6.74765636524817025155e-01) (8, 1.67004063924820728149e-01) (9, 5.19278695891317448874e-02) (0, 5.36859408020973205566e-02) (1, 1.29511633284948052269e-01) (2, -1.52914077988286878362e-01) (3, -2.54326818933817977442e-02) (4, 1.15765952733101062933e+00) (5, -1.21203221459872834131e+00) (6, 4.17390988301947929440e-01) (7, 2.33477438922785496267e-01) (8, 1.18961261698128692443e-01) (9, -2.43555049767252396187e-01) (0, 5.76468631625175476074e-02) (1, 1.37464241192049752005e-01) (2, -6.70706134328456493598e-02) (3, -2.34731777751917114472e-01) (4, -6.07185863672677017533e-01) (5, 1.53335543555661479864e+00) (6, 1.41384355764418601087e-01) (7, 1.51497218973082076188e-01) (8, -3.07651859656005548238e-02) (9, -1.25901444517670685341e-01) (0, 4.77995350956916809082e-02) (1, -8.16468079237097910106e-02) (2, 4.41729597261311390799e-02) (3, 5.08905238970662310294e-01) (4, 7.78205827643060787935e-01) (5, -1.57206755289838162604e+00) (6, -3.09657606245659966504e-01) (7, -2.48092192415822032636e-01) (8, -4.00477864952999834669e-02) (9, 1.66822810805824117697e-01) (0, -4.10540364682674407959e-02) (1, 8.93664416950980672327e-02) (2, 6.83158388523734672049e-02) (3, -6.12027482502214767446e-02) (4, -3.05624183073395470911e-02) (5, 2.71534524783836994644e-01) (6, 3.39004001111654559852e-02) (7, -2.89717018878219573219e-02) (8, -1.99072202252475904949e-01) (9, 2.67858549252165158150e-02) (0, 7.07453861832618713379e-02) (1, -1.01129200026264298717e-01) (2, 1.36588717598388836860e-01) (3, -7.60987810557712824472e-03) (4, 1.30960831801716715006e+00) (5, -2.09651080051894034284e+00) (6, -2.06545500879188825838e-01) (7, 9.59149930391657717932e-02) (8, 3.82948520997151015122e-02) (9, 1.66667902133957962496e-01) (0, -5.64159601926803588867e-02) (1, -9.48313841391995454577e-02) (2, 1.30471825165192262252e-01) (3, 4.69380600304985129423e-01) (4, 1.18664077435259263105e+00) (5, -2.08046424871016810698e+00) (6, -4.67484548836015423312e-01) (7, 2.26211929267497002805e-01) (8, -1.02443834926033067179e-01) (9, 2.22154176277181231169e-01) (0, 6.57407715916633605957e-02) (1, -1.20404609451414651433e-01) (2, 9.26320429218811802752e-02) (3, 9.00426069087610136954e-01) (4, -1.62492485679822462608e+00) (5, 4.11279085562175183988e-01) (6, -1.27677586689091171479e+00) (7, 1.62658939479917319382e+00) (8, 1.97146018344391882327e-01) (9, 2.21626764560125588677e-01) (0, 4.72714975476264953613e-02) (1, 8.49764052988168649971e-02) (2, -1.99004582286798140101e-02) (3, 1.76949294938852447201e-01) (4, -4.37634347441512583377e-01) (5, 6.38296471556138778070e-01) (6, 3.21837407320314405901e-01) (7, 5.47447618277678627052e-01) (8, 3.30045809014204993836e-02) (9, -6.38833838108485430052e-02) (0, -4.38578203320503234863e-02) (1, -2.22875604883087594099e-02) (2, 1.28520362440851798613e-01) (3, 1.02710094447122268768e+00) (4, -7.71717253593804053402e-01) (5, -2.65347856958406680405e-01) (6, -1.19517222591245730889e+00) (7, 8.92334992714803210134e-01) (8, -2.43118837895010403427e-01) (9, 2.24291666064422606786e-01) (0, 4.39914092421531677246e-02) (1, -1.03156963814057744955e+00) (2, 6.81911018332761353911e-01) (3, -8.55502803890876251103e+00) (4, 2.18248381429354010308e+00) (5, -2.62238724862424188444e+00) (6, -1.35573419988175647433e+00) (7, 2.49811151190990221593e+00) (8, -1.04990880020825252950e-02) (9, 2.26296327458728585569e+00) (0, 9.73067432641983032227e-03) (1, 1.02102569150580649304e-01) (2, 3.43049772771794464488e-02) (3, 3.37047055488359947883e-01) (4, 8.93047229080118354361e-01) (5, -1.01675714161350816411e+00) (6, -2.75873554469950765800e-01) (7, 2.24118729811423833542e-01) (8, 7.04902721197615128590e-02) (9, -1.35315072803863262196e-01) (0, 8.13470557332038879395e-02) (1, 7.73788891686591345787e-02) (2, 9.74154079367513109355e-02) (3, 6.19194486010620881444e-01) (4, -2.25625323939911393012e+00) (5, 1.73576582488051500697e+00) (6, -2.11745825858284497656e-01) (7, -1.78557895334330418713e-01) (8, -6.55830978199768294123e-02) (9, 9.75235011543248847543e-02) (0, 3.86590585112571716309e-02) (1, -3.89531310057239510414e-01) (2, 3.01678902026648876333e-01) (3, -1.71752963963055371721e+00) (4, 2.44940552447158044203e+00) (5, -8.81309602646362932887e-01) (6, 2.46623208196931464897e+00) (7, -2.93042774298885211337e+00) (8, 8.24997475947521069495e-02) (9, 7.28920765607278697829e-01) (0, -2.54973545670509338379e-02) (1, 2.11756184822312953919e-01) (2, -1.63689842541604790860e-01) (3, 5.51467322180798746878e-01) (4, 1.44742134649873288588e+00) (5, -1.19303539745785114334e+00) (6, -1.20648742293217470928e-02) (7, 8.11570375007117927879e-01) (8, -9.85010914536387643947e-02) (9, -4.05547183320196291678e-01) (0, 6.38825222849845886230e-02) (1, -4.31356748650375265708e-02) (2, -1.64445399709431915036e-02) (3, 1.37095775280135323548e+00) (4, -1.81011182883621080109e+00) (5, 3.00241704085368033006e+00) (6, 2.33103201201015214350e-01) (7, -1.53935795877466574666e+00) (8, 1.40037943228894668640e-02) (9, -1.32532174212163761373e-01) (0, -2.21274048089981079102e-02) (1, 3.60730173271633369758e-02) (2, -1.05182601666613459446e-01) (3, -8.82029131520397746691e-01) (4, 3.89736722217635278565e-01) (5, 1.10111560460911528381e+00) (6, 8.40788042211467190334e-01) (7, -2.98035364597519336627e-01) (8, 1.76907959296957906226e-01) (9, -3.15620407979214201433e-01) (0, -7.41915553808212280273e-02) (1, 4.76633570382209575955e-02) (2, 1.76324109145390497955e-02) (3, -1.03244058715216424638e+00) (4, 1.26215679458747054298e+00) (5, -9.08020150100996348286e-01) (6, 1.24076284521281698936e+00) (7, -1.14164815660107454853e+00) (8, 3.05541373218783107735e-02) (9, -2.13709862726152527435e-01) (0, -7.77226090431213378906e-02) (1, -1.99841135931372010370e-01) (2, 8.14011463466354223684e-02) (3, -2.89776941819417821478e-01) (4, -1.21362555761986490310e+00) (5, -9.93609381912949451987e-01) (6, -1.78946003792366414853e-01) (7, 7.81516266748667927378e-03) (8, 2.84302435657878493913e-01) (9, 3.24111879349750164891e-01) (0, -6.44854307174682617188e-02) (1, -1.83245101867310716814e-01) (2, 1.66938988851108582878e-02) (3, -2.83619017383828719847e-01) (4, -1.30691636480522488384e+00) (5, 6.20949583363752388721e-01) (6, -1.48708241639013222235e-01) (7, -2.92052167947364882394e-01) (8, 2.68997866908784299955e-01) (9, 3.08061358328170553644e-01) (0, 8.01969245076179504395e-02) (1, -1.19150191071065461590e-01) (2, 3.69496049168747129135e-03) (3, 6.00385910625465812895e-02) (4, -9.97014576409885111552e-01) (5, 1.32247821694132605685e+00) (6, -6.17125364679358690001e-02) (7, 2.62684079496315302238e-02) (8, -2.80364745926180325419e-01) (9, 7.56967093110582633919e-02) (0, -6.72315433621406555176e-02) (1, 3.99435833135966034124e-01) (2, -2.62876600056691389629e-01) (3, 6.29679931432420181281e-01) (4, -6.55750580581342612518e-01) (5, 2.85313370654131093218e+00) (6, 8.41158572462827325289e-01) (7, 8.37612302749275450253e-02) (8, -3.11475850234313289544e-01) (9, -1.05718883136844410409e+00) (0, -1.64496675133705139160e-02) (1, 7.42037983729223915574e-01) (2, -5.77495133127121307304e-01) (3, -3.32169441131419773683e-01) (4, -4.88184639586838819980e+00) (5, -3.38895749153305736456e+00) (6, -7.98011500185185407297e-01) (7, 6.00855546911069571259e-01) (8, -9.50713096379143030035e-01) (9, -1.87761270004951552615e+00) (0, -5.43224178254604339600e-02) (1, -1.68617620177260646441e-01) (2, 1.65457279687435010462e-01) (3, -5.86610971794407798363e-01) (4, -8.69544610717494670382e-01) (5, -1.11524694907305071956e-01) (6, 2.24079022259950688678e-01) (7, -7.24808278995894283980e-01) (8, -6.87202476972767397484e-03) (9, 4.38196995872208450162e-01) (0, 1.24977827072143554688e-02) (1, 8.42861661423943697713e-02) (2, 1.84784044243583960021e-02) (3, -1.78563047107602929087e-01) (4, 8.12563420476718062391e-02) (5, -1.07683131604612652987e-01) (6, 2.45768102910753460932e-01) (7, -5.43794042138491875993e-02) (8, -1.71277178984489270031e-01) (9, 6.44020080293334767907e-02) (0, 5.48800155520439147949e-02) (1, -4.63654676193365145043e-01) (2, 3.68328188817507173880e-01) (3, -4.08060915530665191397e+00) (4, 2.40760374132398569103e+00) (5, -1.80298411424631166433e+00) (6, 2.37447783590299277279e-01) (7, 2.21422513851661423301e-01) (8, 5.61736122362213152748e-01) (9, 1.25761638237615214209e+00) (0, -6.06778264045715332031e-03) (1, -3.00088909017876481755e+00) (2, 2.34026077760574668929e+00) (3, -3.40844093214357002353e+01) (4, -2.90776393246868991582e+01) (5, 6.63595494695933485474e+00) (6, 8.28438298305012310596e-02) (7, 1.46865353099958291239e+01) (8, 1.28358363022829047306e-01) (9, 7.63101608052123125958e+00) (0, -9.39207598567008972168e-02) (1, -5.75173837648268199835e-03) (2, 7.74550787561017611837e-02) (3, 1.11931341190731007545e-02) (4, -9.58133305097345844281e-01) (5, 5.15268668248641703578e-01) (6, -2.87001869673470730304e-02) (7, -3.47242074603518913190e-01) (8, -5.52019185354054447989e-03) (9, 2.58443256038097313176e-01) (0, 1.31522864103317260742e-02) (1, 3.04186122983839081144e-03) (2, 7.74503012942304169819e-02) (3, 7.07995697001179591368e-01) (4, -7.50951047293387796699e-01) (5, 2.84070795538308162875e-02) (6, -9.46831329932337095734e-01) (7, 2.06809773909339494891e-01) (8, 5.34413405149822162699e-01) (9, 1.06926882580699711411e-01) (0, -3.72691676020622253418e-02) (1, 1.94346197771266021581e-01) (2, -1.89890454208272996262e-01) (3, 6.09355498049019561613e-01) (4, 1.51887704068791595802e+00) (5, -1.68332081309155756621e+00) (6, -2.12292952549762797831e-01) (7, 9.62112151120025016482e-01) (8, 5.89182203659002409757e-02) (9, -4.68263959704035837017e-01) (0, -5.90396411716938018799e-02) (1, 1.33943605463090587016e-01) (2, -7.06805106553232143085e-02) (3, -1.50512033982388021558e-01) (4, 3.44930335771720733562e-02) (5, 6.94574291797407039617e-01) (6, 3.29801801088368873316e-01) (7, 2.48696569462984740095e-01) (8, -6.71512419126361059796e-02) (9, -1.75657074998712497971e-01) (0, 4.23553213477134704590e-02) (1, 1.71241436850203404552e-01) (2, -6.56225546830830758216e-02) (3, 5.34362416979818455331e-01) (4, 1.22093528640113357930e+00) (5, -1.87327051145762957240e+00) (6, -2.58359978533272915957e-01) (7, 7.19658962760146070359e-01) (8, 1.24232240637905153036e-01) (9, -2.78554782150156110543e-01) (0, 1.60163268446922302246e-02) (1, 1.53668793235167355782e-01) (2, 4.80061734512888596549e-02) (3, -6.80861416986729417467e-02) (4, -1.11597557686210979710e+00) (5, 1.91389329834149490850e+00) (6, 3.02923612065696179485e-01) (7, -1.29749609933968196307e-01) (8, 1.58007009581433537082e-02) (9, -2.09427745873536214072e-01) (0, -3.93095687031745910645e-02) (1, -8.84250378101879008774e-02) (2, 6.78792987383841084359e-02) (3, -7.68929677098736719110e-01) (4, -1.96220428751541287049e+00) (5, 1.49587493341537713931e+00) (6, 6.14498573016916460610e-01) (7, 9.96820045223421602465e-02) (8, -2.31802017844139562897e-01) (9, 4.09122197552896083028e-02) (0, 7.50740244984626770020e-02) (1, -4.49661595383034906614e-02) (2, 3.70959831594432423718e-02) (3, 5.74764206923460307941e-01) (4, 2.89692251417123132484e-02) (5, -8.77812191038798816933e-01) (6, -2.74337763450573701718e-01) (7, -1.22413251286688590236e-01) (8, -2.78157326099027657484e-01) (9, 1.90412222782514045649e-01) (0, -7.27692767977714538574e-02) (1, 8.96013088363437348871e-02) (2, -2.84577594949481510467e-02) (3, -1.66694645310789879566e+00) (4, 2.43965515334413307613e+00) (5, -2.71134485560151139438e+00) (6, -1.03593503761716290712e-01) (7, 2.29472287911320593778e+00) (8, 1.09908943801927797002e-01) (9, -1.77528670017478767962e-01) (0, -4.76900041103363037109e-02) (1, 1.44389979295792402619e-02) (2, -2.27999778479035008008e-03) (3, -7.98273014439494832395e-01) (4, 1.76378275570752673929e+00) (5, -1.77540377424111839311e+00) (6, 3.82868789572199053062e-01) (7, -2.70908990045627129373e-02) (8, 3.08263173966521808467e-01) (9, -6.82807172964336323018e-02) (0, -3.73648852109909057617e-03) (1, 1.07067863741982827186e+00) (2, -8.04694757606669086591e-01) (3, 5.25714087732668122754e+00) (4, -1.49160197468801203335e+00) (5, 4.80942831269343251677e+00) (6, -2.67500396363158587931e-01) (7, -7.40462513340150518815e+00) (8, -6.72701999618502632927e-01) (9, -2.89928665259190720960e+00) (0, -5.44304661452770233154e-02) (1, -6.71148662719132094168e-02) (2, 1.10265172269437800034e-01) (3, -1.74348052537092318426e-01) (4, 9.05608448019573769594e-02) (5, -6.91737427945930627438e-01) (6, -1.38345429719104046073e-01) (7, -3.74376868805595675038e-01) (8, -4.10456703586812743367e-01) (9, 2.67230873294945658891e-01) (0, 1.00494623184204101562e-02) (1, 1.04127413080578490323e+00) (2, -7.76555249813476899945e-01) (3, -8.65289708685504344032e+00) (4, 7.84430346728178129467e+00) (5, 3.06931491680724199966e+00) (6, 7.05379666195431132003e-01) (7, 6.09236649853505163321e+00) (8, -3.29404951622125685695e-01) (9, -2.48601368557545754356e+00) (0, -9.86290574073791503906e-02) (1, -4.17062100391509538166e-02) (2, 7.47477193639241588308e-02) (3, -7.18181100798866763751e-03) (4, -3.60422333223678337255e-02) (5, 2.39704977274098729456e-01) (6, -7.79425705012771891100e-02) (7, -1.62776329463064806102e-01) (8, -3.40888405139106509534e-01) (9, 3.72471502971730844544e-02) (0, -4.92118857800960540771e-02) (1, -1.60560422980751404953e-01) (2, 1.22596574085850743008e-01) (3, -2.34862698950888448834e+00) (4, 1.13203837823980091315e+00) (5, -8.56948409228601937215e-01) (6, 1.55424746667665569788e+00) (7, -2.03094657215225149471e+00) (8, 4.86986197709341969708e-02) (9, 4.24248326182051049837e-01) (0, 2.93650552630424499512e-02) (1, -4.48417243366401652160e-01) (2, 3.56542572010179192876e-01) (3, -3.13486805608401253309e+00) (4, 8.41574412392359194612e-01) (5, -3.11563692531501112981e+00) (6, -4.40210315126329965185e-01) (7, 7.36404417126768184865e-01) (8, 7.52222370049955402216e-01) (9, 1.34785052762654489200e+00) (0, -8.56901109218597412109e-02) (1, -9.13373226855935943513e-02) (2, 1.95896347607171061878e-01) (3, -8.08059430191148342359e-01) (4, 3.46771448832269113538e+00) (5, -1.78612363782597394213e+00) (6, -2.38066927130591854400e-01) (7, -5.03293243278333593538e-02) (8, -2.04465451684596705162e-01) (9, 5.28536091232179927601e-01) (0, -7.49484449625015258789e-02) (1, 4.22332906021010631714e-02) (2, -8.16973586226378140074e-02) (3, 8.59525103836039194860e-01) (4, 7.21015803550806855249e-01) (5, -9.22905202259955870225e-01) (6, -1.77912344232744878969e-01) (7, 4.69076547703483170970e-01) (8, -1.53690568683680639506e-02) (9, -2.63408489722312177950e-01) (0, -4.87152300775051116943e-02) (1, -2.39079277259396344446e-01) (2, 4.75634862053037621443e-02) (3, -5.19775368835188600336e-01) (4, -8.05485873621912817910e-01) (5, 1.77402086802969594093e-01) (6, -3.46022847647958903261e-02) (7, -6.32993675590087789828e-01) (8, -3.80922249391321410261e-01) (9, 4.29870586947512234310e-01) (0, 5.60002401471138000488e-02) (1, -7.73702830984578700940e-03) (2, -1.95572803101449789465e-02) (3, 5.56268793223436586182e-01) (4, 1.11334437592653623383e+00) (5, -1.41262754430862091937e+00) (6, -3.45261970069426826768e-01) (7, -1.01741634093650834547e-02) (8, -6.94860444036676239143e-02) (9, -1.17996044230055073532e-02) (0, -9.71473008394241333008e-02) (1, -3.26010541194151209909e-02) (2, 7.89390806908449593760e-02) (3, -4.60253555991020468774e-01) (4, -3.47356685421594313379e-01) (5, 5.29517313157828461989e-01) (6, 3.04027332578800935092e-01) (7, -3.63344754377136425205e-01) (8, 9.54082225162224406567e-02) (9, 4.57137565001296611311e-02) (0, -8.81545618176460266113e-02) (1, -6.86888085845529738904e-01) (2, 4.99692443418070897376e-01) (3, -8.61217642903816127387e+00) (4, 4.58778088673427220101e+00) (5, -4.17257939584004367006e-01) (6, -3.75729308024597474791e-01) (7, 2.93629868607816257864e+00) (8, -7.23169103098777577010e-01) (9, 1.48076003924883603524e+00) (0, 2.98786386847496032715e-02) (1, 1.77098151529732877885e-01) (2, 1.98927901797555858887e-02) (3, -9.46214117037897789464e-02) (4, 1.11997736406578751733e+00) (5, -2.24747210332199714999e-01) (6, 2.03002567305197757774e-02) (7, 4.87716912176337710760e-02) (8, -1.66956367287711238134e-01) (9, -2.34815830948164189218e-01) (0, 1.73854082822799682617e-02) (1, -1.41621574413632860673e-02) (2, 7.06185713150895844059e-02) (3, 7.95458884363951845842e-01) (4, 3.05391644118390193086e+00) (5, -1.99365778481313227211e+00) (6, -1.96237840097837623610e-01) (7, 1.33428371045691412933e-01) (8, 2.63907165365095536247e-02) (9, 6.29512957041069957931e-03) (0, 2.26157531142234802246e-02) (1, 1.08338141999173354080e-01) (2, -5.97518735092204683612e-02) (3, -9.93595031518177684848e-02) (4, 2.45109663302741087598e-01) (5, 4.76881758902338859230e-01) (6, -4.67935987653909854500e-02) (7, 3.29386129137976102488e-01) (8, -3.14610137648473967009e-02) (9, -1.22163174205733041089e-01) (0, 2.06298679113388061523e-02) (1, -5.79596499680768359464e-02) (2, 8.87529600470930851719e-02) (3, -2.44063531758063945176e+00) (4, 2.28317852571316093346e+00) (5, -3.00664776134412603525e+00) (6, -2.06278425197282788695e-01) (7, 2.34107394787967049155e+00) (8, 3.51739861413976201421e-02) (9, 2.61266073852709945768e-01) (0, -7.10253417491912841797e-03) (1, 1.21018873651658989687e-01) (2, 8.50473754121456974875e-03) (3, -2.01094116876657513782e-01) (4, 5.87159836221996966898e-01) (5, 5.90556034290483575222e-02) (6, -7.42336323201613600131e-03) (7, -2.46638664034622007160e-01) (8, 1.49220980931574653816e-01) (9, -1.51803442587051473645e-01) (0, -7.54630044102668762207e-02) (1, 7.95776049782046489278e-03) (2, -6.49005845551287388617e-03) (3, -6.07629209073441214906e-02) (4, 7.75942083758167866492e-01) (5, -7.68747158713368072824e-01) (6, -2.16828586936202946135e-04) (7, -2.35351385309807870083e-01) (8, -1.67278956646969095834e-01) (9, -5.50857285780149835697e-02) (0, 4.86644729971885681152e-02) (1, -4.24110341887282693563e-02) (2, -2.73179701476631286994e-02) (3, -1.59152860311048333086e-01) (4, 1.14446192830300130794e+00) (5, -1.46695832601661613204e+00) (6, 2.02288178305983806782e-01) (7, 5.84227790991961662415e-02) (8, -6.15752053849872443836e-02) (9, -6.12636776464407367682e-02) (0, -9.50188934803009033203e-02) (1, 3.43437462051909281335e-02) (2, -6.86171050369031865213e-02) (3, 1.43669288108825488059e+00) (4, -1.81315425259988338702e+00) (5, 8.56679517467669238151e-01) (6, -2.36605365367782960462e+00) (7, 2.30943003881077713046e+00) (8, 2.68351482334981152316e-04) (9, 4.30665800969998874281e-02) (0, -9.93976816534996032715e-02) (1, -1.49709496885111870146e-01) (2, 1.02105909205658693106e-01) (3, -5.92766108630681021197e-01) (4, -1.26887344957653902533e+00) (5, 1.97241209223114055682e+00) (6, 1.91713961608460048414e-01) (7, -6.84419713698773302113e-01) (8, 4.64334597638560234167e-02) (9, 1.91447890027291123261e-01) (0, 4.61279377341270446777e-02) (1, 1.89069034642867783713e-01) (2, -6.17624591937243616613e-02) (3, -3.96352394471259250608e-01) (4, 4.42799983082079129382e-01) (5, 1.08245457161529645695e+00) (6, 4.09296380845963647666e-01) (7, 3.88461501713855295037e-01) (8, 2.26739708965393652051e-02) (9, -4.32986364977475002291e-01) (0, -1.30869895219802856445e-02) (1, -7.68757921800402310719e-02) (2, 4.53410977382421725990e-02) (3, 2.72838515956597804646e-01) (4, -1.16799532616754642156e+00) (5, 9.78659393761202478501e-01) (6, -1.45898080892657461272e-01) (7, 1.07055710881588481143e-01) (8, -1.07152059149557277173e-01) (9, 1.31661619331762708152e-01) (0, -4.06712368130683898926e-02) (1, -9.76246005580701237125e-03) (2, 8.64579577467823601200e-02) (3, 8.08225814493674782346e-02) (4, 2.23245356103085323962e-01) (5, -8.05920542375216042430e-01) (6, -2.07300074381063348383e-01) (7, -4.37866685722345827525e-01) (8, 1.28135658355595483116e-01) (9, 1.53037782914688474944e-01) (0, -5.36167807877063751221e-02) (1, 1.90051920246367522793e-01) (2, -1.41399807878750255474e-01) (3, 1.05991489036497618659e-01) (4, 2.66974954460124580535e+00) (5, -1.97652035427309247240e+00) (6, 1.73663864791446354019e-01) (7, 1.25714515056499598344e+00) (8, -7.38589824547171425184e-02) (9, -7.71094693569466471672e-01) (0, -1.42622441053390502930e-02) (1, -3.98206678688997964266e-02) (2, -4.73240973308898249527e-02) (3, 1.11249719349441322791e+00) (4, -1.72697887563737362271e+00) (5, 2.43200266307934942489e+00) (6, 2.23640161643631520116e-02) (7, -8.80219361638971409256e-01) (8, -6.38883989562181037192e-02) (9, -1.44295529112219600432e-01) (0, 6.90250918269157409668e-02) (1, 1.34884987444973958315e-01) (2, -9.90676184529512143806e-02) (3, 1.91053980154121316737e+00) (4, 2.14780706355841122246e+00) (5, 7.40843578100973537692e-02) (6, 1.39435768085416600393e+00) (7, 9.18759842079157507122e-01) (8, 7.60100646324040618573e-01) (9, -2.41314790326511735552e-01) (0, 9.03945043683052062988e-02) (1, -1.71203579852170162390e-01) (2, 3.91693870344401451344e-02) (3, -5.86910424737425384656e-01) (4, -1.40497638202435526367e+00) (5, 1.14881781918974090750e+00) (6, -1.76337810913579536021e-02) (7, -4.27090767020399053600e-01) (8, -2.79701673210738577247e-01) (9, 4.67872208230602049106e-01) (0, -1.85416638851165771484e-03) (1, 2.78874544777365854231e-02) (2, -1.30632624661866258986e-01) (3, 1.69726818711730759182e-01) (4, -4.80065832537429904026e-01) (5, 1.10641169076558476547e+00) (6, -4.68997704996304692893e-02) (7, 1.95491789817109629102e-01) (8, 1.83607103620816586309e-01) (9, -1.64649046579468438800e-01) (0, -5.57597726583480834961e-03) (1, -1.42189645862119573572e-01) (2, 3.69272877242957237032e-02) (3, -5.94473908092261638103e-01) (4, -6.36363185383820306740e-01) (5, -1.29463854809636069731e-01) (6, 2.19851994832613445441e-01) (7, -9.20829476691874759808e-01) (8, -4.18392329895457201761e-02) (9, 4.20281749456073439042e-01) (0, 9.03036668896675109863e-02) (1, 2.34971719090712426181e-02) (2, 7.18814449679551908945e-02) (3, -1.11050609176642930964e-01) (4, 3.81719945949174288558e+00) (5, -2.50071860857892458441e+00) (6, -6.58192070057823652718e-01) (7, 1.12482790966698664725e+00) (8, -9.08398142644945005841e-02) (9, -5.04475725453694401335e-02) (0, 3.02686318755149841309e-02) (1, -1.65860830487022464785e-01) (2, 1.69865087599457204037e-01) (3, -1.78388656292594105501e+00) (4, 1.17318262425952046790e+00) (5, -3.27916032061093543071e-01) (6, 1.84541482442710247369e+00) (7, -2.54648723545721322736e+00) (8, -3.31632247767609578126e-01) (9, 4.19950828555133548470e-01) (0, -7.99819752573966979980e-02) (1, -8.55894440199370387656e-02) (2, 1.29115963636745906262e-01) (3, -5.80219227283905847337e-01) (4, -1.62623563858059494436e+00) (5, 1.71533889250519955283e+00) (6, 2.62990523145311072550e-01) (7, -7.30072671472571710360e-01) (8, -9.48438026059560540526e-02) (9, 4.16387910342640998884e-01) (0, -2.21657305955886840820e-02) (1, 4.19790469640214797264e-02) (2, -6.24887848670554954533e-02) (3, -1.88850315082860409355e+00) (4, 2.16163677291147093840e+00) (5, -2.88999124811001406599e+00) (6, -3.27457563893892189544e-01) (7, 2.69632424408216930800e+00) (8, 3.43402069547690924622e-01) (9, -5.74571249469388381503e-02) (0, 3.58745455741882324219e-04) (1, 8.77021105679795659471e-02) (2, 8.88655352150668348399e-02) (3, -2.80553411660983242903e-01) (4, 6.65738160624955388478e-01) (5, -1.50312682378903139657e+00) (6, 5.18736090786529824292e-01) (7, -6.66177296570929389219e-01) (8, -1.73738906957596139780e-01) (9, 1.14581603161301226468e-01) (0, 6.15832433104515075684e-02) (1, -9.83085923040922654570e-02) (2, 8.28489283207627241756e-02) (3, -2.47358297508943197895e-02) (4, 4.24068113543460245562e-01) (5, -9.01313244932299806322e-01) (6, -2.39061504736435170848e-01) (7, -4.55401005032536221329e-01) (8, -2.03241923393365359063e-01) (9, 1.37189870736102254023e-01) (0, -4.54689525067806243896e-02) (1, 2.17645837508250561410e-01) (2, -1.96313538508491119972e-01) (3, 2.82132285926663173292e-01) (4, 5.96418586726069066550e-01) (5, 6.91870970923137207365e-01) (6, 2.46139047619201328798e-01) (7, 9.17230256735746096730e-01) (8, 5.51090090023924616958e-02) (9, -5.11253185924187225631e-01) (0, -5.62651753425598144531e-02) (1, -2.97582166848331386433e-02) (2, 2.59912269158326034169e-02) (3, 1.71511079122269843866e-01) (4, 7.88218505721064222058e-01) (5, -1.60405837952944829716e+00) (6, -2.76916205322394692878e-01) (7, -5.52496600296739984182e-02) (8, 3.66926983184914012881e-01) (9, 6.01107335234030357163e-02) (0, 3.41810286045074462891e-04) (1, 2.34319395385913481489e-01) (2, -1.14760271506576860823e-01) (3, 9.99202934036092088599e-02) (4, 3.00864396289905466908e-01) (5, 1.07426326166996122247e+00) (6, 1.32272659205839110408e-01) (7, 6.38238768056019312169e-01) (8, -1.81671136507103703206e-01) (9, -3.97636746522730288866e-01) (0, -8.75581428408622741699e-02) (1, -3.87187063774341658218e-02) (2, 2.09009040207435992098e-02) (3, -6.97518884937436633997e-01) (4, -7.68747342281589696178e-01) (5, 6.59614445392620263320e-01) (6, 4.11953231912181527807e-01) (7, -1.88623938637624111170e-01) (8, 9.94891954862510835556e-02) (9, 1.71006169190264872837e-01) (0, -9.00598242878913879395e-02) (1, 1.52100498091903620773e-02) (2, 1.23432416497750274686e-01) (3, 5.77997398126191663792e-01) (4, -9.66014603269501503924e-01) (5, 4.51801172141704565632e-01) (6, -5.68247272600804098630e-01) (7, 3.09163455858573910096e-01) (8, -1.93462320856793795754e-01) (9, 2.39879523810766992487e-01) (0, 6.92519769072532653809e-02) (1, -2.74395206555712173335e-02) (2, 4.36000700283466838258e-02) (3, -1.18666553488622827928e+00) (4, 1.67459377224798933170e+00) (5, -1.75538111683146591524e+00) (6, 3.64971938223628278308e-01) (7, -1.00244580003573013904e+00) (8, 6.74276128394796447907e-01) (9, 2.39835730191150287016e-01) (0, -3.95766571164131164551e-02) (1, -6.16502185212319739338e-02) (2, -1.12279713491408011244e-02) (3, 3.17978144691875019845e-01) (4, -1.62845322897090000192e-01) (5, 2.90720559216385669721e-02) (6, 2.06394886296377255697e-01) (7, 2.42437625395626660252e-01) (8, 1.71494981300811429048e-02) (9, -7.98228558036441632195e-02) (0, 9.74100902676582336426e-02) (1, 3.74049416012620225200e-03) (2, -1.61991657378281368740e-02) (3, 1.77293812338963309091e-03) (4, 8.84164771411607985918e-02) (5, -2.62189509007613341662e-01) (6, 1.86377335431085061623e-01) (7, 3.27870224690605005513e-01) (8, -9.72734398745444400758e-02) (9, -6.65748916136809764516e-03) (0, -2.52914428710937500000e-02) (1, 4.88506057715260150198e-02) (2, 1.07875661136707843256e-03) (3, -3.96886798147562280814e-01) (4, -9.06351290524519903613e-01) (5, 1.12667468257089686823e+00) (6, 4.85237601572029941810e-01) (7, 2.00687609211685241695e-01) (8, 5.36217470261646442231e-02) (9, 6.30421504736692339677e-02) (0, 9.56638902425765991211e-03) (1, 1.48388957197471782479e+00) (2, -1.15374139111533047242e+00) (3, -1.43362642357445713159e+00) (4, 3.93247702995043235674e+00) (5, -2.01316010560706626364e+00) (6, -5.67651810777588194945e-01) (7, 1.16799709367013948569e-02) (8, -5.96784293097593510069e-01) (9, -3.86153621512176981057e+00) (0, -8.43167230486869812012e-02) (1, 1.05385768353443681766e-01) (2, -1.46465006765207159806e-02) (3, -2.84047324559582536896e-01) (4, -4.43814444167075994319e-01) (5, 1.54094025018148261807e+00) (6, 2.43942362768738402190e-01) (7, 1.79616693935699650586e-01) (8, 6.65322120502320341062e-02) (9, -2.99085281639179023649e-01) (0, 2.03289836645126342773e-03) (1, 3.22335627817869826983e-02) (2, -5.08900353419571016556e-02) (3, 4.22728254768111599837e-01) (4, -3.99297183613051331896e-01) (5, 3.13601093737670144623e-01) (6, -2.11592917173215738780e-01) (7, 5.41527915284738536883e-01) (8, -1.50638601897612023350e-01) (9, 4.31653119266379933783e-02) (0, 2.24554389715194702148e-02) (1, 1.17832363389571814771e-01) (2, -6.03151867111455450288e-02) (3, 4.70425355558993563143e-01) (4, 3.77778921984364080000e-01) (5, -1.12199331581317829354e+00) (6, -4.65464767533547540967e-01) (7, 2.55470884350490923254e-01) (8, 7.28575572981601582434e-01) (9, -1.93433454242004476686e-01) (0, -7.15106800198554992676e-02) (1, 1.11967382149353728016e-01) (2, -9.67217496160296674734e-02) (3, 2.88924458660368477236e-01) (4, 4.53741117264120918939e-01) (5, -5.63804163773678146399e-01) (6, -4.85156555505431366648e-02) (7, 2.46427432667296025803e-01) (8, 1.05154815183526775813e-01) (9, -9.45106529108504789249e-02) (0, 8.79940763115882873535e-02) (1, 1.61084635399381503884e-01) (2, -1.76839829119036145988e-01) (3, -1.38291083229879319116e-01) (4, 3.39942180111351188732e-01) (5, 5.02520986459805918400e-01) (6, 2.96642852722106775687e-01) (7, 3.06380065208827212508e-01) (8, 2.51461176748363324229e-01) (9, -2.58462294545435788962e-01) (0, -6.42618387937545776367e-02) (1, -1.79378493945321182412e-01) (2, 9.77914998833261106537e-02) (3, -6.51034458220094092162e-01) (4, -6.97318343828034925558e-01) (5, -4.00235954915783953556e-01) (6, 1.38247734273274480027e-02) (7, -8.14826309347461141819e-01) (8, 2.32980936134418890535e-03) (9, 5.33646917146043398006e-01) (0, -8.42070430517196655273e-02) (1, -9.47741535995581391161e-02) (2, 8.80386972944326579027e-02) (3, -1.02902964924583659179e-01) (4, 3.82821271895788406425e-01) (5, -9.77313086256433427579e-01) (6, 1.93602377690462096327e-01) (7, -3.55228577296766989679e-01) (8, -1.62964965508178766251e-01) (9, 6.69989691906957979262e-02) (0, 7.65575096011161804199e-02) (1, -4.46145992587141937413e-02) (2, -1.54453042067406627613e-02) (3, 2.25971705318713383948e-01) (4, 5.69852932121949762312e-01) (5, -6.33359414086514638242e-01) (6, -2.02370991888874834919e-03) (7, -1.15649836792317186468e-02) (8, -3.00093484469715454654e-01) (9, -5.71533972744617743689e-02) (0, -4.12921495735645294189e-02) (1, 2.11787481578012207195e-02) (2, -1.42551724573335536483e-01) (3, -3.18985943245307268512e-01) (4, 1.60630649857237139955e+00) (5, -1.94633654481433193695e+00) (6, 1.92231406004127108877e-01) (7, 5.39477559415658891595e-01) (8, -2.53156897971335385911e-02) (9, -1.35813352831119782405e-01) (0, 7.86741599440574645996e-02) (1, 1.13436574870630232925e-01) (2, -8.34082636119845843847e-02) (3, 2.51345863835513050333e-01) (4, 4.48093549339836416667e-01) (5, 3.84201161621125386603e-01) (6, 2.52356503807784460225e-01) (7, 4.35588767357013295634e-01) (8, 1.87106562215740512833e-01) (9, -4.01205555558812598793e-01) (0, 4.71169427037239074707e-02) (1, -2.98844870501993251088e-02) (2, 1.53122970144570040574e-02) (3, -1.75268109753829381958e+00) (4, 1.95969336422612849802e+00) (5, -1.38327519413604371756e+00) (6, 1.33246707576852729815e+00) (7, -1.82351568933748797718e+00) (8, 3.11392468860976490141e-01) (9, -5.02704651221734036270e-02) (0, -3.06050851941108703613e-02) (1, 8.34336190946951827829e-02) (2, 4.37561881148778933359e-02) (3, 1.45290985410725548288e-01) (4, -5.14535942504244836471e-01) (5, 1.33765546776833144094e+00) (6, -3.34232613107818099518e-01) (7, 2.11387093486688659727e-01) (8, 1.59395979196739201456e-01) (9, -1.14359389873371075641e-01) (0, 5.92101737856864929199e-02) (1, 1.46084452974744099726e-03) (2, 4.70278467752808290031e-03) (3, -1.16447230847760319072e-01) (4, 3.10307271853786481586e-01) (5, -5.84379361470245162202e-01) (6, 3.19121028385656343280e-05) (7, -1.13587475720770172960e-01) (8, 8.55819590407026244139e-03) (9, 5.19735881361104573584e-02) (0, -5.37912398576736450195e-02) (1, 1.01085105698655669526e-01) (2, -1.81896345029553228867e-02) (3, 3.89131050137796197230e-01) (4, -6.95451704231876077777e-01) (5, 1.30649603699798522172e+00) (6, 1.17032881798434795773e-02) (7, 4.74285659967878414633e-01) (8, 1.40217743449671639056e-01) (9, -2.78042305661691135921e-01) (0, 4.71547767519950866699e-02) (1, -1.38164290477676288127e+00) (2, 8.87600058241406864035e-01) (3, 1.12589056151223698699e+00) (4, -2.78213650385847754976e+00) (5, 1.62326073512377533348e+00) (6, 3.84954154864804720670e-01) (7, -3.24137872685656969196e-02) (8, 7.06899706968380003858e-01) (9, 3.34310377363910449233e+00) (0, 3.03222313523292541504e-02) (1, -8.55941150379973758611e-01) (2, 6.54695437321668127773e-01) (3, -5.38753552742516461649e+00) (4, 3.16913023945526717284e+00) (5, -3.90722769720229079482e+00) (6, -1.04272108310808589438e-01) (7, 5.05796434298304209420e+00) (8, 8.16149283542719428119e-01) (9, 2.16748643490859738137e+00) (0, 1.87289491295814514160e-02) (1, 7.39642428728387729686e-02) (2, -2.12845185676571631295e-02) (3, -3.18535690482547928504e-01) (4, -6.25334738972993742223e-01) (5, 1.05919852318123952628e+00) (6, 1.27750039529006931271e-01) (7, 2.10559347238601285435e-01) (8, 2.96858659677637637397e-01) (9, -4.50699260762026515659e-02) (0, 7.28861764073371887207e-02) (1, 3.30300669650979372705e-01) (2, -3.96898294449191779698e-01) (3, 4.71460441653777362347e+00) (4, -2.64416765130344133539e+00) (5, 2.87338465357067596173e+00) (6, 3.18310202299806555004e-01) (7, -1.44830479720281357636e+00) (8, -5.10573913544920654495e-01) (9, -1.12606511334731540508e+00) (0, 7.47033283114433288574e-02) (1, 6.97992196574995227287e-02) (2, -2.20648628395130018409e-02) (3, -1.18283164954780817268e+00) (4, 1.32874651144139099834e+00) (5, -1.11412235043405849488e+00) (6, 1.06232898816418974697e+00) (7, -9.63449449355875731094e-01) (8, 3.25464979611456650677e-01) (9, -1.46652338627735551180e-01) (0, -4.77789342403411865234e-03) (1, -1.28869978486674918727e-01) (2, -1.09596826887189413569e-02) (3, -3.10407708243170654683e-01) (4, -6.53469193159222250245e-01) (5, 6.83810690997894488063e-01) (6, 1.65601431467651910578e-01) (7, -1.50723480657468961175e-01) (8, 4.45017484430620877123e-02) (9, 8.96400645355035774475e-02) (0, 5.16082569956779479980e-02) (1, 2.20683383121182928599e-02) (2, -4.76777752618550293429e-02) (3, 2.19078107493707457953e-01) (4, -3.74038695997573500396e-01) (5, 3.26035587946017946237e-01) (6, 1.09209961404542033048e-01) (7, 2.01235824439393889973e-01) (8, 2.00612087244709469402e-01) (9, -4.47898847793618687385e-02) (0, -9.56869944930076599121e-02) (1, -9.53755319913122456832e-01) (2, 6.44444531425722777485e-01) (3, -8.28972768289749417647e-01) (4, 7.26477089059234515389e+00) (5, 5.32070069976880066775e+00) (6, 1.13623815619993906445e+00) (7, -1.37998556777275327434e+00) (8, 1.06936418722409287696e+00) (9, 2.47061756079325167690e+00) (0, 7.38317146897315979004e-02) (1, -1.77122372564698732367e-01) (2, 2.48402204869039300306e-01) (3, -1.45892364518802586382e+00) (4, 1.37846528512599508787e+00) (5, -2.89023746300713346713e+00) (6, -3.91793142277115036265e-01) (7, 4.31905853330423361580e-01) (8, 2.98627913169951575423e-01) (9, 7.63335507802735513394e-01) (0, 7.91762396693229675293e-02) (1, 4.07412410465311375374e-02) (2, -3.67764276912622718047e-03) (3, -7.00783970932876809634e-01) (4, 1.17915004165119974289e+00) (5, 9.49144159349130656089e-01) (6, 5.95047444472934006221e-01) (7, -2.72980807321874596738e+00) (8, -1.07343865019723250925e-02) (9, 7.99149235866526835848e-02) (0, -3.55543494224548339844e-02) (1, 9.00753233359726651619e-02) (2, -4.59819797623810602727e-03) (3, -7.71636869877082354208e-01) (4, 1.56741505532783875765e-01) (5, 1.61018657817524291076e+00) (6, 4.96133382465564765074e-01) (7, -5.15660142060085147087e-01) (8, -1.71595830511479752190e-01) (9, 2.11613728288777384889e-02) (0, -8.38273465633392333984e-02) (1, -4.80242603310152393892e-01) (2, 3.28617705619579869580e-01) (3, -3.03227253506407612438e-01) (4, -2.26668771406364788490e+00) (5, 2.11293333904547120383e+00) (6, -2.45281412848793511916e-01) (7, -1.59506499658250877616e+00) (8, -1.60693611264224905932e-01) (9, 1.09502255739826903636e+00) (0, -4.12965603172779083252e-02) (1, 6.66689154208511158828e-01) (2, -3.90102698803566239061e-01) (3, 5.70542474658111853358e+00) (4, -3.47670227472133541724e+00) (5, 1.64613246394238021963e+00) (6, -2.82341699762759079650e-01) (7, -4.93284633811309769502e-01) (8, -2.25480275380107758609e-01) (9, -1.40208190232702389899e+00) (0, -8.12154784798622131348e-02) (1, -1.09392855761506160861e-01) (2, 9.80739643410088179909e-02) (3, -6.90361845144274316466e-02) (4, 5.17745240719321930811e-01) (5, -1.27397748700519719556e+00) (6, -4.21838356054325458455e-01) (7, -5.54533518838452810229e-01) (8, -4.66908882703840483197e-02) (9, 2.68543414021613191522e-01) (0, 3.86905595660209655762e-02) (1, 3.67447346380224693085e-02) (2, -3.02913407315122797190e-04) (3, 7.99622762073897486168e-01) (4, -3.92253767944510833843e-01) (5, 8.51025605210767727149e-02) (6, -5.28298140566787033379e-01) (7, 4.93922806909198097713e-01) (8, -1.67203894415642623228e-01) (9, 4.29540462963536665009e-02) (0, -1.73374861478805541992e-02) (1, -3.82125828904804232256e-01) (2, 3.33912759455281260568e-01) (3, -3.36978631911851600478e+00) (4, 1.61731691675253208551e+00) (5, -1.10073397397896344252e+00) (6, 1.49759132289920993131e+00) (7, -3.00264752379976496144e+00) (8, 2.30058912423411671133e-01) (9, 9.26214683162451923870e-01) (0, 9.55997407436370849609e-03) (1, 1.67828079460593908301e-03) (2, -1.16066253940731084482e-01) (3, -1.25159142619863855694e-01) (4, 6.15168541799166135320e-01) (5, -4.81858495227843852682e-01) (6, -2.41981404492437462972e-01) (7, -3.27078559592384410237e-01) (8, 1.55250837950356324058e-01) (9, -5.96399853974210122920e-02) (0, 3.20987403392791748047e-03) (1, 1.38377021872982314266e-01) (2, -1.03474284428354351695e-01) (3, 6.20019701001326084544e-01) (4, 9.98514593532826899569e-01) (5, -9.00503774361427922202e-01) (6, 1.70183630818665533602e-02) (7, 2.90663690939340912944e-01) (8, -2.36081581671307577652e-01) (9, -1.74660594821054948600e-01) (0, 1.72826424241065979004e-02) (1, 4.09772487271819543797e-02) (2, -4.27829710237087879054e-02) (3, -1.12566069037337429526e-01) (4, 7.65983523720204506624e-01) (5, -8.79788792011149900496e-01) (6, -4.18379091690577256668e-02) (7, -1.78608605705962208976e-01) (8, 3.12214021970411738371e-02) (9, -1.28015619489528949260e-02) (0, 3.76641824841499328613e-02) (1, 2.02697719459592438918e-02) (2, 1.23225239640063780056e-01) (3, 3.20295654587477940378e-01) (4, -9.55900937630000946399e-01) (5, 4.55642534182028047240e-01) (6, -3.51090546601338315824e-01) (7, 2.70192440597281716141e-02) (8, -2.23359174283559863694e-02) (9, 2.19241147159223603857e-01) (0, 9.24466922879219055176e-02) (1, 8.29259364549739946826e-02) (2, -1.08580340351535867272e-01) (3, -2.10255141591900007736e-01) (4, 2.75124678851851434125e-01) (5, 1.01767025627226237461e+00) (6, 2.25184402221891732943e-01) (7, 3.73833406892683239864e-01) (8, -1.57597065856869750222e-01) (9, -3.13320815251492579279e-01) (0, -8.71053114533424377441e-02) (1, 7.07603165097877684353e-01) (2, -5.85312423175581297841e-01) (3, 1.84342938836450676021e+00) (4, -5.44925958688964851007e+00) (5, -8.10920771493943037811e-01) (6, -3.89574118411435899034e+00) (7, 4.83270060893805730728e+00) (8, 1.70761380731698997337e-01) (9, -1.68258181484551028184e+00) (0, -9.27319079637527465820e-02) (1, 7.80101920693837963539e-02) (2, -9.07455109453880609527e-02) (3, 1.72839002953778608784e+00) (4, -1.01585599260740244709e+00) (5, 1.13186473159720835113e+00) (6, -1.27393007615429199042e+00) (7, 1.20057686935079210855e+00) (8, -1.75508193841047932526e-01) (9, -1.46635669104551141784e-01) (0, 6.25240579247474670410e-02) (1, -4.83751284171684614588e-01) (2, 4.21985353968762744170e-01) (3, -6.01378000432404036246e+00) (4, 3.59402316450855874308e+00) (5, -1.95781958034445713324e+00) (6, 5.04165196315112695835e-01) (7, 1.09668181704338696392e+00) (8, 1.20889809480862239766e-01) (9, 1.27492869791751761710e+00) (0, -2.92486548423767089844e-02) (1, 2.73698942842786965834e-02) (2, -2.97531803684554299605e-02) (3, -3.12559414008104996530e-01) (4, 4.03259073746788598847e-01) (5, 1.05728221408091974109e-01) (6, 4.35949120500221276586e-01) (7, 2.97215388528333568363e-01) (8, 2.35413560138055359683e-02) (9, -1.97817538425953426406e-01) (0, 9.08857062458992004395e-02) (1, -5.22838076069511159538e-02) (2, 4.18265873651776573516e-02) (3, -1.27674697178518603558e+00) (4, 1.46283862305739553733e+00) (5, -3.05067070139558270403e-02) (6, 1.68879176686774923333e+00) (7, -1.79161674741343790451e+00) (8, -1.59629490326457595950e-01) (9, -1.04785781946333145243e-01) (0, -7.03617781400680541992e-02) (1, -6.31590097894900726061e-01) (2, 4.25240739994264871360e-01) (3, -6.54634004561696070112e-01) (4, -1.84008071537928974415e+00) (5, 1.61318200975633119221e+00) (6, 2.64662027373088692972e-01) (7, -2.65378222906575178541e+00) (8, 4.92436582891286125929e-02) (9, 1.33471191612533091053e+00) (0, 2.65222117304801940918e-02) (1, 1.12588280753980432558e-01) (2, 2.07232595855565554510e-02) (3, 4.42089262190427600974e-01) (4, 2.69787671231365933089e-01) (5, 2.98315535598034156650e-02) (6, 5.32453480017190464157e-02) (7, 3.92820233720308553682e-01) (8, 9.82168228447879848586e-02) (9, -2.41326299351194012432e-01) (0, -3.91583144664764404297e-03) (1, -1.96964078687154986458e-01) (2, 4.37648546266821286688e-02) (3, 2.06088027491868719387e-01) (4, -1.73063217609849634426e-01) (5, -1.25256715898182346969e+00) (6, -2.61213262925940825632e-01) (7, -7.39550771921983596258e-01) (8, 4.64850635483892660194e-01) (9, 3.62446157988037309661e-01) (0, -9.61783155798912048340e-02) (1, -4.18921088179311951194e-01) (2, 2.82745713368394768761e-01) (3, 5.96213730780720818636e-01) (4, -2.13377399123197841746e+00) (5, 2.13909812815871669400e+00) (6, -5.58113373300579973524e-01) (7, -1.59201323295503915922e+00) (8, -1.73340969764562174982e-01) (9, 8.62788425138654835322e-01) (0, 1.62250176072120666504e-02) (1, 6.95713869739356005617e-01) (2, -5.89572105190934614427e-01) (3, 2.26926893758614495189e-01) (4, 2.99172236475440067593e+00) (5, -1.19096468679111522349e+00) (6, 8.13830628904589570283e-01) (7, 2.83944087884943963118e+00) (8, 4.54936683260244445481e-01) (9, -1.86548345786530944679e+00) (0, -2.81903818249702453613e-02) (1, -1.23098020553063194904e-01) (2, 5.08430188890424614168e-02) (3, -8.51377506015015828034e-02) (4, -4.07599607675320829703e-01) (5, -4.17425577236142375526e-01) (6, -5.61036420323051676640e-02) (7, -3.32232029526604022429e-01) (8, -6.81895819672673642736e-03) (9, 2.63315264879367405548e-01) (0, -1.48982703685760498047e-02) (1, 1.18488948257618853521e-01) (2, 5.11407641978060406585e-02) (3, -4.37325358078244408322e-01) (4, 1.13962378526352470232e+00) (5, -1.19154059453117988632e+00) (6, 4.82597082078559891372e-01) (7, -4.09638769289509818705e-01) (8, 1.36412174252222406778e-01) (9, -1.08665556241709357344e-01) (0, -9.81008112430572509766e-02) (1, 3.15707242173734886626e-02) (2, 1.09162029573122945636e-01) (3, 9.35439118174348355206e-02) (4, -1.57363973709642779308e-01) (5, 7.34027310252746978403e-02) (6, -3.00168403270257122539e-01) (7, -4.25349209285644236367e-01) (8, 1.33264255434963313496e-01) (9, 5.51239349735868633395e-02) (0, -2.18060687184333801270e-02) (1, -2.13819868753799102734e-01) (2, 1.78129346959704504272e-01) (3, -1.52792169096605284784e-01) (4, 2.29229018537067785743e-01) (5, -1.28636821385864030809e+00) (6, -1.80167882814130236868e-01) (7, -3.55150532796219886578e-01) (8, -3.24856570757955931406e-01) (9, 3.91394700583124866000e-01) (0, -1.58190429210662841797e-02) (1, 1.24674447442062977243e-01) (2, -1.10239195126997965857e-01) (3, -3.65394642171530947827e-01) (4, -1.16262067830586279804e+00) (5, 2.27190749397782987273e+00) (6, 3.90479184281729674311e-01) (7, -1.80574193540434968508e-01) (8, 9.15653460408028842255e-03) (9, -2.53106055321535794445e-01) (0, -6.77886530756950378418e-02) (1, 9.60582837427652186379e-02) (2, -1.33659639951919040346e-01) (3, 4.03803256582461078672e-01) (4, 7.56834296303988907084e-01) (5, -2.61811712289564901823e-01) (6, 3.07886388480020783964e-02) (7, 4.22417098144363012402e-01) (8, 1.15376453287214603138e-01) (9, -3.36849398902173247095e-01) (0, 7.17709288001060485840e-02) (1, 1.40985774813382591653e-01) (2, -1.44256051866931994665e-01) (3, 4.27167598377006796362e-01) (4, -3.40108567008050100000e+00) (5, -4.78919959765480407476e-01) (6, 4.70427390292014468987e-01) (7, 1.84240052776143481417e+00) (8, 2.32223469349992460431e-02) (9, -6.64847280378916938304e-01) (0, -7.94100612401962280273e-02) (1, -1.73242637536562604783e-01) (2, 1.69819458590234922957e-01) (3, -5.72916744140028355581e-01) (4, -1.21078161552068386264e+00) (5, 3.36136301242623114494e-01) (6, -3.34172558332829938710e-01) (7, -2.07468419413081639480e-01) (8, -1.11226598627295128474e-01) (9, 4.20374929958830245713e-01) (0, 5.82989677786827087402e-02) (1, -5.54255687298457686008e-02) (2, 5.27010145114699679603e-02) (3, 1.15219870828471709912e-01) (4, 6.49287139690025494332e-01) (5, -8.26894779972357607534e-01) (6, 2.40414307650162403784e-02) (7, -3.58354888301313623256e-01) (8, 1.17944968539079708680e-01) (9, -1.32346412017413095352e-01) (0, -4.25356701016426086426e-02) (1, -1.70417167452792187032e-02) (2, -1.31733929583108828193e-02) (3, 1.03854848572646329963e+00) (4, -1.22905559880174197751e+00) (5, 1.04652820773618016048e+00) (6, -9.16254463988239398198e-01) (7, 1.06916362592965730194e+00) (8, -1.81239629977126004423e-01) (9, 1.12726969696091708362e-01) (0, -5.49411773681640625000e-03) (1, 1.67960156171648805623e-01) (2, -9.02371977946422008932e-03) (3, 1.02689163732954270164e-02) (4, 4.21915959188950556724e-02) (5, 7.52545908456718981583e-01) (6, 2.07278226883254174107e-01) (7, 2.90280816342222858228e-01) (8, 2.17557277849460606323e-01) (9, -2.79602735412843639295e-01) (0, -9.07572656869888305664e-02) (1, 2.02112355799993592687e-01) (2, -1.09367528164015972991e-01) (3, -1.18126856986482231537e-01) (4, 2.45408031918826707862e-01) (5, 1.15678842505380541361e+00) (6, 2.94587977151047841762e-01) (7, 7.17627215874341639612e-01) (8, 1.56373276588415016652e-01) (9, -4.55675251711170847813e-01) (0, 3.02918925881385803223e-02) (1, 5.59297590498683827587e-02) (2, 9.16591723229640692461e-02) (3, 1.02816569824544967737e+00) (4, -4.42876790877121839785e-01) (5, -3.65807167866091242914e-01) (6, -9.82501345673923331958e-01) (7, 6.04730081896971638500e-01) (8, 2.26305255490118067963e-02) (9, 7.78996089982714745581e-02) (0, 2.57293209433555603027e-02) (1, -1.18657465793318969705e-01) (2, 1.25988897067404754387e-02) (3, -6.26812493305913820407e-01) (4, -1.06726541346252967735e+00) (5, 1.72104331099685059492e+00) (6, 4.96433239384390878612e-01) (7, -1.83650185372619428881e-01) (8, -2.21614655842330449120e-01) (9, -1.27731176276796743602e-02) (0, -3.86197641491889953613e-02) (1, -9.50755045434873713450e-02) (2, 9.69829300881153433256e-02) (3, 2.55694693737252398691e-01) (4, 2.87396512962117711698e-01) (5, -7.75496230615900117300e-01) (6, -1.82723122920827096838e-01) (7, -1.98063171225958095656e-01) (8, -8.81355340445275775574e-02) (9, 4.53261790476656017956e-02) (0, 5.91692551970481872559e-02) (1, -5.01134442940024370239e-03) (2, -5.06071880634123838494e-02) (3, 1.89495337739101543661e-01) (4, -2.35025717656402927114e-01) (5, -2.58679732737413625721e-01) (6, 1.14934868333131490203e-01) (7, 2.48406343134901508307e-01) (8, -2.38799675324942839438e-01) (9, 1.26495641908372785656e-01) (0, -4.01209294795989990234e-02) (1, 5.61477358681135366170e-02) (2, -4.55023277865566639494e-03) (3, 1.23739723945516674752e-01) (4, -1.52874509260604862781e-01) (5, 4.35474963042372709143e-01) (6, -1.47936298014302414217e-01) (7, -7.41681496524514149993e-03) (8, -4.71250427132486049420e-02) (9, -5.60353334295469757836e-04) (0, 4.44377958774566650391e-03) (1, 1.60138106901844601282e-01) (2, 2.04461857233990546012e-02) (3, 9.69275844538037500975e-01) (4, 5.96289289754227458396e-01) (5, -1.35475583674084543162e+00) (6, -3.89211495786203953706e-01) (7, 3.65978971787364826262e-01) (8, 4.65371928606596485523e-01) (9, -2.84424518692994399149e-01) (0, 1.33752599358558654785e-02) (1, 7.82924284464340536349e-02) (2, -6.30649104165218431228e-03) (3, 3.05823984753616051613e-01) (4, 1.45677745288552884517e+00) (5, -1.21268249056875987435e+00) (6, -7.35477831099967255257e-02) (7, 2.07833084239505694324e-01) (8, -1.06933471171591118476e-01) (9, -2.11247210682999841946e-01) (0, 9.50826704502105712891e-03) (1, -1.04697874668583976177e-01) (2, 1.57834637786063262943e-02) (3, -4.52585999592338084074e-01) (4, -4.87573893373690780972e-01) (5, 2.58640650214961298481e-01) (6, 8.02030347511184793508e-02) (7, -4.85721477605368434638e-01) (8, 2.58219969808589244753e-01) (9, 1.75947496005186582169e-01) (0, -4.93439622223377227783e-02) (1, -1.51596975086046942272e-01) (2, 7.26346889569552262023e-02) (3, -2.37346472622465443081e-01) (4, 8.28741354608405256243e-01) (5, -1.92286026179987157292e+00) (6, -3.28862674112323505327e-01) (7, -1.08047162964414619757e-01) (8, 1.28028973706186488535e-01) (9, 4.21392391766060303571e-01) (0, 7.28543028235435485840e-02) (1, -1.65540797262658301303e-01) (2, 1.53313709417349994246e-02) (3, -5.40923162905432630687e-01) (4, -4.55011876009217053340e-01) (5, 2.28742796302429940436e-01) (6, 2.84064291106541300103e-01) (7, -2.01504021436549052293e-01) (8, 1.28062320023724446338e-01) (9, 1.17635073138401602399e-01) (0, 4.89525273442268371582e-02) (1, 2.28840269745708840832e-02) (2, -8.50608913675997974080e-02) (3, 3.75811779377367094490e-01) (4, 5.25844344716774769743e-01) (5, -3.17260571104797883812e-01) (6, 4.35347210263998474211e-01) (7, 5.17122759288362598973e-02) (8, 3.11264341769686592176e-01) (9, -2.98978740498759165689e-01) (0, -2.20698565244674682617e-02) (1, -2.62447549273203337150e-02) (2, 9.75794571168507596237e-02) (3, 3.39817556067147363841e-02) (4, -1.72197254106851072031e+00) (5, 2.00676950285208999247e+00) (6, 4.07403232673857251811e-01) (7, -4.39570503013490210265e-01) (8, -1.59799880391537252322e-01) (9, 1.43246870164238562090e-02) (0, 4.32201698422431945801e-02) (1, -1.65800832179853578630e-02) (2, -4.10595828691415823397e-02) (3, -2.35931992015096708704e-01) (4, 3.17595684376010212180e-01) (5, -1.76341938052745672572e-01) (6, 1.10178544495533284331e-01) (7, -3.29223820198012329108e-01) (8, -2.64314288978732492286e-01) (9, 4.78904042312653238644e-02) (0, -4.24406044185161590576e-02) (1, 1.07200506739921819221e-01) (2, 7.28970386735038750059e-02) (3, 5.13874442153592014826e-01) (4, 7.79732922617980883651e-01) (5, -1.33998329791550774281e+00) (6, -1.50436711824849272956e-01) (7, 1.08436933750052796888e-01) (8, -3.77652604763533822352e-02) (9, 