FANN_FLO_2.1
num_layers=3
learning_rate=0.000050
connection_rate=1.000000
network_type=0
learning_momentum=0.000000
training_algorithm=2
train_error_function=1
train_stop_function=0
cascade_output_change_fraction=0.010000
quickprop_decay=-0.000100
quickprop_mu=1.750000
rprop_increase_factor=1.200000
rprop_decrease_factor=0.500000
rprop_delta_min=0.000000
rprop_delta_max=50.000000
rprop_delta_zero=0.100000
cascade_output_stagnation_epochs=12
cascade_candidate_change_fraction=0.010000
cascade_candidate_stagnation_epochs=12
cascade_max_out_epochs=150
cascade_max_cand_epochs=150
cascade_num_candidate_groups=2
bit_fail_limit=3.49999999999999977796e-01
cascade_candidate_limit=1.00000000000000000000e+03
cascade_weight_multiplier=4.00000000000000022204e-01
cascade_activation_functions_count=10
cascade_activation_functions=3 5 7 8 10 11 14 15 16 17 
cascade_activation_steepnesses_count=4
cascade_activation_steepnesses=2.50000000000000000000e-01 5.00000000000000000000e-01 7.50000000000000000000e-01 1.00000000000000000000e+00 
layer_sizes=10 301 2 
scale_included=0
neurons (num_inputs, activation_function, activation_steepness)=(0, 0, 0.00000000000000000000e+00) (0, 0, 0.00000000000000000000e+00) (0, 0, 0.00000000000000000000e+00) (0, 0, 0.00000000000000000000e+00) (0, 0, 0.00000000000000000000e+00) (0, 0, 0.00000000000000000000e+00) (0, 0, 0.00000000000000000000e+00) (0, 0, 0.00000000000000000000e+00) (0, 0, 0.00000000000000000000e+00) (0, 0, 0.00000000000000000000e+00) (10, 5, 5.00000000000000000000e-01) (10, 5, 5.00000000000000000000e-01) (10, 5, 5.00000000000000000000e-01) (10, 5, 5.00000000000000000000e-01) (10, 5, 5.00000000000000000000e-01) (10, 5, 5.00000000000000000000e-01) (10, 5, 5.00000000000000000000e-01) (10, 5, 5.00000000000000000000e-01) (10, 5, 5.00000000000000000000e-01) (10, 5, 5.00000000000000000000e-01) (10, 5, 5.00000000000000000000e-01) (10, 5, 5.00000000000000000000e-01) (10, 5, 5.00000000000000000000e-01) (10, 5, 5.00000000000000000000e-01) (10, 5, 5.00000000000000000000e-01) (10, 5, 5.00000000000000000000e-01) (10, 5, 5.00000000000000000000e-01) (10, 5, 5.00000000000000000000e-01) (10, 5, 5.00000000000000000000e-01) (10, 5, 5.00000000000000000000e-01) (10, 5, 5.00000000000000000000e-01) (10, 5, 5.00000000000000000000e-01) (10, 5, 5.00000000000000000000e-01) (10, 5, 5.00000000000000000000e-01) (10, 5, 5.00000000000000000000e-01) (10, 5, 5.00000000000000000000e-01) (10, 5, 5.00000000000000000000e-01) (10, 5, 5.00000000000000000000e-01) (10, 5, 5.00000000000000000000e-01) (10, 5, 5.00000000000000000000e-01) (10, 5, 5.00000000000000000000e-01) (10, 5, 5.00000000000000000000e-01) (10, 5, 5.00000000000000000000e-01) (10, 5, 5.00000000000000000000e-01) (10, 5, 5.00000000000000000000e-01) (10, 5, 5.00000000000000000000e-01) (10, 5, 5.00000000000000000000e-01) (10, 5, 5.00000000000000000000e-01) (10, 5, 5.00000000000000000000e-01) (10, 5, 5.00000000000000000000e-01) (10, 5, 5.00000000000000000000e-01) (10, 5, 5.00000000000000000000e-01) (10, 5, 5.00000000000000000000e-01) (10, 5, 5.00000000000000000000e-01) (10, 5, 5.00000000000000000000e-01) (10, 5, 5.00000000000000000000e-01) (10, 5, 5.00000000000000000000e-01) (10, 5, 5.00000000000000000000e-01) (10, 5, 5.00000000000000000000e-01) (10, 5, 5.00000000000000000000e-01) (10, 5, 5.00000000000000000000e-01) (10, 5, 5.00000000000000000000e-01) (10, 5, 5.00000000000000000000e-01) (10, 5, 5.00000000000000000000e-01) (10, 5, 5.00000000000000000000e-01) (10, 5, 5.00000000000000000000e-01) (10, 5, 5.00000000000000000000e-01) (10, 5, 5.00000000000000000000e-01) (10, 5, 5.00000000000000000000e-01) (10, 5, 5.00000000000000000000e-01) (10, 5, 5.00000000000000000000e-01) (10, 5, 5.00000000000000000000e-01) (10, 5, 5.00000000000000000000e-01) (10, 5, 5.00000000000000000000e-01) (10, 5, 5.00000000000000000000e-01) (10, 5, 5.00000000000000000000e-01) (10, 5, 5.00000000000000000000e-01) (10, 5, 5.00000000000000000000e-01) (10, 5, 5.00000000000000000000e-01) (10, 5, 5.00000000000000000000e-01) (10, 5, 5.00000000000000000000e-01) (10, 5, 5.00000000000000000000e-01) (10, 5, 5.00000000000000000000e-01) (10, 5, 5.00000000000000000000e-01) (10, 5, 5.00000000000000000000e-01) (10, 5, 5.00000000000000000000e-01) (10, 5, 5.00000000000000000000e-01) (10, 5, 5.00000000000000000000e-01) (10, 5, 5.00000000000000000000e-01) (10, 5, 5.00000000000000000000e-01) (10, 5, 5.00000000000000000000e-01) (10, 5, 5.00000000000000000000e-01) (10, 5, 5.00000000000000000000e-01) (10, 5, 5.00000000000000000000e-01) (10, 5, 5.00000000000000000000e-01) (10, 5, 5.00000000000000000000e-01) (10, 5, 5.00000000000000000000e-01) (10, 5, 5.00000000000000000000e-01) (10, 5, 5.00000000000000000000e-01) (10, 5, 5.00000000000000000000e-01) (10, 5, 5.00000000000000000000e-01) (10, 5, 5.00000000000000000000e-01) (10, 5, 5.00000000000000000000e-01) (10, 5, 5.00000000000000000000e-01) (10, 5, 5.00000000000000000000e-01) (10, 5, 5.00000000000000000000e-01) (10, 5, 5.00000000000000000000e-01) (10, 5, 5.00000000000000000000e-01) (10, 5, 5.00000000000000000000e-01) (10, 5, 5.00000000000000000000e-01) (10, 5, 5.00000000000000000000e-01) (10, 5, 5.00000000000000000000e-01) (10, 5, 5.00000000000000000000e-01) (10, 5, 5.00000000000000000000e-01) (10, 5, 5.00000000000000000000e-01) (10, 5, 5.00000000000000000000e-01) (10, 5, 5.00000000000000000000e-01) (10, 5, 5.00000000000000000000e-01) (10, 5, 5.00000000000000000000e-01) (10, 5, 5.00000000000000000000e-01) (10, 5, 5.00000000000000000000e-01) (10, 5, 5.00000000000000000000e-01) (10, 5, 5.00000000000000000000e-01) (10, 5, 5.00000000000000000000e-01) (10, 5, 5.00000000000000000000e-01) (10, 5, 5.00000000000000000000e-01) (10, 5, 5.00000000000000000000e-01) (10, 5, 5.00000000000000000000e-01) (10, 5, 5.00000000000000000000e-01) (10, 5, 5.00000000000000000000e-01) (10, 5, 5.00000000000000000000e-01) (10, 5, 5.00000000000000000000e-01) (10, 5, 5.00000000000000000000e-01) (10, 5, 5.00000000000000000000e-01) (10, 5, 5.00000000000000000000e-01) (10, 5, 5.00000000000000000000e-01) (10, 5, 5.00000000000000000000e-01) (10, 5, 5.00000000000000000000e-01) (10, 5, 5.00000000000000000000e-01) (10, 5, 5.00000000000000000000e-01) (10, 5, 5.00000000000000000000e-01) (10, 5, 5.00000000000000000000e-01) (10, 5, 5.00000000000000000000e-01) (10, 5, 5.00000000000000000000e-01) (10, 5, 5.00000000000000000000e-01) (10, 5, 5.00000000000000000000e-01) (10, 5, 5.00000000000000000000e-01) (10, 5, 5.00000000000000000000e-01) (10, 5, 5.00000000000000000000e-01) (10, 5, 5.00000000000000000000e-01) (10, 5, 5.00000000000000000000e-01) (10, 5, 5.00000000000000000000e-01) (10, 5, 5.00000000000000000000e-01) (10, 5, 5.00000000000000000000e-01) (10, 5, 5.00000000000000000000e-01) (10, 5, 5.00000000000000000000e-01) (10, 5, 5.00000000000000000000e-01) (10, 5, 5.00000000000000000000e-01) (10, 5, 5.00000000000000000000e-01) (10, 5, 5.00000000000000000000e-01) (10, 5, 5.00000000000000000000e-01) (10, 5, 5.00000000000000000000e-01) (10, 5, 5.00000000000000000000e-01) (10, 5, 5.00000000000000000000e-01) (10, 5, 5.00000000000000000000e-01) (10, 5, 5.00000000000000000000e-01) (10, 5, 5.00000000000000000000e-01) (10, 5, 5.00000000000000000000e-01) (10, 5, 5.00000000000000000000e-01) (10, 5, 5.00000000000000000000e-01) (10, 5, 5.00000000000000000000e-01) (10, 5, 5.00000000000000000000e-01) (10, 5, 5.00000000000000000000e-01) (10, 5, 5.00000000000000000000e-01) (10, 5, 5.00000000000000000000e-01) (10, 5, 5.00000000000000000000e-01) (10, 5, 5.00000000000000000000e-01) (10, 5, 5.00000000000000000000e-01) (10, 5, 5.00000000000000000000e-01) (10, 5, 5.00000000000000000000e-01) (10, 5, 5.00000000000000000000e-01) (10, 5, 5.00000000000000000000e-01) (10, 5, 5.00000000000000000000e-01) (10, 5, 5.00000000000000000000e-01) (10, 5, 5.00000000000000000000e-01) (10, 5, 5.00000000000000000000e-01) (10, 5, 5.00000000000000000000e-01) (10, 5, 5.00000000000000000000e-01) (10, 5, 5.00000000000000000000e-01) (10, 5, 5.00000000000000000000e-01) (10, 5, 5.00000000000000000000e-01) (10, 5, 5.00000000000000000000e-01) (10, 5, 5.00000000000000000000e-01) (10, 5, 5.00000000000000000000e-01) (10, 5, 5.00000000000000000000e-01) (10, 5, 5.00000000000000000000e-01) (10, 5, 5.00000000000000000000e-01) (10, 5, 5.00000000000000000000e-01) (10, 5, 5.00000000000000000000e-01) (10, 5, 5.00000000000000000000e-01) (10, 5, 5.00000000000000000000e-01) (10, 5, 5.00000000000000000000e-01) (10, 5, 5.00000000000000000000e-01) (10, 5, 5.00000000000000000000e-01) (10, 5, 5.00000000000000000000e-01) (10, 5, 5.00000000000000000000e-01) (10, 5, 5.00000000000000000000e-01) (10, 5, 5.00000000000000000000e-01) (10, 5, 5.00000000000000000000e-01) (10, 5, 5.00000000000000000000e-01) (10, 5, 5.00000000000000000000e-01) (10, 5, 5.00000000000000000000e-01) (10, 5, 5.00000000000000000000e-01) (10, 5, 5.00000000000000000000e-01) (10, 5, 5.00000000000000000000e-01) (10, 5, 5.00000000000000000000e-01) (10, 5, 5.00000000000000000000e-01) (10, 5, 5.00000000000000000000e-01) (10, 5, 5.00000000000000000000e-01) (10, 5, 5.00000000000000000000e-01) (10, 5, 5.00000000000000000000e-01) (10, 5, 5.00000000000000000000e-01) (10, 5, 5.00000000000000000000e-01) (10, 5, 5.00000000000000000000e-01) (10, 5, 5.00000000000000000000e-01) (10, 5, 5.00000000000000000000e-01) (10, 5, 5.00000000000000000000e-01) (10, 5, 5.00000000000000000000e-01) (10, 5, 5.00000000000000000000e-01) (10, 5, 5.00000000000000000000e-01) (10, 5, 5.00000000000000000000e-01) (10, 5, 5.00000000000000000000e-01) (10, 5, 5.00000000000000000000e-01) (10, 5, 5.00000000000000000000e-01) (10, 5, 5.00000000000000000000e-01) (10, 5, 5.00000000000000000000e-01) (10, 5, 5.00000000000000000000e-01) (10, 5, 5.00000000000000000000e-01) (10, 5, 5.00000000000000000000e-01) (10, 5, 5.00000000000000000000e-01) (10, 5, 5.00000000000000000000e-01) (10, 5, 5.00000000000000000000e-01) (10, 5, 5.00000000000000000000e-01) (10, 5, 5.00000000000000000000e-01) (10, 5, 5.00000000000000000000e-01) (10, 5, 5.00000000000000000000e-01) (10, 5, 5.00000000000000000000e-01) (10, 5, 5.00000000000000000000e-01) (10, 5, 5.00000000000000000000e-01) (10, 5, 5.00000000000000000000e-01) (10, 5, 5.00000000000000000000e-01) (10, 5, 5.00000000000000000000e-01) (10, 5, 5.00000000000000000000e-01) (10, 5, 5.00000000000000000000e-01) (10, 5, 5.00000000000000000000e-01) (10, 5, 5.00000000000000000000e-01) (10, 5, 5.00000000000000000000e-01) (10, 5, 5.00000000000000000000e-01) (10, 5, 5.00000000000000000000e-01) (10, 5, 5.00000000000000000000e-01) (10, 5, 5.00000000000000000000e-01) (10, 5, 5.00000000000000000000e-01) (10, 5, 5.00000000000000000000e-01) (10, 5, 5.00000000000000000000e-01) (10, 5, 5.00000000000000000000e-01) (10, 5, 5.00000000000000000000e-01) (10, 5, 5.00000000000000000000e-01) (10, 5, 5.00000000000000000000e-01) (10, 5, 5.00000000000000000000e-01) (10, 5, 5.00000000000000000000e-01) (10, 5, 5.00000000000000000000e-01) (10, 5, 5.00000000000000000000e-01) (10, 5, 5.00000000000000000000e-01) (10, 5, 5.00000000000000000000e-01) (10, 5, 5.00000000000000000000e-01) (10, 5, 5.00000000000000000000e-01) (10, 5, 5.00000000000000000000e-01) (10, 5, 5.00000000000000000000e-01) (10, 5, 5.00000000000000000000e-01) (10, 5, 5.00000000000000000000e-01) (10, 5, 5.00000000000000000000e-01) (10, 5, 5.00000000000000000000e-01) (10, 5, 5.00000000000000000000e-01) (10, 5, 5.00000000000000000000e-01) (10, 5, 5.00000000000000000000e-01) (10, 5, 5.00000000000000000000e-01) (10, 5, 5.00000000000000000000e-01) (10, 5, 5.00000000000000000000e-01) (10, 5, 5.00000000000000000000e-01) (10, 5, 5.00000000000000000000e-01) (10, 5, 5.00000000000000000000e-01) (10, 5, 5.00000000000000000000e-01) (10, 5, 5.00000000000000000000e-01) (10, 5, 5.00000000000000000000e-01) (10, 5, 5.00000000000000000000e-01) (10, 5, 5.00000000000000000000e-01) (10, 5, 5.00000000000000000000e-01) (10, 5, 5.00000000000000000000e-01) (10, 5, 5.00000000000000000000e-01) (10, 5, 5.00000000000000000000e-01) (10, 5, 5.00000000000000000000e-01) (10, 5, 5.00000000000000000000e-01) (10, 5, 5.00000000000000000000e-01) (10, 5, 5.00000000000000000000e-01) (10, 5, 5.00000000000000000000e-01) (10, 5, 5.00000000000000000000e-01) (10, 5, 5.00000000000000000000e-01) (10, 5, 5.00000000000000000000e-01) (10, 5, 5.00000000000000000000e-01) (10, 5, 5.00000000000000000000e-01) (0, 5, 0.00000000000000000000e+00) (301, 0, 5.00000000000000000000e-01) (0, 0, 0.00000000000000000000e+00) 
connections (connected_to_neuron, weight)=(0, 1.44328624010086059570e-02) (1, -6.54085185176148886654e-01) (2, 4.12268345092241417227e-01) (3, -2.00283887146685790626e+00) (4, -2.08205395899827427897e+00) (5, 5.45196118706836041490e-01) (6, -9.34165984100411783686e+00) (7, -1.07024281365220197415e+00) (8, -5.32179176232854267425e-01) (9, 1.44782573492613675370e+00) (0, 1.98893547058105468750e-02) (1, -6.77941937069256539417e-01) (2, 5.69489528476804784951e-01) (3, -4.36715756197972759800e-01) (4, -5.72276282055161414353e-02) (5, 2.79214404000714289111e+00) (6, 3.33528316842575944801e-01) (7, 2.16204352254420695267e-01) (8, 1.43701546583605743734e+00) (9, 1.67617811093662805177e+00) (0, 9.00722816586494445801e-02) (1, -3.82013176368696516505e+00) (2, 2.91221584556379387010e+00) (3, 1.58818476945938851230e+01) (4, 2.73151028403085671670e+00) (5, 2.40415151205186861105e+00) (6, 4.41212826790206014138e-01) (7, -2.43774691694467335878e+01) (8, -6.75433480290114407474e-01) (9, 9.56099854005020155512e+00) (0, 4.92800399661064147949e-02) (1, 1.98690589494325187125e+00) (2, -1.59783424419553821139e+00) (3, -1.32594972987701602563e+01) (4, 1.13922578751167669076e+00) (5, -6.20971342854714669635e-01) (6, 1.86808130582828404442e+01) (7, 1.45439588461517779194e+01) (8, -3.87079446456106479602e-01) (9, -5.11219801695536624209e+00) (0, -7.28832036256790161133e-02) (1, 4.91190901139710867085e-01) (2, -4.34238162442749042746e-01) (3, 3.96360998919173823651e+00) (4, -4.49606847524986097397e+00) (5, -8.52851500261041017836e+00) (6, -2.62420856992308015876e+00) (7, -4.34302247695668663940e-01) (8, -7.13313559017635601123e-01) (9, -1.31811528588168624943e+00) (0, 5.51823005080223083496e-02) (1, 7.59197357159509778057e+00) (2, -5.77036160872359094043e+00) (3, -2.08409307148155349410e+01) (4, -3.24520939399907071277e+00) (5, -5.30660650575918602101e+00) (6, -9.93201537259316680206e+00) (7, 2.32193122520073593762e+01) (8, -1.61715698930818851942e+00) (9, -1.88895772437875031358e+01) (0, -8.80711004137992858887e-02) (1, -4.59661025852934446156e-01) (2, 3.11061510109140404445e-01) (3, 1.01592367201642122532e-01) (4, 1.09769401198935590003e+00) (5, 1.77217477422406544108e+00) (6, -2.55065004660959493421e+00) (7, -6.65063334092701197164e+00) (8, -4.69206373713192625985e-01) (9, 1.22156950719452894738e+00) (0, 3.33594307303428649902e-02) (1, 8.52056302876188609297e-01) (2, -7.38118762711187481607e-01) (3, 4.92425682738188430498e-01) (4, 3.10179531825317711391e-01) (5, -1.24216347546322825046e+00) (6, -7.80771417286395541524e-01) (7, 7.08075034104446499050e-01) (8, 3.22142494662666992178e-02) (9, -2.29171735607419657654e+00) (0, 6.32014945149421691895e-02) (1, 6.22951681027216541686e-01) (2, -4.43742042116016088826e-01) (3, 5.47445369851188967658e+00) (4, -3.39584340339875856429e+00) (5, -5.04476559353619258275e+00) (6, -7.96907712533469503313e+00) (7, -1.60892916327199331228e+00) (8, 5.83449181730273602753e-01) (9, -1.37936366127895904121e+00) (0, 4.15530279278755187988e-02) (1, 1.40461161561816960663e+00) (2, -1.14188763743786192428e+00) (3, -4.04125655438981712386e-01) (4, 2.54398713612491444991e-01) (5, 6.16811970169690471089e-01) (6, -1.09564467862995584824e+00) (7, 1.58743254289434532200e-01) (8, -5.49833694106312220740e-01) (9, -3.78652662356456293224e+00) (0, 5.80958351492881774902e-02) (1, -8.80276088984921378788e-01) (2, 6.23868161863549208768e-01) (3, -2.50539865976989251095e+00) (4, -1.25409521976074618266e+01) (5, -2.22184820457716689646e+01) (6, -2.10352786227845056644e+00) (7, -4.85384049236379677694e+00) (8, -1.10438509303929643934e+00) (9, 2.46553295247479908880e+00) (0, -9.75117310881614685059e-02) (1, -3.21987611616815827542e-01) (2, 2.49281296555652925884e-01) (3, -1.21262324300773149943e+00) (4, 8.80769305852451833694e-01) (5, 2.94267066077932826218e+00) (6, 2.46552540476321496721e-01) (7, 3.61287806095602181955e-01) (8, -8.90456848953798840718e-01) (9, 6.68738299523598200835e-01) (0, -9.79232639074325561523e-02) (1, 4.90416558551111825270e-01) (2, -3.16287923207257459790e-01) (3, -5.17653699833225733329e+00) (4, -1.31400970035526443169e+00) (5, -3.87131357664911524008e-01) (6, -1.10295239260121843983e-01) (7, 5.39288842811684610012e+00) (8, 3.82757901990530904901e-02) (9, -1.17234578099649389138e+00) (0, -2.13201344013214111328e-02) (1, 7.07295302134702152941e-01) (2, -4.43606615872296328185e-01) (3, -5.48648617200790322812e+00) (4, -8.03005390138228913877e-01) (5, -4.60607469264722624303e-01) (6, -1.85536850533045333256e-01) (7, 6.12650209856060623537e+00) (8, 9.86136179699556580935e-02) (9, -1.55269924323169128400e+00) (0, 4.33758571743965148926e-02) (1, -2.77302137169492901592e+00) (2, 2.20615490826210436381e+00) (3, 5.21219684072432798416e+00) (4, 4.38043052553585621212e+00) (5, 1.25093172996665487062e+01) (6, 1.17926047750341944642e+00) (7, -1.05719241389093703276e+01) (8, 2.89938637310517499657e+00) (9, 6.99002727873200768727e+00) (0, -5.11789098381996154785e-02) (1, 8.69864145167176028295e-01) (2, -5.77792168965578056827e-01) (3, -5.32154655271491972002e+00) (4, -4.03718697713278640293e+00) (5, -6.76211971359837882289e+00) (6, -2.32504997499737564581e+00) (7, 2.21734512055467858360e+00) (8, 5.88981917212592631650e-02) (9, -2.14962565588102583192e+00) (0, -6.50112330913543701172e-03) (1, -3.91300079017765506384e-02) (2, -6.46195696356881375128e-03) (3, 1.88274943103308634029e+00) (4, 2.55682494599641541022e-01) (5, -1.85479378681888268376e-01) (6, 4.47610965336541544168e-01) (7, -2.80120728802504759258e+00) (8, 4.78598704964532883910e-01) (9, 2.25020344503001873404e-01) (0, 2.79386341571807861328e-03) (1, -1.91279439038095588899e+00) (2, 1.35855175857231347258e+00) (3, 1.39473896452754986264e+00) (4, 3.03584366849592823812e+00) (5, 7.10118056951166298774e+00) (6, 1.25681064727162139505e+00) (7, -6.88924365163243468402e+00) (8, 6.05870493777328267271e+00) (9, 4.75559448093452008521e+00) (0, 8.04471448063850402832e-02) (1, -5.89413364326681454841e-01) (2, 5.86922811042913550317e-01) (3, 1.95782758721641259037e+00) (4, 2.37778581559143376012e+00) (5, 1.81600969241548826361e+00) (6, 1.21332250813044617566e+00) (7, 1.61122854554901007162e+00) (8, 1.45418364464175797757e+00) (9, 1.63721714937488949104e+00) (0, 1.44544988870620727539e-02) (1, 2.15849048637066731615e+00) (2, -1.47305192420494490690e+00) (3, 4.08241261590377924051e+00) (4, -5.96034031335291025755e+00) (5, -1.43454887434686764180e+01) (6, 8.63869065188483699347e-03) (7, 4.02189276771814707701e+00) (8, -1.70674330108294824981e+00) (9, -5.17468608152842080017e+00) (0, -6.36747479438781738281e-02) (1, -1.39806016971149449368e+00) (2, 9.50812210809062197114e-01) (3, -7.15800707952697484737e-02) (4, 1.26108510471799828423e+00) (5, 3.81192618894613399760e+00) (6, 1.48822751295740673960e+00) (7, -4.02012838396380267625e+00) (8, 3.29552225921289920763e+00) (9, 3.35566452119374147856e+00) (0, 4.05841395258903503418e-02) (1, -3.00106457858964392749e-01) (2, 1.72638512767342267029e-01) (3, -1.30593139332661523078e+00) (4, -3.60161582764944876445e+00) (5, -3.65745082275508481828e+00) (6, -1.07920885052805970439e+00) (7, -4.85775637082282685242e+00) (8, 1.64485197644443870146e+00) (9, 9.04507225973244621819e-01) (0, -6.81079104542732238770e-02) (1, -3.26220583434477795493e-02) (2, 1.50204015263694173887e-01) (3, -1.92183234458720209048e+00) (4, -1.44987975449808970119e+00) (5, 5.03665763415559686322e-01) (6, -1.43965056556366755025e+00) (7, -2.43725270076415334586e+00) (8, -4.83625677667164355356e-02) (9, 2.35061525433928025786e-01) (0, 8.19070562720298767090e-02) (1, 6.20470261432260361545e-01) (2, -4.22897225884116212402e-01) (3, -2.16398978138291253615e+00) (4, -2.58228321073668221075e+00) (5, -3.34020510370844991854e+00) (6, -1.59128622516960471778e+00) (7, -2.47908685315477228528e+00) (8, -7.03601749062856440808e-01) (9, -1.28757922688013071166e+00) (0, 2.53260210156440734863e-02) (1, 1.58946129376400735467e+00) (2, -1.16835871856355888454e+00) (3, -2.46500190815511083242e-01) (4, 6.51720518667785020384e-01) (5, 2.29564117612255991219e+00) (6, -1.70819364166730491839e+00) (7, 4.23037768117890608521e-02) (8, -8.50560321484020942506e-01) (9, -4.02194968597961022283e+00) (0, -3.71824875473976135254e-02) (1, -9.81588874858489668362e-01) (2, 6.33072428109358487092e-01) (3, -8.68472885089251800395e-01) (4, -3.10006391320957974678e-01) (5, 1.44679637273291827881e+00) (6, 7.40600877554338343778e-01) (7, -9.77624331903194754290e-01) (8, -3.02516452740839159041e-01) (9, 2.31215676318433738246e+00) (0, 1.02308541536331176758e-02) (1, 6.68504998364578462144e+00) (2, -5.07434644383501254339e+00) (3, -1.46660354308823368541e+01) (4, -6.93857924964506445065e+00) (5, -5.57691519007150393605e+00) (6, -6.78567397620766854516e+00) (7, 2.20738925701862669371e+01) (8, -9.90613789822040402555e-01) (9, -1.69680230314033195782e+01) (0, -4.08309400081634521484e-02) (1, 3.02658624823148958427e+00) (2, -2.21599041391404139034e+00) (3, -3.59068271341832678800e+00) (4, -1.40831511122147112758e+00) (5, -5.04880645267656635866e+00) (6, 2.03204417458793473727e-01) (7, 7.45948948638673137168e+00) (8, -1.20792119440086520576e+00) (9, -7.39090832385233031943e+00) (0, 1.05610638856887817383e-02) (1, -1.84148070970594401885e+00) (2, 1.28630168184132931408e+00) (3, 1.02405636259751613437e+01) (4, 1.40700735639674978650e+00) (5, 8.66497119822418282453e-01) (6, 4.43462612857743687655e-01) (7, -1.30485333550881534848e+01) (8, -4.41806741490329835109e-01) (9, 4.66373967030080027740e+00) (0, -7.47545659542083740234e-02) (1, -8.80954121125841344009e-02) (2, -5.55815562921939607111e-02) (3, -7.99771385076885471532e-02) (4, -2.90432730243417314142e-01) (5, 7.84292952058397552229e-01) (6, 1.30531573439741366283e-01) (7, -8.50784774945451016670e-01) (8, 2.51121293941206857880e-01) (9, 7.42485124800252999089e-02) (0, 5.28865978121757507324e-02) (1, 2.39289959549711245268e-02) (2, 1.18586477988333244271e-01) (3, -3.18685162883748152041e+00) (4, 1.91024065114962748879e+00) (5, 4.54256836649228112890e+00) (6, -4.68876081381951970162e-01) (7, 6.45308166824090645441e-01) (8, 1.11375233961819641859e-01) (9, 5.05073467201131026671e-02) (0, 1.53912603855133056641e-03) (1, 1.77881773419789035451e+00) (2, -1.33949916796987289480e+00) (3, 4.77293240887493208646e+00) (4, -6.28503975988029139899e+00) (5, -1.26106371203062206376e+01) (6, 6.07617561318718468755e+00) (7, -8.66965672938237297274e+00) (8, -9.70424889993573569491e-01) (9, -4.56570176985599918140e+00) (0, 1.08179673552513122559e-02) (1, -1.57182007799463063780e-01) (2, 2.59340232067364340196e-01) (3, -6.62002278042980507600e-01) (4, 6.84935611511368169779e-01) (5, 1.53160508331839118057e+00) (6, -3.76070433072363541349e-01) (7, -2.46000886554636988279e+00) (8, -1.32865790303326392063e+00) (9, 5.40113862031643021666e-01) (0, 7.31624141335487365723e-02) (1, 3.30499203856232826038e-01) (2, -2.96002853182137481980e-01) (3, -8.39527995432850171476e-01) (4, -1.67384205328675350621e+00) (5, -2.88509521074138675090e+00) (6, 2.30422489928650353619e+00) (7, 8.09608115490332025388e+00) (8, 6.61519863407390551480e-01) (9, -6.82982348789819004864e-01) (0, -3.28190699219703674316e-02) (1, 1.57061019468732054882e+00) (2, -1.34015824592484156241e+00) (3, -8.20054949984843695177e+00) (4, -6.48933856353640869941e+00) (5, -1.19306169652885589727e+01) (6, -2.82032824282802030424e+00) (7, 7.23828091638735138247e+00) (8, -2.22758161897397188866e+00) (9, -4.26564733506428073184e+00) (0, -8.92146453261375427246e-02) (1, 2.19714702702547493018e+00) (2, -1.60853864746019348253e+00) (3, 5.83440728661615448658e+00) (4, -7.36214824580868487658e+00) (5, -9.96843954506431906282e+00) (6, -4.76432851075000396435e+00) (7, 6.32700463904179510877e+00) (8, -2.01529998885478400794e+00) (9, -5.68536398465889991627e+00) (0, 8.84522423148155212402e-02) (1, -1.11308488134528227320e+00) (2, 9.38881245506527406519e-01) (3, -5.37194518842229240541e-01) (4, -4.86987936894733353110e-01) (5, 5.41199231929341828540e-01) (6, 4.92913813912622955637e-01) (7, -6.60461857652642758687e-01) (8, 2.27798195330975644657e-01) (9, 2.94508386486873607879e+00) (0, 2.60646864771842956543e-02) (1, -1.22268327273110832820e+00) (2, 8.83664519133354420255e-01) (3, -2.69982865267208160809e-01) (4, 1.05857438620379173955e+00) (5, 3.68803855650887824069e+00) (6, 2.76468640949674426821e+00) (7, -4.05978038462082579940e+00) (8, 2.35629788394307615462e+00) (9, 2.92647367398466773381e+00) (0, 9.24997031688690185547e-03) (1, -4.99115391480092984722e+00) (2, 3.79764821497677651507e+00) (3, 6.69948135746448625305e-01) (4, 1.03475790381557741782e+00) (5, 8.30129003035336587857e+00) (6, 3.57272793248725939463e+00) (7, -1.74964173480201132804e+01) (8, 3.35289223967059468734e+00) (9, 1.25626955394358947871e+01) (0, 8.39144662022590637207e-02) (1, -2.06381987595882276931e-01) (2, 1.08390566754374029212e-01) (3, 1.93951869454546987903e+00) (4, 1.17386242242706706485e+00) (5, -1.35433709406171221001e-01) (6, 3.83997650996643091759e+00) (7, 5.93228548485967288606e-01) (8, 4.44337093177739839156e-01) (9, 3.19385548591566592602e-01) (0, 3.73827293515205383301e-02) (1, -1.82729299155361735174e-01) (2, 1.91410664683399261987e-01) (3, -1.86062791464346632964e+00) (4, -1.58125046470690167055e+00) (5, 5.88905094071268564448e-01) (6, -1.61346121718281487745e+00) (7, -3.15854187896966021043e+00) (8, -5.86331944984836428425e-02) (9, 5.70888053097794778701e-01) (0, -1.02198272943496704102e-02) (1, -2.45555662375239652784e-01) (2, 1.00970641345964839974e-01) (3, 1.77238936216843656624e+00) (4, 9.89363359863653091253e-01) (5, -1.71908104755474806791e-02) (6, 2.37893390886171429699e+00) (7, 6.29059861171179068862e-01) (8, 1.21288511633713125271e-01) (9, 4.81968754930894804911e-01) (0, 9.12118479609489440918e-02) (1, -4.41832679651822335387e+00) (2, 3.25108112687503281180e+00) (3, 7.94035880358932999457e+00) (4, 3.73353443856648681276e+00) (5, 5.57565981602400295714e+00) (6, 3.62079007127485619222e+00) (7, -1.46836754791753225646e+01) (8, 7.30826312303232028533e-01) (9, 1.11697117460856851778e+01) (0, -3.47081869840621948242e-02) (1, 6.27027342443876722911e+00) (2, -4.80780094284460357557e+00) (3, -2.77242524874309062000e+01) (4, -4.85081502928427621413e+00) (5, -2.63846130348687246681e+01) (6, -1.12334674503620401964e+01) (7, 2.93529649177489950773e+01) (8, -1.58626255805515814501e+00) (9, -1.58463105888381274866e+01) (0, -8.75923037528991699219e-03) (1, 2.64552394904472021331e-01) (2, -1.06495766235862127091e-01) (3, 1.64676694399956891068e+00) (4, 1.51012810318915247088e+00) (5, -6.46979072372436347926e-01) (6, 1.19264647630221065633e+00) (7, 2.99910527483446065489e+00) (8, -3.81050427884409126378e-01) (9, -4.02946404759492227132e-01) (0, 5.20610883831977844238e-02) (1, 1.18878509162217738115e+00) (2, -9.63325762623720605049e-01) (3, 5.52238607376463686016e-01) (4, 8.07748995072212871982e-01) (5, -2.67456891026338683393e-01) (6, -9.37909005678538160167e-02) (7, 5.57290752560917312941e-01) (8, -1.88857586465506543938e-01) (9, -3.07126928824692990716e+00) (0, -7.97068774700164794922e-02) (1, -9.10644010114397328692e-01) (2, 7.77466455779264764558e-01) (3, -4.04311016054198502090e-01) (4, -4.15467088079575608273e-01) (5, 2.74988714184531135576e-01) (6, -2.67327084969875117260e-01) (7, -9.85006347097051815354e-01) (8, -1.18476438398521149997e-01) (9, 2.45450023291096020017e+00) (0, -7.58756697177886962891e-03) (1, -2.31672717329595045932e-01) (2, 8.67030178734685824660e-02) (3, -2.65828548070630654721e+00) (4, -1.27450861853758601328e+00) (5, 2.84779053015360217316e-01) (6, -2.30835540260653582223e+00) (7, -2.11654669804096506880e+00) (8, -9.48283587248822446014e-01) (9, 3.81541959189210966308e-01) (0, -1.84575766324996948242e-02) (1, 6.17024566755648540273e-01) (2, -4.65140498076333563926e-01) (3, -1.12026249825206911104e-02) (4, -1.88846293426776848379e-02) (5, -1.93537001702397515324e+00) (6, -2.79260934637790614321e-01) (7, 7.15935115230447061130e-01) (8, -6.76118892730565801408e-01) (9, -1.64859167616996726835e+00) (0, -7.18556344509124755859e-04) (1, -7.71037909253113440400e+00) (2, 5.80179234305989410814e+00) (3, 4.21059121547534687124e+00) (4, -5.90131903136957536304e+00) (5, -2.28825638147212977458e+01) (6, -1.85915382357752356768e+00) (7, -3.45323896035152273498e+01) (8, -8.85095538205720511193e-01) (9, 1.91624441522593471632e+01) (0, 4.51729670166969299316e-02) (1, -4.91029098322848422953e+00) (2, 3.72323277362690641112e+00) (3, 2.76098392528240177413e+00) (4, -7.18730671859131486912e+00) (5, -7.25432851319162441683e+00) (6, 9.83334689205013212643e-01) (7, -2.40474101824125092719e+01) (8, -5.92898796146685502784e-01) (9, 1.22011558411311469285e+01) (0, 8.06802138686180114746e-02) (1, 5.69114439683734918418e+00) (2, -4.42140303922033162110e+00) (3, -2.19055185874539137814e+00) (4, -7.06820589083785133511e+00) (5, -1.91399120180263224711e+01) (6, -9.75030308933270362104e-01) (7, 2.71375442735294427621e+01) (8, -1.08235029101198065860e+00) (9, -1.44582450476063471001e+01) (0, -6.50235563516616821289e-02) (1, 2.40627687924447830614e-01) (2, -2.07325348071566967212e-01) (3, -4.59894958456281965908e+00) (4, -6.00416929430635448739e+00) (5, -9.72729483446332032770e+00) (6, -7.58366640076067621834e+00) (7, 2.28771146292583077431e-01) (8, -1.05937892767742591893e+00) (9, -6.43582730872462760452e-01) (0, 1.58268809318542480469e-02) (1, 1.07009496842109399495e+01) (2, -7.90495693529742649019e+00) (3, -7.97897652360270104310e-01) (4, 2.81303115498716227449e+00) (5, 1.33259447989780497323e+01) (6, 1.43785101212767507661e+01) (7, 4.47469880262242156732e+01) (8, -5.98015861578953700217e-01) (9, -2.65790874261109593135e+01) (0, 1.47335156798362731934e-02) (1, -1.20287225868828631659e-01) (2, 1.04585895139540224763e-02) (3, 4.47587477204957562282e-01) (4, 3.41741911123873587375e-01) (5, 7.81443048766990000509e-01) (6, 8.51070926063792199123e-01) (7, -6.84564458391250796332e-01) (8, -3.42054692678219821045e-02) (9, 1.82971011168036490346e-01) (0, 1.13381966948509216309e-02) (1, -3.87519099907805253391e-01) (2, 3.48529199955605828443e-01) (3, -1.60016675157658538886e+00) (4, 1.14495427987656950286e+00) (5, 3.04537663650905487955e+00) (6, 7.21586467826065280917e-01) (7, 2.98925842036985058014e-02) (8, -9.93193843854343505484e-01) (9, 8.88891498487045628174e-01) (0, 7.72059336304664611816e-02) (1, 7.33126108071539439592e-01) (2, -5.82367872238372719096e-01) (3, 6.31933522686655479994e-01) (4, -2.10080969939100081767e-01) (5, -2.38861107377958381548e+00) (6, -3.82710277089719330679e-01) (7, -1.79693893626194201030e-01) (8, -1.06612658004240978826e+00) (9, -1.63105854322712251481e+00) (0, 5.76498582959175109863e-02) (1, 3.21687584632528889017e+00) (2, -2.45563311512709470108e+00) (3, -1.60385742185740518551e+01) (4, -2.70103136370463836613e+00) (5, -1.79420353361487028288e+00) (6, -1.58575370367197432397e-01) (7, 2.44519837602605640825e+01) (8, -1.90978795012758162386e+00) (9, -8.06588336363408942020e+00) (0, -9.41417738795280456543e-02) (1, -3.92589156577030840012e+00) (2, 2.95683144218317517371e+00) (3, 1.74798972081624945929e+01) (4, 2.51681055933996145058e+00) (5, 1.38772120289101641433e+00) (6, 7.82407486713767447162e-03) (7, -2.60982482535570206039e+01) (8, 6.18282193332052698587e-01) (9, 9.57869541518096845323e+00) (0, -5.86556792259216308594e-02) (1, -4.85092464774350362600e-01) (2, 2.89335966996397908613e-01) (3, -5.32038751025548428686e-01) (4, 2.76791059990739163332e-01) (5, 1.13751744039510027662e+00) (6, 2.76117803374959447371e-01) (7, -1.93363917896602233171e+00) (8, -1.00030095705467547695e+00) (9, 1.27392341740660253180e+00) (0, 6.37020841240882873535e-02) (1, 3.37976304070642585842e+00) (2, -2.59051758890683192504e+00) (3, -3.62326985452047765079e+01) (4, -2.50973242288017805990e+00) (5, -2.37271039044309937083e+01) (6, 6.18927867916591822883e-01) (7, 7.44942666212065631726e+01) (8, -6.40740763152785497425e-01) (9, -8.25546393360294317176e+00) (0, -4.19729761779308319092e-02) (1, -1.76767702436502571750e+00) (2, 1.26918759037491302166e+00) (3, -1.87852138049790151619e+00) (4, 2.74258772354505131474e+00) (5, 8.10175045777689106785e+00) (6, -5.17718274426231594987e+00) (7, 3.30995532419609839181e+00) (8, 1.52840417142603324230e+00) (9, 4.50766854450016740685e+00) (0, -5.95516115427017211914e-02) (1, -1.17369519427857293969e+00) (2, 9.21245902817107387150e-01) (3, 3.15965463142576924449e-02) (4, 7.33837764922978919024e-01) (5, 3.71187684753185909159e+00) (6, 1.50581979186850878349e+00) (7, -3.21621929793504923722e+00) (8, 2.78414910991531439066e+00) (9, 2.83708939962939332702e+00) (0, 8.56023952364921569824e-02) (1, 8.91316638466181476730e-01) (2, -7.01041470153354051575e-01) (3, 3.41636753101915657815e-01) (4, 3.08852270262834349701e-01) (5, -1.10419781629000834933e+00) (6, -6.15212041780556884163e-01) (7, 8.48918930386888037631e-01) (8, 2.79209026913434021910e-01) (9, -2.05438608571587266738e+00) (0, -7.59301334619522094727e-02) (1, -1.97083359125765267272e+00) (2, 1.45246159779687755709e+00) (3, -5.46123170191057560885e+00) (4, 6.24978847524093961141e+00) (5, 1.56259923913319536126e+01) (6, -7.19591120335643275041e+00) (7, 7.93312303034032595406e+00) (8, 1.51949322879695203348e+00) (9, 4.70597807475727680782e+00) (0, -8.64345133304595947266e-02) (1, -4.71628549762370119502e-01) (2, 3.59369421800922073107e-01) (3, -5.62237224389513201572e+00) (4, 6.96382347118324407376e+00) (5, 1.26106244711382018409e+01) (6, 4.24505872530814443166e+00) (7, 7.32017050642639000024e-01) (8, 1.28314265692394546825e+00) (9, 1.16429844515492386670e+00) (0, 1.96409448981285095215e-02) (1, -2.12520903094818330858e-01) (2, 1.90796381416488497473e-01) (3, 4.19315337370109286752e+00) (4, -7.01474535299463752835e+00) (5, -1.51760822774664561052e+01) (6, -2.22397871141239988901e+00) (7, -4.36881381876470875625e+00) (8, -1.42603696568724486182e-01) (9, 6.21235902715531529417e-01) (0, 2.76760831475257873535e-02) (1, 5.42999065779253164976e-01) (2, -3.42395592007733950979e-01) (3, -4.53949204648496085213e+00) (4, -6.64855545284073556900e+00) (5, -2.45431670067678489033e+01) (6, -1.59848723706185702476e+00) (7, 7.25816948845484244401e+00) (8, 3.45036164773374565140e-01) (9, -1.23094570479025167131e+00) (0, -2.74557322263717651367e-02) (1, -2.63763944357536306295e-01) (2, 1.59908352457243163602e-01) (3, -1.67978201333396315320e+00) (4, 1.09943166107569223477e+00) (5, 3.12458875332818086790e+00) (6, 2.58698023661253051486e-01) (7, 4.29163353678952363968e-01) (8, -8.73213620211107488522e-01) (9, 7.64665781332897975808e-01) (0, 1.83659791946411132812e-02) (1, 3.58377148992750305112e+00) (2, -2.65941407559078735190e+00) (3, -1.62797886140021930146e+01) (4, -3.03034118858104450922e+00) (5, -3.13443972856626507095e+00) (6, -4.18596597324955910224e-01) (7, 2.38904324664150600199e+01) (8, 7.18651409907123173149e-01) (9, -9.12606097104679392373e+00) (0, -1.04011148214340209961e-02) (1, -4.39403655098364431808e+00) (2, 3.38180864018521942782e+00) (3, -5.82829824179700306530e-01) (4, 1.12094197384498883707e+01) (5, 1.38846212137505631290e+01) (6, -3.92826426182535870524e+00) (7, -1.38369661885681267677e+01) (8, -8.61824697916159510047e-02) (9, 1.12155659873403354965e+01) (0, -2.86110192537307739258e-02) (1, -1.68117816724105084703e+00) (2, 1.38006508892528190202e+00) (3, -4.29431000632140236206e+00) (4, 6.72718155075655843689e+00) (5, 1.25853693422236361243e+01) (6, -4.11932172331606505367e+00) (7, 3.13438486006012562157e+00) (8, 1.12587064261312574942e+00) (9, 4.45783598293481997388e+00) (0, -1.94450020790100097656e-02) (1, -4.33538602389446570129e+00) (2, 3.23640653749416884466e+00) (3, 7.69467929842254605433e+00) (4, 1.43934744963084559899e+00) (5, 7.41484364910873150478e+00) (6, -7.07555238187348778389e-01) (7, -1.26950633269076451626e+01) (8, -8.46092608172245991272e-02) (9, 1.10833380283774580732e+01) (0, 1.47542208433151245117e-02) (1, 3.31778971137316969209e-01) (2, -2.38668399141239467864e-01) (3, -9.90841007452825217605e-01) (4, 4.20731869258148885593e-02) (5, -1.32273837751039535782e+00) (6, -2.12239223940681842606e+00) (7, 7.60123415013919556671e-01) (8, -9.63944020035012893999e-01) (9, -8.21542056356295291586e-01) (0, 5.37951067090034484863e-02) (1, -1.36951915466575428054e-02) (2, -2.76691494850019696627e-02) (3, 1.71369204765995419848e+00) (4, 7.79969890807883925454e-01) (5, 6.63981782291427902187e-01) (6, 5.16317043905915262769e-01) (7, -2.62158626044370590691e+00) (8, -1.70478548273424929116e-01) (9, 6.86199123767059632195e-02) (0, 5.17394170165061950684e-02) (1, 8.85682388807490994509e+00) (2, -6.61508156295956695203e+00) (3, -6.88053000415332904893e-01) (4, 1.54631016925742930113e+01) (5, 2.61630723982201587319e+01) (6, 1.16972909025171323272e-01) (7, 2.92626500333336423409e+01) (8, -1.64739677319705823955e+00) (9, -2.20060398905157761362e+01) (0, -4.57151718437671661377e-02) (1, 2.05698285751345077976e-02) (2, 5.50057944467369983044e-02) (3, 4.87583323385131661709e-01) (4, 5.57817191548137913948e-01) (5, -2.30240020345073154173e-01) (6, 1.08788125692256307242e-01) (7, -3.09845507887715476691e-01) (8, -2.41425371159240120811e-01) (9, -3.03834240267872694730e-02) (0, 8.86736288666725158691e-02) (1, -4.86826100737432376775e+00) (2, 3.53409688019195433739e+00) (3, -1.14849218764402962734e+01) (4, -2.09376007727649998680e-01) (5, -1.11771689869529105010e+01) (6, 5.66381162173998209397e+00) (7, 4.08901756046749795814e+01) (8, 3.56376723553224472596e+00) (9, 1.20726393036768335776e+01) (0, -3.46296727657318115234e-02) (1, 1.67524311417933513546e+00) (2, -1.16174408588175648305e+00) (3, -5.79024380341638500447e-01) (4, 5.32440383504446224094e-01) (5, 1.43752709446351811806e+00) (6, -2.44868245939604634032e+00) (7, 2.74538903012391866110e-01) (8, -1.20658855938435460864e+00) (9, -4.08783143819761196625e+00) (0, -6.91942051053047180176e-02) (1, 1.51525318584115539777e-02) (2, 6.66758753653906924286e-03) (3, 2.13335671058844278392e+00) (4, 1.21559014470035120503e+00) (5, -2.83002351101784344056e-01) (6, 9.31463122360926210064e-01) (7, -1.55103949289633935571e+00) (8, -5.82143684532239857887e-01) (9, 8.10754187509828139202e-02) (0, -5.58326356112957000732e-02) (1, 9.65902018085633556899e-02) (2, -8.38450590175710830376e-02) (3, 1.68031297691451486642e+00) (4, 5.24791172098811875557e-01) (5, 6.79521407258644044580e-02) (6, 4.37398781898241439947e-01) (7, -1.57068184748309835896e+00) (8, -3.10672415682771485557e-01) (9, -1.43994844295041654614e-02) (0, -4.88442145287990570068e-02) (1, -9.82641332403358241931e-02) (2, 1.63987281216508087867e-02) (3, -1.86503404247721626952e+00) (4, -1.18838910027857469487e+00) (5, 5.82748840840848436606e-01) (6, -5.15981339767902102977e+00) (7, -1.27025127171456575503e+00) (8, -5.98838138490783600254e-01) (9, 1.23761488261762739316e-01) (0, 8.15638527274131774902e-02) (1, -2.58179236731276517958e+00) (2, 1.90702853561386498349e+00) (3, 5.74378718145381750304e+00) (4, -9.56882883651383764345e+00) (5, -1.92030050657210296094e+01) (6, -7.64425932351074921556e-01) (7, -1.26305065233341320408e+01) (8, -9.65043430323413664595e-01) (9, 6.42417279832660703676e+00) (0, 7.06345662474632263184e-02) (1, -5.68247879870645067335e-01) (2, 4.84343404193235238520e-01) (3, 2.22292006973143774218e+00) (4, 1.84803940743713623895e+00) (5, 1.39356350004838192014e+00) (6, 8.53630408689998065874e-01) (7, 1.47736392932702353953e+00) (8, 6.04303270203718767561e-01) (9, 1.53144417660099541045e+00) (0, -6.10556118190288543701e-02) (1, 1.12402426301094893191e+00) (2, -8.06094561508490015100e-01) (3, 5.64906885645283018960e-01) (4, 6.49141827922713909871e-01) (5, -1.24263731086514131463e-01) (6, 1.96507353168428433587e-01) (7, 6.91519459463794006204e-01) (8, -9.08143601170521980182e-02) (9, -2.89964737739946309958e+00) (0, 9.27381590008735656738e-02) (1, -1.16009294263557348470e-02) (2, -2.15763306787286855692e-02) (3, 4.87722818632185917131e-01) (4, 3.33605107170788395266e-01) (5, 2.70728445376498150221e-01) (6, 2.46666902603715904041e-01) (7, -5.45183850048854723447e-01) (8, -1.75191349919433553284e-01) (9, -4.64525168705986271633e-02) (0, -3.66573110222816467285e-02) (1, -8.37237049683649814380e-02) (2, 4.46979391978213347336e-02) (3, 1.39707470954730705870e+00) (4, -1.51022384729057684849e-01) (5, -4.97960907971977118081e-01) (6, 4.22982327875273844686e-01) (7, -1.91490365055375066916e+00) (8, 5.87100073856532400640e-01) (9, 3.36311602230628281518e-01) (0, -7.98605978488922119141e-02) (1, 8.95169739634576328013e-02) (2, -1.46113266401516478377e-01) (3, 2.20817602573001137145e+00) (4, -1.80596403138302519231e+00) (5, -4.45704502748726572037e+00) (6, -5.52279719049820094767e-01) (7, -2.79443886601621560573e-01) (8, 8.90664553760441846109e-01) (9, -3.64960977115345697186e-01) (0, -9.00056883692741394043e-02) (1, 1.88350337506441173341e-01) (2, -8.41496159220805374501e-03) (3, 1.65284423604170727096e+00) (4, -1.46666161191792476792e+00) (5, -3.73453926940795133405e+00) (6, -2.28232140229386981645e-01) (7, -5.55669017390533870326e-01) (8, 8.43688056532490127104e-01) (9, -4.12418964657002840024e-01) (0, -7.57628157734870910645e-02) (1, -7.57774087939571017181e-01) (2, 6.23469010482990859678e-01) (3, -8.78184390842851381187e-01) (4, -2.29779138516472525300e-01) (5, 6.88266947291645392326e-01) (6, -6.65981306698237407460e-01) (7, -1.55450404015224652454e+00) (8, -5.38986786666033612647e-01) (9, 1.99063332789534941369e+00) (0, -5.67554309964179992676e-02) (1, 3.34297610353713858800e-01) (2, -1.06680605955723803446e-01) (3, 4.65444562676723738726e-01) (4, -1.14797132706574167571e+00) (5, -2.35823532651452216768e+00) (6, 1.88882968580387400337e+00) (7, 5.72021342698695978157e+00) (8, 9.33914467362172651121e-01) (9, -7.23035706903128461143e-01) (0, 4.10800054669380187988e-02) (1, 4.74517608380228994580e-01) (2, -2.40383101400877430276e-01) (3, -4.85038130046331161793e+00) (4, -1.15149534098307904095e+00) (5, -9.53015808348344650724e-01) (6, -6.55149439921120096963e-02) (7, 5.22402274059194660083e+00) (8, 4.19910291603369442703e-02) (9, -1.04859577664717984469e+00) (0, 6.76539614796638488770e-02) (1, -5.75135891124721632117e-01) (2, 3.98228091735500722148e-01) (3, 2.05649715911247188416e+00) (4, 1.96807119074434244688e+00) (5, 1.56646968345127945987e+00) (6, 8.48541609053874656965e-01) (7, 1.51009392282080434633e+00) (8, 5.78422421911127249139e-01) (9, 1.55158806588125153247e+00) (0, 6.16361573338508605957e-02) (1, -6.60929996017699972199e-01) (2, 4.58875246900226629876e-01) (3, 1.54827746573721158896e+00) (4, 7.75048163765437059247e-01) (5, 1.42696841639739857577e+00) (6, 2.20713136131903420178e+00) (7, -1.63868396319715237119e+00) (8, 6.36335925358356035986e-01) (9, 1.47957727373626579670e+00) (0, -2.92204022407531738281e-02) (1, 6.05722108417436483352e-02) (2, 1.06358564352551407395e-01) (3, -2.93202215929334242261e+00) (4, 4.98211852353085760114e+00) (5, 1.24863340206243620401e+01) (6, 2.03652911986898610408e+00) (7, 2.36706247553491655466e+00) (8, 6.11421367868883569585e-01) (9, 1.37453073279934584461e-01) (0, 1.78121104836463928223e-02) (1, -5.46882325293193471971e-01) (2, 4.74199553118050065592e-01) (3, 2.82291964467432654473e+00) (4, 1.74257668463444836959e+00) (5, 1.25443015721109185634e+00) (6, 1.04660327811215880800e+00) (7, 1.28818937592618776300e+00) (8, 1.07119724321336207140e+00) (9, 1.52626203343909905286e+00) (0, 6.72532394528388977051e-02) (1, 8.76186947989906518564e-03) (2, 7.38948590239219132991e-02) (3, -2.30134331158208221835e-01) (4, -5.88451805731765240082e-02) (5, -8.78372447360229902102e-01) (6, -4.73188158423507032602e-01) (7, 9.70039034857307136406e-01) (8, 6.50886145688039097212e-02) (9, 5.35493639370077795236e-02) (0, -7.74369835853576660156e-02) (1, 1.43209348337265329754e+00) (2, -1.08552655739162795534e+00) (3, -6.99066024488984361085e+00) (4, -6.10589248604378731500e+00) (5, -1.07218604083000830229e+01) (6, -2.48146783771257073425e+00) (7, 5.97294462940306658538e+00) (8, -2.07960273395576988875e+00) (9, -3.74718330469125993076e+00) (0, 6.82292655110359191895e-02) (1, -2.41282617476865551831e-01) (2, 1.24898964857447516974e-01) (3, -3.96700004557488039580e+00) (4, 3.68148773858588596042e+00) (5, 7.59217911262314348875e+00) (6, 1.65965887522686794675e+00) (7, 2.13189752142450439365e+00) (8, 1.37544521416314413642e+00) (9, 8.17268962482895933164e-01) (0, 3.51498201489448547363e-02) (1, -6.75791756308585456203e-01) (2, 5.00205837930737362562e-01) (3, 3.38451806711076264023e+00) (4, 1.07513562893377851992e+01) (5, 2.06266002443416489598e+01) (6, 3.44257126464811680222e+00) (7, -4.73823731158713012945e+00) (8, 8.31124840901198247423e+00) (9, 1.57958764085034042424e+00) (0, 9.71095338463783264160e-02) (1, 1.43213473663201340536e+00) (2, -1.04181409370379673973e+00) (3, 6.56712647948321515123e-01) (4, 1.39794742165541663326e+00) (5, -1.38957714028696333042e-01) (6, -8.29658863737202323385e-01) (7, -4.27956274684186288582e-01) (8, 4.08590644793949853142e-01) (9, -3.32040476688118824100e+00) (0, -5.27947396039962768555e-03) (1, 4.12308042966048782230e-01) (2, -2.40881467776691365890e-01) (3, -3.46835739050698921293e-01) (4, -2.32950692671855552618e+00) (5, -5.20535496809653430716e+00) (6, -3.04366072594640491022e-01) (7, -2.02691614486019169306e+01) (8, -2.22157960682864930035e+00) (9, -9.42697081028468608643e-01) (0, -3.97828184068202972412e-02) (1, -5.40780527753391693224e-01) (2, 5.59565976903928286035e-01) (3, 2.74265142023495300805e+00) (4, 1.73705064990112933998e+00) (5, 9.50432830017648000442e-01) (6, 9.71689369970772265361e-01) (7, 1.26318438242077912825e+00) (8, 1.19946977590730896601e+00) (9, 1.57912394370320563475e+00) (0, 8.13385471701622009277e-02) (1, 1.30335878090453074346e-02) (2, -2.68673269128659897992e-03) (3, -3.62520135371556639914e-01) (4, -2.21866806993265636150e-01) (5, 2.04346512187081080780e-01) (6, 1.22388667134245548301e-02) (7, 1.52188094152444358675e-01) (8, 1.08300979409494596561e-01) (9, 9.01844139507699954494e-02) (0, -4.53112535178661346436e-02) (1, -2.30965934589082699802e+00) (2, 1.83815441388438349790e+00) (3, 1.13395894099012988221e+01) (4, 8.92366006610543749389e+00) (5, 1.32743732503401403733e+01) (6, 2.77767504744283755258e+00) (7, -1.10546433467316784771e+01) (8, 1.62599160086748728560e+00) (9, 5.94467490277579546643e+00) (0, 4.04552891850471496582e-02) (1, 2.80174804196991478200e-02) (2, -5.45606519670123121801e-03) (3, -7.55150063568836760197e+00) (4, 8.68011964667307012178e+00) (5, 9.21007383591524764199e+00) (6, 3.24950533569122201882e+00) (7, 3.01221752538510187946e+01) (8, 1.98198387023087230219e+00) (9, -1.04648164774463675597e-01) (0, -9.36702638864517211914e-03) (1, 1.93817746350250896814e-01) (2, -1.96030858315103778677e-01) (3, 1.97654704894252830627e+00) (4, 1.41507393871009745645e+00) (5, -5.89510187060797163916e-01) (6, 5.86659645573670918139e+00) (7, 9.87366793950247734202e-01) (8, 6.66821244339074969965e-01) (9, -4.37129940115124404620e-01) (0, -2.15276107192039489746e-02) (1, 5.67580295741247020658e-01) (2, -5.73879912971869687865e-01) (3, -2.15054272904811716316e+00) (4, -1.91087167097353671785e+00) (5, -6.69884840919383495184e-01) (6, -9.17259167656652940614e-01) (7, -1.57079582434963893611e+00) (8, -8.77348318936277626889e-01) (9, -1.60836481958803001469e+00) (0, 8.02629068493843078613e-02) (1, -5.31023399453531652625e+00) (2, 4.03193530754091256085e+00) (3, 2.15501676129277797145e+00) (4, 5.44072835308117852549e+00) (5, 1.18327074760888422134e+01) (6, 1.01622175388847182376e+01) (7, -1.83659304587329046399e+01) (8, 2.08071181804657356906e+00) (9, 1.31210766489455590289e+01) (0, -4.22188006341457366943e-02) (1, 4.98804160034535398749e-02) (2, -8.24090416040367396144e-02) (3, -1.86751368187538191457e+00) (4, -7.47750552286509440059e-01) (5, -2.67783678666964786164e-01) (6, -4.49032124809787103192e-01) (7, 2.09976792270365608672e+00) (8, 2.67656300879183739472e-01) (9, 1.08011836042969058824e-01) (0, -3.58976423740386962891e-04) (1, -6.94916311630164651447e-01) (2, 4.68062863669908624242e-01) (3, -4.29647809146818815407e+00) (4, 4.27734715235915974318e+00) (5, 8.11936112726501058035e+00) (6, 2.08377490051262670434e+00) (7, 7.12274703486146854026e-01) (8, -6.01157416089975749074e-01) (9, 1.84872226225541513855e+00) (0, -2.12613493204116821289e-02) (1, -1.14798660794352080927e-01) (2, 1.14067363157894868797e-01) (3, -4.51578887492713132445e+00) (4, 7.08023169077105407609e+00) (5, 1.40973538988999962385e+01) (6, 2.21573929318490225882e+00) (7, 2.50811618492451193774e+00) (8, 7.01386783541811054121e-01) (9, 3.65205944128230153289e-01) (0, 3.80501225590705871582e-02) (1, 1.61114659584150748950e-01) (2, 8.36777003356388784927e-03) (3, 6.23977394431336374048e-01) (4, -8.43329631993390171907e-01) (5, -1.11764165337634424624e+00) (6, -4.07076445633397093760e-02) (7, -1.30454093215007183026e+00) (8, 5.49755128884351074170e-01) (9, -2.47051525057414844699e-01) (0, -7.47673809528350830078e-02) (1, 6.20967063837241983748e-01) (2, -4.33350956836574985331e-01) (3, -1.85536054094270941306e+00) (4, -2.60700140948928860141e+00) (5, -2.72188181006858398447e+00) (6, -1.08083885599274620581e+00) (7, -1.86651624749216171750e+00) (8, -8.81744769276275319747e-01) (9, -1.64890594167560777805e+00) (0, 7.59674981236457824707e-02) (1, 5.95240654532425805812e-01) (2, -5.01947210718360681270e-01) (3, -1.26746947079479227449e-01) (4, 1.91292425321109099690e-01) (5, -1.82369997653182180919e+00) (6, -7.36481277245935705977e-01) (7, 1.07098429804356554129e+00) (8, -1.31891929104842597908e+00) (9, -1.54055933402431710633e+00) (0, -5.44551201164722442627e-02) (1, 1.41187862340775782677e+00) (2, -1.04601170334292659092e+00) (3, -4.92124861539028346513e-01) (4, -1.40619597149281472248e+00) (5, -2.03171764587649184008e+00) (6, 2.26287928548679317942e+00) (7, 7.11445325819396945377e+00) (8, -1.35673545566692013153e+01) (9, -3.71028129468293910165e+00) (0, -9.39122438430786132812e-02) (1, -5.90895381980383604947e-01) (2, 3.55222234437197637025e-01) (3, 1.82508751431011884137e+00) (4, 2.57656140176000514330e+00) (5, 3.49514787635483914485e+00) (6, 1.18564143208940286911e+00) (7, 2.25631421377896534963e+00) (8, 7.77180880588804190445e-01) (9, 1.46853404594726599797e+00) (0, 6.44771531224250793457e-02) (1, -3.53190127369899353749e-01) (2, 1.17704755334259267285e-01) (3, -9.79405060200938204495e-01) (4, 4.26362420456889823495e-01) (5, 1.51054025446572603997e+00) (6, -1.12566543764503501635e+00) (7, -3.30118188178597327109e+00) (8, -1.05670233663494639309e+00) (9, 6.25533373053285934873e-01) (0, 4.09920513629913330078e-03) (1, -6.83298863835567898972e-02) (2, -1.78448663760301003134e-02) (3, -1.76357348941188241120e+00) (4, -1.57560171413577654320e+00) (5, 2.39459582009372645706e-01) (6, -1.46820652919400163050e+00) (7, -1.84982530590944893589e+00) (8, -5.98554191793586154446e-01) (9, -3.14034502072968388364e-02) (0, 2.34007835388183593750e-03) (1, -8.15362358521121244337e+00) (2, 6.17127142235629833067e+00) (3, 6.76021184439366340513e+00) (4, -1.86684521098631095448e+00) (5, -1.20123893621871702386e+00) (6, 6.60490813813891630701e+00) (7, -1.92509800982157770477e+01) (8, 8.57231621551933775649e-01) (9, 2.03750344286563560559e+01) (0, 8.56197401881217956543e-02) (1, 6.57505908767948454852e-01) (2, -4.79048761847937043523e-01) (3, -1.55772430145527529533e+00) (4, 1.11413557826602316325e+00) (5, -1.97794681502020730512e-01) (6, -8.63665076136690967878e-01) (7, 2.29197855819154874268e+01) (8, -3.44941834707902239554e-01) (9, -1.82727070193218210648e+00) (0, 8.10742452740669250488e-02) (1, -3.37455059405122104188e-01) (2, 3.22483426194624667183e-01) (3, 1.59588314265490738286e+00) (4, 2.32181190032879314344e+00) (5, 1.30824269315980346029e+00) (6, 6.91981265595734140739e-01) (7, 2.43235992986501825541e+00) (8, -7.38586149603635888639e-01) (9, 9.56450081903265525440e-01) (0, 4.14356812834739685059e-02) (1, 9.87998752262726043227e-01) (2, -6.73596792642924158123e-01) (3, 8.73544971397055669549e-01) (4, 2.30307132588356378022e+00) (5, 9.27421468692009309809e-02) (6, -1.74870421014714083618e+00) (7, 3.72693045420799951017e+00) (8, -3.19776474698495194460e+00) (9, -2.37880536160329203454e+00) (0, 1.29981786012649536133e-02) (1, 1.59562755025538383080e+00) (2, -1.26963388470675897501e+00) (3, 1.55016688452967610345e+00) (4, -2.99321946963456264612e+00) (5, -8.14462733058044818790e+00) (6, 4.68161045638594153218e+00) (7, -3.17354450107146490723e+00) (8, -1.29320557826814219737e+00) (9, -4.22895401584905972214e+00) (0, -6.48258104920387268066e-02) (1, -4.15699955309764765388e-02) (2, -5.85808957746481034912e-02) (3, -3.09965130560129109583e+00) (4, 2.27840470281491791482e+00) (5, 4.89499761064797667132e+00) (6, -3.48963803335344477374e-02) (7, 5.29158068500870437667e-01) (8, -1.32521726035595782678e-01) (9, 1.37626810988079134601e-01) (0, 8.09646770358085632324e-02) (1, -7.18991773215809870656e-01) (2, 4.84671322172420981911e-01) (3, -3.74501187499376997359e-01) (4, -3.98557037144201334322e-02) (5, 2.71111028040672508155e+00) (6, 4.44497441995225450739e-01) (7, -1.83193177311950054775e-02) (8, 1.60161663694147549108e+00) (9, 1.62935346833907379605e+00) (0, 7.69443586468696594238e-02) (1, -2.86677879340539142061e-02) (2, 7.64922873855064522353e-02) (3, -1.78225879672468434656e+00) (4, -1.39853441330911132390e+00) (5, 5.06992611520592939556e-01) (6, -1.27581045368791978767e+00) (7, -2.23235426405474646216e+00) (8, 2.96490906468825331233e-02) (9, 4.46620166917325589484e-02) (0, -9.96698811650276184082e-02) (1, 2.95816758044549077411e+00) (2, -2.26145238070202569958e+00) (3, -5.16829237657644036119e+00) (4, -6.48636946614162912539e+00) (5, -1.78230477000181082303e+01) (6, 3.27413437028337972468e-01) (7, 1.11081830705868593867e+01) (8, -3.57022947034592652571e+00) (9, -7.23437073623187831828e+00) (0, 7.34025761485099792480e-02) (1, -3.43311118362311928909e-01) (2, 2.79353272004305208664e-01) (3, -1.80352244984511078663e+00) (4, -1.56831616778313809313e-01) (5, 2.32071099831893068455e+00) (6, -2.26133952137467852950e+00) (7, -5.17686078381952352601e+00) (8, 3.21900095874257996531e-01) (9, 7.78753614122461024216e-01) (0, -4.82754595577716827393e-02) (1, -2.33819085245228031056e+00) (2, 1.81869263675088266297e+00) (3, -5.76975802458162245756e+00) (4, 7.51103971253805191566e+00) (5, 1.65905404538717888840e+01) (6, -5.76988800279042290953e+00) (7, 2.84587330500247182030e+00) (8, 8.69418017161760037226e-01) (9, 6.00880541739986817618e+00) (0, 4.84112873673439025879e-02) (1, 8.46014176374243920264e-01) (2, -6.92444458280727537236e-01) (3, 1.51878151004723016548e+00) (4, 2.34820718152274343637e+00) (5, -8.65706622217108257011e-01) (6, -1.96095083043460932659e-01) (7, 3.58384944764473045709e+00) (8, -3.45681116177585812110e+00) (9, -2.32593536393438249377e+00) (0, -8.89323055744171142578e-02) (1, 2.83664805172492207053e-01) (2, -1.06488104893940033202e-01) (3, -4.81480701113609632635e-01) (4, -5.38041886798632310041e-02) (5, -1.02315535171463323216e+00) (6, -1.08183934320888197611e+00) (7, 5.10955953238347526657e-01) (8, -3.60112199102510299742e-01) (9, -4.03485526589177134760e-01) (0, 9.88599881529808044434e-02) (1, 3.88080124014667293686e-01) (2, -2.71691543201849072808e-01) (3, 4.21266506244519511881e+00) (4, 1.10600937693537701989e+01) (5, 1.86729892440936993125e+01) (6, 1.48417986250625393296e+01) (7, 1.21075474595128115829e-01) (8, 3.44172657472579857085e+00) (9, -1.04203583537241950552e+00) (0, -4.85407970845699310303e-02) (1, -2.49270651377852148212e-01) (2, 1.82883947072518066035e-01) (3, 4.54755054548543480308e+00) (4, 1.39013589564889916694e+00) (5, 6.58630177150025142296e-01) (6, 4.61770007920602430784e-03) (7, -4.55810843135175236540e+00) (8, 1.02908407440792493137e-01) (9, 7.21657270286187535469e-01) (0, -4.13345284759998321533e-02) (1, 8.26879747801406495000e-01) (2, -6.03555372426239800099e-01) (3, -4.75216553242555583836e+00) (4, 9.89629696987573304057e+00) (5, 2.32172518677164738676e+01) (6, 4.49032420946390864458e+00) (7, 9.67674523325817759201e+00) (8, -5.55608082068099473627e-02) (9, -2.12986413909245175802e+00) (0, 5.56906387209892272949e-02) (1, 1.26306982730885447586e-01) (2, -6.88305790686441487658e-02) (3, -1.49128904680154494855e+00) (4, 1.83151470359387349984e-02) (5, -1.07172639584691875569e+00) (6, -1.39586320935383024350e-02) (7, 3.42685639189195523358e+00) (8, -2.07982343645823214429e-01) (9, -1.55854607499830467854e-02) (0, 6.87854364514350891113e-02) (1, 1.80613791318633198912e-01) (2, -9.92260820206897903306e-02) (3, 1.79246761721010239299e+00) (4, -9.07185722707673392051e-01) (5, -3.91233300580354459441e+00) (6, 1.01026187371820230787e+00) (7, 5.06345123901957711032e-02) (8, -1.61048852762052008281e+00) (9, -4.02905406730928394854e-01) (0, 9.40654352307319641113e-02) (1, -2.16335275039612640047e-01) (2, 9.99297291165625739540e-02) (3, -7.32914630127290744888e-01) (4, 8.03185829707278253764e-01) (5, 1.89631187852659355286e+00) (6, -2.21904506702291143272e-01) (7, -2.37461648325200824772e+00) (8, -1.57177399933805128640e+00) (9, 4.80157025201766451961e-01) (0, 4.17912080883979797363e-02) (1, -4.49031594925403065854e-01) (2, 3.19509058097669940146e-01) (3, -1.17726854036411121562e+00) (4, 6.60421619176847052302e-01) (5, 1.88423490958969641618e+00) (6, 9.42588821674842702869e-01) (7, -1.11812546883669705622e+00) (8, -1.19573920865819305348e+00) (9, 8.55629795627799061286e-01) (0, -8.80881398916244506836e-03) (1, 7.76728597496150729995e+00) (2, -5.86216925057864468585e+00) (3, 1.13706512548525822126e+01) (4, 8.01662227749088884821e+00) (5, 1.96764723123636642299e+01) (6, -1.18345859958076271568e+01) (7, -4.85171089377469400006e+01) (8, -1.45156190019067521391e+00) (9, -1.92246442304178835059e+01) (0, -6.79576396942138671875e-02) (1, -1.02191119910088845657e+00) (2, 6.98510663737919701433e-01) (3, -4.52451179983418549924e-01) (4, -4.56174126240670108068e-01) (5, 8.68235690972342655236e-01) (6, 5.40107170125284308249e-01) (7, -7.64169802604431125381e-01) (8, -5.11113571767570912252e-02) (9, 2.56478637384201491045e+00) (0, -6.09879493713378906250e-02) (1, 8.37455799613888052235e-01) (2, -6.57893644970144242379e-01) (3, 5.63799750739971639035e+00) (4, -5.00744622811369310966e+00) (5, -9.58787608183134310025e+00) (6, -3.55811298722190594290e+00) (7, 3.13115437800276896763e-01) (8, -1.17247625061800997415e+00) (9, -1.99412464954833956732e+00) (0, -8.09000954031944274902e-02) (1, -2.23215795212953010962e-01) (2, 2.69861390183328331283e-01) (3, -1.18093427945639750654e+00) (4, -8.29405004615314744854e+00) (5, -1.32239220828656325324e+01) (6, -5.00530559714379563729e+00) (7, -3.27239173355001966570e+00) (8, -4.95030289266560452610e-01) (9, 5.62194691736103702162e-01) (0, -7.84415975213050842285e-02) (1, -4.54143671822155692297e+00) (2, 3.29237459604865856377e+00) (3, 9.98040465434285817281e-01) (4, 3.29158062595993339272e+00) (5, 5.11362605769169231706e+00) (6, 9.17369386265466824071e-01) (7, -1.30745609937151705537e+01) (8, 2.62509540325064660848e+00) (9, 1.12039239159664631984e+01) (0, 4.45964559912681579590e-02) (1, 6.45426734446396976885e-01) (2, -5.84356981633937899723e-01) (3, 7.42165077283868157565e-01) (4, -2.04423791973271318234e-01) (5, -2.75358789155116490122e+00) (6, -4.99326455195328811065e-01) (7, -3.43655043416442373960e-01) (8, -1.07959303513514015549e+00) (9, -1.81396896183189548779e+00) (0, 2.24930047988891601562e-02) (1, 1.19196285590673481392e-01) (2, 6.81647082528756276254e-02) (3, 2.95370229403878559182e+00) (4, -1.88380415042039062179e+00) (5, -4.27622055167656700547e+00) (6, 5.80053161257695348851e-01) (7, -6.26441172030003157190e-01) (8, -3.16119520913578699872e-01) (9, -4.47151369973156700977e-02) (0, -2.70945504307746887207e-02) (1, 2.33400729029605742693e-02) (2, 1.20943420251572744673e-01) (3, 1.34607172333961022659e+00) (4, 6.11098914796959213902e-01) (5, -6.29289949465713094323e-02) (6, 4.24901237538827747375e-01) (7, -1.11189168006717542525e+00) (8, -3.88820330338474962062e-01) (9, 3.28783661798964718659e-02) (0, 7.15065672993659973145e-02) (1, -2.40611486833368726224e+00) (2, 1.65841017068008000912e+00) (3, -4.99142883277036197853e+00) (4, 2.81675792104164735008e+00) (5, -2.23015142599902516096e+00) (6, 1.05212046016589932940e+00) (7, 1.34977628079910996206e+01) (8, 9.65262079289963992323e+00) (9, 5.68626237911462872887e+00) (0, 3.61441001296043395996e-02) (1, -1.30043632248436846766e-01) (2, -4.11948541488518088505e-02) (3, -2.61990791611631523850e+00) (4, 1.48861253463667719821e+00) (5, 4.65717237421757435101e+00) (6, -7.40607084521481384698e-01) (7, 5.85411809056025855824e-01) (8, 1.23772673059161730791e+00) (9, 2.62623786203791009797e-01) (0, -6.25892877578735351562e-02) (1, -2.26357854935959101894e+00) (2, 1.73101259047858757611e+00) (3, -3.74950769721463039730e+00) (4, 3.04128674782547792077e+00) (5, 5.11486027335665038862e+00) (6, -3.77186311702730758810e+00) (7, 4.38787963890534982170e+00) (8, 9.98099147818233167762e-01) (9, 5.52051714145672889344e+00) (0, -9.50172394514083862305e-02) (1, 1.04605760047021087433e-01) (2, -9.33169002602583785855e-02) (3, -1.44535183914426501595e+00) (4, -1.22573350777698975023e+00) (5, 1.71399010871703089132e-01) (6, -7.47134092785903924927e-01) (7, 1.05739969094345731548e+00) (8, 4.39245735748053978131e-01) (9, -1.14915953002756782153e-01) (0, -7.19027221202850341797e-03) (1, -3.82859807366384563565e+00) (2, 2.86767351555954830289e+00) (3, -6.60150515610468513472e+00) (4, -2.04532366254794979454e+01) (5, -3.83341102292072974933e+01) (6, -1.20955099228199622341e-01) (7, -3.68051058106158501815e+00) (8, -2.23894267505441529886e-01) (9, 9.76449752362520584370e+00) (0, -1.37471109628677368164e-02) (1, 3.28157754421843916859e-02) (2, -7.50208598880458960023e-02) (3, -3.92869803365958392138e-01) (4, -4.17502416492616768018e-01) (5, 6.41435408048952160343e-01) (6, -4.32137284068328075826e-01) (7, -1.86935738998695644142e-01) (8, 2.31234806599392078708e-01) (9, -4.58447825608396947183e-02) (0, 3.24374511837959289551e-02) (1, -6.43037821478836257860e-01) (2, 3.16681160127298078066e-01) (3, 5.19169996877599260188e+00) (4, 9.70286177971653618357e-01) (5, 1.96623585111386306457e-01) (6, 1.89406027912435631633e-01) (7, -5.76680871521972449045e+00) (8, 1.10075667434306329051e-02) (9, 1.41619081081698428015e+00) (0, 1.40858739614486694336e-02) (1, 8.96538959219920217336e-02) (2, -1.20284385329044965496e-01) (3, 1.03280586322881240413e+00) (4, -1.47822105967575212482e+00) (5, -2.55494652629912399888e+00) (6, -6.06681583229692067416e-02) (7, -1.18605271370516640594e+00) (8, 6.10440378249440973590e-01) (9, -4.75307107289056562927e-01) (0, 5.25979474186897277832e-02) (1, -1.29916706913370455512e-01) (2, -2.68216101573297144300e-02) (3, 7.72273195439590498523e-01) (4, 3.82804008504548765046e-01) (5, 3.67241277413794198203e-01) (6, 7.05382290361689312519e-01) (7, -7.93463954653580993970e-01) (8, -9.72116568302621442133e-02) (9, 1.64871991261200140366e-01) (0, -5.82334175705909729004e-02) (1, -2.81776365462051104835e-03) (2, 3.38283339650817596600e-02) (3, -5.32836933080008345875e-01) (4, -2.51555388036447780120e-01) (5, -8.05988988673116635297e-01) (6, -5.04507931638562667764e-01) (7, 1.49909749748207610232e+00) (8, 6.78826544653107349925e-02) (9, 1.55379331807825298711e-02) (0, -9.85348224639892578125e-03) (1, 4.79697922589688630080e-01) (2, -3.22750305550084104489e-01) (3, -2.28601025894257814386e+00) (4, -1.62989302560233961792e+00) (5, -7.64500448824002809545e-01) (6, -8.95983034792171673111e-01) (7, -1.29326140943524570126e+00) (8, -7.62338678592292318115e-01) (9, -1.35324019745620138799e+00) (0, -5.27510792016983032227e-02) (1, 4.50387720511621139630e-02) (2, 8.42092750603945852661e-03) (3, 4.24413410617943742675e-01) (4, -4.60540667846919826722e-02) (5, 1.50016133728783040979e+00) (6, -9.85644486631157445977e-01) (7, -3.92350923266914053400e+00) (8, -2.98443409417540571338e-02) (9, -2.54959047894730728157e-01) (0, 5.04931733012199401855e-02) (1, 2.97525097001787930395e+00) (2, -2.24592537857296203896e+00) (3, -6.14482327184567278522e+00) (4, 3.15010340751743189713e+00) (5, 5.51559742526529617201e-01) (6, 2.05050695753934597576e+01) (7, 6.84955899183230521032e-01) (8, 1.40387451351997816218e+00) (9, -7.57117845539343203853e+00) (0, -8.55635479092597961426e-02) (1, -6.94558139338018065700e+00) (2, 5.15509221288472385680e+00) (3, -3.78566038305488294924e-01) (4, -1.22378159718676347012e+01) (5, -2.71644614086629765382e+01) (6, 2.71682291441181744673e+00) (7, 5.43108221098059829046e+00) (8, 1.63595458875986254910e+00) (9, 1.73708538945454655789e+01) (0, 1.52709633111953735352e-02) (1, -4.17802187461230600807e-02) (2, -4.10200988756877008012e-02) (3, -1.21397786257710227353e+00) (4, -1.03572608491080053739e+00) (5, 2.80978267263418124422e-01) (6, -6.04592479395818727106e-01) (7, 4.68640613620861734567e-01) (8, 5.67191863837844811869e-01) (9, -9.49387245734385348817e-02) (0, -7.65606313943862915039e-02) (1, -4.91294978673865109786e-02) (2, -5.96065581875751676622e-02) (3, -6.11697418493450939536e-01) (4, 3.23540272923281524431e-01) (5, -7.73761094861318388105e-01) (6, -3.06192953729172767652e-01) (7, 1.66339409670467697211e+00) (8, -1.00225522487613877276e-01) (9, 3.53180017608291443865e-02) (0, -1.02403908967971801758e-02) (1, 8.37775940651472317278e-02) (2, 1.03771597150455488490e-01) (3, 7.82280309841490661960e-01) (4, 2.88932917794377186471e-01) (5, -4.18969054388436193403e-02) (6, 1.73836349125154360218e-01) (7, -6.53306220100310031107e-01) (8, -1.48613361051434439419e-01) (9, -1.35258460923805209908e-02) (0, 3.88511493802070617676e-02) (1, 1.58144567884061726382e+00) (2, -1.26640460995633041819e+00) (3, 1.65382889871965965689e+00) (4, -3.08878923730748944365e+00) (5, -8.25541483614592230822e+00) (6, 4.54653787120168040303e+00) (7, -3.18003153390202752959e+00) (8, -1.25275887502299521081e+00) (9, -4.15436093452346177912e+00) (0, 2.68110707402229309082e-02) (1, -1.61369301242555218678e+00) (2, 1.35181068713214957988e+00) (3, 7.39291381093332766739e+00) (4, -3.24886354594158932585e+00) (5, -5.19554405257030094134e+00) (6, 1.01363404381240673757e+00) (7, 4.33958058062836915525e+00) (8, 9.85926939519291445357e-01) (9, 4.23331791939877888353e+00) (0, -9.71677303314208984375e-02) (1, 6.53001994088148601803e-02) (2, -5.51497530334714020084e-02) (3, 4.83863147571080287612e-01) (4, -5.12527290828014736590e-01) (5, 7.09138740948202839220e-01) (6, -3.34768368194874599286e-01) (7, -2.89968299834822040850e+00) (8, 4.22509439032432210226e-01) (9, -1.22749343561704651884e-01) (0, -6.51223734021186828613e-02) (1, 3.97668901523084150629e-01) (2, -3.14187778860549049575e-01) (3, 3.08672037449967584521e+00) (4, -3.58437878336218407327e+00) (5, -7.84095845043137273933e+00) (6, -2.31226062348466054885e+00) (7, -9.61674271585209350377e-01) (8, -3.52970649927884405628e-01) (9, -9.94699538848195063956e-01) (0, -7.75364786386489868164e-02) (1, -5.12498079409318130217e-01) (2, 3.17252759762950864442e-01) (3, 2.79305763648971172586e+00) (4, 2.66866658267007705874e+00) (5, 3.69927605978352413985e+00) (6, 1.82868354416601608392e+00) (7, 2.74363225222924667079e+00) (8, 7.88418036961347157288e-01) (9, 1.15897104931707550790e+00) (0, -8.45943018794059753418e-02) (1, -6.50545739246901955077e-01) (2, 5.20505687678333495150e-01) (3, 2.50408243425199517063e+00) (4, 1.22543213981610565888e+00) (5, 1.15321918354887253955e+00) (6, 2.57999387703655402859e+00) (7, -1.45113846096177856460e+00) (8, 3.43260049374095543850e-01) (9, 1.62608843821595705492e+00) (0, -1.72201618552207946777e-02) (1, -2.46711415281153617629e-01) (2, 1.99560273237288310355e-01) (3, 4.41779167509467374231e+00) (4, 2.33709076268769999629e+00) (5, 3.39301935817188349276e+00) (6, -2.66910901821459800587e+00) (7, -1.09920407558710788720e+01) (8, -2.90209406900530986206e-01) (9, 8.19874656026923442909e-01) (0, -5.96099905669689178467e-02) (1, 4.76145188790093432107e-01) (2, -2.43386129499510800445e-01) (3, -1.51128819651042789474e+00) (4, -2.97994783720991662790e+00) (5, -2.70330506596944797337e+00) (6, -1.35126784747329153902e+00) (7, -2.40530933229701604503e+00) (8, 1.71270433809172867301e-01) (9, -1.04236349533094307951e+00) (0, 1.36386156082153320312e-02) (1, -7.96515944444485674003e-02) (2, 1.18074922149419003770e-02) (3, 2.24888862423455154760e-01) (4, 1.78341850968087361692e-03) (5, -1.20332084667557648316e+00) (6, 5.47747461195247087318e-01) (7, 1.50218056844463299093e+00) (8, 2.81992753486020431009e-01) (9, 4.56696447691580964534e-01) (0, 2.63125970959663391113e-02) (1, 3.19079341437732977305e-02) (2, -5.77065214106725708071e-03) (3, 1.83623732204553080649e+00) (4, 1.52431968775862247689e+00) (5, -5.39258402666721314844e-01) (6, 1.35840246931704422551e+00) (7, 2.46129259002231259856e+00) (8, -7.79895214450590373856e-02) (9, -2.92037316152477632869e-01) (0, 7.18585327267646789551e-02) (1, -3.55102632183453836845e-01) (2, 2.40307324557568396939e-01) (3, 1.08859170643234803855e+00) (4, 4.03341125546977652405e-01) (5, 1.31987394163157656379e+00) (6, 2.22875124963831616753e+00) (7, -7.87495408167708688119e-01) (8, 9.24440715788457434421e-01) (9, 9.28756235139302943615e-01) (0, 4.38271984457969665527e-02) (1, -5.87778136469811959830e-02) (2, -3.57796292499355239602e-02) (3, -2.11920723349917139444e+00) (4, -5.21349048623528710245e-01) (5, -4.31944261017915775991e-01) (6, -4.94831624462275077025e-01) (7, 2.56763393380480575701e+00) (8, 1.12036643763739215962e-01) (9, 5.56088724085044353029e-02) (0, 3.40741649270057678223e-02) (1, 2.35273505131469828910e-01) (2, -1.42527308225269294661e-01) (3, 1.18926678975780997227e+00) (4, -1.13011599743716750766e+00) (5, -2.74138989807909938534e+00) (6, -3.45361921606989918931e-01) (7, -3.28162192714024192330e-01) (8, 8.42402899828487372602e-01) (9, -7.67261231640199992121e-01) (0, 2.93540954589843750000e-03) (1, -7.30608755071266990910e-01) (2, 5.69255040005344548071e-01) (3, 2.11285532951173138372e+00) (4, 2.33201950070571584206e+00) (5, 1.70857577844705943448e+00) (6, 1.22001219714289255158e+00) (7, 1.53009528597876931499e+00) (8, 1.15172004773827318935e+00) (9, 1.58614869718951290167e+00) (0, -8.92943516373634338379e-02) (1, -1.06916298309571211611e+00) (2, 8.83698590766544778141e-01) (3, -4.00024565168638712720e-01) (4, -5.25203909978232852396e-01) (5, 4.30147275416012442317e-01) (6, 1.92910418259996441215e-01) (7, -7.09668725915967191220e-01) (8, 1.44391634435751925469e-01) (9, 2.82939295196185680581e+00) (0, 2.17908844351768493652e-02) (1, -5.99981282845924557279e-01) (2, 4.88673934487299899132e-01) (3, 1.68501480369846201590e+00) (4, 2.69894400536016387804e+00) (5, 3.46155736414700543335e+00) (6, 1.15601772914657119351e+00) (7, 2.11953116900323523808e+00) (8, 8.94234664691060610053e-01) (9, 1.47260567594801794478e+00) (0, 4.57584857940673828125e-04) (1, -2.80613679096164303495e-01) (2, 1.55140585009080345102e-01) (3, -1.25955562075200067085e+00) (4, 1.64231066658833940730e-01) (5, 1.65467442365738381937e+00) (6, -7.42248882586909575210e-01) (7, -1.56518623689664138077e+00) (8, -1.16206228046020432210e+00) (9, 5.73477671554735723980e-01) (0, -5.42437285184860229492e-03) (1, -4.58494408952374643551e-01) (2, 3.42882462983607805285e-01) (3, 5.47368776274535484561e+00) (4, 1.05206276855013491911e+00) (5, 3.23591029237049299105e-01) (6, 8.28172303893283667797e-02) (7, -5.57073105543082736091e+00) (8, 8.01548311000552585193e-03) (9, 1.19074270260019532408e+00) (0, 2.69084945321083068848e-02) (1, 1.77556066242968296764e-01) (2, -1.57642701475085522667e-01) (3, -2.15254425027955953453e+00) (4, -1.48587103716951429710e+00) (5, -3.82413080150854012285e-01) (6, -9.84316765475889976500e-01) (7, -1.40744183706029302172e+00) (8, -4.67140973264826231404e-01) (9, -5.18098054523433493301e-01) (0, -2.49187499284744262695e-02) (1, -1.64155889765457418950e-01) (2, 4.47878834981381163810e-03) (3, -2.52245774824680735193e+00) (4, 2.07883804371217362217e+00) (5, 4.84861998547937922410e+00) (6, 6.13255751053147668550e-01) (7, 2.44290945192449204804e-01) (8, -1.00869990333219305967e+00) (9, 3.29599497133448160469e-01) (0, 3.43756005167961120605e-02) (1, -2.87686931740871409957e+00) (2, 2.15061246157706120741e+00) (3, 1.21200731522657250139e+01) (4, 2.47173704602504340500e+00) (5, 6.52075714713397669442e+00) (6, 4.18277502256760372323e-02) (7, -2.07694536350904108701e+01) (8, 4.72728958111751196292e-01) (9, 7.22474773480376786239e+00) (0, -7.37919881939888000488e-02) (1, 3.10525591361937980395e+00) (2, -2.32729564095752428088e+00) (3, -3.44989816061160459171e+00) (4, 3.53676396958332128762e+00) (5, -1.97325843551076518523e+00) (6, 2.24661816221429244678e+00) (7, 1.76205532687548753756e+01) (8, 4.21847708241585350741e-01) (9, -7.93403555982467967311e+00) (0, 1.33173838257789611816e-02) (1, 7.34976381027877323504e-01) (2, -5.25284523117922730329e-01) (3, 3.20952019348402672883e-01) (4, 2.05737692958828877199e-01) (5, -2.44007424499116654104e+00) (6, -5.43053430200584497101e-01) (7, 1.27259661519652761408e-01) (8, -1.62490998285474819163e+00) (9, -1.63221803671154352955e+00) (0, -6.97753131389617919922e-02) (1, -1.16261794190959000250e-01) (2, 1.41422331492170212652e-02) (3, -5.05514356004276854684e-01) (4, -1.07351463291656679111e-01) (5, -8.12350973409088017441e-01) (6, -4.99610284066137944059e-01) (7, 8.66494992362060512114e-01) (8, 1.43223516520794375007e-01) (9, 1.06070456457918863014e-01) (0, -4.19703796505928039551e-02) (1, 1.24677474494172080277e+00) (2, -1.04288711171925974064e+00) (3, -9.15966279718401360510e-02) (4, 1.15466093534069424997e+00) (5, 1.95930709557236015783e+00) (6, 4.06390608456174140528e-01) (7, 3.60107946459145011886e-01) (8, -3.03570471305481121016e-02) (9, -3.12761639047398221081e+00) (0, 3.19196507334709167480e-02) (1, -1.84332825327148586148e+00) (2, 1.44990412394563827903e+00) (3, -7.04247776240986045337e+00) (4, 4.98249073097671857369e+00) (5, -1.05990302348014253653e+00) (6, 2.61868316075998963655e+00) (7, 2.32439193747331707129e+01) (8, 5.41132437905030982961e+00) (9, 4.87754890903142701575e+00) (0, -3.90899963676929473877e-02) (1, 1.55228004301687505517e+00) (2, -1.10256463062269460806e+00) (3, -4.11626995869669221051e-01) (4, 2.32191775260553151528e-01) (5, 1.10652220109488874655e+00) (6, -1.53624079234984045605e+00) (7, 2.83839331586183268863e-02) (8, -8.74513927644213984181e-01) (9, -3.83959396544062547818e+00) (0, -8.60904231667518615723e-02) (1, 8.54023702679124474546e-02) (2, 1.76626307713942769240e-02) (3, 8.17512715813003935927e-03) (4, 1.78762710115248218967e-01) (5, -8.72083971420190007251e-01) (6, -3.34510387396130259852e-01) (7, 1.03138100356044337680e+00) (8, -2.29469526862112166432e-01) (9, -1.09894258960099425182e-01) (0, 7.20776394009590148926e-02) (1, 2.49427058122988626332e-01) (2, -1.86744667830401278596e-01) (3, 7.11086893260427177488e-01) (4, -1.08204386082066950081e+00) (5, -2.24787689736373552662e+00) (6, 1.66031418790047213818e+00) (7, 4.37045688549892652475e+00) (8, 7.67545416430051918866e-01) (9, -3.34539123681775296681e-01) (0, 9.39136222004890441895e-02) (1, -2.94547685016201044039e-01) (2, 2.32578846089157798005e-01) (3, -4.56140808659217089627e+00) (4, 5.17096622854358045629e+00) (5, 1.15561794677930027575e+01) (6, 3.80535681930382008176e+00) (7, 9.97572714550852279736e-01) (8, 1.19129638777241986247e+00) (9, 8.16115563188879900025e-01) (0, 1.96561589837074279785e-02) (1, 5.95333742037951751946e-01) (2, -4.57367276350994278467e-01) (3, -2.01190731897750429980e+00) (4, -2.26869625654527595771e+00) (5, -2.33747066873222175687e+00) (6, -1.02776791043200566023e+00) (7, -1.92552343202313225312e+00) (8, -7.71857738131990989139e-01) (9, -1.69849177185580502147e+00) (0, -4.60959784686565399170e-02) (1, -3.16364586583458506919e-01) (2, 1.78598931232096941324e-01) (3, -4.13321531942527986558e+00) (4, 3.13875078488828052059e+00) (5, 6.69282538327998999250e+00) (6, 1.29954127726770574114e+00) (7, 2.37669071783187080271e+00) (8, 1.57100782696298479912e+00) (9, 7.69169610570053507992e-01) (0, -8.97450745105743408203e-02) (1, 6.01331150098406541638e-01) (2, -3.51215962740741682868e-01) (3, -5.63657131120597831853e+00) (4, -1.60719672070945196474e+00) (5, -2.00421191709621382415e+00) (6, 3.93496539650839416424e-01) (7, 6.90264999380396826467e+00) (8, -2.30166806776942955981e-01) (9, -1.48847222964927117239e+00) (0, -1.85928270220756530762e-02) (1, -4.93752268570466015807e-02) (2, 1.52941165579444354056e-02) (3, 1.82968246857411176443e+00) (4, 1.09389370636964100569e+00) (5, -6.77783444730499895492e-01) (6, 5.02230954563863818407e+00) (7, 1.31070545337639199346e+00) (8, 6.00219242808535002887e-01) (9, -9.22872392788065126767e-02) (0, 5.67864254117012023926e-02) (1, -3.63743267675700809871e-01) (2, 2.68305294938144422989e-01) (3, -3.67192016195521064859e+00) (4, 2.81677314069575324140e+00) (5, 6.16684784165013955004e+00) (6, 1.15095423051498135791e+00) (7, 1.99472939614128108587e+00) (8, 1.36957555842238076771e+00) (9, 8.44767277365712887516e-01) (0, -2.07792744040489196777e-02) (1, 5.77464412237185920063e-01) (2, -4.25170375469469064011e-01) (3, 1.02406501275913086602e+01) (4, -6.44607468893423529721e+00) (5, -1.25950420546538364164e+01) (6, -2.91947059847957302026e+00) (7, -1.16402225958023457508e+01) (8, 9.66512962759381727418e-02) (9, -1.39424794561048459585e+00) (0, -6.89663290977478027344e-02) (1, 9.69083680135252811816e-01) (2, -7.43379716516356259248e-01) (3, -6.85297373568021561674e-01) (4, -1.10956683030921321453e-01) (5, -2.66520245266764410630e+00) (6, -9.06011853980343229154e-01) (7, 2.31101187122821860598e+00) (8, -2.32305619434812804514e+00) (9, -2.38690785298996432928e+00) (0, -1.76657587289810180664e-02) (1, -1.17901110820202372764e+01) (2, 8.86286292390976981892e+00) (3, 1.41006951796636830210e+01) (4, -1.11079758885082675590e+01) (5, -2.83837203792961219051e+01) (6, 5.03102839486933239854e-01) (7, -5.11388525525542689820e+01) (8, 1.74961941475186533168e+00) (9, 2.92350198048690614883e+01) (0, -5.23844584822654724121e-02) (1, 5.31962775781895547134e-01) (2, -2.49044177007164774240e-01) (3, -5.41862096197865561464e+00) (4, -1.49744929135934534692e+00) (5, -1.70656179218184722579e+00) (6, 2.94013515446126805220e-01) (7, 6.11186916739672092547e+00) (8, -1.42452830248667422497e-01) (9, -1.16769224677242888788e+00) (0, -7.65397027134895324707e-02) (1, -1.76442829947634405308e+00) (2, 1.32636674814544197609e+00) (3, -8.84918616663716295356e-01) (4, -2.53762405641855393057e+00) (5, -1.97549700692259078139e+00) (6, 3.28234232971019723735e+00) (7, -4.93601518863563892836e+00) (8, 3.87414273334530046000e+00) (9, 4.25786404637278259599e+00) (0, -5.75665906071662902832e-02) (1, -2.72102829123294664981e+00) (2, 2.04380095045909193630e+00) (3, -2.93993008964175439601e+00) (4, 5.30856415303459261423e+00) (5, 7.04329938780582054392e+00) (6, 9.90594844944649466356e+00) (7, -7.49715153316223581470e+00) (8, 9.55667997308141115020e-01) (9, 6.51426909254456987242e+00) (0, 9.05218198895454406738e-02) (1, 1.55366242303653967483e+00) (2, -1.23133531864508594111e+00) (3, -3.64717993730399148156e-01) (4, 3.24986538693946003242e-01) (5, 1.29152114248210470038e+00) (6, -1.69113073520316592457e+00) (7, 5.77018844258829696758e-02) (8, -9.15143140051976500260e-01) (9, -3.90118955260769917359e+00) (0, 4.70823273062705993652e-02) (1, -6.38397390432322620057e+00) (2, 4.70909687531473863942e+00) (3, 3.81516365913986277292e+00) (4, 1.93210206725838440356e+00) (5, -3.58735451093427568092e-02) (6, -1.45686689588656115291e+00) (7, -1.48977880924496055570e+01) (8, 1.51488661573558203166e+00) (9, 1.59142622807751550340e+01) (0, 9.81037095189094543457e-02) (1, -6.40761314876759469072e-01) (2, 5.72144420106688533778e-01) (3, 2.06073356111468530827e+00) (4, 2.33344532459854470119e+00) (5, 1.17551383009009358105e+00) (6, 1.08290628955226586605e+00) (7, 1.58412758462191627373e+00) (8, 1.36986487004226065167e+00) (9, 1.73058013381383490881e+00) (0, 6.08797743916511535645e-02) (1, 3.08146278892578395769e-01) (2, -1.66054340701145025649e-01) (3, 9.37065335448251768291e-01) (4, -7.85868755859984835510e-01) (5, -2.31986173150094954210e+00) (6, -1.25256235936684695575e-01) (7, -2.61650222837133017428e-01) (8, 8.63152466535033635608e-01) (9, -7.81902932460912136747e-01) (0, 3.07678058743476867676e-02) (1, 2.10391180604047667302e+00) (2, -1.55040032892775814233e+00) (3, 9.32955237135714376961e-01) (4, 2.82336033550575082884e+00) (5, 2.40932689425468993250e+00) (6, -8.91932297693031728159e-01) (7, -2.30383000814993410543e+00) (8, 3.08251111384956200112e-02) (9, -5.36182501016656143378e+00) (0, -2.02125683426856994629e-02) (1, -3.80210506990929841820e+00) (2, 2.92092922944804112007e+00) (3, 2.50662183649917835737e+00) (4, -3.37841610860740226840e+00) (5, -2.63032625507802375608e+00) (6, -5.73686181853091792249e+00) (7, -2.49355424372521845555e+01) (8, -2.55490876168904590404e-01) (9, 9.72621173226214530416e+00) (0, 6.86391666531562805176e-02) (1, 3.94927683611268454111e-01) (2, -1.51617210835852861406e-01) (3, 3.15470375651496359737e+00) (4, -2.32564782677661252563e+00) (5, -6.19160506528990861597e+00) (6, -1.03028693449591601805e+00) (7, -4.67273591257848619485e-01) (8, 8.66951023786701330254e-02) (9, -8.34848415455281323005e-01) (0, -4.93370741605758666992e-03) (1, 1.42705090393959483919e+01) (2, -1.06989258583928403823e+01) (3, -3.50232135414215264291e+01) (4, -4.88485074248802320085e+00) (5, -4.72566031257980956326e+00) (6, -1.77935123352300439414e+00) (7, 4.47990073097406167335e+01) (8, -4.72618869619791492909e+00) (9, -3.55717548443198268160e+01) (0, 9.19942483305931091309e-02) (1, -1.53334516468742387829e+00) (2, 1.23908114942285174642e+00) (3, 1.38899441294279188952e+01) (4, -4.32051064579482613226e+00) (5, -9.74958955527660009466e+00) (6, 1.85065805297000345320e+01) (7, -9.61958372490982860370e+00) (8, 6.13411813269588934716e-01) (9, 3.72601332225170445156e+00) (0, 7.73066207766532897949e-02) (1, 4.20850377839864286944e-01) (2, -2.71167678990892446755e-01) (3, -5.57725886752990085427e+00) (4, 2.05772877394606856782e+00) (5, 8.55800382787873203938e+00) (6, -9.91487933064993320897e+00) (7, 1.24257070453669138388e+00) (8, -1.91288968143978277414e-01) (9, -1.08348071279723368043e+00) (0, 8.73757079243659973145e-02) (1, -3.49017021764546797602e-01) (2, 2.11737001471050179102e-01) (3, -4.65767102151484468919e+00) (4, 5.98551036293677274358e+00) (5, 1.08194237299023132692e+01) (6, 3.22376409864646129577e+00) (7, 8.85132414167848824427e-01) (8, 1.36229663785404730980e+00) (9, 7.77838775790610559291e-01) (0, -2.82110273838043212891e-03) (1, -1.17994052920682823693e-01) (2, 1.26702543660535361589e-03) (3, -5.48599611065310521774e-01) (4, 7.21965877845565762172e-01) (5, 1.04899226362099784460e+00) (6, 3.03961427212555098699e-04) (7, 1.23350735628528718202e+00) (8, -6.30388147541830257126e-01) (9, 1.52060480798313357731e-01) (0, 1.09921470284461975098e-02) (1, -1.88645965419208389013e-01) (2, 1.70486626446846617489e-01) (3, 1.89924711972452109343e+00) (4, 2.81475504388013186841e+00) (5, 4.61603678526496619128e+00) (6, 9.38267855394068983621e-01) (7, 2.93475027144106892507e+00) (8, -9.09745416861683975362e-01) (9, 3.99313026569848128489e-01) (0, -7.58818760514259338379e-02) (1, 1.77141904874704225747e+00) (2, -1.43602884593709467786e+00) (3, 3.36712760241935260552e+00) (4, -3.65079907981857365584e+00) (5, -4.02492760296344975757e+00) (6, -5.15575072483865692874e+00) (7, 3.23127499362126435756e+00) (8, -3.41008730720062391839e+00) (9, -4.44341576954271033628e+00) (0, -1.42607763409614562988e-02) (1, 2.79437996801569221716e+00) (2, -2.02436170248070101962e+00) (3, -4.90096081099685410010e+00) (4, -5.45981204088781169048e+00) (5, -1.43412908280527648941e+01) (6, -5.05768590602185685867e+00) (7, 1.34494574510498363651e+01) (8, -8.97445293957425560549e-01) (9, -6.89828942857706284286e+00) (0, 5.60836419463157653809e-02) (1, -5.68376205242354881619e-01) (2, 3.66473340896631305519e-01) (3, -1.09500988988166736426e+00) (4, 5.31185858256809972922e-01) (5, 3.22261001233909505359e+00) (6, 3.08807941877986880108e-01) (7, 9.83255397981325329759e-01) (8, 1.06418748513424121782e+00) (9, 1.53545265117547646838e+00) (0, -8.58955606818199157715e-02) (1, -9.22527237448183989876e-01) (2, 6.36736768270346753518e-01) (3, -5.85938692076312661605e-01) (4, -4.08938005804609761018e-01) (5, 1.25395799430967791466e+00) (6, 3.99318545931000024041e-01) (7, -1.06256308527505916040e+00) (8, -2.23343122397922255740e-01) (9, 2.29887763091090313594e+00) (0, -5.81936649978160858154e-02) (1, -8.02390442390922231652e+00) (2, 5.89486021249858005433e+00) (3, 1.07236872561493736811e+01) (4, -8.68113260980238976572e+00) (5, -1.62186694395400508029e+01) (6, 1.89556284959330811901e+00) (7, -4.01931496788679467613e+01) (8, 2.42508393527148014002e+00) (9, 1.98954824035159099083e+01) (0, -1.28890946507453918457e-02) (1, 3.60424655211784739084e-01) (2, -4.11392645935268308488e-01) (3, -2.10076145502613176319e+00) (4, -3.48721470153773926981e+00) (5, -5.27159928773694907989e+00) (6, -1.28152606107187883033e+00) (7, -3.14710858044052343985e+00) (8, -1.16524293605969025966e-01) (9, -1.22055644426073617304e+00) (0, 9.95130017399787902832e-02) (1, 2.70875175642234511386e-01) (2, -2.14417684709432232459e-01) (3, -3.70547821558252854501e+00) (4, -9.44829588176041346159e-01) (5, -4.10734584091617394019e-01) (6, -3.82274070563032253300e-01) (7, 4.27786417815978037282e+00) (8, -1.41953146286526193931e-01) (9, -7.74620358763087768494e-01) (0, 7.06446245312690734863e-02) (1, -8.32080026870587019516e-01) (2, 5.37970214453338479998e-01) (3, -4.39596828931973215848e-02) (4, -1.21044543158734183019e-01) (5, 2.38148118935730801482e+00) (6, 8.80186066235713493455e-01) (7, -1.36466323857339721926e+00) (8, 1.99652432721523043213e+00) (9, 1.92369046100973539737e+00) (0, -1.69676691293716430664e-02) (1, -1.05233365406443152290e-01) (2, -2.36506640173828703785e-03) (3, -6.19852513178489661350e-01) (4, -3.27535578480914135735e-01) (5, 2.31683744892160259354e-01) (6, -8.11240582370531954082e-02) (7, 3.16217884144250893641e-01) (8, 2.34614222947122003093e-01) (9, -1.87644322470893083754e-02) (0, -7.75298476219177246094e-03) (1, -4.08396435567540301570e-03) (2, -2.59379199685851984103e-02) (3, -1.26077826771505741021e+00) (4, -1.02937133594039931239e+00) (5, 2.03902003879856519308e-01) (6, -7.38987621973805963727e-01) (7, 5.52965572379467834585e-03) (8, 5.45461792259944733274e-01) (9, -1.44528299253173092564e-01) (0, 9.84213575720787048340e-02) (1, -3.89370663470338351786e+00) (2, 2.92164953523361026200e+00) (3, 8.47846689653654728147e+00) (4, 9.41767787604905537435e-01) (5, 5.57583541737324939191e+00) (6, 8.24355116692851441762e-01) (7, -1.91214399987378058654e+01) (8, 9.21737510510945412534e+00) (9, 9.50064790078861776124e+00) (0, 3.53404060006141662598e-02) (1, -1.17659094088518656473e-01) (2, -1.31328602110127867775e-02) (3, -3.01854863155194763635e+00) (4, 2.21869660516138544892e+00) (5, 4.92823742142541565414e+00) (6, -1.65448275025471408517e-02) (7, 3.94177009669957889582e-01) (8, -3.66853300930836345728e-01) (9, 1.66907313970293347261e-01) (0, 4.22859564423561096191e-02) (1, -8.02843977727803886912e-02) (2, 1.01013171279239269418e-01) (3, -6.70006915911363432059e+00) (4, 8.37670427690388663677e+00) (5, 1.54173272815075019793e+01) (6, 5.22209888147147083259e+00) (7, 2.76766751085278261968e+00) (8, 1.23677035913680533064e+00) (9, 3.53468538503341866974e-01) (0, 1.05059370398521423340e-02) (1, 1.49496261057847545928e+00) (2, -1.15765448680141869175e+00) (3, 4.73810437601101241967e+00) (4, -5.07530792208333281224e+00) (5, -4.00899187547366953055e+00) (6, -1.70712565860913940696e+01) (7, 1.32585754390613477227e+01) (8, -1.04635436603141829259e+00) (9, -3.59505188161191435725e+00) (0, 2.52997204661369323730e-02) (1, 1.78003803038616581489e+00) (2, -1.37947640395845194661e+00) (3, 7.39896748261678505187e-01) (4, 1.66304676516914495821e+00) (5, 3.53413397856487865312e+00) (6, -3.55899125968628549099e-01) (7, 9.29686390833433407010e+00) (8, 1.00672086544066914371e+01) (9, -4.53069803289935535417e+00) (0, 6.64770081639289855957e-02) (1, -1.32125972533198837028e-02) (2, 2.93205815422632812273e-02) (3, 2.27486054387132097254e-01) (4, 2.50941945478926620172e-01) (5, 5.23322074621014543538e-01) (6, 4.52564679964525595768e-01) (7, -5.14179668489937569120e-01) (8, -9.33872427652884112836e-02) (9, 7.49054287431150517262e-02) (0, -6.34009838104248046875e-02) (1, -1.48520769485604375859e+00) (2, 1.10146607502624838126e+00) (3, 3.58830332956043718262e-01) (4, -6.67649930885686027082e-01) (5, -9.69126230233376739776e-01) (6, 3.48438648045666876651e-01) (7, -2.02229599126952208632e-01) (8, 2.51950866363122194524e-01) (9, 3.92202300227897815432e+00) (0, 2.42437422275543212891e-03) (1, 1.78697616471970542606e-02) (2, -6.00414470296461930121e-02) (3, 2.93975642682644666692e+00) (4, -2.15640739824630633947e+00) (5, -4.53608311717708634347e+00) (6, 3.84753130306280555217e-01) (7, -6.63967053979936938646e-01) (8, -3.30480080690970165480e-02) (9, -2.91583837604942053279e-02) (0, 5.59928491711616516113e-02) (1, 3.43536311048710851779e-01) (2, -1.33658059803766771090e-01) (3, 1.23793531627653030647e+00) (4, -9.91528659199796158497e-01) (5, -2.72523049136874329079e+00) (6, -1.04989465399079176522e-01) (7, -4.52647984734077468705e-01) (8, 8.26389888881665313214e-01) (9, -7.11346480145973125708e-01) (0, 9.20946374535560607910e-02) (1, 6.00504337566401535931e-01) (2, -5.03340349582074964019e-01) (3, -4.11351105601350841567e+00) (4, -3.52031368389243093375e+00) (5, -7.75474718982326205463e+00) (6, -5.02408051246982889637e+00) (7, 8.32047555260441273894e-01) (8, -1.12344641101666731231e+00) (9, -1.51440800805261921447e+00) (0, 9.83421877026557922363e-02) (1, -1.36617906152546708665e-01) (2, 1.15521047986529056331e-03) (3, -2.83290088159120978517e+00) (4, 2.33896713743027362398e+00) (5, 5.44089798819608638780e+00) (6, 5.75450994798581971779e-01) (7, 2.50660373334986530391e-01) (8, -1.05226995001065559698e+00) (9, 1.77544552236808234058e-01) (0, 5.28696849942207336426e-02) (1, -2.52562887601102903368e-01) (2, 1.45201492780519525461e-01) (3, -2.74997445610224611201e+00) (4, 3.74523104695658215491e+00) (5, 8.40576620449702183180e+00) (6, 2.33556694148236543285e+00) (7, 1.31319693397261993972e+00) (8, 4.76447329726195245581e-01) (9, 6.39432742276760945899e-01) (0, 2.48736590147018432617e-02) (1, 5.17769716706298233078e-01) (2, -5.13912353684685130339e-01) (3, 4.30179442712370185831e+00) (4, -4.67686117106549303912e+00) (5, -8.60181715289140313985e+00) (6, -2.74115769601616987572e+00) (7, -3.43263112170853368355e-01) (8, -7.53778239753109091659e-01) (9, -1.43175624317642302685e+00) (0, 1.88730955123901367188e-02) (1, -6.30528424672423981612e-01) (2, 4.21099627011366717255e-01) (3, 2.65709592168798991452e+00) (4, 1.95654749868326627293e+00) (5, 1.06483430417405644519e+00) (6, 9.43149431105077429294e-01) (7, 1.32805493294895793355e+00) (8, 1.13286773718877586958e+00) (9, 1.66496248541008173838e+00) (0, -5.84186650812625885010e-02) (1, -7.33423048090614204675e-01) (2, 5.44241122030692525691e-01) (3, -3.56566601783857439756e+00) (4, 5.09606544615227718964e+00) (5, 1.06890567076225924126e+01) (6, 3.12569755060951859349e+00) (7, -7.87629453659395073473e-01) (8, 1.10455560519897644234e+00) (9, 1.72008690568849287317e+00) (0, -2.34706774353981018066e-02) (1, -1.48029589775717784761e+00) (2, 1.12680305446205331066e+00) (3, 1.03110456823202589760e+01) (4, 2.42892235816277324290e+00) (5, 4.18575321584553705634e+00) (6, -2.62843777781755028045e+00) (7, -1.99792353319255866495e+01) (8, -5.57824447490418012796e-02) (9, 3.84627936714320917133e+00) (0, 8.49171206355094909668e-02) (1, -5.30820820758117484228e-02) (2, -1.13172115085043142879e-01) (3, -1.00418460012759780398e+00) (4, -3.35231113126657376267e-01) (5, 5.34862851911160896989e-01) (6, -2.32883700608696203593e-01) (7, 2.40599402421510760730e-01) (8, 5.35016007488744227416e-01) (9, -1.51344155202148590578e-02) (0, 2.66441330313682556152e-02) (1, -1.50216892672738344672e+00) (2, 1.09753562557493267171e+00) (3, 3.63188581552471911884e-01) (4, -6.01096278997249600096e-01) (5, -1.36879233013741674618e+00) (6, 9.16737082401371639051e-01) (7, -7.87782612896620049181e-02) (8, 4.46380935265276501678e-01) (9, 3.96695933152070834282e+00) (0, 3.23217138648033142090e-02) (1, 1.80302047431386752718e-01) (2, -1.62398644686499449286e-01) (3, 2.46772592874830376530e+00) (4, 1.91589471754605922271e+00) (5, -3.33079687668068780138e-01) (6, 1.99981107584554984591e+00) (7, 3.49001146858221966696e+00) (8, -4.81094078098882105277e-01) (9, -7.06580083072311015968e-01) (0, -3.96624580025672912598e-02) (1, 2.16601316327281502583e-02) (2, -9.26266125735442924505e-02) (3, -3.20643869847628693037e+00) (4, 2.47818247230032051576e+00) (5, 5.31673393284348705379e+00) (6, 9.46847136228155528137e-02) (7, 4.70537466420525407607e-01) (8, -4.57207216046193909431e-01) (9, 5.61186194719341321924e-03) (0, -7.43529945611953735352e-02) (1, 5.38753335303610692009e-01) (2, -3.76958907302682388885e-01) (3, -1.87745117700191466170e+00) (4, -2.45356828846836361180e+00) (5, -3.20579573758979652354e+00) (6, -1.19718277722703403398e+00) (7, -2.15595641400716209191e+00) (8, -7.05614240967880834710e-01) (9, -1.52193403834066276481e+00) (0, 1.26756429672241210938e-02) (1, -9.09963254197284521219e-01) (2, 6.29824758740434420545e-01) (3, -5.16928074845831253548e-01) (4, -4.57716055881656425086e-01) (5, 8.12030698549684126775e-01) (6, 2.94722379727386935011e-02) (7, -1.33424935301478475580e+00) (8, -5.36745203873789433757e-01) (9, 2.11873314421370562144e+00) (0, 6.51074126362800598145e-02) (1, 1.49383401411200811282e+00) (2, -1.10619694022255932175e+00) (3, -3.52907076946665176909e-01) (4, 3.34603378154807395983e-01) (5, 7.89246282743030769247e-01) (6, -7.55720145423010025709e-01) (7, -9.82579819183448943676e-02) (8, -6.22309584921799552326e-01) (9, -3.67446960850311921121e+00) (0, -7.76769593358039855957e-02) (1, 2.80228858819306474170e-02) (2, -1.12608548673394995299e-01) (3, 3.03099318250502181016e-01) (4, -6.85059724501769995442e-01) (5, -1.71106250598832909660e+00) (6, 8.46583398159190148036e-01) (7, 3.01502190678279013980e+00) (8, 1.06592025672470525066e+00) (9, -2.04699649499400018748e-02) (0, -4.10560630261898040771e-02) (1, -1.12306469096553018794e+00) (2, 8.34511821447487256442e-01) (3, 1.07813221625772626133e+00) (4, 1.81016510940598812640e-01) (5, 3.45080382472408642158e+00) (6, 3.84190232099404616051e-01) (7, -2.69573084104809490569e+00) (8, 3.72851385285987513285e+00) (9, 3.12037912418166207829e+00) (0, 7.28949084877967834473e-02) (1, -2.26834516936390506725e-01) (2, 9.01619391246522294825e-02) (3, -1.28716161555608543665e+00) (4, 1.30639178777284525879e+00) (5, 3.59089296304783367475e+00) (6, -9.04173897355511485552e-02) (7, 7.19459760438655226977e-01) (8, -8.84234651671810811813e-01) (9, 3.63353786899899611207e-01) (0, 8.46961811184883117676e-02) (1, 1.51102658314027116226e+00) (2, -1.18688865156938061496e+00) (3, -4.04984617869553198410e-01) (4, 2.40603002950160377305e-01) (5, 7.31796545467281234210e-01) (6, -7.82039276343619027543e-01) (7, 4.90747048783171744418e-03) (8, -6.38191525529286818319e-01) (9, -3.67523433522807829732e+00) (0, -2.23879218101501464844e-02) (1, -7.40405489437468200542e-01) (2, 5.86905638263651829867e-01) (3, 2.28448284525952116653e+00) (4, 2.02356295593907775654e+00) (5, 1.14598170860788162173e+00) (6, 9.40965805655734732760e-01) (7, 1.39849678327663262678e+00) (8, 1.12873103541741648392e+00) (9, 1.66970917379599859132e+00) (0, 3.32364365458488464355e-02) (1, 1.03393721653071701816e+00) (2, -8.49275250532328218611e-01) (3, -5.99950118471406224074e+00) (4, -3.94628393143797362441e+00) (5, -6.56805570553364148623e+00) (6, -2.89036230361163415381e+00) (7, 3.10120795638779300774e+00) (8, -1.68616075945313870221e+00) (9, -2.49757209601539420518e+00) (0, -9.65380743145942687988e-02) (1, 3.20264954272508584054e+00) (2, -2.46397335382860527275e+00) (3, -1.53424436808831945456e+01) (4, -3.05526853615405746822e+00) (5, -2.92108292420260662325e+00) (6, -7.08782828875763715182e-01) (7, 2.12371720404038057950e+01) (8, 1.55261859624405462732e+00) (9, -8.24633374818870734657e+00) (0, 3.98781150579452514648e-03) (1, 1.62522146145824220032e-01) (2, -8.40853762178978836328e-02) (3, -4.30536708885571783867e+00) (4, -2.55818618888228854757e+00) (5, -3.66162315534682392126e+00) (6, 1.56009048571408581729e+00) (7, 9.80805382417863924616e+00) (8, 4.42497856757974594721e-01) (9, -1.30107220362657011181e-01) (0, -1.49149745702743530273e-02) (1, -8.90776511866522646699e+00) (2, 6.70268087529053602225e+00) (3, -4.38737309153311816345e+00) (4, -6.92961325918878157104e-01) (5, -2.36393361193447368862e+01) (6, -9.89595994862156835836e+00) (7, -5.70766065808225704359e+01) (8, 7.57832434683228597927e-03) (9, 2.24621734988667043353e+01) (0, -6.80733174085617065430e-02) (1, -2.31433353861811769159e-01) (2, 1.24330978498415567479e-01) (3, 1.11527886613544713335e+00) (4, 4.33826662832276666038e-01) (5, 1.13542257620362141424e+00) (6, 2.27753684523354404945e+00) (7, -5.25026487832622734686e-01) (8, 8.18247396275349703210e-01) (9, 7.88713126233716144142e-01) (0, -7.28242844343185424805e-02) (1, -4.00956508494911378904e-01) (2, 3.63398925942752304419e-01) (3, -5.30323817641436967563e+00) (4, 6.82496785287534279973e+00) (5, 1.23358788899607638712e+01) (6, 3.97553030906430171498e+00) (7, 7.40751191809778553043e-01) (8, 1.28580759124100474367e+00) (9, 1.04854423547049213639e+00) (0, 8.39424803853034973145e-02) (1, -1.29185227192596414625e+01) (2, 9.65143457892294698297e+00) (3, 1.01795738409098408539e+01) (4, -9.51577584774761930930e+00) (5, -9.34246116519748426299e+00) (6, 3.04009198303932359764e-01) (7, -5.97483126219782718636e+01) (8, 2.19792581314753743271e+00) (9, 3.20538011993410947298e+01) (0, -7.50446990132331848145e-02) (1, -1.07577433594148300089e-01) (2, 8.86918663285998359891e-02) (3, -1.24660486197850524093e+01) (4, 6.61104235300450060464e+00) (5, 1.60166425630939670555e+01) (6, 4.07351198988273477397e+00) (7, 1.40742482186744233275e+01) (8, 1.57566487621229578409e+00) (9, 4.73294714855173270784e-01) (0, -9.10625681281089782715e-02) (1, 7.59045469107591408431e-01) (2, -5.48106040688901119395e-01) (3, 8.24806721624259941983e-01) (4, 4.74999460597178499444e-02) (5, -1.45819982938680947626e+00) (6, -7.40294587128293990475e-01) (7, 1.15799848873657951209e+00) (8, 5.07020886890373723155e-01) (9, -1.94285526336111735723e+00) (0, 3.05554643273353576660e-02) (1, -1.51077499376879043069e+00) (2, 1.19014842537785758836e+00) (3, 4.38955545868565166767e-01) (4, -2.07913851204670624417e-01) (5, -8.76855106407094853083e-01) (6, 1.22071610728989821126e+00) (7, -8.34477713671490650693e-02) (8, 6.89908879527086349448e-01) (9, 3.77384308320737504872e+00) (0, -9.61174294352531433105e-02) (1, 7.18355686171158414055e-01) (2, -4.78295872511798225712e-01) (3, -1.95512408500046674931e+00) (4, -2.48911447494318727180e+00) (5, -1.67076533516954861547e+00) (6, -1.10975367847885264538e+00) (7, -1.75214429543890060081e+00) (8, -1.36241279452335883882e+00) (9, -1.67810869763992420722e+00) (0, 5.22685870528221130371e-02) (1, 3.49862126208053791920e-01) (2, -2.43013355096148409018e-01) (3, -4.03016516275345804132e+00) (4, -9.62618404705596009130e-01) (5, -7.81696203973219705397e-01) (6, -2.12842589374608759378e-01) (7, 4.74886266177198024252e+00) (8, -8.36033223670369918246e-02) (9, -9.76397722826635616755e-01) (0, -5.87105266749858856201e-02) (1, 1.01567325457571425162e-01) (2, 8.85047540331247301060e-02) (3, -4.14673384909643250040e+00) (4, -2.90648340666653748343e+00) (5, -3.52229048917931386598e+00) (6, 1.68585245233868863401e+00) (7, 9.75512191975258069476e+00) (8, 5.08978694045394419732e-01) (9, -1.16210271825948785462e-01) (0, 5.23178800940513610840e-02) (1, 5.25156498633180035540e-01) (2, -3.54202932254267244261e-01) (3, -1.94025949367369454635e+00) (4, 